2000 100
392 -0.10019693 0.4655102 0.076347545 -0.2756245 -0.48548764 -0.30230394 -0.5019846 0.015370618 0.19624387 0.31173584 0.008590058 0.030272352 -0.06676773 -0.024998026 0.24747033 -0.076679096 0.08733981 0.0074486793 -0.021095462 0.075146325 -0.008356022 -0.25661546 0.18763447 -0.11945638 0.27107632 0.3482532 -0.19480479 -0.0013277051 0.013238068 -0.008043565 0.4531916 -0.021783562 0.24473538 0.28623173 0.19490203 -0.23723811 0.46967468 -0.37617618 -0.5591057 -0.34581786 -0.0611314 -0.104608476 0.20464793 -0.17277993 -0.32614917 0.20755583 -0.12491152 0.23010108 0.017870072 0.10820918 0.012914263 -0.12887271 -0.2804194 0.31996077 -0.24952407 0.34040505 -0.36281148 -0.008804614 0.20920622 0.15298584 -0.0778687 0.19957602 -0.08486345 -0.33326373 -0.26260227 0.23149946 0.1381774 0.2599509 0.060618035 -0.1988587 -0.07990227 -0.40893248 -0.16668135 0.09328456 0.0886274 -0.14118937 -0.19912447 -0.41814 0.27739143 -0.12915438 0.2102496 0.0008512946 -0.28633195 0.07612894 0.08008213 0.42015088 -0.15318257 0.21465681 -0.34692213 -0.058358498 0.1938691 0.08208412 -0.26033112 0.08397445 -0.036906652 -0.39877746 -0.6341051 -0.15808628 0.07420087 -0.006577008
127 0.008470033 0.28249982 0.12195223 -0.14673704 -0.59620094 -0.11271683 -0.36840588 -0.37068877 0.37273377 0.36733148 -0.053845927 -0.09398112 -0.10512688 0.07883007 0.19940042 0.045634046 0.19411345 -0.030099636 -0.04114123 0.082231924 -0.2339942 -0.17421912 0.22956617 -0.28148386 0.30754817 0.2329968 0.00041400566 0.31200558 0.018846836 -0.10016262 0.49220568 -0.17669956 0.25282103 0.374027 0.11164673 -0.1464399 0.33002472 -0.27454114 -0.47517478 -0.16666216 -0.26003492 -0.26914597 0.041601505 -0.31605896 -0.5178368 0.1906487 -0.10363283 0.1048694 0.18910833 -0.10789027 -0.026457442 -0.08787389 -0.17748523 0.20998842 -0.36200532 0.1877052 -0.39846954 -0.082350925 0.36624983 0.2752024 -0.30296806 -0.013584187 -0.09022577 -0.27878177 -0.34108827 0.3079768 0.2500004 0.28593493 0.0823324 -0.08147503 -0.18118766 -0.4583281 -0.061627276 -0.21544088 -0.0009268112 -0.0068511497 -0.3834746 -0.029476468 0.34206226 -0.016282741 0.19904034 -0.033176135 -0.15568867 0.17092964 0.27399728 0.4717672 -0.02478787 0.18954478 -0.07234866 -0.08710814 -0.03486292 -0.07368312 -0.26917353 0.12597801 -0.016247354 -0.28771824 -0.61347616 -0.24763308 -0.19307163 0.20636827
958 0.07566501 0.33852062 0.15935527 -0.3579069 -0.39056563 -0.09189007 -0.43698293 -0.13790415 0.34634057 0.3372566 0.07933826 -0.085702375 -0.11917201 -0.28050736 0.48544148 -0.11692589 0.28195167 -0.11204817 0.07531205 -0.120714016 0.027351128 -0.121010035 0.3678314 -0.1768016 0.1868795 0.249104 0.05768295 -0.053337313 -0.028217636 -0.20050924 0.34554812 -0.103085324 0.2623236 0.21972519 0.07279422 -0.24753839 0.20843321 -0.029772455 -0.49306238 -0.14880687 0.04994212 -0.12606585 0.22833087 -0.12652993 -0.32783672 0.2322918 0.24970692 -0.008257618 0.26611632 0.12721504 0.1943892 0.05714953 -0.28224987 0.13249896 -0.11907123 0.37210235 -0.32134655 -0.3411966 0.18139286 0.18715417 -0.18897994 0.2636616 -0.06517102 -0.15079954 -0.50071937 0.11552129 0.18634748 0.27749512 0.15894735 0.051950917 -0.07261047 -0.4451414 -0.2305344 -0.34160224 -0.0049575535 -0.08820377 -0.26701254 -0.29011115 0.23499818 -0.13453719 0.2756573 0.021881057 -0.19917065 -0.017764203 -0.1404454 0.40221384 -0.17891692 0.16110912 -0.1611266 -0.058162734 0.1983778 -0.22176652 -0.11331226 0.37842658 0.08141035 -0.2694918 -0.20880814 -0.24242884 -0.112618715 0.23174268
1112 -0.1717579 -0.34092498 -0.087294556 -0.057541057 0.45678127 0.32390735 0.09341148 -0.07102736 -0.23940296 -0.39100787 0.28230995 -0.09306055 0.10195512 0.34287184 -0.3007777 -0.016554777 -0.14898358 -0.28911853 -0.124079734 0.152613 0.25735706 0.1769236 -0.24877596 0.052546024 -0.36530453 -0.18889403 -0.036465645 -0.08526182 0.13204432 -0.0025980405 -0.22374132 -0.008209535 -0.02435938 -0.32465538 -0.15398523 0.4220346 -0.27400494 0.09309166 0.5374291 0.3861413 0.22039026 0.19855534 -0.08610704 0.19532833 0.29708138 0.03882238 -0.10591143 0.032688893 -0.23729697 0.14680803 -0.020413088 -0.093243755 0.16885082 -0.29144633 0.2350691 -0.54464424 0.12585436 0.096149325 -0.2296395 -0.45725545 0.2676433 -0.21876417 0.04879935 0.033719484 0.5211653 -0.1924111 0.1365632 -0.37143198 -0.09303526 0.08559072 -0.08572278 0.1047923 0.19873504 0.016581124 -0.08988687 0.16738333 0.24756582 0.3054672 -0.12516092 0.054789763 0.014259862 -0.2716117 0.26911378 -0.10285786 -0.030483276 -0.2463823 0.381851 0.022204299 0.1425627 0.018954897 0.13429683 -0.14513241 0.24533351 -0.23286474 -0.09910884 0.4096449 0.36000186 0.03448436 0.114333615 -0.22835454
1898 -0.18990003 -0.58428484 -0.053363487 0.13901043 0.53145546 0.14944778 0.32256228 -0.09216456 -0.36452907 -0.48408517 0.20439638 0.12837756 0.16997913 0.26416504 -0.25017127 0.041747198 -0.08687613 -0.33396983 -0.21403426 0.06255207 0.15843447 0.07248088 -0.34424046 0.12924567 -0.3266972 -0.24084027 -0.06257322 -0.11035757 0.08075506 0.14708556 -0.3623845 -0.1822367 -0.32991406 -0.42230076 -0.02662482 0.1572072 -0.4999916 0.23816502 0.6234455 0.21433063 0.3426934 0.5607991 -0.42142266 0.016863344 0.65974945 -0.4270702 -0.1900678 0.080594614 -0.38318807 0.088407 -0.0041776528 -0.17537355 0.09053837 -0.11903099 0.31569123 -0.28211015 0.06211516 0.1560705 -0.33335862 -0.45826092 0.1968997 -0.059688784 -0.24152336 0.16259676 0.48301443 -0.076591894 -0.0979399 -0.35466462 0.08038796 0.005187881 0.011061933 0.20445 0.0804802 -0.21821915 -0.03559863 -0.049757794 0.09796113 0.28357515 -0.07544418 0.43037948 -0.4736638 -0.022072861 0.35582963 0.15904973 0.109940976 -0.45699543 0.36100715 -0.056691695 0.4394014 0.23088463 0.17245467 -0.07366799 0.16137373 0.09672623 0.1489928 0.41128084 0.43112412 0.22280139 0.24176405 -0.030782249
1767 -0.0975067 0.08732234 0.24914233 -0.059465077 -0.49638253 -0.22924484 -0.2819939 0.009980372 0.32049024 0.30995232 0.071564086 -0.23923488 0.08317563 0.0021534297 0.2651123 -0.081532225 0.1598387 -0.2817112 -0.15262675 -0.14295611 -0.06897615 0.1266823 0.42961803 0.038808398 0.26842803 0.066678196 -0.39169097 0.07798753 -0.1150623 -0.2252806 0.13425878 -0.36505187 0.30991313 0.38616073 0.12797354 -0.33039185 0.43400455 -0.18824817 -0.4332443 -0.1780534 0.09528111 0.12905218 0.07530017 -0.42448238 -0.24172051 -0.14472567 0.21882597 -0.15394108 0.25928774 -0.06754674 0.34226406 0.097067066 -0.10934441 0.29468763 -0.17268102 0.4548578 -0.3614137 -0.109305166 -0.0017965953 0.10693976 -0.08014692 0.22262754 -0.12638138 0.07360306 -0.37180224 0.14416699 0.10199168 0.33883435 -0.019932555 -0.11076765 -0.18593176 -0.4973788 -0.02624195 -0.08518 -0.0031501045 -0.267805 -0.15498304 -0.20718667 0.2418911 -0.2677972 -0.3329993 0.13781257 -0.2496074 0.08833151 0.015492707 0.39467043 -0.24946399 0.13111725 -0.11494611 0.10427047 -0.3274818 -0.22441761 -0.1282171 0.5798952 0.0476802 -0.40267158 -0.24063757 -0.13160585 -0.21134531 0.25671262
1424 -0.043243106 0.07576307 0.020196756 -0.25409412 -0.57428366 -0.14426014 -0.25005418 0.044891328 0.38268954 0.2746865 -0.14528221 -0.30634034 -0.02805707 -0.3819639 0.22336446 -0.07226611 0.38434407 0.22343281 -0.08680586 0.042795137 -0.038394723 0.040080972 0.17431186 -0.14447713 0.35960892 0.07777073 -0.1185513 0.34804168 0.0027415692 -0.2738775 0.371805 -0.3479244 0.11272025 0.3189051 0.17496562 -0.30540547 0.38597736 0.25084633 -0.34154525 -0.24289836 0.019413086 -0.0303232 0.079692446 -0.32081604 -0.15858497 -0.07617097 -0.01203888 -0.19616239 0.23705943 0.19921257 -0.015988275 -0.0014089039 0.0016326805 0.23594521 -0.3538919 0.13096926 -0.21084656 -0.2571096 0.08109364 0.23233035 -0.2716506 0.17762078 -0.029997407 -0.30668488 -0.3025151 0.16622336 0.16342378 0.4158084 0.25172257 -0.13681953 -0.19359243 -0.49154502 -0.35543957 -0.10127708 0.083196335 -0.1759972 -0.29474455 -0.3526801 0.2979655 -0.26232886 -0.09282244 0.06358989 -0.4224555 0.3429012 0.090055466 0.40162182 -0.22300127 0.25399804 -0.09865223 0.03662582 -0.036582623 -0.1873803 -0.09506551 0.39130446 0.14066556 -0.4004097 -0.3970834 -0.40018898 0.017615294 0.064971186
1188 -0.3150839 -0.3058005 -0.093663044 -0.025859948 0.6293677 0.07373121 0.15673949 0.1918465 -0.20780285 -0.21349937 0.3624555 -0.0807802 0.038602684 0.200321 -0.45320815 0.10273079 -0.102874026 -0.34100518 -0.11672748 0.23731364 0.44025776 0.060971476 -0.4539845 0.17061032 -0.40133014 0.005024263 -0.039397027 -0.035912395 0.090027064 0.22499284 -0.2870206 -0.078637354 -0.13581768 -0.46396548 0.08710242 0.2671326 -0.34274513 0.1439657 0.39781153 0.21445869 0.021430679 0.38939053 -0.23848876 0.22193001 0.12317157 -0.039673854 -0.021028528 0.0077927248 -0.33000416 -0.215976 -0.27139193 0.044161033 0.30092892 -0.43569672 0.04702633 -0.5725824 0.058261946 0.049638122 -0.31249323 -0.33811694 0.017560368 -0.018880062 0.11029453 0.14399217 0.32682142 -0.18415764 0.06111131 -0.5268118 -0.081205785 0.10885472 0.19190463 0.1360657 0.123633794 0.10976776 -0.06705851 0.2060726 0.2972436 0.46411324 -0.06809187 0.2504293 -0.053267743 -0.2769079 0.27097732 -0.15532103 0.022918453 -0.44273433 0.43477705 0.05326384 0.37316287 -0.004064774 0.26570654 0.003147865 0.2140903 -0.2936166 0.027778676 0.38250944 0.34367558 -0.055054784 0.319593 0.08047098
417 0.20723577 0.15353116 0.059595622 -0.35148323 -0.5247977 -0.22510709 -0.5034807 -0.07985459 0.32057238 0.4537947 0.11416983 -0.2171056 -0.09568306 -0.18412058 0.5160098 0.056593042 0.33880335 0.17786084 -0.035756815 0.23831454 -0.134672 -0.2158975 0.25657877 -0.19717056 0.20458516 0.24197829 -0.23699275 -0.071823 -0.16002019 -0.14424138 0.47649422 0.10195047 0.5032068 0.3714238 0.2456821 -0.1731719 0.4662489 -0.2687631 -0.49252853 -0.31868696 -0.18422268 -0.117051065 0.16427414 -0.17228194 -0.3115823 0.03848842 0.29720926 -0.11899955 0.22518857 -0.1340508 0.018802725 0.010451327 -0.21485424 0.46128815 -0.32179776 0.28936425 -0.076150976 -0.24397415 0.07262397 0.26532236 0.032996137 0.11770568 0.061047368 -0.2694553 -0.25565112 0.11663437 0.079442956 0.0052705975 0.06624983 -0.1645165 0.05248269 -0.44396248 -0.30053553 -0.009971743 0.18783672 -0.28556627 -0.30754966 0.06310196 0.21214007 -0.1397583 0.07554038 0.18134789 -0.52926165 0.099670105 -0.031017544 0.2965787 0.008617992 0.1876937 -0.30244803 -0.15103957 0.18620692 -0.15085456 -0.15465301 0.1930126 -0.20182268 -0.05870495 -0.62584203 -0.21831028 -0.17341045 0.07526898
39 -0.1410114 0.19968723 0.0037773156 -0.3926574 -0.47920516 -0.24256042 -0.3270951 -0.1474297 0.14510015 0.43478602 0.07344848 -0.26710176 -0.19838713 -0.16003981 0.2905826 -0.10380565 0.19897246 0.037381385 -0.05456128 0.16090658 -0.09017685 -0.4960722 0.13720989 -0.36494365 0.041709416 0.3362584 0.14183386 0.19136623 -0.07151456 -0.02783364 0.32590124 0.18758692 0.14150578 0.5422275 0.19651423 0.15205204 0.32570118 -0.16966552 -0.35598138 -0.32207394 -0.22841963 -0.2594135 0.009141192 -0.29548353 -0.4022392 0.24168341 -0.11913716 0.06184713 0.32383734 -0.05216281 -0.115988806 -0.008437172 -0.12249174 0.5199076 -0.41068056 0.4362316 -0.25533423 0.053485155 0.45509684 0.32000518 -0.08229505 0.02252932 0.047228426 -0.19761702 -0.40768236 0.3901335 0.25061965 0.3824334 0.072471246 -0.2511345 0.15267119 -0.35419634 -0.2966951 -0.11300032 -0.12513952 -0.16181348 -0.31572306 -0.010990549 0.4352884 -0.25956696 0.11978127 0.02948686 -0.26038432 0.06960436 0.025845494 0.27667287 -0.12996584 0.1333283 -0.2817516 0.009191007 -0.036024597 0.0069554653 -0.2585381 0.30625296 -0.0887303 -0.18718739 -0.6022784 -0.07605926 -0.1673563 0.28407347
1095 -0.0016713461 0.27235493 0.02096978 -0.35350248 -0.47851446 -0.17341283 -0.43124944 -0.24562922 0.35711598 0.37160468 0.15227845 -0.2503098 0.013269743 -0.11373584 0.3030568 -0.16166802 0.16928533 -0.16407222 -0.19671232 0.057336677 -0.10160752 -0.026196754 0.37233645 -0.37915903 0.22604695 0.12961219 -0.17445846 0.1062741 0.015077732 -0.20858668 0.32428744 -0.03501891 0.292329 0.28676805 0.14936195 -0.2964211 0.34737772 0.070526175 -0.5770615 0.14236948 0.018278318 -0.015729142 0.16416119 -0.087882265 0.037683077 0.11377716 0.11869415 -0.06737738 0.4701376 -0.0038565977 0.10580933 0.093329675 -0.053823467 0.25682402 -0.22800477 0.41507894 -0.25571808 -0.16947076 0.18461204 0.33569303 -0.06646477 0.23617254 0.08408594 -0.23179933 -0.57269263 -0.1297069 0.16354671 0.1859133 0.005745852 -0.25897676 0.1372585 -0.35937464 -0.06110205 -0.09054425 -0.1302285 0.017961027 -0.26458955 -0.2793289 0.13202342 -0.20925373 0.24252805 -0.07685393 -0.23727205 0.15002215 -0.23746282 0.32737434 -0.27856332 0.24583687 -0.16492654 -0.051173184 -0.03599164 -0.12929651 -0.44779512 0.45611343 0.16335484 -0.3714895 -0.22135031 -0.18458457 0.009380948 0.1032943
1946 -0.3948851 -0.62619853 0.034826078 0.20899388 0.5308194 -0.1945134 0.15759668 -0.011568294 -0.7339107 -0.31017804 0.18336193 -0.056977574 0.25685194 -0.022847826 -0.37060112 -0.069733925 -0.41952634 -0.22998807 -0.039021425 0.086538866 0.16450061 0.2489799 -0.3320784 0.13683465 -0.18366572 -0.40997443 -0.24790873 -0.28734425 0.2145877 -0.07148138 -0.2377137 0.023673333 -0.5021708 -0.34001377 -0.1123378 0.35674718 -0.26467997 0.24578765 0.8817133 0.4982312 0.4032893 0.5322521 -0.18686691 0.23210272 0.41444936 -0.33828813 -0.0791564 -0.166108 -0.37279314 0.10499781 -0.21788757 -0.08112583 0.21404065 -0.21735261 0.2884581 -0.52083004 0.5514002 0.22999671 -0.56881326 -0.18009062 0.37918174 -0.014642838 -0.18146428 0.19558066 0.20332469 -0.18818492 -0.34064195 -0.6580705 -0.34623894 0.2425324 -0.45215333 0.5133748 0.08115695 -0.2279279 -0.11660685 -0.23942596 -0.06451298 -0.0013872136 -0.45964968 0.39628816 -0.049070958 -0.26389802 -0.3034893 0.027472839 -0.03289003 -0.4803971 0.22788599 -0.42842463 0.05904748 0.022518827 0.21360534 -0.16268246 0.26662096 -0.043151762 -0.20904712 0.49633956 0.43104777 0.44130698 0.24345501 -0.24152848
556 0.13292296 0.26657963 -0.03409315 -0.23945789 -0.60530543 -0.12276303 -0.23697795 -0.086682715 0.30446643 0.28847414 -0.11490378 -0.31291756 -0.044881064 -0.010682413 0.21388894 -0.053982414 0.24215415 -0.04052663 0.1043712 0.17807092 0.113564186 -0.27042046 0.1517485 -0.004208331 0.34725863 0.24648908 -0.020402843 0.15861982 0.0056110434 -0.13842759 0.49003989 0.06238278 0.12604086 0.46612686 0.14000933 -0.17536175 0.22390637 0.0063602217 -0.60713613 -0.23430206 -0.22332667 -0.081837855 0.15234394 -0.1577454 -0.37869525 0.009910263 -0.036095113 0.06625554 0.13799416 -0.17063232 0.11908934 0.010307035 -0.2129952 0.36112002 -0.40829065 0.31585455 -0.26530752 -0.031061506 0.2327333 0.058194786 -0.22897415 -0.11014832 -0.19343098 -0.2588072 -0.23333855 0.21148029 0.0126679335 0.44785106 -0.040806882 -0.12615103 -0.08622377 -0.4891317 -0.117229775 -0.17018546 -0.01462933 -0.053144522 -0.1291344 -0.22252208 0.30183607 -0.1749226 0.17674743 0.060551766 -0.36766076 0.056341685 0.11502738 0.34247467 -0.038309608 -0.04180212 -0.04562833 -0.22787187 0.094642594 0.033016622 -0.28002748 0.52014506 0.022646626 -0.4001553 -0.3992766 -0.37682298 -0.04503962 0.16709934
752 -0.16467488 -0.18309832 -0.16543089 0.2619053 0.29826468 0.19318923 0.15744334 -0.1620365 -0.43527016 -0.28836712 0.4833257 -0.041766904 0.115770616 0.38404784 -0.40183505 0.024197126 -0.18050049 -0.066958874 -0.121242076 0.12619777 0.3742447 -0.034890935 -0.52437156 0.23971277 -0.3444144 -0.17713432 0.3644591 -0.28454456 0.44723806 -0.0066709905 -0.053411357 0.104490206 -0.3986162 -0.37487364 0.09462026 0.18596622 -0.21416485 0.32524574 0.41995552 0.1482424 0.077051826 0.39034384 -0.4106314 0.2154389 0.13409323 -0.117845386 -0.38740453 -0.08749608 -0.5529927 -0.19675714 -0.14049971 0.025528034 0.3489674 -0.17812237 0.37948245 -0.45096236 -0.06553367 0.266582 -0.22446367 -0.23612957 -0.08594341 -0.2317661 0.3142129 0.16843899 0.52478915 0.027992314 -0.15606155 -0.40677506 -0.06203241 0.19303022 0.07377241 0.1896002 0.12805004 0.013407748 0.0052122017 0.4134279 0.41894174 0.52568966 0.05402975 -0.029228391 -0.010166722 -0.017824788 0.38829684 -0.26035258 -0.06450481 -0.29416633 0.35702524 0.16405179 -0.06138469 -0.19072683 0.2583624 -0.0518031 0.20453365 -0.41585392 -0.092145085 0.3915772 0.31364438 -0.0013220077 0.08642667 -0.36559862
1570 -0.43325865 -0.4505108 -0.04038174 -0.11084954 0.37569663 0.24351124 0.18522212 0.21031466 -0.46788782 -0.3030993 0.19300622 -0.008859205 0.15964304 0.17246169 -0.39651144 0.14491017 -0.11035666 0.11880084 -0.038414165 -0.048477586 0.28828475 0.07569431 -0.23014279 0.25189152 -0.4090427 -0.06443342 0.19627549 -0.0069549857 0.39869952 0.13774034 -0.3404555 -0.031252425 -0.11773663 -0.47045356 0.012318442 0.33031106 -0.34679303 0.24246946 0.5456555 0.2278156 0.5078502 0.49889377 -0.1911997 0.24966206 0.4541506 -0.26921043 -0.04057241 -0.06253606 -0.19997838 0.30000666 -0.20771526 0.026170654 0.38067958 -0.17935449 0.5577457 -0.42500713 0.056588527 -0.20579626 -0.5335721 -0.16417105 0.14003254 -0.24695124 0.016238244 0.29593962 0.4671694 -0.40058094 0.21511509 -0.63809806 0.017256595 0.32813182 -0.18293494 0.215286 -0.037199575 0.15756527 -0.029184448 0.4179738 0.18092115 0.1501901 -0.32901114 0.16751276 -0.32708284 -0.048659027 0.16696207 0.27103132 0.086201936 -0.6310795 0.3718598 -0.19929229 0.10846484 0.047670178 0.13101885 -0.4129978 0.084356055 -0.40205768 0.117803186 0.24135548 0.29017773 0.040891968 0.22406042 -0.23843582
1243 -0.26494157 -0.35322192 -0.08262342 -0.0025668577 0.3305297 0.17309651 0.27564383 0.07820969 -0.2933029 -0.20797399 0.29900134 0.12026263 0.101844564 0.18078496 -0.36236984 0.08566188 0.0019880347 -0.17407143 0.07108505 0.29975778 0.18521175 -0.1344092 -0.22077394 0.113652274 -0.25421274 -0.14349346 0.10487487 -0.21711576 0.21699567 0.12071567 -0.31915492 0.09144974 -0.44027838 -0.374114 -0.0985607 0.27762538 -0.4530881 0.009107839 0.21919365 0.13249941 0.09926211 0.09912288 -0.08268124 0.23611292 0.31048408 -0.19752564 -0.16530369 0.03335716 -0.21251869 -0.035472933 0.08776342 -0.048660915 0.454306 -0.28872004 0.3912591 -0.6503366 0.060049355 0.05339784 -0.36376935 -0.3563179 -0.15346466 -0.24958794 -0.09374141 0.09780274 0.4960862 -0.16334544 0.035637155 -0.33695078 -0.15692747 0.060790386 0.09951827 0.25099033 0.09346281 -0.058640335 0.004380858 0.40801227 0.22035734 0.36779192 -0.40343627 0.29927176 -0.2098978 0.009526043 0.47068605 -0.05984399 -0.020867366 -0.24894543 0.36969748 0.08838801 0.1999245 0.01089077 0.4147441 0.1062208 0.49161848 -0.060292765 0.07099075 0.20510627 0.34448898 -0.084289044 0.12909986 -0.20940617
1813 0.15354925 0.1554985 0.2226033 -0.1906597 -0.5097158 0.107833415 -0.1971164 0.09045957 0.38770956 0.08334284 -0.20344295 -0.09578577 0.12962838 -0.100564376 0.07707169 -0.071020454 0.012685402 0.08494518 0.07674136 0.051550694 0.12227137 -0.16958208 0.4724438 0.11226385 0.26657185 0.2584487 -0.08766193 0.017881611 -0.22939467 -0.47083604 0.3263952 -0.42601278 -0.040338606 0.32727012 0.25190216 -0.3607025 0.49216002 0.16600665 -0.5246866 -0.09086407 0.0019477275 -0.016294667 0.27846944 -0.24948592 0.043194063 -0.08291598 0.19793314 -0.2610107 0.17421603 0.028419338 0.3456785 0.07696722 -0.035880495 0.4951917 -0.37646207 0.6356765 -0.4347879 -0.05025821 -0.08975206 0.30415803 -0.15577409 0.21313633 -0.3227446 0.24354814 -0.37237126 0.018076196 0.05412516 0.15593398 0.11546193 0.0661562 0.047859333 -0.57508886 -0.23526748 0.010911967 0.121852234 -0.42086196 -0.08894264 -0.4403483 0.24514407 -0.14667341 0.003373546 0.07534464 -0.33761722 0.032117326 0.16752747 0.34066185 -0.3781047 0.33003962 -0.109911464 0.35781083 -0.31033495 0.21734415 -0.20301999 0.60297745 -0.113153726 -0.09819126 -0.29756093 -0.122428946 -0.102427 0.32731405
848 -0.27754405 -0.4690928 -0.22382483 0.075360306 0.20713064 0.09159156 0.28525078 -0.10341109 0.03820658 -0.2918527 0.17287624 -0.011790769 -0.014014781 0.39277533 -0.44411436 0.1174319 -0.11000273 -0.22092222 -0.17985547 0.2420961 0.1683787 0.32739955 -0.49832326 0.17263038 -0.25737035 -0.13803904 -0.0076911207 -0.022515986 0.13481629 0.016369138 -0.3980563 -0.050335634 -0.53367555 -0.49072975 -0.08549163 0.6685142 -0.18584806 0.038340934 0.2857903 0.2632857 0.11765429 0.11634561 -0.14626104 0.3783906 0.18439618 -0.05695211 -0.24979633 0.31936333 -0.17554192 0.04628869 -0.16179338 -0.18045047 -0.016356824 -0.35367513 0.33925137 -0.49694735 0.17009975 -0.12827839 -0.25226748 -0.28169942 0.17811608 -0.06955876 0.45460486 0.0447687 0.42749622 -0.42599425 -0.10494515 -0.3635341 -0.053512685 0.19551162 0.16789526 0.13294873 0.11678858 0.17541605 -0.046269383 0.20904516 0.3257533 0.5364096 -0.0818233 0.39669925 -0.122199796 -0.17492042 0.03206447 0.23648866 0.05624129 -0.27187154 0.2959711 -0.017628117 -0.14918065 -0.07770743 0.5906145 0.059864294 0.21181318 -0.2620455 -0.182974 0.2236138 0.29917368 0.16699754 0.39552867 -0.25885546
54 0.16076337 0.25825724 0.012267663 -0.18638806 -0.48816258 -0.20024236 -0.35975283 -0.029973267 0.1603547 0.44539768 -0.23496835 -0.12503979 -0.00941956 0.08899564 0.39973548 -0.28314218 0.05991924 0.1379418 0.11962846 0.05113589 -0.26427165 -0.29046026 0.32909167 -0.20256978 0.23694706 0.19769636 -0.020691028 0.08430563 -0.0008306468 0.014052602 0.3046183 -0.021748228 0.33297944 0.20965537 0.12442938 -0.12085671 0.31516108 -0.23770477 -0.3411976 0.043962896 -0.12178948 -0.12916608 0.17642839 -0.2871344 -0.41781396 0.31489864 0.048009362 0.0036884723 0.16551901 0.034334715 0.082252875 0.071812406 -0.105203114 0.29754165 -0.28071102 0.42197654 -0.28929234 -0.09551064 0.35589454 0.16891624 -0.1933856 0.023123605 -0.100341775 -0.19470361 -0.55251586 0.12678768 0.33577082 0.11757715 0.060306985 -0.10103057 -0.004248951 -0.46797368 -0.09145096 0.19674726 -0.17701407 -0.059218735 -0.15944096 -0.1864669 0.3604258 -0.27819937 0.061119992 -0.01707739 -0.20113027 0.007969377 0.11843685 0.38581693 0.050192136 0.13509552 -0.16249622 0.031849205 0.11243708 -0.2800985 -0.3033904 0.32039025 0.027502174 -0.28130177 -0.6340078 -0.14154379 -0.262181 -0.003984582
70 -0.017014543 -0.39218384 -0.19086799 -0.06697222 0.38243183 0.11989014 0.042763833 -0.19323054 -0.322771 -0.6233225 0.18148702 0.03106369 0.047921795 0.46658102 -0.3501759 -0.08893312 -0.24750912 0.097903304 0.030468691 0.21653304 -0.07646628 -0.15750457 -0.4545444 -0.061289366 -0.64151514 0.043255314 0.16463742 -0.04014871 0.23818544 0.094335906 -0.0949463 0.3149304 -0.21416737 -0.3606406 -0.0055132955 0.50559443 -0.44576764 -0.20551749 0.60995275 0.07072501 -0.09656537 0.066837765 -0.14061047 0.25491995 -0.0683124 0.18690634 -0.41111004 0.29253253 -0.37456265 -0.013962524 -0.2788394 -0.27785286 0.24224073 -0.296667 0.19477494 -0.4852323 0.25221586 0.16083091 -0.05368117 -0.14008637 0.2105106 -0.33993572 0.18394639 0.004781313 0.42907846 -0.1687343 -0.00534148 -0.2813649 -0.20927568 0.2714993 0.032196533 0.46041632 0.05576633 0.2784425 0.11403373 0.046501037 0.14494859 0.51142734 -0.063372955 0.18434897 -0.10949967 -0.17850325 0.44588876 -0.13270323 0.09397178 -0.07898778 0.36607677 -0.0087724915 0.090531275 -0.29209548 0.3989874 0.12231483 0.2980838 -0.41543812 0.024455544 0.31684116 0.16863583 -0.082726374 -0.027496114 -0.12656093
262 0.015858306 0.45545414 0.020382777 -0.32067093 -0.5549956 -0.09782667 -0.26007378 -0.07853283 0.30186248 0.07654808 -0.06749726 -0.24689966 0.07166086 -0.13474172 0.20199801 0.050579324 0.073503084 0.19473214 0.044325005 0.07383907 0.039307736 -0.21976271 0.5492037 -0.2936561 0.2796591 0.25030664 -0.2783236 0.20603903 0.12179284 -0.1916011 0.62637126 0.12013106 0.47798875 0.24321914 -0.019710822 -0.07871479 0.41062653 -0.15563537 -0.5693495 -0.38776955 0.011187937 -0.053419746 0.15063404 -0.07961934 -0.37692147 0.13339768 0.15313712 0.17831005 0.16935757 -0.07482287 0.07261981 0.17373084 -0.07024835 0.21917716 -0.26594815 0.3658498 -0.45012334 0.2223031 0.32712176 0.059509363 -0.06695 -0.04530746 -0.1692153 -0.44602972 -0.47856128 0.14410867 0.21756008 0.3365493 0.029222678 -0.030540442 -0.022428771 -0.3879452 -0.046375588 0.012858939 -0.3642012 0.10344021 -0.2812789 -0.21135339 0.4207625 -0.22732131 0.3175186 0.050608523 -0.2509634 0.0017738788 0.25139308 0.34149912 -0.16282095 0.26901758 -0.2720077 -0.008343859 -0.02327102 -0.07303923 -0.14886703 0.23394115 -0.11393423 -0.31067753 -0.29220462 -0.12335225 -0.2535938 0.3611545
1383 -0.20750488 -0.45388293 0.019822134 -0.038779296 0.5077319 0.07997058 0.22308137 -0.014740181 -0.30553344 -0.3239219 0.46923715 0.13014425 0.19705811 0.30617446 -0.19442932 -0.15324631 0.028079413 -0.24997036 -0.19853178 0.26370192 -0.013333583 0.14591597 -0.32093015 0.24422999 -0.30806622 -0.12992091 -0.08828389 0.02415913 0.4160549 0.22289991 -0.52449095 -0.08185562 -0.27889052 -0.23116009 -0.14425988 0.2537362 -0.19895187 0.03207769 0.5532999 0.20562841 0.067079395 0.262701 -0.24134976 0.14042644 0.31827265 -0.14266285 -0.041708283 -0.0025201172 -0.06562062 0.2501454 -0.038329486 -0.14168207 0.32502285 -0.25427523 0.2848455 -0.6212021 0.010527077 -0.11192721 -0.33029473 -0.4365131 0.29132205 -0.34948733 -0.046796188 0.1507139 0.35601777 0.0075721936 -0.29746842 -0.41893014 0.040114034 -0.009430892 0.16848855 0.34480578 0.16885087 0.06717928 0.17181198 0.3595826 0.32526073 0.3534312 -0.27107808 0.0219655 -0.13365191 -0.046702392 0.51660997 0.064561784 -0.19248374 -0.59144485 0.16304076 0.10758998 0.11551597 0.020882769 0.27585658 -0.1858877 0.16532147 -0.06793311 0.046407137 0.2927088 0.29322964 -0.26426655 0.40542236 -0.2831285
729 0.001965885 0.35931283 0.1228065 -0.14982522 -0.69190913 0.0750374 -0.38809478 -0.28696692 0.38983133 0.26725358 -0.14688934 -0.111688554 0.08743925 -0.20632656 0.37528923 -0.098857775 0.17365463 0.022723028 -0.08430823 0.088033915 0.06870105 -0.13923457 0.22453053 -0.20652436 0.19711751 0.23595874 0.08948199 0.18257369 -0.022619138 -0.19158362 0.30262366 -0.030050643 0.20477097 0.5216309 0.1430599 -0.14883679 0.38365582 0.016599555 -0.4291248 -0.2535453 -0.10378392 -0.15628886 0.20534487 0.0089213895 -0.4312237 0.22972734 0.094420925 -0.10706042 0.40217322 -0.024778688 0.16000353 -0.007810025 -0.20063345 0.17509787 -0.47685537 0.32317248 -0.20125404 -0.057530936 0.38228345 0.17734256 -0.112655856 0.10243775 -0.07242293 -0.13921872 -0.41904077 0.20630124 0.19236812 0.32943228 0.06674373 -0.08627975 0.16276835 -0.24267358 -0.08535133 -0.24577361 -0.0038370343 -0.14708161 -0.00887843 -0.30274794 0.085635215 -0.2565413 0.09163157 -0.010845492 -0.028731834 0.24331288 -0.0067708576 0.22063082 -0.2074641 0.15583374 -0.10945171 0.087966226 0.03232838 -0.1120488 -0.13167663 0.19400583 -0.021736288 -0.20445308 -0.222127 -0.23279512 -0.12068631 0.24077229
1720 -0.22184208 0.19574352 0.10738636 -0.33137912 -0.43182462 0.0058005988 -0.10640846 -0.044804893 0.40415776 0.1951424 -0.025266845 -0.08805302 -0.020935103 -0.20972897 0.320678 -0.0004161797 0.2659143 -0.051492438 -0.061512467 -0.06879408 0.07220053 -0.10946503 0.26776472 -0.109783515 0.41999227 0.09593719 -0.35555324 0.36246338 0.11719614 -0.28146234 0.19302055 -0.36063406 0.13705066 0.31983227 0.19303371 -0.36368605 0.34893474 -0.14911127 -0.48761377 -0.33837622 0.047102377 -0.27075925 0.09573628 -0.11416532 -0.005290146 -0.0507785 0.22790365 -0.025583776 0.073579565 -0.16169798 -0.053077847 0.083290935 -0.2038223 0.27786765 -0.3758435 0.3729616 -0.17348397 -0.16911124 0.17005843 -0.08838933 -0.17542316 0.22915085 -0.20512752 -0.008148554 -0.22878358 -0.0058920984 0.22647414 0.2756646 0.2565491 -0.12581965 -0.1361337 -0.4482301 -0.0647897 -0.031263217 -0.14683683 -0.18604624 -0.48874232 -0.37384838 0.42934474 -0.34387383 -0.072922304 0.30142167 -0.26132867 0.119511604 0.18393241 0.15341966 -0.2676266 -0.093707986 -0.00021260628 0.16636534 -0.17632045 -0.1589278 -0.30833536 0.37125978 -0.028792867 -0.31294876 -0.16623174 -0.30361602 -0.1914134 0.053831134
69 -0.030453075 -0.31369373 -0.041091226 0.24086697 0.39004466 0.097491734 0.11497281 -0.13083021 -0.3771638 -0.2591505 -0.016409863 0.06482372 0.053114437 0.36983553 -0.1676938 0.15087955 -0.37282884 -0.04080093 0.0026801617 0.25575826 0.07994436 -0.14962462 -0.48467135 -0.062665656 -0.2832395 -0.22546592 0.18855052 -0.120760955 0.11921251 0.33365783 -0.30807003 0.38023627 -0.29275844 -0.29464447 -0.15050113 0.5299851 -0.4289317 -0.13273805 0.564361 0.15689796 -0.14941508 0.16540281 -0.40392083 -0.00096652855 0.06178731 0.13890971 -0.48071936 0.202615 -0.37705404 0.113655895 -0.20697482 0.0083234105 0.20437899 -0.08474051 0.0013371417 -0.4206362 0.09689983 0.097472616 -0.3262127 -0.21470824 0.056681372 -0.17692745 0.057407748 -0.03502043 0.4472335 -0.16829853 -0.040858805 -0.19329514 -0.2114834 0.06009851 0.29424518 0.36473128 0.2479107 0.24171239 0.09254065 0.30779955 0.16088377 0.43466768 -0.020007132 0.23335107 0.10079551 -0.21293643 0.3969051 -0.086080946 0.17419468 -0.33082327 0.36509365 0.039023224 -0.11955124 -0.1816942 0.5632182 0.25659305 0.4119665 -0.53943765 0.07495384 0.2585394 0.120272145 0.0694033 0.2779956 -0.20025285
309 -0.079762615 0.43669945 -0.017656755 -0.44750163 -0.50979096 -0.19173661 -0.2084076 -0.31594574 0.24099445 0.27063334 0.1763072 -0.26191396 0.033171948 -0.22037487 0.16078763 0.045436826 0.47729734 0.25373894 -0.008576257 0.06035859 -0.24256414 -0.16362499 0.25752056 -0.0869751 0.3867601 0.29409954 0.088710725 -0.1269507 0.1672977 0.0283229 0.21988897 0.074858844 0.4802038 0.28533697 0.1002004 -0.024564559 0.5487405 -0.10657066 -0.50231737 -0.14379391 -0.1508787 -0.31508657 0.038463656 -0.3740927 -0.45864126 0.3676974 -0.14696272 0.07028119 0.41492352 -0.0049697757 -0.08478746 -0.022449346 -0.10529256 0.13046089 -0.32510984 0.5853699 -0.27989966 0.037702695 0.58677655 0.36083475 -0.0050190515 0.20604013 -0.08855811 0.01170211 -0.3625511 0.114605665 0.22361654 0.31204054 0.13889748 -0.091360256 0.17639485 -0.0009348142 -0.40957355 -0.022678126 0.17422234 -0.02181639 -0.054335788 -0.28610662 0.45949695 -0.10818302 -0.086473644 0.08868976 -0.36712858 -0.008301563 -0.19888166 0.24301794 -0.112853765 0.36443213 -0.13979857 0.09219986 -0.06724961 -0.124574974 -0.14758232 0.32991016 0.14210345 -0.2996833 -0.53164387 0.054113828 0.048404545 0.13238126
1133 0.006103693 0.42500243 0.20041804 -0.1283069 -0.3946438 0.15797168 -0.04611848 -0.18878517 0.34073308 0.22777224 -0.13989525 -0.0031621214 -0.12247666 -0.03551968 0.25962308 -0.14144333 0.3079268 -0.19105671 -0.05769119 0.248537 0.1135939 -0.25159207 0.2106943 -0.17006494 0.43251875 0.07718571 -0.18032761 0.14892213 -0.1185484 -0.19343683 0.085755095 -0.049982 0.2926651 0.45806876 0.115654856 -0.34984988 0.55271596 -0.17144674 -0.6129765 -0.17069645 -0.05894907 -0.035894215 0.31277034 -0.099976435 -0.24424 0.24579123 0.0075835288 0.0017279594 0.11251719 -0.073690414 0.2321322 0.050613485 -0.1749809 0.1816862 -0.24708508 0.38218713 -0.19396341 -0.19359232 0.31159964 0.46657142 -0.2989865 0.07250874 -0.15466434 -0.13881585 -0.3774654 0.22674967 0.12114026 0.10760366 0.11181135 -0.1934664 0.050557632 -0.5714399 -0.38165987 -0.1028248 0.027988328 -0.1608949 -0.30519968 -0.26509574 0.10195489 -0.07887234 0.04930554 -0.05165554 -0.35187957 0.14933807 -0.26917738 0.30206916 -0.109774075 0.00092666585 0.13089086 0.0112437755 -0.20441195 -0.2922298 0.028524125 0.44672814 0.03828271 -0.028436784 -0.44772124 -0.20808865 0.06478916 0.25185654
512 -0.21712177 -0.4727082 -0.057748135 -0.007004692 0.33000433 0.11612018 0.32929754 -0.02566929 -0.37135154 -0.34553707 0.18391752 0.10604606 0.11914039 0.32394907 -0.22396767 0.16946937 -0.39307255 -0.22850756 -0.30139282 -0.039511684 0.021279812 0.0864124 -0.520075 0.18777886 -0.51300114 -0.26733065 0.30567634 -0.15658244 0.31312943 0.13378721 -0.14559142 0.17932634 -0.260764 -0.29003975 -0.004287931 0.5833109 -0.33015192 -0.20245342 0.3323407 0.14627728 -0.024369976 0.2630848 -0.21604054 0.10847124 -0.0065876534 0.12645999 -0.34034267 0.3630873 -0.35608914 0.18244128 0.07485916 0.21071368 0.27294287 -0.1733796 0.22479981 -0.62296385 -0.026340865 0.10743765 -0.15516071 -0.46267045 0.03972076 -0.05869787 0.106509745 0.1217506 0.64872414 -0.34182656 -0.1545962 -0.38309923 0.027387124 0.15509483 0.16090018 0.22111054 0.29682472 0.15509552 0.011700107 0.21084066 0.18899389 0.49243918 0.0672718 0.104474455 -0.033355135 -0.13977778 0.4290622 0.039300118 0.384622 -0.20018572 0.34979728 0.10433647 0.25177476 0.011522123 0.3503677 -0.13984147 0.34570307 -0.34513322 -0.39376125 0.4641827 -0.026022462 -0.113589354 0.36435586 -0.1461134
1375 0.12941596 0.16710144 0.16670974 -0.13695814 -0.40587378 -0.17242989 -0.40955776 -0.111801624 0.34162077 0.24469069 0.07857791 -0.16481104 -0.01976778 -0.31661537 0.5447346 0.017712278 0.5399853 0.16262183 -0.16987172 0.09374058 0.26279566 -0.10833461 0.66076255 0.014256318 0.35897788 0.031916298 -0.25416803 -0.12432965 -0.31037304 -0.24025191 0.13748367 -0.1845662 -0.00938839 0.30293354 0.011041894 -0.35841662 0.36867592 0.09219295 -0.35553524 -0.14996785 -0.038686886 -0.23157932 0.11027706 -0.12737352 -0.1664251 0.16580117 0.07466345 -0.09627132 0.41588 -0.26869002 0.30739543 0.07411783 -0.06516188 0.49296677 -0.25246373 0.36550975 -0.20080724 -0.28469336 0.13771056 0.10617906 -0.13371447 0.27374864 -0.009137592 0.18365832 -0.33141476 0.22240384 0.360287 0.12774077 0.3279419 0.05621209 -0.07600001 -0.52962923 -0.12417514 -0.16828653 0.09072283 -0.14326149 -0.31783807 -0.28984484 0.4390085 -0.09054011 -0.12742774 0.1532313 -0.32429418 -0.003809332 -0.3194159 0.29452643 -0.20377639 0.18941055 -0.16994381 0.07300981 -0.0017395625 -0.0026418972 -0.019506311 0.39947668 -0.16861607 -0.25963214 -0.3485459 -0.24895228 -0.2120109 0.1459011
1490 0.001450291 -0.6741716 0.14143433 0.17613514 0.4315296 0.4610698 0.12769307 -0.023608908 -0.4027072 -0.10246408 0.13794994 0.047663327 0.228883 0.41067904 -0.42503482 0.2614466 -0.16686599 -0.1992812 -0.13318186 -0.038044445 0.3158543 0.25621027 -0.047403537 0.2136544 -0.22667667 -0.24803384 0.130826 0.062739305 0.28685522 -0.030271515 -0.21192427 -0.061762985 -0.12955077 -0.2877623 -0.10519876 0.27584517 -0.29294696 0.12755574 0.1320829 0.0204342 0.054862313 0.46472782 -0.3886882 0.37705496 0.36818457 -0.2881754 -0.30535638 -0.22612657 -0.17686121 0.24616964 -0.12510149 -0.20921193 0.44718957 -0.16474704 0.2862006 -0.76669884 0.249655 -0.07574884 -0.5167139 -0.33788708 0.24551944 -0.15729861 0.063335925 0.08220079 0.5032094 -0.13250063 0.1079546 -0.32127452 -0.12936848 -0.07745185 0.043719575 0.30357975 0.2606871 -0.048252724 0.14040476 0.15687694 0.37931487 0.38069648 -0.30946615 0.114916794 -0.14163452 -0.31807977 0.6454964 -0.058422446 -0.006993989 -0.45863712 0.33342892 0.033337932 -0.039166022 0.121414326 0.03357382 -0.2726782 0.26631913 -0.12828898 -0.18719415 0.33203986 0.4310048 0.14660645 0.39021593 -0.2522721
251 0.11261062 -0.36740556 -0.13767748 -0.05547758 0.48262268 0.050720412 0.21875864 -0.04320537 -0.12737325 -0.23130763 0.31418562 0.3087517 0.077554844 -0.007896852 -0.19226858 -0.012290498 -0.6443949 0.16832352 0.040795393 0.122944206 0.090070836 -0.10067284 -0.4409915 0.066421986 -0.6319803 -0.15381756 0.16028747 -0.12635536 0.13655004 0.17452683 -0.12563437 0.24525715 -0.029724004 -0.7013737 0.12446095 0.6773517 -0.6349517 0.025206245 0.5418855 0.018217448 0.29348946 0.17770006 -0.25714052 0.18038447 0.062199354 -0.06275366 -0.30041465 0.21363492 -0.12798882 0.29638457 -0.3804147 -0.097502284 0.030192487 -0.5502334 0.1565144 -0.24327974 0.34278324 -0.00927627 -0.072814845 -0.3116069 -0.046929922 -0.29851365 0.010421893 -0.13085797 0.63789564 -0.26316714 0.03504479 -0.32102522 -0.17854434 0.2240293 0.19417989 0.2925617 0.2327876 -0.010386987 -0.064438656 0.44511276 0.26043904 0.23969524 -0.17029671 -0.025812447 0.24337247 -0.34730566 0.6132615 -0.11303555 0.06837768 -0.42888752 0.28416288 -0.025659762 -0.014595153 -0.3816882 0.3602736 -0.07389045 0.49024144 -0.5604189 -0.014908956 0.22726354 0.10681172 -0.08162958 0.3360314 -0.084719084
943 -0.31260315 -0.47537658 -0.05641033 0.050653137 0.52421474 0.31445405 0.18926084 -0.1404207 -0.27370343 -0.29930142 0.5373864 0.09116052 -0.018792698 0.3798268 -0.4179755 0.27138188 -0.052746456 -0.48116776 -0.25725743 0.34868345 0.20692153 -0.012169882 -0.28634977 0.08214337 -0.4957381 -0.46996945 0.1934782 -0.11677601 0.42860112 0.07907766 -0.26956835 0.6191729 -0.30713135 -0.19738992 -0.21008119 0.13734558 -0.67537695 0.055555362 0.4612265 0.22084105 0.56455964 0.16972543 -0.30819952 -0.03708091 0.32207826 -0.055271655 -0.23162559 0.15324707 -0.16305986 0.19993967 -0.042812597 -0.38454068 0.043194722 -0.37530568 0.34810925 -0.77361166 -0.13209605 0.2389906 -0.3036818 -0.21574984 0.14054905 -0.078938715 0.1030854 0.34436634 0.2782076 0.04216858 -0.109785356 -0.47890502 -0.02051255 0.27904066 0.2526591 0.1291664 0.25791022 0.20937173 0.1642276 0.41984484 0.14269373 0.43758354 -0.14115286 -0.01391449 0.07567083 -0.28363895 0.15980007 -0.06806443 0.061512128 -0.4718894 0.5153509 -0.07814536 0.2663979 -0.35743308 0.18951093 -0.18291512 0.045933995 -0.39096844 -0.2519299 0.35191697 0.13462083 -0.053025298 0.08247586 -0.02551845
537 0.041015267 0.5849603 -0.04386675 -0.2321765 -0.59056956 -0.040161382 -0.30307445 -0.089965925 0.10063844 0.5110636 0.039286293 -0.18396622 -0.004653061 0.044654343 0.32282704 -0.016706128 0.19595921 -0.06088813 0.013496828 -0.09859825 0.14900173 -0.24447092 0.36863527 -0.18017451 0.22348 0.29938984 -0.10318289 -0.03434694 -0.2493268 0.029690005 0.3303126 0.2297539 0.22031425 0.32232258 0.12889221 -0.1819257 0.43681732 -0.18037586 -0.32750294 -0.17241557 -0.1042208 -0.22143543 0.00027532614 -0.15028885 -0.28788197 0.26559913 -0.0013662097 0.14244387 0.13414845 -0.17484522 0.048741512 -0.09454667 -0.27786472 0.5688119 -0.39642698 0.27725857 -0.29999405 -0.01916938 0.16045848 0.17983277 0.029574448 -0.06912236 -0.23780632 -0.15021473 -0.53532034 -0.0016208257 -0.023938868 0.4498501 -0.035019234 -0.061837047 0.15113305 -0.39448363 -0.048818663 -0.053259064 -0.0022247967 -0.23717563 -0.06284857 -0.26292774 0.19337979 -0.31411308 0.09398874 0.25125334 -0.3835401 -0.018248722 -0.03791409 0.37267557 -0.29311007 0.17074697 0.062077273 -0.20366442 -0.10786124 -0.13676749 -0.037142225 0.47520256 -0.2137883 -0.122429796 -0.22241494 -0.14088747 0.009434826 0.24200709
467 -0.21579315 -0.2922646 -0.056072928 0.057496347 0.5748216 0.07321076 0.19589688 0.081143446 -0.26756227 -0.30291253 0.06711187 0.1598388 0.23816657 0.22867082 -0.060600758 0.090178385 -0.38270074 -0.2935583 -0.13022159 0.14616457 -0.019109074 0.18072365 -0.41673613 0.025358118 -0.4462652 -0.23192504 0.17981926 -0.22707035 0.027267097 0.22256245 0.06154964 0.40243503 -0.3306632 -0.39961672 0.053000722 0.43471432 -0.61055666 -0.010553055 0.3281378 0.3638693 0.0063515585 0.21874902 -0.4431988 0.3341291 0.051291186 0.12904626 -0.2648222 0.34264567 -0.40349758 0.20355716 -0.30315834 0.023387467 0.21228537 -0.49351242 0.40073988 -0.36744192 0.21552402 0.20104223 -0.14198445 -0.34926093 0.11350641 -0.2608147 0.1930908 -0.13527155 0.3972875 -0.39106977 0.00902302 -0.23060106 -0.037570238 0.098826505 0.020151304 0.26795805 -0.00645702 -0.124271885 -0.32558444 0.35978734 0.1928636 0.18746944 -0.10144183 0.33157793 0.13297112 -0.2511325 0.43202415 -0.40860662 -0.10413394 -0.23172013 0.50237685 0.32265186 0.35091412 -0.14471091 0.019355617 -0.16398646 0.30201805 -0.44438037 0.23301539 0.33315003 0.18284209 -0.032886416 0.31004244 -0.32660693
1652 -0.06459316 0.1192331 0.38258818 -0.32785103 -0.52644414 -0.104516886 -0.32859704 0.23767701 0.39727643 0.49303803 0.11759804 -0.26526463 -0.31464842 -0.15100811 -0.025776066 -0.13056238 0.27964577 -0.21421498 0.054468546 0.09972489 0.10049381 0.17224501 0.30712608 0.2741485 0.59531057 -0.03012164 0.009278907 0.20457573 -0.25863835 -0.44586042 0.17731489 -0.39014703 0.33219877 0.32747635 0.28345552 -0.46430615 0.20367695 -0.06039781 -0.49587393 -0.06815636 0.25158113 -0.127319 0.28964916 -0.33945677 -0.3906743 -0.016309256 0.09015069 0.09069528 0.15349378 -0.014039924 -0.0243273 0.096501596 -0.450566 -0.012443845 -0.60118216 0.63681847 -0.19606121 -0.14672047 0.045566726 0.19219652 -0.38691762 0.49568316 0.15177305 0.111967854 -0.25692752 -0.0809984 -0.10112826 0.35837105 0.08774208 -0.05634339 0.104840025 -0.4963463 -0.1576155 -0.26454026 -0.056083642 -0.18347159 -0.18032219 -0.41154945 0.085249364 -0.42898765 0.03441738 -0.18569703 -0.3352791 0.14018859 -0.063777894 -0.0954524 -0.32097352 -0.06371841 -0.11327029 0.34122816 -0.44110626 -0.22617832 0.2142784 0.6345353 0.22644624 -0.21497346 -0.47094196 -0.052416828 -0.22259195 -0.045715846
1030 -0.18039767 -0.36234775 -0.021067265 0.108408205 0.35522658 0.22708127 -0.06984031 0.15448472 -0.3778712 -0.1325086 0.048714362 -0.23259255 0.16601077 0.46768212 -0.47337103 0.45184442 -0.44621393 -0.1214068 -0.39169735 0.2867225 0.35277346 0.37980944 -0.4146385 0.13892047 -0.35130656 -0.17168705 -0.26307994 -0.5360772 0.19217013 0.20212273 -0.22333612 -0.19629392 0.02003402 -0.25532833 -0.13894475 0.50807226 -0.5397737 -0.004208971 0.5996564 0.16604619 0.3074829 0.033067346 -0.16606732 0.1444785 0.24005428 0.010868177 -0.014317456 0.25150028 -0.24762094 -0.0739871 0.03457777 0.0509197 0.3559582 -0.5376792 0.51928717 -0.62682784 0.07573364 -0.21878412 -0.2306016 -0.4137001 0.3337533 -0.29109502 0.12837353 0.15440731 0.72046405 0.09759669 -0.10002044 -0.4940715 -0.22377458 -0.09906737 0.14741322 0.25900722 0.15157935 -0.070327476 0.008082937 0.06339134 0.38431105 0.33288234 -0.2434068 0.115919545 -0.37316376 0.06684116 0.48142835 0.08407138 -0.46424773 -0.5736351 0.09865677 0.058764648 0.08595525 -0.12188737 0.31223962 -0.2619069 -0.01933886 -0.6801661 0.22361141 0.14671168 0.028667856 -0.23183799 0.6596459 -0.16830373
929 0.10706542 0.3226172 0.28365996 -0.46155187 -0.548259 -0.0933266 -0.1894464 -0.14721078 0.42485648 0.6088949 -0.04085649 -0.30387756 -0.097463414 0.06716493 0.17688955 -0.010977409 0.012151126 -0.2151499 -0.19750547 -0.008715434 0.23027684 -0.23453379 0.104457386 -0.006921026 0.19533522 0.18560782 0.059395555 0.22541597 -0.22469676 -0.3709776 0.23968773 0.14664064 0.16286774 0.26985815 0.011898697 -0.28810507 0.3542468 -0.021061981 -0.6172682 0.017665055 0.23739392 0.04364219 0.41382483 -0.053573232 -0.5256988 0.13866374 0.34817934 -0.09086133 0.480886 -0.15188196 -0.055463903 0.18321162 -0.4199508 0.21466824 -0.3552844 0.52806884 -0.1278382 -0.1693776 0.33870637 0.16436954 0.11822199 0.42903477 0.10829319 -0.0080061685 0.12992032 0.23322248 -0.0033060221 0.23340568 -0.19774216 0.080225825 -0.12181953 -0.5462558 -0.55190676 0.14088643 0.09583504 -0.32119355 -0.07469768 -0.24883218 0.11925444 -0.2659612 -0.049702108 -0.019519612 -0.35558388 0.06423801 -0.06692813 0.49986225 -0.30570287 0.033428654 -0.32935044 0.10220279 -0.1851376 -0.2561261 0.004677215 0.1929893 0.16136682 -0.4319297 -0.26167667 -0.016983233 -0.17630033 0.2333451
1081 -0.089795776 0.2107588 0.08383195 -0.35135972 -0.4414016 -0.16467036 -0.22396916 -0.31011066 0.33555543 0.081676215 -0.055976227 -0.1753564 -0.23195653 0.04480889 0.21240987 -0.16389182 0.22784303 -0.027543223 0.059073303 -0.045696907 0.1672789 -0.41952485 0.53871375 -0.01021218 0.212326 0.15076683 -0.122973174 0.11551182 -0.20548163 -0.12848754 0.31578374 -0.13646916 0.16667838 0.60204047 0.2915473 -0.19054866 0.31867558 -0.0044839294 -0.49187666 -0.12604684 0.0667447 -0.028513467 0.41059688 -0.15787217 -0.3490545 0.09115378 0.13143189 -0.024335869 0.34639227 -0.09023762 0.008829971 -0.23773934 -0.21894236 0.105997704 -0.3421123 0.22508541 -0.07728729 0.05425757 0.25760245 0.15834518 -0.03159951 0.22962059 -0.08702105 0.0035741345 -0.29455885 0.18501991 0.12484032 0.25454718 0.07876383 -0.17866829 -0.060748994 -0.4379872 -0.29559818 -0.25227898 -0.04635486 -0.23810424 -0.46556044 -0.2801422 0.31539232 -0.36842355 0.07434116 0.019944692 -0.19025119 0.25381032 -0.027253153 0.5296963 -0.11611018 0.3445567 -0.00797798 0.080600716 -0.1835515 -0.058694158 -0.19116807 0.27029747 -0.040326778 -0.26652083 -0.22365451 -0.1863486 -0.09770862 0.18739533
300 0.063388996 0.31707668 0.41907817 -0.17330037 -0.40169924 -0.19128302 -0.110615686 -0.00013016013 0.14666498 0.5482219 -0.062320065 -0.22895136 -0.09178625 -0.14072229 0.073474094 0.12662065 0.25279185 0.013887061 0.15699068 0.07184392 -0.112582475 -0.21035682 0.14050563 -0.2240783 0.2984934 0.14000154 -0.19655839 0.26080117 -0.013630247 0.07174236 0.35592553 0.05851207 0.08450233 0.12829405 0.065064244 -0.15521204 0.3701726 0.0006353623 -0.6020861 -0.42112657 -0.1878972 -0.083420426 -0.0022613052 -0.2185887 -0.38210604 0.12351201 -0.26008582 -0.069893055 0.2600429 -0.2791691 -0.081989445 -0.006807471 -0.3279586 0.25591543 -0.5640319 0.38544786 -0.13160937 -0.055489447 0.29445958 0.06755914 -0.12549871 -0.011222046 -0.2102827 -0.058476765 -0.29096276 0.49413016 0.10865524 0.52111113 -0.045755148 -0.054905728 -0.057580218 -0.36941257 -0.08112502 -0.12124823 0.029579295 -0.19398277 -0.17728943 -0.38597977 0.347551 -0.38863477 0.2633193 0.084320016 -0.22391592 -0.08641616 0.051243246 0.48354042 0.19177794 0.059158903 -0.12452943 -0.2633985 -0.001770016 -0.13649857 -0.21358472 0.31422517 0.07114749 -0.27011284 -0.60306025 -0.26607254 -0.23502892 0.23745792
71 0.017697226 0.21559086 0.12630981 -0.42212337 -0.7608736 -0.14993683 -0.22974753 -0.24835876 0.10670612 0.4341779 0.18354458 -0.08562108 -0.039020408 -0.09762984 0.24753359 -0.28921172 0.3058817 -0.04376008 0.22102177 -0.08756622 0.09127383 -0.2311703 0.33337963 -0.18651992 0.19603765 0.35386032 -0.069683924 0.18807425 -0.010609209 -0.18403913 0.5160808 0.09239152 0.26455882 0.38800937 0.2770585 -0.22970894 0.50147986 -0.15006271 -0.5409487 -0.13942605 -0.13073367 -0.07240198 0.32546544 -0.06436456 -0.4267966 0.43944168 0.17212985 0.38833818 0.14333491 -0.29964614 0.104261234 0.04637918 -0.32766947 0.34269878 -0.42053843 0.11256523 -0.21803854 -0.27521455 0.39319733 0.30294055 -0.13259439 0.111238174 -0.23042457 -0.6564498 -0.23574576 0.46614364 0.23884775 0.47949195 -0.0011268652 -0.09737398 0.31505224 -0.6832277 -0.1846863 -0.07842473 0.087562725 -0.123292305 -0.15011747 -0.5793941 0.18116903 -0.16452238 0.28240252 0.130382 -0.09555666 -0.32661656 0.06440303 0.41578776 0.22265211 0.10490041 0.0053250934 -0.41183838 -0.00060774887 0.03895807 -0.13520388 0.16571492 -0.3556205 -0.09210368 -0.4963868 0.1687886 -0.028903926 -0.079333656
1852 0.052020486 -0.7187795 -0.315668 0.43472913 0.36888453 0.3851103 0.2243326 0.21544777 -0.18559034 -0.26644376 0.22818044 -0.001107513 0.5310021 0.041970365 -0.26735806 -0.40122694 -0.23816922 -0.65695196 -0.05112368 0.1530947 0.07365003 0.16389643 -0.28276363 -0.11502985 -0.1881155 -0.16484174 -0.06754654 0.031016225 0.10529952 0.025939362 -0.48044696 -0.17236957 -0.4905981 -0.35178718 -0.4393792 0.3615097 -0.01923734 -0.023610603 0.53698194 0.21399136 0.16298756 0.3312858 -0.41104296 0.22462508 0.45693064 -0.42346248 -0.2933181 -0.07482163 -0.2896172 -0.1855919 0.1073341 0.2596331 0.2099313 -0.19442882 0.6215318 -0.65741503 0.1996709 0.007308007 -0.24026081 -0.5843594 0.28072003 -0.3960751 -0.115657926 0.27726144 0.670261 -0.112242386 0.07764727 -0.28510463 -0.08149313 0.38656124 0.31936827 0.24058554 0.12454405 -0.03926855 -0.12961198 0.14635323 0.203619 0.20943047 -0.21344869 0.22472696 -0.70108 -0.21049462 0.378898 -0.23138553 0.4541932 -0.8640881 0.33717197 -0.17919815 0.057324998 0.084638916 0.2537033 -0.26762944 0.3009397 0.2211076 0.59440994 0.51418686 0.4580317 -0.07562579 0.0986144 -0.024398737
1292 -0.2335555 -0.23688963 -0.33221948 0.032049328 0.4652151 0.18955444 0.015670862 0.0946627 -0.23656882 -0.21447232 0.434964 -0.17182417 0.2936889 0.30253974 -0.58719504 0.18088382 -0.1476633 -0.033591658 -0.318053 0.1728704 0.2183306 0.14272273 -0.35180557 -0.11467692 -0.5092927 0.122660495 -0.010018733 -0.09319329 -0.02305794 0.36246228 -0.45908722 0.13481398 0.031992625 -0.48025304 0.21318597 0.2180962 -0.49777657 0.22466327 0.47264594 -0.012937149 0.29521784 0.5319653 0.120272554 0.4097482 0.5621798 -0.14827769 -0.2944006 0.060907014 -0.029967329 -0.2063274 -0.013673201 -0.2615849 0.44369262 -0.40692025 0.717185 -0.22458589 0.07934326 0.1717167 -0.44507203 -0.21834989 0.22807293 -0.30876008 0.14509815 0.059224386 0.7152216 -0.4775574 -0.395427 -0.5915947 0.20242837 -0.07153648 0.10152065 0.24332815 0.27217725 0.33517313 0.13866939 0.11838015 0.14774051 0.10691564 -0.3008471 0.09158047 -0.021418214 -0.3821925 0.11209267 0.122416034 0.083089314 -0.31536683 0.4316108 0.1517351 0.16381194 0.01850192 0.34644654 -0.04304914 0.333994 -0.123788856 -0.040739585 0.2085755 0.475949 -0.052403763 -0.011344761 0.13947803
1713 0.1013138 -0.76240045 0.020215346 0.019592848 0.741883 0.03644164 0.22364801 0.30502918 -0.62282634 -0.5077091 0.2139637 0.2914323 0.2915261 0.33483595 -0.35369688 0.035511594 -0.30150223 -0.6324067 -0.09851572 0.08572213 0.0025000088 0.17205057 -0.32689208 0.3320796 -0.50190794 -0.0021074149 0.07077334 0.031741064 0.20894624 0.36727765 -0.30706024 0.15238917 -0.2786675 -0.50355095 0.08784879 0.10331396 -0.6384836 0.0638437 0.14006628 0.27585635 0.2302415 0.3336148 -0.13216484 0.24933454 0.6410736 -0.38707307 -0.24904056 -0.14103048 -0.34984505 0.1064263 0.075739756 0.18915743 0.566981 -0.4124517 0.370723 -0.3884855 0.22213958 0.1410004 -0.4506368 -0.60043997 -0.008481752 -0.46792364 -0.18583171 0.34431642 0.467877 -0.3562404 -0.545835 -0.15755573 -0.30371898 -0.040076196 -0.15857814 0.24698621 0.2886277 0.012884043 0.43300542 0.12522611 -0.22084929 0.050758917 0.049150098 -0.11221289 -0.029176775 -0.24838185 -0.09089173 -0.15300217 0.026968017 -0.18648207 0.40925443 -0.14863102 0.57630765 0.25454473 0.16828641 0.032104734 0.14552535 -0.14019646 -0.032067236 0.23693632 0.31221384 -0.05843673 0.30647194 -0.32444113
1343 0.056272373 0.33909422 0.047425896 -0.17109086 -0.3944941 -0.13666637 -0.26462924 -0.27152166 0.10345925 0.44624197 -0.12425073 -0.3553008 -0.1418746 -0.30698878 0.34735256 0.019927282 -0.123411335 -0.12909666 0.26165953 -0.18969864 0.1397317 -0.029706448 0.45533302 -0.111149095 0.42866704 0.14001708 -0.20169702 0.14536634 -0.18794504 -0.21107857 0.25917166 -0.23468232 0.404831 0.28496277 0.110387765 -0.19274646 0.45090964 -0.13687974 -0.7224159 0.26133844 -0.079528116 -0.18346152 0.3365807 0.034229543 -0.045409787 -0.03819777 0.22607313 -0.14092404 0.5104342 0.036091764 0.28665286 -0.10240653 -0.15832548 0.14271145 -0.3825101 0.52723724 -0.28547004 -0.18162201 0.25411135 0.23393738 -0.3332562 0.12866962 -0.161361 0.046609614 -0.4139855 0.08331473 0.29385588 0.28535938 0.29658085 -0.008838549 0.25411436 -0.6423609 -0.43829432 -0.074860714 -0.18902564 -0.052705735 -0.27701524 -0.32980412 0.046968322 -0.26240006 0.28999993 -0.05070616 -0.20709552 0.0069213854 -0.16511685 0.3868204 0.07972888 0.020294499 0.011367753 0.2829641 0.1511317 -0.11233519 -0.29406354 0.29939356 0.041006133 0.18535131 -0.19623618 -0.4600152 -0.08187888 0.062305514
1583 0.07808413 -0.032511994 0.24653265 -0.3176527 -0.77546793 -0.15604904 -0.4246224 0.15238728 0.1566048 0.17951176 -0.12838553 0.040992215 -0.00965663 -0.32317862 0.07458667 -0.04625222 0.3092041 0.03440886 -0.050868627 0.2376346 -0.048158474 -0.16729806 0.61865675 0.059941906 0.21799998 0.015015609 -0.14710696 0.2259271 0.062246937 -0.22589721 0.14127374 -0.5949934 0.22923855 0.48165268 0.14468072 -0.21194932 0.32084745 -0.10209142 -0.49894914 -0.08230603 0.12759136 -0.0602768 0.15122344 -0.19531827 -0.19855289 -0.022329241 0.038388237 -0.12896283 0.39379486 -0.13448557 0.10642641 0.03129373 -0.20243663 0.33889192 -0.2516917 0.5097373 -0.4583938 -0.14295293 0.098971665 0.13739577 -0.32504854 0.26986128 -0.11432539 0.09974271 -0.28493795 0.23616783 0.020675663 0.1696232 0.050995033 -0.41015664 -0.26035753 -0.1716455 -0.332838 -0.33445695 -0.01200518 -0.030457811 -0.51913214 -0.12900081 0.27528018 -0.5817724 0.08685508 -0.210535 -0.50157577 0.12180486 -0.26724526 0.24678852 -0.20143093 -0.22331843 -0.2921187 0.03134193 0.067759424 -0.12673086 -0.020573357 0.4371601 -0.077933624 -0.27562755 -0.11994404 -0.21263519 -0.24459536 0.13717532
1579 -0.3540282 -0.66222847 -0.15885206 0.036532354 0.57686263 0.40388015 0.20874634 0.1895256 -0.55747944 -0.23054601 0.1908335 0.036563408 -0.09500506 0.121643245 -0.51503575 -0.06804365 -0.062397875 -0.46943253 -0.35027385 0.2744496 0.3738883 -0.03149787 -0.15727443 0.0027838866 -0.2538735 -0.2703138 -0.0855788 0.09925256 -0.12451395 -0.012181855 -0.29007503 -0.009301387 -0.30239677 -0.06259084 -0.30857104 0.29255477 -0.5972901 -0.105037935 0.4995083 0.24342653 0.51642627 0.20173028 -0.17796773 0.63097423 0.4089099 -0.33462176 -0.29242277 0.16841061 -0.1971547 0.25503567 0.096970715 -0.08445934 0.14170302 -0.44326165 0.41921756 -0.49922588 0.1676657 -0.2156787 -0.25975636 -0.5436928 0.10080836 -0.13484561 -0.4055411 0.23942803 0.25186038 -0.16511486 0.23239386 -0.5871851 -0.028074384 0.044780966 -0.44871095 0.3037561 0.04324708 0.3240434 0.13253039 0.21277753 0.03924278 0.02332576 -0.45733914 0.5565194 -0.27904838 -0.2749282 0.42917037 -0.23200993 0.10799203 -0.4136541 0.36852163 0.010146672 0.4364788 0.07349882 0.20893621 0.059803817 0.14400803 -0.2883255 0.009185435 0.26435545 0.84322447 -0.30642447 0.2656143 0.11406787
465 -0.15497495 -0.26364988 -0.10896487 0.35930043 0.11665686 0.5326056 0.16049728 -0.015186723 -0.17308329 -0.3379039 0.05715515 -0.06827183 0.26748848 0.41271695 -0.15875265 0.036153995 -0.47502014 -0.7275142 0.043862958 0.16218485 0.11379834 0.30158323 -0.32865983 0.15242212 -0.383527 -0.1196353 -0.0732552 -0.058598187 0.123903334 0.35213822 -0.18613942 0.40915817 -0.33366674 -0.36403555 -0.14579417 0.3478075 -0.34723693 -0.035600133 0.8264732 -0.01929543 -0.03550766 -0.08341707 -0.35075045 0.10988725 0.15003619 0.023681674 -0.34173143 0.22538307 -0.40563068 0.09134976 -0.3302452 0.14339116 0.5492034 -0.35091195 0.4408726 -0.78848106 0.076116346 -0.28601682 -0.24052607 0.17015794 0.26508647 -0.2686667 -0.034795564 0.17902918 0.7054833 -0.39909565 -0.29542702 -0.39119676 0.035298888 0.04074395 0.010779769 0.35779914 -0.18070215 -0.11902913 0.14424856 0.31705016 0.3822246 0.5815556 -0.18604934 0.1307368 0.4787565 -0.23164602 0.41309386 -0.26874948 0.13656358 0.1139717 0.15188329 0.06936534 0.2572198 -0.2365723 0.43688235 -0.14116359 0.5296218 -0.46448264 0.076430224 0.23249228 0.09475975 -0.00027556365 0.16758654 -0.36683667
867 -0.042164043 0.51060265 0.09598552 -0.11757562 -0.56744695 -0.107664704 -0.109659694 -0.093446344 0.19917482 0.3962145 -0.14067006 -0.08910621 0.07289204 -0.23752011 0.16949175 -0.16086857 0.34863117 -0.011890627 -0.051468734 -0.15379944 0.04719425 -0.1369137 0.29200855 0.015283854 0.30837432 0.033816315 -0.12743406 0.12831837 0.23813677 -0.3624045 0.2600159 -0.04954434 0.013113763 0.16472153 0.18449523 -0.083230495 0.2157167 -0.27846992 -0.3494129 -0.21718226 -0.024709655 -0.13810068 0.3849765 -0.015243442 -0.32481122 0.15292373 0.15300353 -0.09129828 0.12899916 -0.091176085 0.06511918 0.3102882 -0.17806393 0.4106695 -0.39904433 0.2883134 -0.33390042 -0.16391632 0.5868683 0.13479598 -0.03415628 0.12260518 0.015069539 -0.33160576 -0.33178762 0.0491464 0.18429019 0.15546873 0.20410022 -0.01090685 0.1194503 -0.52601516 -0.079280645 -0.02632205 -0.22833829 -0.177972 -0.23296529 -0.3171996 0.48303425 -0.13466674 -0.17964678 0.054329086 -0.18180145 0.2513947 -0.18288144 0.71436185 0.08438989 0.16130129 0.11243805 0.22986712 0.0853924 -0.26959357 -0.25333396 0.4210933 -0.14186083 -0.4830633 -0.43241173 -0.19071184 -0.027789861 0.10317523
702 -0.016064359 0.27559406 -0.025762284 -0.16796836 -0.36805424 -0.2504771 -0.30517632 -0.26363167 0.33252513 0.062128905 0.030663764 -0.2998224 -0.10843501 0.054405402 0.23627861 -0.2898448 0.0034085223 0.022268506 -0.03456612 0.119251564 -0.10678245 -0.32383275 0.13675264 -0.15763445 0.22432958 0.09379246 -0.113937035 0.18497966 -0.11155673 -0.28208604 0.44374576 0.0664519 0.20928223 0.41475293 0.17089888 -0.25315133 0.37061065 -0.13041516 -0.60812926 -0.13995002 0.07652234 -0.07838116 0.22383918 -0.15449037 -0.6093928 0.18042049 -0.030816942 0.15472504 0.10917388 -0.002378702 -0.077704914 -0.08247602 -0.002684936 0.31554785 -0.26642898 0.1343518 -0.1503785 0.19698288 0.2323676 0.15479407 -0.34809834 0.13466027 -0.09757023 -0.15921462 -0.45838213 -0.044184666 0.16818304 0.30787125 0.007508586 -0.122612916 -0.08226764 -0.30216184 -0.35098886 -0.09711071 -0.07611461 -0.3643072 -0.43174177 -0.26078963 0.36874327 -0.2602777 0.0014166371 -0.06339484 -0.041911777 0.32180798 -0.022963049 0.56216514 -0.31584215 0.29491904 -0.15528823 0.13797979 -0.12343757 -0.06603258 -0.011017431 0.58869046 0.11243106 -0.12881696 -0.48077065 -0.180905 -0.2197006 0.3075047
1927 -0.3843888 -0.6334675 -0.1688012 0.2871813 0.71025926 0.18428648 0.19650115 0.04097362 -0.4606374 -0.57367045 0.042238183 0.1570611 -0.1915057 0.35205933 -0.20773645 0.12963113 0.025583401 -0.30289176 0.25409535 0.09460843 0.44140363 -0.07083452 -0.4323556 0.33155367 -0.41554597 0.07479535 0.19685046 -0.20492214 -0.14561382 -0.015181236 -0.33668432 -0.09265918 -0.25762224 -0.51151776 0.061241645 0.28848308 -0.32181117 0.2541579 0.53972 0.031761914 0.38896683 0.3076418 -0.4293962 0.15624686 0.7122549 -0.22593637 -0.21047613 0.028862968 -0.42276958 -0.052361503 0.013251258 -0.23489207 0.16019121 -0.20522635 0.4129861 -0.41266906 0.12824856 -0.13440299 -0.67513037 -0.6990822 0.16299424 -0.23502997 -0.08749751 0.2268655 0.39472964 -0.27563715 0.17932571 -0.26684904 0.3709743 0.10895782 -0.1864464 0.29056987 -0.15783289 -0.27570778 0.1401041 0.03592186 0.0336286 0.072864056 -0.20634174 0.26958492 -0.32493952 -0.021404967 0.17612213 0.14779839 0.24112876 -0.37546313 0.32193395 -0.040189095 0.5150854 0.32754037 0.35944247 0.0604057 0.2277578 0.37374118 0.27559695 0.35835874 0.5949833 0.26122472 0.45759377 -0.20842388
1218 -0.025182301 -0.10078806 -0.070524804 0.07620979 0.5220865 0.31813437 -0.22271718 0.4179588 -0.14798155 -0.42915896 0.30189487 0.35301158 0.097102664 0.40409386 -0.4679735 0.3403251 -0.031908188 -0.13681191 0.082116246 -0.05303628 0.0260013 0.09031535 -0.6854764 0.2567972 -0.35113895 -0.3971428 -0.2825466 -0.27614674 0.17743726 0.18986107 -0.41226545 0.34670627 0.0161743 -0.1663387 0.10847576 0.39226845 0.10495408 0.07801569 0.52186096 0.21054283 0.3375029 0.261187 -0.17976905 0.44678447 0.23129342 0.13141677 -0.17934848 -0.25186756 -0.5188204 -0.0357175 0.39195374 0.023013374 0.29875973 -0.28777164 0.3325713 -0.81740075 0.22880495 -0.029790334 -0.7056791 -0.30023247 0.05785745 0.16829541 0.014779389 0.22410795 0.8004604 0.044864386 0.117242336 -0.37301075 -0.039706662 -0.0009825863 -0.33495784 0.19312309 0.4094595 -0.11211298 0.17757088 0.17209686 0.23890197 0.4431637 -0.36896786 0.37692213 -0.072823815 -0.30739954 0.3565646 0.22678126 0.17314778 -0.26588053 0.339367 -0.0939413 0.016711976 -0.008853598 0.17547709 0.037174396 0.4569538 -0.31143004 0.18896955 0.47111237 0.2905657 -0.07891184 0.37084758 -0.14352216
1231 0.18050767 -0.5500306 -0.319155 0.012836685 0.51160365 0.21184045 0.18449971 0.048465338 -0.3685434 -0.442233 0.18710604 -0.13102937 0.1539675 0.53276116 -0.30225474 0.1740795 0.05340707 -0.16003412 0.069694385 0.36308694 0.15743962 0.31282708 -0.14161092 0.072515436 -0.13290764 0.003057824 0.075596206 -0.19141942 0.14055115 0.07892893 -0.32694942 -0.09365175 0.11171471 -0.19321911 -0.07829216 0.33972377 -0.44063842 -0.039213233 0.6399648 0.30890498 0.15880035 0.21600254 -0.09612374 0.3454389 0.11212609 -0.063867986 -0.4228413 0.22172345 -0.3740091 -0.025599757 0.07947738 -0.021021936 0.48277372 -0.30151263 0.043441992 -0.6463493 0.059856072 0.058173142 -0.23901613 -0.0797478 0.2311029 -0.05897921 -0.14982262 -0.005997864 0.3754793 -0.5899673 0.16714695 -0.51173896 -0.2770778 0.49848345 0.21254635 0.25367424 0.1554025 0.2518987 0.011383592 0.80683964 -0.3556759 0.11705212 -0.23247331 0.1671964 -0.21663448 -0.30441427 0.3096205 0.14033702 -0.052671865 -0.6999891 0.065923996 0.29138482 0.16902398 0.4233095 0.116417274 0.08709775 0.40510982 -0.219859 0.055274498 0.5351653 0.45549613 -0.07235679 0.41297284 -0.3898573
660 -0.2340787 0.37110204 -0.019039018 -0.4825805 -0.5559042 -0.040910378 -0.1825213 0.16393617 0.34689993 0.4743584 0.0002905256 -0.09805929 -0.11838698 -0.1574343 0.17818742 0.06576382 -0.14506865 0.02166224 0.14743903 -0.09594944 0.099985026 -0.3841427 0.3066531 -0.21150817 0.32348323 0.06971723 0.0046514487 -0.010286535 -0.1643532 -0.2615231 0.46321234 -0.09133734 0.31977123 0.36008108 0.2732081 0.106954925 0.33604285 -0.1866916 -0.6772227 -0.34593728 0.100571774 -0.33670518 0.332447 -0.41352725 -0.39969733 0.13052376 0.21656059 0.14053907 -0.042577192 0.05306044 0.0990612 0.17251526 -0.36772943 0.2337836 -0.09264568 0.5249586 -0.3764365 -0.12600437 0.09224218 0.13981014 -0.13683575 0.1246841 0.02818748 0.2548552 -0.33884296 -0.18803827 0.18935329 0.6449838 -0.14801373 0.034734014 0.06730846 -0.6726076 -0.12226445 -0.15895218 -0.030166287 0.10596579 0.06550807 -0.20098257 0.67808235 -0.2212121 0.45855266 -0.19373243 -0.2689802 0.23703012 -0.008995602 0.3841966 0.066607855 0.19796212 -0.42336828 0.09677853 -0.19812277 -0.0674139 -0.14229995 0.3930644 0.21998078 -0.24338661 -0.30118623 -0.24605659 -0.27837864 0.11310235
608 -0.07746858 -0.39169234 -0.038543675 0.28399587 0.3459588 0.12707165 0.28503618 -0.08867142 -0.35780692 -0.055170264 0.33959487 -0.09932584 0.08690976 0.12023594 0.020433633 0.030112248 -0.2730086 0.031952642 -0.0963405 0.10839538 0.060723063 0.07588064 -0.36133718 0.1575494 -0.5050938 -0.31352094 0.094097495 0.061155036 0.19938922 0.25264546 -0.21446678 0.37149203 -0.19115794 -0.2321006 -0.12699632 0.5159765 -0.29869142 -0.0717942 0.20196861 0.30626282 0.117729604 0.16617626 -0.2468893 0.07192687 0.102803096 0.004751213 -0.042189352 0.14960486 -0.17311148 0.011759463 -0.083128825 -0.17569028 0.17457652 -0.15812097 0.21533498 -0.6707104 0.14169161 0.24841708 -0.25439772 -0.31273463 0.086756006 -0.24912336 -0.16845122 -0.010402218 0.29404593 -0.3985844 -0.031065702 -0.5822389 -0.1969921 0.17455494 0.23266508 0.19889106 0.2330262 0.16105102 0.048786692 0.13056558 0.07577509 0.67130226 -0.19261424 0.21951443 0.05684795 -0.29448816 0.40144467 0.016794944 -0.049472194 -0.3084925 0.6834864 0.15620376 0.0477226 -0.06949156 0.5129504 0.0928402 0.29916117 -0.3187981 0.011096598 0.4573118 0.096095614 0.029321013 0.44931164 -0.07631237
182 0.2621718 0.26913658 0.34595317 0.031258646 -0.61960167 0.08258412 -0.44438756 -0.2911064 0.30458033 0.5478061 -0.09994482 -0.28881592 -0.04125402 0.15678848 0.29921252 -0.3808683 -0.037677076 -0.03873564 0.2713524 -0.07140181 0.21368422 -0.4721321 0.27255112 -0.21678634 0.265752 -0.07951047 -0.3014371 0.06673061 -0.08422143 0.06164093 0.22144023 -0.04014446 0.031104676 0.08818559 0.14484596 -0.22391333 0.550075 -0.356065 -0.8625475 -0.2612713 0.063886605 -0.55151546 0.32813168 -0.24627341 -0.17258108 0.59871346 0.08937647 0.5385307 -0.03748914 -0.24431893 0.21999109 0.32442674 -0.22386923 0.6042814 -0.18120562 0.21696322 -0.27882007 0.06317396 0.39689392 0.29961553 -0.097273745 -0.20382077 0.18034084 0.0028249675 -0.6351287 0.23470621 0.08894414 0.6940182 -0.08134045 -0.07308247 0.074336424 -0.48525843 -0.0029038019 -0.106014125 -0.3099614 -0.12442886 -0.18509273 -0.32326797 0.2719339 -0.1985429 0.021756068 -0.13477828 -0.055216815 0.023256132 -0.02713643 0.46442756 -0.1386565 0.22896598 -0.7160717 -0.10274296 -0.038594775 -0.07193741 -0.13952817 0.5124425 -0.1917 -0.28653544 -0.63431555 0.0115704965 -0.25701016 0.06438865
1902 -0.34598145 0.4371159 0.28281668 -0.36905795 -0.3929814 -0.02324533 -0.23515105 0.29877406 -0.13339661 0.111312926 0.14103898 -0.046282932 -0.13509786 0.101489484 0.32161745 -0.060375977 0.20455736 0.31191546 0.32876167 -0.44058067 -0.15491712 0.09165051 0.63538456 -0.20376399 0.41227925 0.1489839 -0.390068 -0.18674108 -0.09849308 -0.059225246 0.39101353 -0.6318904 0.32489958 0.16342086 0.019923834 -0.15445612 0.5158125 -0.040163606 -0.7186641 -0.32060474 0.38680747 -0.24914828 0.08970474 -0.043077573 -0.004006228 -0.017955279 0.038470697 -0.36168614 0.05748831 0.12489115 0.09318824 -0.009023583 -0.37101766 0.36325684 -0.4192557 0.40601218 -0.2868528 -0.10598871 -0.084672816 -0.19630063 0.1046123 0.4343473 -0.04032199 -0.12894385 -0.89932287 0.25161123 0.057343695 0.40441474 0.116777554 -0.16414548 -0.15940249 -0.15289247 -0.37626302 -0.4012225 -0.15422134 -0.52203035 -0.40850475 -0.26206422 0.16330501 -0.25062168 0.22960003 0.1557381 -0.53655213 0.3031171 -0.13106671 -0.037098784 -0.37761834 0.079618126 -0.018988429 0.51517475 -0.5328748 -0.34843853 -0.07136911 0.27235076 0.3663104 -0.39738607 -0.24447888 -0.4249302 -0.3807397 0.18723056
715 0.013626898 0.46775988 0.024001807 -0.34760016 -0.66178334 0.12903437 -0.09848078 0.060554486 0.16216558 0.12961556 -0.30459583 -0.24142511 0.037691 -0.03228266 0.6149892 0.17179807 0.08201223 0.08408548 -0.019591644 0.13868228 -0.00017259293 -0.19369978 0.2835681 -0.36116374 0.20964976 0.23758756 -0.2619991 0.29573327 -0.24116836 -0.13305634 0.22595857 -0.1776651 0.21714538 0.41578463 0.18942621 0.099989615 0.3571449 0.051342558 -0.74921316 -0.23560339 -0.11522689 -0.221178 0.012218691 -0.050671607 -0.36381546 0.19249164 0.22694209 0.1085261 0.21047975 -0.1217207 0.14116757 -0.12121859 0.042949878 0.387345 -0.19278164 0.45538837 -0.18732552 -0.1825997 0.07115218 0.33434847 -0.03157249 0.08069226 0.009196378 -0.008814598 -0.4229981 0.17828865 0.08114076 0.4079951 -0.04923344 -0.32011473 -0.077678114 -0.53437066 -0.35638538 0.13308388 0.08421486 -0.15033989 -0.1368775 -0.29392102 0.34441936 -0.26365885 0.20264287 0.09940816 -0.13614897 0.21133356 0.06238907 0.14819902 -0.069025226 0.2077803 -0.23462544 -0.04475429 0.056698322 0.026162682 -0.05472492 0.51502055 -0.10478408 -0.02316913 -0.17733933 -0.26290005 -0.10642067 0.29137054
21 0.2127409 0.49687916 0.23488927 -0.23834836 -0.52574074 -0.23628452 -0.3868301 -0.17950387 0.16374849 0.5145954 -0.23182774 -0.09813003 -0.21610405 -0.102672845 0.15012242 -0.24306712 0.2737022 -0.011037335 -0.07964429 0.21642417 0.0030643889 -0.43451065 0.30885568 -0.2930306 0.1636399 0.22089456 -0.01949924 0.13565975 0.02102172 0.010846566 0.43833703 0.114759505 0.3025588 0.28104034 0.1557927 -0.1569292 -0.096223444 -0.37940192 -0.4708119 -0.52864707 -0.164484 -0.26903418 0.27529627 -0.3294607 -0.5398189 0.5753621 0.09586242 0.06193147 -0.07768799 -0.12671877 0.27430376 0.3751014 -0.39788812 0.23511803 -0.27812436 0.35975817 -0.3348995 0.14036472 0.1204708 0.07133396 -0.42091417 0.21255207 -0.12553984 -0.38191643 -0.5517879 0.0664696 0.25066432 0.16592257 -0.17711708 0.057644825 -0.37904826 -0.5287582 -0.24625324 0.020095646 0.06126301 -0.086789176 -0.32801577 -0.2986339 0.0954344 -0.24909277 0.24777307 -0.12986366 -0.2084635 0.30105445 0.16452238 0.40020058 0.11653499 0.11916664 0.03370586 0.028326018 -0.05264948 -0.018184166 0.03673604 0.4206549 0.17590845 -0.38609546 -0.24990986 -0.23344718 0.03965815 0.13371246
353 -0.08203437 -0.42473578 -0.007344042 0.19697838 0.6041177 0.22218718 0.21701491 -0.16082257 -0.5037326 -0.54295987 -0.03278509 -0.23854195 0.43506154 0.5406874 -0.48916388 0.12963273 -0.6065654 -0.08391127 -0.13005427 -0.010853906 -0.18271063 -0.054311458 -0.5046544 -0.18809827 -0.5124142 -0.14769377 -0.19236787 -0.06074343 0.24371321 0.31906423 -0.24778098 0.34054413 -0.3525013 -0.22686754 0.11786249 0.53853285 -0.6186483 -0.16151316 0.35977772 0.35956216 -0.48596922 0.24499652 -0.36456794 -0.03706098 -0.16400118 -0.12182699 -0.15138699 0.21178024 -0.12601432 0.1728996 0.13038048 -0.16236514 0.1760924 0.070689246 0.23235157 -0.81459385 0.3203923 0.19219926 -0.33912653 -0.31096664 -0.04377509 -0.36319414 0.29162505 0.106099166 0.5520594 -0.51103246 -0.08303785 -0.20610291 -0.20950253 -0.15542229 0.09539092 0.029110543 0.19088534 -0.02035567 0.37005225 0.36697453 0.10758565 0.56010497 -0.43053305 -0.15266526 0.014116032 -0.20498697 0.4342216 -0.14850356 -0.20763764 -0.39858177 0.30267537 0.29044437 0.11955265 -0.2028927 0.37882793 0.3141574 0.21325523 -0.6346272 0.039458837 0.027960164 0.09929146 0.26924014 0.2614311 -0.092941314
1 0.10568754 0.7873853 0.36519977 -0.22188544 -0.73993796 -0.22959197 -0.2851975 -0.28819028 0.8381174 0.21047138 -0.5193182 0.23593177 0.1381719 0.025972905 0.24647018 0.21767299 0.051650997 -0.13490945 0.34904358 0.58552396 -0.2993817 -0.36973566 0.061422758 -0.33632678 0.4641397 0.06423197 -0.062170565 0.17066032 -0.0958101 -0.2624825 0.1340731 0.37609172 0.073661916 0.1757336 0.029588005 -0.122920185 0.47066012 -0.19236363 -0.11980175 -0.32726362 0.09655229 -0.5416638 -0.069198914 0.07458327 -0.6158815 0.2081532 -0.119709134 0.15554966 0.35316637 0.0958802 0.08719031 0.118659385 0.09232068 0.35742998 -0.3921844 -0.01164855 -0.5341975 0.13924927 0.019480685 0.6467763 -0.015026268 0.26310882 -0.27562898 -0.6402951 -0.47862643 0.5055008 0.19875649 0.3285735 0.1680097 -0.07995077 -0.3905177 -0.4417312 -0.15501244 0.084047794 0.2996056 -0.08213855 -0.13396958 -0.39158425 0.77912945 -0.20123559 0.08214828 0.2426604 -0.46829993 -0.18436909 0.06713708 0.29672265 0.0039040002 -0.012159149 -0.49699914 -0.5128704 -0.110916734 -0.13309795 0.25811282 0.16421211 -0.2174342 -0.65408134 -0.83155775 -0.018682497 -0.25244972 0.37688625
1023 -0.06919159 -0.2873233 -0.18690604 0.27713597 0.6443384 0.16016944 0.37592602 -0.28514475 -0.49674952 -0.26214376 0.47625738 -0.29182595 0.09799485 0.122531965 -0.75742936 0.17350884 -0.07032885 -0.13675986 -0.15557382 0.30164638 0.2727502 0.20159684 -0.38151324 0.08913654 -0.5452393 -0.04309646 -0.0212684 -0.61818457 0.1800972 0.44541207 -0.3975127 0.28668216 -0.076365665 -0.73387474 -0.09505697 0.6762394 -0.4899939 -0.23024926 0.4875755 0.030914351 -0.19261202 0.20453204 -0.13301961 0.20273495 0.41768408 -0.063621365 -0.33274123 -0.21585967 -0.25277862 -0.23021019 -0.11304332 -0.1476811 0.27039036 -0.2965486 0.32669693 -0.38111526 0.1742224 0.03676908 -0.17818756 -0.38879675 0.41748026 0.108186945 0.31248125 0.69559735 0.32549015 0.07044589 0.16724971 -0.6120409 -0.021232728 0.06822151 0.10788273 0.2817832 0.017229982 -0.0192385 -0.24543594 0.5971167 -0.15535046 0.5463186 -0.25211298 -0.0011786335 0.034833577 -0.10182791 0.09178158 -0.16301216 -0.097238146 -0.22122969 0.32046744 0.16139469 0.084144644 0.14238074 -0.121417575 0.03860347 0.52632034 -0.066899605 0.065695524 0.18164986 0.3558179 -0.15131883 0.3652 0.2526993
1610 8.0192636e-05 -0.7240731 -0.30518302 0.14279401 0.48115015 0.062436458 0.07289214 0.048962377 0.07945454 -0.36674005 0.3230584 0.22534622 -0.26514405 0.32884458 -0.19769032 0.20878677 -0.1419298 -0.31269705 0.055499863 -0.08571603 0.29084852 0.014719289 -0.23246202 0.1349143 -0.38983983 -0.16430908 -0.16163354 -0.13852626 0.04634223 -0.18338065 -0.16475514 -0.09969301 -0.5382435 -0.25729644 0.004497616 0.5545592 -0.63793546 0.2594811 0.4804916 -0.036787894 -0.030473411 0.4031496 -0.06383146 0.3277007 0.8390337 -0.33766168 0.11877838 -0.24000727 -0.21127886 -0.21395566 0.10633452 0.19812323 0.52838314 -0.15463145 0.1703678 -0.42757353 0.28402418 0.3352112 -0.120963134 -0.33366048 0.2617614 -0.092107445 0.18294847 0.28106868 0.468836 -0.18113926 -0.3521074 -0.32899457 0.07397812 0.058970887 0.09323207 0.08005508 -0.10461042 0.042323463 -0.037982345 0.012323089 0.084411755 0.27432662 -0.10800639 0.20668726 -0.098650634 0.023852292 0.5779962 -0.08304858 0.15119733 -0.435154 0.4281902 0.20510423 0.54264283 0.060677763 0.17098783 -0.036241096 0.57407135 -0.37771147 -0.124779835 0.32466048 0.8881955 -0.14770067 0.34436765 -0.31352773
825 0.16081749 0.6427047 0.15432832 -0.00024498254 -0.5277164 0.030076237 -0.060881965 -0.30095187 0.25190228 0.0885689 0.07287244 -0.15785582 0.028927214 -0.13906887 0.2403137 -0.048145957 0.15682964 -0.078454256 0.43617108 0.1536137 -0.15723896 -0.45735475 0.240977 -0.05144395 0.25548437 -0.1241325 -0.1706245 0.19785917 0.12827311 -0.24987008 0.3670209 -0.10206322 -0.01765381 0.18166423 -0.048260864 -0.3077634 0.39786914 -0.053750925 -0.55386597 0.027330479 0.04266799 0.038805693 0.15111084 -0.18767123 -0.350647 0.34908485 0.09781853 0.11245673 0.33002478 -0.22977042 0.13526772 -0.20268486 -0.1537981 0.16643153 -0.35371974 0.52579284 -0.15345225 -0.052762978 0.19494791 0.21788739 -0.06570693 0.1569793 -0.10665909 -0.18688904 -0.41299754 0.24524581 0.18720691 0.29359078 0.10201697 -0.079437815 0.13733469 -0.70727867 -0.12638319 0.0052422066 0.19103904 -0.12172287 -0.13965712 -0.39440703 0.2141213 -0.012393529 0.17458868 0.13761233 -0.38032764 0.21462388 -0.001573128 0.5381336 -0.028252821 0.32267684 -0.029264798 0.20280969 0.08805003 0.12191296 -0.2608501 0.21556987 -0.018449564 -0.029821418 -0.3293637 -0.3664395 0.0825689 0.31745124
1745 -0.10207513 0.46972507 0.051266696 -0.2031519 -0.57360643 -0.30933103 -0.49974003 -0.08861992 0.3290149 0.15585546 0.03910259 -0.08135784 0.22482634 -0.10485242 0.19527808 -0.18411584 0.3773295 0.006780914 0.05489447 -0.05282309 0.019533845 0.13668597 0.19155262 0.2532182 0.253062 0.12816738 -0.27484527 0.2418409 0.13894205 -0.16781625 0.3135133 -0.23550227 0.05612895 0.16756894 0.11705329 -0.209578 0.3647767 0.14989674 -0.43851683 -0.025630342 0.0057292464 0.07376134 -0.14310323 0.006608684 -0.017956322 -0.17434296 0.13652368 0.043195903 0.3214128 0.044014037 0.35234544 -0.15423207 -0.1007798 0.36572564 -0.5018902 0.6090214 -0.09199798 -0.026378939 -0.078878194 0.20115235 -0.27213898 0.74250364 -0.09720496 -0.05115986 -0.34296814 0.118204005 -0.07589828 0.47360635 0.36549655 -0.15213656 0.008898007 -0.4263059 -0.05707126 -0.4358577 0.07749101 -0.13797595 -0.23638384 -0.3825825 0.37225354 -0.12038963 -0.102559954 0.36735013 -0.09620354 0.38730428 0.07796551 0.5051531 -0.053016864 0.032772977 0.032710243 0.2583791 -0.07448554 0.08661585 -0.45595276 0.59016275 0.23246984 -0.15143989 -0.53724575 -0.57316 -0.005808543 0.24605648
940 0.051472787 -0.5103517 0.32528105 -0.12151312 0.16603948 0.39427435 -0.024017358 -0.10658307 -0.47273564 -0.49170384 -0.0095598055 -0.06009499 0.12843463 0.26227763 -0.26844153 0.29223794 -0.27592272 0.0075155883 -0.27418798 0.09373742 -0.0595084 0.12719327 -0.6450653 -0.13606192 -0.5154195 -0.10865709 -0.028317884 -0.5246593 0.47716916 0.09771498 -0.15638989 0.253829 -0.5663112 -0.153059 -0.0010417867 0.3758054 -0.43981647 0.19816552 0.7615608 0.04810786 0.48738554 -0.12138262 0.10152609 0.1795253 0.30789393 -0.41422686 -0.17908289 0.0033874195 -0.5137913 0.2804556 -0.4566293 -0.13672175 0.18433867 -0.22367069 0.05050745 -0.5447411 -0.18294391 -0.08542778 -0.3607904 -0.39587 0.14630902 0.13487609 -0.1139936 0.08387419 0.5303106 -0.07621957 -0.006987384 -0.3915357 -0.3451241 -0.07904705 -0.034704197 0.3389863 0.25558132 0.26943666 -0.0029381888 0.50798124 0.22310928 0.49642724 -0.29364637 -0.1340174 -0.06342584 -0.040129315 0.591415 -0.056299485 -0.18759894 -0.47987527 0.44443622 -0.036473837 -0.0815732 -0.08847355 0.23625769 -0.26534468 0.35461184 -0.37459642 -0.21883 0.18535541 0.4844419 0.0059819114 0.067053765 -0.23641464
1544 0.09649423 0.26949668 0.34088767 -0.13256904 -0.38851994 -0.14791922 -0.41695994 -0.18150425 0.40936816 0.13262847 0.28056777 -0.09521892 0.20724027 -0.2724232 0.36370307 -0.059999265 0.32413393 0.122108445 0.047970798 0.065227136 -0.19393973 -0.23364466 0.39943722 -0.18180043 0.3132825 0.42096537 -0.07295588 -0.009454358 -0.06827644 -0.39384758 0.0743638 -0.410964 0.32064757 0.501485 0.5137398 -0.4883866 0.24645655 0.17419364 -0.30612597 -0.07680592 -0.022778677 -0.07371017 0.3410682 0.015893081 -0.19540243 -0.3637213 0.11327349 -0.12167857 0.3658307 0.07578951 0.27656165 -0.20090187 0.05772989 0.57453805 -0.47607848 0.2519996 0.07844436 -0.08973517 0.11119232 0.4724411 0.04439655 0.31119138 0.01658879 -0.09825798 -0.06762074 0.08451279 0.08271011 0.21094458 0.06934497 -0.17505759 -0.09448203 -0.65984577 -0.286361 0.20130128 0.056224383 -0.47902942 -0.16558903 -0.35559925 0.5869275 -0.34465173 -0.24642682 -0.2527713 -0.62204283 0.10561626 -0.123186715 0.4380686 -0.20187986 0.18395334 -0.11143576 0.08681147 -0.0873281 -0.12353727 0.019974513 0.4257827 -0.1376212 0.009365031 -0.17097522 -0.036005907 -0.4332379 0.3030425
1446 -0.2014203 -0.36567327 -0.45924973 0.48174328 0.90323514 0.27269772 0.19344927 -0.14280613 -0.44920197 -0.52023584 0.17241222 -0.19300586 0.1659744 0.1604406 -0.5103344 0.15879905 0.4040707 -0.16972125 -0.008116975 0.054141954 0.5595525 0.06257546 -0.23812984 0.27785167 -0.19486786 -0.34558874 0.37139538 -0.09727483 0.026007602 -0.21907872 -0.29390612 0.22964498 -0.3435934 -0.591551 0.05127901 0.14584129 -0.2591566 0.02345755 0.38738948 0.39512655 0.20929487 0.1518936 -0.51760113 0.63395816 0.6422581 0.10186241 -0.43117458 0.17693035 -0.30937845 0.14236026 -0.19047597 0.0033757496 0.4977169 -0.36207366 0.36398834 -0.30029103 0.07189924 -0.2662995 0.07728936 -0.52407795 -0.1172018 -0.07774597 0.0345616 0.23133697 0.63256496 -0.3202006 -0.1392582 -0.6102526 -0.1056588 -0.09690924 -0.13786905 0.035699405 0.15802681 -0.18061365 0.205537 0.14339411 0.2731433 0.21994968 -0.17889997 0.28256667 -0.10660613 -0.18751302 0.096032724 -0.056787446 -0.15313293 -0.22090699 0.47864482 -0.013773545 0.09934561 -0.0632266 0.2620823 -0.09000596 0.16695972 -0.19841716 0.4962897 0.48363075 0.31555334 -0.08364037 0.046864513 -0.34393257
1390 0.058098763 0.2256422 0.45854554 -0.13731529 -0.35750586 0.15655777 -0.24369082 0.39002982 0.31864962 0.5195224 -0.102818556 -0.092958234 -0.13193947 -0.53614163 0.13981071 -0.18650939 0.16732338 -0.04554563 -0.26701483 -0.005194555 -0.087209694 -0.21024731 0.5207772 -0.065545574 0.4071297 0.15343176 -0.36472714 0.008868875 0.06204923 -0.27743554 0.14417744 -0.1433184 0.171442 0.26975036 0.22582975 -0.24088779 0.16188093 0.32722107 -0.44614446 -0.28738636 0.103599355 -0.06110332 0.40642053 -0.31184638 -0.17774498 0.21744299 -5.0522354e-05 0.11743593 0.3792807 -0.09445383 -0.041813746 -0.025798265 -0.12716392 0.1141039 -0.15806685 0.37109196 -0.0062059322 0.0485903 0.2913568 0.16804238 -0.021210983 0.2831843 -0.2000913 -0.11519365 0.015636628 0.36421227 0.21783097 0.25153986 0.19317324 -0.2144057 0.16971827 -0.7021478 -0.66774076 -0.10937306 0.11806522 -0.23486868 -0.27838558 -0.45738813 -0.13661006 -0.46123928 0.057225127 0.16241841 -0.38192686 0.09358546 -0.28358835 0.40929225 -0.46522182 0.031207513 -0.11319176 0.13780221 -0.30769253 -0.30975503 0.10828812 0.448183 0.2187289 -0.5095127 -0.47123048 -0.4043805 -0.2622851 0.24335256
494 0.15065143 0.22751756 0.022909008 -0.23847848 -0.6562918 -0.45876747 -0.4997948 -0.08821165 0.338239 0.24393365 -0.087233 -0.31440207 0.0117864525 -0.10262375 0.097502396 -0.033973873 -0.018098554 0.2830354 -0.006988482 0.024152793 -0.1421466 0.27280155 0.4106518 -0.33934337 0.3347799 0.20501128 0.110150926 0.22949295 -0.21888322 -0.3158645 0.29022002 0.031775184 0.05218897 0.41496876 0.15602727 -0.12260895 0.24632455 -0.065435894 -0.6508517 0.05919776 0.25465995 -0.065026976 0.2996016 -0.15219761 -0.59036344 0.17130035 0.45908633 0.30670896 0.19422883 -0.014291666 0.025964847 0.1415628 -0.44053814 0.25478256 -0.4490758 0.2932288 -0.26083973 -0.13273202 0.30881798 0.37906304 -0.05788662 0.40121326 -0.04633539 -0.2141154 -0.6214068 0.11635768 0.08613771 0.061943594 0.15071301 -0.031865582 0.013666607 -0.44359142 -0.4299921 -0.07666565 -0.26301914 0.11681448 -0.157086 -0.26217642 0.17599739 -0.001990453 0.43376318 -0.17998233 0.029447393 -0.16512284 -0.37352884 0.576784 0.032708123 0.4718379 -0.054933812 -0.34247985 -0.13465784 -0.03381972 -0.3770736 0.2087049 -0.03933448 -0.23944338 -0.26061624 -0.22300544 -0.03724138 0.3618902
1195 -0.34030703 -0.07980267 -0.07118867 0.08102683 0.24239327 0.6057896 0.19505922 -0.1748396 -0.07906625 -0.061607935 0.38557926 0.144448 0.13507687 0.07019474 -0.5607756 -0.056726113 0.030144723 -0.26045984 -0.09907844 0.35496986 -0.0013529367 -0.16083752 -0.24054493 0.20700441 -0.39469567 -0.16698533 0.17124721 -0.20315477 0.1482446 -0.0055364594 -0.12235069 0.33516765 -0.2278344 -0.43770987 -0.22097193 0.328136 -0.51423573 -0.030079786 0.5255864 0.03173 0.20603162 -0.005137749 -0.14491005 -0.017076107 0.5012852 -0.15629476 0.014285856 -0.15084483 -0.25096846 0.18922795 -0.12501685 -0.062080562 0.51752776 -0.3607418 0.30237642 -0.5179996 0.35924152 -0.005384509 -0.24303441 -0.19363412 0.113583036 -0.3151802 -0.042836964 0.18668765 0.6343079 -0.26629916 0.08245341 -0.7024027 -0.063449584 -0.026145399 0.100419365 0.538954 0.21426503 -0.15897496 -0.024758559 0.32973546 0.32639328 0.3007596 -0.15632395 0.12675366 -0.06326495 -0.35478345 0.008267102 -0.037564546 0.12086837 -0.29212642 0.3074898 0.0064173206 0.23591828 0.14434588 0.36458007 -0.06035563 0.47144222 -0.18408415 -0.1304244 -0.13823724 0.4123816 0.21118958 0.5787704 -0.14657383
1154 -0.007371275 -0.41916212 -0.0052678064 0.03190702 0.42077032 0.65208244 0.42037308 -0.20604232 -0.44655856 -0.24965976 0.34805027 0.25912035 0.18377753 0.028670954 -0.43105435 0.26785892 -0.0012522385 -0.20273703 -0.19856887 0.033911258 0.34634206 0.109949745 -0.32135466 0.19946203 -0.625727 -0.14797968 0.06811972 -0.18424676 0.2629934 0.01774783 -0.38030463 0.025080627 -0.23053013 -0.24459568 0.04563579 0.3514888 -0.24058442 0.20074613 0.3993381 0.36685047 0.109148465 0.10777997 0.116793856 0.18092464 0.43520877 -0.023305258 -0.4148662 0.49780485 -0.45128462 0.1804236 0.047501545 0.14129823 0.042568598 -0.55154663 0.49475104 -0.51569813 0.20483819 0.038953573 -0.28554252 -0.16632457 0.21119888 -0.22188468 0.17930503 0.12291438 0.33764 -0.44687316 0.0802643 -0.17449532 0.039436 0.25490108 -0.10959753 0.25482666 0.13567647 -0.26139286 -0.019443296 0.16170673 0.19685297 0.2648581 -0.29619658 0.20491374 0.1325543 -0.3126761 0.29031247 -0.038102053 -0.12087561 -0.4718477 0.37552637 0.25059104 0.22068444 0.034978945 0.09163869 -0.17985785 0.45218307 0.07851536 0.00016933645 0.6221251 0.13785067 0.22149135 0.27758148 -0.0942961
638 -0.009937686 0.7484036 0.4059477 -0.15505455 -0.52651453 0.01737571 -0.25576597 0.071464084 0.5325124 0.5316367 -0.14356521 0.0925032 -0.22407907 -0.19428745 0.35890326 -0.035094447 0.024751743 -0.13473015 -0.3715077 0.21162663 -0.023967393 -0.32064834 0.34075865 -0.32298994 0.3829805 0.4406484 0.047408577 0.25535956 0.21557596 -0.13826083 0.34314415 0.22444609 0.1516904 0.09784839 0.05079013 -0.34197205 0.23729153 -0.070848085 -0.5917017 -0.22853382 -0.1297313 -0.3630421 0.107787095 -0.04485656 -0.33590254 0.07931304 -0.0029413283 0.071185224 -0.18590175 0.03432594 -0.13549244 0.16768035 -0.2785849 0.25740543 -0.13876417 0.1236496 -0.1990851 -0.19740671 0.15545413 0.1250851 -0.5074878 0.15715288 -0.06792884 -0.31777215 -0.37974396 0.13213126 -0.008831393 -0.038289458 0.27628458 -0.2428534 -0.2081328 -0.5373793 -0.26485646 -0.29009366 0.3035769 0.070997044 -0.26894417 -0.15925886 0.41105828 0.0053510293 -0.011712393 0.12015574 -0.44095096 -0.091526836 -0.065520756 0.17560324 -0.17820638 0.3718606 -0.27799353 -0.20739277 -0.3873184 -0.020870544 0.023172919 0.26880807 0.0120589435 -0.3685297 -0.62527174 -0.31821302 0.012199687 0.31999427
604 -0.06243208 -0.044317715 -0.03302314 -0.07477547 0.2712193 -0.04398984 0.3359931 0.012229655 -0.36991543 -0.35186982 0.32207182 0.11362754 0.17620277 0.19609562 -0.45202196 0.081394665 -0.3987995 -0.09027777 0.28020838 0.02964177 0.3559392 -0.12448783 -0.5287931 -0.022780973 -0.23306449 -0.21934797 -0.04429386 -0.20571853 0.11658655 0.334625 -0.17303048 0.029014632 0.16750734 -0.14190662 0.2363443 0.40686032 -0.37581697 -0.17324236 0.37074503 0.2529031 0.32739678 -0.076139934 -0.35748953 -0.095042184 0.2597956 -0.028616076 -0.20393577 0.4329606 -0.29764113 0.029840756 -0.15305953 -0.275589 0.37050352 -0.32460055 0.43640342 -0.5552923 0.0965556 -0.14469092 -0.017543094 -0.34312132 0.0851584 -0.42837358 -0.065811776 0.1440567 0.5973782 0.029594308 -0.1259621 -0.35969087 -0.14248313 0.09509433 -0.05623452 0.10422707 0.41726214 -0.053316705 0.039060134 0.28584772 0.037219036 0.12303489 -0.16993399 0.117983684 -0.10470678 -0.45666006 0.60565925 -0.19739152 0.003773467 -0.33578503 0.64011663 -0.037422646 0.27678126 -0.22905827 0.31940642 0.08182169 0.3607833 -0.43008283 0.023125786 0.38837576 0.3748525 0.093834564 0.3566238 -0.3206008
1440 0.014099962 -0.62082 0.09692508 0.29150233 0.806997 0.66849035 0.102342404 -0.24001862 -0.38373193 -0.4162491 0.025576055 -0.0682003 0.045455147 0.04927381 0.027449837 0.20332311 -0.06663778 -0.4294967 -0.14891401 -0.011113624 0.48515743 -0.16831233 -0.7944471 -0.33447173 -0.46577504 -0.2041753 -0.08215118 -0.44829708 -0.022570904 0.061738584 0.12330207 -0.29576087 0.010635003 -0.48281473 -0.07688408 0.1310545 -0.5458867 0.19871664 0.5085156 0.43217984 0.14663741 0.3915533 -0.15369469 0.39942062 0.3082226 -0.2815512 -0.24812059 -0.19130264 -0.20946921 -0.039193366 0.13425438 0.15521601 0.67732584 -0.19939287 0.47099462 -0.6066818 0.1453302 0.096633404 -0.45595974 -0.31177485 0.2008581 -0.1345941 0.15170015 0.1858909 0.46405956 -0.33684376 -0.18861228 -0.28272498 0.039442964 0.8171181 -0.20291042 0.34828067 0.24670161 0.15665215 -0.22078846 0.32080594 0.06761593 0.4594597 -0.28326157 0.12213874 -0.013717907 -0.0897087 0.39005345 0.15935957 0.35074982 -0.49277562 0.3615071 -0.05363389 -0.018452873 0.14779545 0.3544951 -0.120096944 0.46814165 0.11708649 0.07526657 0.18534274 0.55938745 0.03174169 0.56710804 -0.08908253
1556 -0.2923606 0.05514903 0.04157273 -0.26413068 -0.25422645 -0.031546474 -0.09958234 -0.029131474 0.025834193 0.30423042 -0.15925698 -0.47618234 -0.17360924 0.008551555 0.09246982 -0.046518307 0.44909734 -0.05378177 0.0993418 0.06382906 -0.20338365 0.004500973 0.5081582 0.044116855 0.39433253 0.23973915 0.06392182 0.15091991 0.0068943985 -0.21987677 0.38151753 -0.5155779 0.16773188 0.48086968 -0.13525566 -0.3117613 0.2097746 -0.046346027 -0.7251892 -0.025911473 0.28265 -0.16581422 0.24469286 -0.3055686 0.068528764 0.03231242 0.122339845 -0.21268606 0.4275364 0.26548478 0.13758588 -0.17374225 -0.37618575 0.12827268 -0.35207382 0.3126322 -0.032113504 0.06605193 0.090672545 -0.046768278 -0.34659028 0.37014487 -0.24142903 0.13651775 -0.38829014 0.3577181 0.106441855 0.4869941 0.017466076 -0.26580304 -0.014679716 -0.5613565 -0.071517706 -0.06868937 -0.11704345 -0.12279316 -0.20280614 -0.29621696 0.28688464 -0.3815183 0.06956787 -0.041768514 -0.26905674 0.26004952 0.1311899 0.20875861 -0.15616147 0.20733252 0.12542926 0.33912715 -0.29279977 0.113191135 -0.49395666 0.75334954 0.21904078 -0.5748662 -0.15164354 -0.30731982 -0.25008452 0.25898212
1831 -0.082786 -0.7505081 0.16498445 0.24466078 0.5948753 0.32063854 0.12407991 0.19059722 -0.4494979 -0.35586804 0.06904339 0.08222139 0.25575656 0.3715189 -0.09864316 -0.013329535 -0.13782299 -0.100590214 -0.4079912 0.18848902 0.35994247 0.4038559 -0.3636865 0.2039879 -0.015546197 -0.19925942 0.016971933 0.0055962624 -0.11137591 -0.038106102 -0.1830993 -0.050050493 -0.3521114 -0.4924296 -0.014293391 0.38938758 -0.55556834 0.25678214 0.7239343 0.20395087 0.10326317 0.66650945 -0.40762505 0.16761318 0.40290588 -0.3255583 -0.2958452 -0.14850812 -0.26834023 -0.04006448 -0.17485344 -0.076407224 0.28279448 -0.14568065 0.1259951 -0.2822401 0.15974829 -0.07483271 -0.37737513 -0.32793906 0.21825393 -0.0048917634 -0.1232579 0.1590332 0.4603557 -0.033461496 -0.28778106 -0.10090394 -0.22498573 0.1452067 0.15060066 -0.002242263 -0.12552479 0.021938205 0.12195283 -0.056707058 0.2714398 0.10139042 -0.13896209 0.20352036 -0.471948 -0.03840177 0.16606575 0.08144199 -0.14081478 -0.6744044 0.18895398 0.07547395 0.50834596 -0.038099207 -0.008942139 -0.036536317 0.23742366 -0.29090637 0.025576033 0.6264796 0.5182105 0.06958688 0.578812 -0.03452064
1272 -0.017611768 0.18143764 0.006507417 -0.36317208 -0.50732505 -0.19036837 -0.6782729 0.09712983 0.2794547 0.2511365 -0.24706596 -0.028991178 -0.24436112 -0.17736828 0.32941934 -0.14862734 0.15948279 -0.049034998 -0.33712563 0.06163145 -0.0073259235 -0.17564084 0.1668645 -0.12285366 0.34991756 0.11733778 0.37977254 -0.19316873 -0.07796157 -0.2738716 0.3770186 -0.11632419 0.0843477 0.23962791 -0.053490393 -0.18207684 0.48316893 0.05280852 -0.47529358 0.09144252 -0.002714124 -0.17418274 0.46433443 -0.008459348 -0.06183694 0.19931298 0.021058517 -0.14476515 0.3480544 -0.11731459 0.2331621 0.03404759 -0.23685578 0.30487594 -0.5192757 0.38584414 -0.12064392 0.023757845 0.26509306 -0.027700176 -0.4259075 0.3327563 -0.112732194 0.14277539 -0.7740022 0.4733067 -0.0075232047 0.31651774 0.007586007 0.0072393105 0.09022362 -0.27805132 -0.10707982 -0.24121386 -0.25282383 -0.23889726 -0.041339137 -0.1905784 0.035808258 -0.36069843 0.1748296 0.07206364 -0.054035656 0.21567033 -0.081835695 0.21859577 -0.16695882 0.079509765 -0.24355873 0.23537333 -0.28325963 -0.39064908 0.28292114 0.7181378 -0.1434215 -0.26296932 -0.51735204 -0.25873718 -0.2624845 0.060821313
1794 -0.27065682 0.26031426 0.1156812 -0.212647 -0.771764 -0.21490286 -0.2138127 -0.16689532 -0.06582483 0.3790718 -0.12788266 0.11919845 0.018445736 -0.34825903 0.47698623 -0.13743408 0.25223598 -0.21818486 0.0047147763 0.044068635 0.05651605 -0.1642829 0.33692485 -0.26237065 0.35499924 0.108881935 0.0077601457 0.30244094 0.0668973 -0.18893859 0.3421728 -0.55140674 0.23863582 0.23321417 0.42463818 -0.1675444 0.19982596 0.27448466 -0.3237228 0.019421645 0.07515958 0.24824394 0.3180437 0.17166576 -0.09864258 -0.20994808 0.08829754 -0.4832258 0.12879518 -0.20788679 -0.08222345 0.015609129 -0.35904238 -0.04994911 -0.26934877 0.6322929 -0.20186818 -0.7139847 0.3393559 0.3526529 -0.34161067 0.4005958 -0.2946474 -0.19087906 -0.72794557 0.36269617 -0.50049293 0.3905968 0.44500142 -0.16218077 0.21505567 -0.73744726 -0.3073782 -0.19394486 -0.4967889 -0.22774641 -0.92508936 -0.048448972 0.17915632 -0.50647116 -0.16764122 -0.027707653 -0.32576036 -0.011743815 0.08832042 -0.18660289 -0.23680082 -0.13056754 -0.30443272 0.10435049 -0.18486723 -0.16596517 -0.23481989 0.5122638 -0.055785555 -0.17400971 -0.3562381 0.16642964 -0.3264709 0.3802406
406 -0.44929266 -0.23185268 -0.09571401 0.18208435 0.4850159 -0.021445354 0.3746616 -0.05117724 -0.22842047 0.11135731 0.49266 0.53033566 0.5605688 0.6003445 -0.29496983 0.30050418 -0.25878924 -0.259244 -0.10731924 0.19823574 -0.18856877 0.05375849 -0.30257034 -0.23847483 -0.29729608 -0.1386827 0.19449688 -0.2105369 -0.09461112 0.53303665 -0.28019735 0.47939467 -0.17696717 -0.45804945 -0.20713371 0.5029467 -0.3386668 -0.18664631 0.6632674 0.39813113 -0.22380929 0.3951321 -0.034154538 -0.0017330488 -0.07003971 0.053247936 -0.5605599 0.15624006 -0.34204066 -0.06369597 -0.38465047 -0.113503456 0.35954422 -0.6105989 0.34976485 -0.71937007 0.21681859 -0.32327813 -0.74476784 -0.32942334 0.65795165 0.06299874 0.11220341 0.29824984 0.42857307 -0.5646575 -0.24682786 -0.20150205 -0.10450835 0.12812608 0.56674594 -0.002555323 0.49154902 0.37911716 0.36085507 0.58826643 0.3628334 0.47460255 0.0347935 0.1544012 0.09432275 -0.43701205 0.15794472 -0.021631509 0.2068464 -0.56636566 0.5372135 -0.20525472 -0.09204236 -0.48724642 0.3222545 0.04822516 0.17927392 -0.46079326 -0.05379892 0.0972498 0.21106593 0.013897635 0.30108508 -0.41964412
815 -0.17101096 0.7629657 -0.092995934 -0.25443113 -0.49203417 0.051035352 -0.61394304 -0.14798753 -0.049571462 0.56548476 -0.11145858 -0.13037585 0.16319154 -0.30568683 0.30900335 -0.24975304 0.39685997 -0.11521584 0.0060557164 -0.110868394 0.26681608 0.048122767 0.0407392 -0.0033353486 0.29163152 -0.02447952 -0.17049289 0.16426529 0.006030054 -0.28448233 0.14151348 0.077595286 -0.069693565 0.44543344 0.35769805 -0.6765547 0.52473384 -0.32583168 -0.12416896 -0.43348658 0.055699043 -0.057369225 0.43034488 0.13085796 -0.22900037 0.17489243 0.04674388 0.22223338 0.053111643 -0.023245431 0.173254 0.0007976431 -0.43025708 0.25819805 -0.23860855 0.5546361 0.018449998 0.018913899 0.5368923 0.2551287 -0.0911392 0.1280779 0.022303173 -0.015818976 -0.15440275 0.45493448 -0.04458779 0.3352035 0.053409684 -0.3945669 -0.0954757 -0.5924883 -0.15387136 -0.032975014 -0.23997322 0.034706704 -0.39217487 -0.33540362 0.34563357 -0.17495543 0.49482077 -0.12936349 -0.4944526 -0.008925765 -0.07768539 0.20507213 -0.20373122 0.3119677 -0.3620357 0.12760633 -0.074273154 0.049275264 -0.06779623 0.060917765 -0.029284457 -0.40405425 -0.42791346 -0.091807894 -0.023576895 0.19653887
1369 -0.10245172 -0.49069875 -0.0788805 -0.17429863 0.23305047 0.32845074 0.23165372 -0.21707317 -0.0565618 -0.48704147 0.1466307 -0.11315354 -0.22242609 0.21747477 -0.27149603 0.15255164 0.16982223 -0.09693551 -0.45947835 -0.0973626 0.007642298 0.19171359 -0.15614945 0.008180046 -0.5271045 0.24281567 -0.04062846 0.10639058 0.22048798 0.21095991 -0.62924725 -0.27428645 -0.28594345 -0.5671895 0.052245513 0.37571374 -0.80641127 0.33987322 0.3311157 0.29455528 -0.032959335 0.3760518 -0.04694039 0.732993 0.6017052 -0.2597983 -0.40767372 -0.1298662 -0.56082284 0.11213539 0.010677108 0.15082482 0.012598725 -0.15003689 0.16074622 -0.59745145 -0.09848824 -0.13859706 -0.19737689 -0.3911488 0.09849578 -0.38679948 -0.12900025 0.15378384 0.63178235 -0.1878886 0.062426142 -0.30943036 -0.029293522 0.2952956 -0.13363104 0.47791296 0.29773664 0.37115163 -0.049261443 0.39433512 0.30581954 0.20537837 0.05910771 0.048743572 -0.22661634 -0.20741907 0.5178024 -0.17980282 0.073095754 -0.28325903 0.48409095 -0.083365835 0.15000895 -0.122148186 -0.09909362 -0.23211202 0.41835082 -0.16787106 0.08018724 0.5700138 0.18171018 -0.067213 0.25875273 -0.29314786
834 0.18557432 -0.22572769 -0.4488925 -0.13740686 0.5065641 0.10110358 0.24764362 0.1833194 -0.2670533 -0.40565383 0.43833056 -0.12810583 0.5172427 0.34346572 -0.46011013 0.083590634 -0.00075663504 0.35662073 -0.07896636 0.30446288 0.23844491 -0.035173684 -0.18443003 0.19616148 -0.020022633 -0.4932286 0.050974865 -0.1712753 0.5628516 0.38150263 -0.080140054 0.2490108 -0.33308196 -0.08074763 -0.09083606 0.31477863 -0.23698433 -0.06590941 0.6001319 0.34960833 0.42086115 0.16548084 -0.27288333 0.26536322 0.54666954 0.10187367 0.039346885 0.22264725 -0.025236536 -0.15065461 -0.027343579 -0.3275302 0.589583 -0.20488179 0.307311 -0.6671298 0.119092315 -0.11286086 -0.24649402 -0.35438985 -0.10544107 -0.19164681 0.12577847 0.3029541 0.74836797 -0.46925473 -0.036556154 -0.5149172 -0.49072865 0.29658344 0.03011134 0.504241 0.18231383 -0.041677434 0.08596143 0.10239987 0.020001944 0.29094815 -0.12182351 0.030229233 0.09892644 -0.31042394 0.10939392 -0.15277092 0.053867463 -0.15578556 0.5734103 -0.30451515 0.13330631 -0.19505447 0.4644967 -0.3434449 0.37945545 -0.6888969 -0.027467122 0.16869289 0.37534073 -0.20832914 0.30989093 -0.2814448
1990 -0.20985994 0.22717966 0.30235308 0.190483 -0.5924137 -0.08582884 -0.23951201 0.22759509 0.27048975 0.29253632 0.11017063 -0.8638822 -0.40896365 -0.46076903 0.097000524 -0.1113722 0.04405768 0.1936784 0.10184752 -0.024303496 -0.21695812 0.029302005 0.24509415 0.07640741 0.8653704 -0.18326026 0.024047349 -0.3218325 0.1610373 -0.13882464 0.45736933 -0.54856056 0.15591444 0.30327374 0.06512142 -0.61675256 0.51418966 -0.059740514 -0.8950507 -0.20143747 0.19849539 0.023753015 0.21140914 -0.021430159 -0.16738668 -0.4385132 -0.07047632 -0.45781824 -0.03789168 -0.124913 0.24554121 -0.21266171 -0.412328 0.30362552 -0.48521626 0.6117706 -0.025663942 -0.16044596 -0.14880607 0.12429745 -0.2833933 0.39389145 -0.5265753 -0.29754147 -0.34077325 -0.082225345 -0.20364794 0.43492216 -0.055495407 0.020271575 0.3514329 -0.24671665 0.19842389 0.3942095 0.1255956 -0.52481395 -0.45504662 0.097916126 0.16082402 -0.6857452 0.0959094 0.101652935 -0.8361031 0.1462854 -0.27067864 0.49296385 0.072521105 0.50507045 -0.30126014 0.2491336 0.006331192 0.06761382 0.056577437 0.5658262 0.47349584 -0.22346132 -0.41407567 -0.26534462 0.025465235 0.5026299
789 0.026848808 0.5624277 0.12288297 -0.24458452 -0.5494031 -0.08320606 -0.004193023 -0.316301 0.078461684 0.49862477 0.11324781 -0.06907115 -0.50778127 0.24451114 0.2857039 -0.019985534 -0.021903733 -0.23314878 0.19202216 0.028373333 -0.17188738 -0.31127107 0.13206649 0.10857719 0.51649785 -0.0073949127 0.13594088 0.32875425 0.2107897 -0.022259539 0.68766147 -0.39061078 0.14541353 0.6144478 0.026861344 -0.18425386 0.1575451 0.09520628 -0.6370432 0.08022091 -0.1814931 -0.42803457 0.25512335 0.005768887 -0.39993042 0.38130283 -0.31644502 -0.4125796 0.24914166 -0.21597375 0.15666759 -0.38230383 -0.3646542 0.35833466 -0.21100718 0.662283 -0.2828674 -0.1670389 0.4786597 0.17350605 -0.06183375 -0.20099299 0.06716935 -0.22408892 -0.46232638 0.27747864 0.100152045 0.3218867 0.029460285 0.0763341 0.22967264 -0.26983848 -0.049413133 0.10119623 -0.39394125 -0.20978041 -0.32316065 -0.37265357 -0.07280438 -0.34620014 0.37871122 0.13537177 -0.36657333 0.22732776 -0.2077362 0.3137323 0.121261045 0.38407016 -0.06557983 0.044798892 0.02146018 0.17437854 0.16382398 0.54799384 0.36574423 -0.3007305 -0.54186493 -0.5255135 -0.020801289 0.392144
873 -0.21154423 -0.3256467 0.028467685 -0.032157436 0.52912325 0.29192463 0.1956151 -0.31034225 -0.18388577 -0.23642252 0.35082227 -0.14624628 0.09807612 0.18501545 -0.3250619 0.13573831 -0.20606144 -0.062255304 -0.49681842 0.0740985 -0.033848614 0.37684056 -0.52691746 0.20554572 -0.29134282 0.23661387 -0.05195624 -0.3005091 0.23173746 0.021796832 -0.5516831 -0.017316004 -0.15099145 -0.32379544 0.1409337 0.40448746 -0.60573626 0.13719653 0.38099372 0.0056045204 0.19596832 -0.13726069 -0.06681807 0.5295143 0.2895429 -0.29370373 -0.5016199 0.32556945 -0.33850893 0.15596595 -0.083291195 -0.3652477 -0.041028354 -0.021968747 0.157012 -0.5101275 0.19982147 0.13905369 -0.15543413 -0.3765223 0.37231553 -0.2685785 -0.07713813 -0.061646126 0.48123202 -0.12467956 -0.086005144 -0.38445377 0.08405522 -0.12182151 0.3050964 0.2350718 0.21800357 -0.21457341 -0.16534635 0.21222089 0.32681242 0.40286052 -0.30314884 0.14449307 -0.1300585 -0.26521 0.38972464 -0.0030652522 -0.14969726 -0.23278984 0.48884588 -0.23590009 0.1645197 -0.31301796 0.29437777 0.21354574 0.42238823 -0.49258867 0.008720719 0.14737709 0.46911833 0.14342043 0.33606213 -0.34660664
654 0.22458558 -0.42130542 -0.10098387 -0.20161928 0.08858218 0.33523828 0.16787013 0.07033978 -0.30923778 -0.3118697 0.17109315 0.14603819 0.028778858 0.3146054 -0.32955736 0.10326317 -0.13624698 -0.45433557 -0.19465658 0.19519484 0.4538908 0.002462848 -0.36854044 0.11241858 -0.7844808 -0.22458239 0.45239702 -0.1667586 0.22726054 0.2374105 0.032612763 0.32385692 -0.36259252 -0.15355565 -0.14287646 0.4826263 -0.48725337 0.0176523 0.3851813 -0.00695182 -0.15396369 -0.01247754 -0.24560213 0.27049196 0.10002292 0.0078075905 -0.52814114 0.19732778 -0.39780167 -0.04639423 -0.01562505 -0.099296674 0.10268525 -0.29452655 0.4004082 -0.6140954 0.34277648 0.35884413 -0.115119755 -0.6504509 0.04050689 -0.5754577 -0.04069407 0.12519373 0.5600501 -0.017114682 0.057399016 -0.40396708 -0.14404225 0.24027652 0.15436319 0.13864484 0.1988662 0.08655326 -0.22196348 0.4390166 0.42214257 -0.059697375 -0.17399436 0.24222764 -0.10827408 0.03068771 0.29903182 0.050077524 0.34303698 -0.70532054 0.45684004 -0.030301435 0.03080424 -0.11794718 0.36852387 0.08885445 0.2923792 -0.10555621 0.22841734 0.19152163 0.20817193 -0.1409244 0.1885523 -0.090701625
