2000 100
392 -0.44683394 0.018522317 0.6493884 -0.29043055 0.3962611 -0.18425223 0.5773954 0.068729945 -0.5863194 0.08275767 -0.041402552 -0.036206264 0.43003193 -0.12462997 -0.051410425 -0.26823628 0.1599248 0.12321214 0.3388199 -0.5702774 -0.26840913 -0.07838096 -0.18003167 -0.3030011 -0.092958584 0.19633988 -0.3138457 -0.25526908 0.0894071 -0.41106358 0.053423986 -0.31205276 0.080030166 -0.6757368 0.10757167 -0.32023358 0.056303695 0.09824087 0.025138272 0.017361596 -0.37480912 0.54214966 -0.28435487 0.019638585 -0.53380877 0.38568586 0.073256694 0.20327295 -0.1951028 0.090597555 -0.25250083 -0.2199942 0.17074837 0.0695804 -0.70180285 0.15563878 0.6987146 -0.046182465 -0.3719137 0.2712362 -0.16202362 0.39455387 -0.23007898 -0.19725704 -0.07560174 0.1335739 0.0397205 -0.20493478 0.065026246 0.057180364 -0.43318692 -0.0012018799 0.23179522 0.04929144 -0.28082934 -0.21216327 -0.009568745 0.07074121 -0.3263234 0.32707572 0.08896305 -0.009826567 -0.24463643 -0.36235756 -0.08090182 -0.23760132 0.03300079 0.031204566 -0.13538724 0.22027417 -0.11523828 -0.400751 0.10189157 -0.055196233 0.099147454 0.079596125 0.036841426 0.21145117 -0.061060775 -0.41601786
127 0.366294 0.24507564 -0.7364402 -0.21286914 -0.36721215 0.0050097075 0.042444184 -0.20487891 0.33897144 -0.27804604 0.1018653 -0.17444927 -0.09275742 0.03642858 -0.23964803 -0.25116748 0.01122018 -0.26466158 -0.3614754 0.06584477 0.22611232 0.114118 -0.3294405 0.40331224 -0.059022088 -0.050983608 -0.18590598 0.16362971 -0.074387856 0.47331288 -0.16365571 0.3869749 -0.09591832 0.6942364 -0.07648681 -0.4050428 0.05294011 -0.20621125 -0.108253874 0.2519121 -0.060192116 -0.44379696 0.28878784 0.057292335 0.49235344 0.066259265 0.031168994 -0.15272176 0.05405798 -0.37866053 -0.15443999 0.079430275 -0.2034116 -0.08271182 0.5071825 0.08826448 -0.09269327 -0.10630931 0.4352892 -0.113955 0.39942765 -0.091058224 -0.14661576 0.112387784 -0.07223128 -0.23607588 -0.03320816 0.15384072 -0.34154817 -0.05719849 0.34083983 0.17560877 0.06582885 0.10663606 -0.16855185 0.006103373 -0.056242444 -0.2172752 -0.1938104 0.09699271 -0.39087868 0.19251247 0.28283763 0.10644335 0.11037336 -0.051075567 -0.13606577 -0.20686263 -0.47330678 -0.1388527 0.0238594 0.31417876 -0.12185096 0.32139736 -0.09901564 -0.05278566 0.12088372 -0.33444846 0.1724063 0.06715702
958 0.43277735 -0.066298924 -0.62789154 -0.018487649 -0.3768257 0.3647834 -0.112994805 -0.079263255 0.41361922 -0.16070518 -0.021089645 -0.1844411 -0.14791292 0.0006801581 -0.07157879 0.046009626 -0.24301577 -0.16536228 -0.4907051 0.16972108 0.14901334 -0.011604482 -0.15942495 0.16346002 0.071194515 -0.16590616 -0.10413809 0.31598687 -0.13550834 0.31247872 0.081782795 0.21606106 -0.14250794 0.8432453 0.055998243 -0.031179627 -0.13508001 -0.2147104 -0.009040839 0.08514294 -0.018395128 -0.40275475 0.14910528 -0.11612682 0.58793294 -0.20063877 -0.1978171 -0.123900145 -0.16002934 -0.02924838 0.06823852 0.29945675 -0.27665466 -0.17157635 0.5081348 -0.056271262 -0.081062585 0.2592257 0.38542733 -0.100945175 0.3147607 -0.15400729 0.025498329 0.07542488 -0.056741845 -0.29958886 0.03965601 0.21836388 -0.06795216 -0.12970349 0.038358048 0.120374314 -0.050837953 -0.12664402 0.011007817 0.05973041 -0.2521342 -0.10760484 0.051940646 -0.08137917 -0.21752606 0.019297656 0.22498727 -0.026985405 0.32509175 -0.23879924 -0.051478002 -0.12658998 -0.26848134 -0.042670086 -0.10235163 0.3889813 -0.060855146 0.25427413 0.011029625 -0.050985374 0.0047096503 -0.35025078 0.18001036 -0.031929072
1112 0.23914586 0.16539988 -0.5959126 -0.032606896 -0.32408828 0.1504229 -0.21801591 -0.12716375 0.3067315 -0.14638744 0.06417587 -0.11152958 -0.14505887 0.059192043 -0.098013125 0.095123924 -0.17995916 -0.10508008 -0.3965514 0.09938727 0.073653735 -0.102862194 -0.11509518 0.28760028 -0.14742433 -0.09032798 0.04568029 0.30796424 0.015377647 0.3000991 -0.16386026 0.19660643 -0.1915396 0.97387934 -0.027186949 -0.21243829 -0.052295193 -0.08646698 -0.02807782 0.06359925 0.080982186 -0.4110932 0.22875126 -0.1655845 0.40279058 -0.11800989 0.01417896 -0.18089822 0.094742775 -0.09072062 0.15361449 0.23262021 -0.24770151 0.004134386 0.49250248 -0.0244341 -0.24919114 0.056062818 0.46135035 -0.35487688 0.23567717 -0.21043876 0.09594002 0.15550905 0.075403124 -0.23332246 0.0068296087 0.13769802 -0.17558387 -0.1678081 0.034750164 0.14806664 0.074821934 -0.1077524 0.05606194 0.22365224 -0.06369887 -0.24336894 0.17161815 -0.037625335 -0.057807866 0.26878703 0.07993371 -0.01209058 0.13499331 0.06288645 -0.08429608 -0.19566703 -0.23882009 0.06900914 0.06911207 0.27270454 -0.0039662197 0.04607356 0.09577198 -0.1744065 0.09170542 -0.24429753 -0.11043627 0.061227363
1898 -0.40667745 -0.18986104 0.70252377 0.18719289 0.23067407 -0.3356843 0.07038268 0.2973415 -0.30640882 0.16660656 -0.040320516 -0.04426639 0.32200626 -0.009105742 0.037378017 -0.105410576 0.122317374 0.16447799 0.45121127 -0.19833066 -0.054792278 0.10544296 0.09735887 -0.34770384 0.5314822 -0.25426865 0.13368793 -0.5415849 0.37911195 -0.40679657 0.18599354 -0.24294719 0.18139815 -0.8850278 0.07747731 0.17486979 0.058387615 0.20473763 0.19480698 0.00514031 -0.27021027 0.24867092 -0.25208133 0.031969197 -0.46122512 -0.2626311 0.035611004 0.18306719 -0.04692722 0.39250258 0.05173828 -0.084231466 0.06017173 0.28275627 -0.5230722 -0.13463989 0.15627502 -0.19442247 -0.10785441 0.42991808 -0.30388725 0.3645325 -0.15656562 -0.3879525 -0.055588175 0.23783311 0.041662015 -0.055042673 -0.05179722 0.12873982 -0.21398665 0.21266887 0.37875247 0.14976783 0.22010738 -0.04821384 0.19455105 -0.050128747 0.20808655 0.103775196 0.52488285 -0.03769464 -0.2187339 -0.28666857 -0.26316708 0.21022105 -0.015375863 0.25271812 0.27524835 0.1687013 -0.006465353 -0.39168203 0.2720058 -0.1976816 0.36401862 0.12453198 -0.07627767 0.2918833 0.09832539 -0.099364705
1767 -0.454984 -0.19227402 0.8568414 0.18841581 0.2582332 -0.29821703 0.16510206 0.21548556 -0.59473103 0.18250982 0.035230864 0.011006358 0.23486175 -0.08123534 0.17744558 0.04254891 0.2272199 0.06577128 0.52573955 -0.26566088 -0.20663656 0.14637838 0.16804789 -0.40700427 0.30516982 0.048563767 0.079628564 -0.46431366 0.48687065 -0.38334805 0.40472195 -0.08332416 -0.018460665 -0.77870005 0.05833592 0.16425775 -0.057739813 0.3807261 0.060970265 -0.0047453917 -0.08883576 0.40460294 -0.14358622 0.0011359854 -0.31463757 -0.27465808 0.19756173 0.34898838 -0.1855478 0.34575886 -0.015676117 -0.089971624 -0.022904294 0.19390137 -0.44877836 0.030058287 0.23275651 -0.28637478 -0.1253982 0.15085725 -0.21515782 0.21994075 -0.12202791 -0.12232772 -0.40823397 0.23489882 -0.13659258 -0.163938 0.108869225 0.19322786 -0.19278768 0.13730793 0.29846066 0.016888201 0.025726248 -0.19184195 -0.027420735 0.14405242 0.2867935 0.2305989 0.6116568 -0.117179684 -0.22919337 -0.024016783 -0.016395245 0.008886045 0.02573637 0.2337952 0.23465288 0.092551425 0.07320002 -0.43819523 0.48316246 -0.21089049 0.4150439 0.0026234386 -0.081701696 0.32337448 0.00719273 -0.09708892
1424 0.31158903 0.2251949 -0.5508605 0.13710801 -0.38259295 -0.012168259 -0.34735733 -0.014209776 0.5446857 -0.24463597 0.12013186 -0.15600055 -0.3442421 0.26536146 -0.20499422 0.13195431 -0.41897187 -0.13730839 -0.13512477 0.28199488 0.2292542 0.1527572 -0.17321087 0.18148759 -0.029385803 -0.12113427 -0.009100861 0.2857258 0.1863831 0.5175261 0.07442543 0.35468024 -0.27518743 0.37042135 0.11766082 -0.16358359 -0.11040525 -0.2983711 0.05648567 -0.006621918 -0.007565562 -0.5981041 0.2279282 -0.13994732 0.41809183 0.016084677 0.024309255 0.04358853 -0.048489098 -0.1269445 -0.005331741 0.3792459 -0.22521335 -0.19935732 0.40812168 -0.17932326 -0.1169402 0.1893441 0.6613542 -0.37703702 0.4338663 -0.024921766 0.008266771 0.09070162 0.318901 -0.41234338 0.2312194 0.13941446 -0.008963036 -0.11904 0.0762743 0.21925932 0.1546856 -0.15457053 -0.15063691 0.10726548 0.075466394 0.084161974 0.07469447 0.18595256 -0.1438399 0.39926082 0.2780767 0.299388 0.25670695 -0.16731839 -0.14585724 -0.082415506 -0.14461023 0.047483947 0.16545185 0.36887184 -0.037741017 0.0066422024 0.025097212 0.17665386 -0.10715018 -0.21119505 -0.055952575 0.27807742
1188 0.3502882 0.021084521 -0.58461 -0.07365222 -0.31078085 0.08161184 -0.31395984 -0.050118845 0.42166963 0.047591556 -0.094726846 0.023946792 -0.36590266 0.08887896 -0.20666707 -0.10364982 -0.17608337 -0.3428724 -0.4667082 0.0649207 0.37754095 -0.009539046 -0.18672481 0.17888434 -0.18197607 -0.057317976 0.12260616 0.21673296 -0.05249487 0.21518786 -0.104388736 0.3954691 -0.2133995 0.7401169 -0.07416833 -0.080946684 -0.0010553339 -0.12075204 -0.2846568 -0.0574319 -0.08198475 -0.4416004 0.08244359 -0.12113687 0.46976438 -0.07457286 0.2470777 -0.124135405 -0.23711616 -0.12846579 -0.069428846 0.2432037 -0.17469256 -0.35651636 0.6055298 -0.06405522 -0.32674655 0.02238601 0.5639701 -0.15419592 0.10169468 -0.14303936 -0.0629039 0.25428936 0.03484842 -0.26125482 0.09833501 0.13079733 -0.016596038 -0.06327613 0.03853792 0.14449988 0.0588001 -0.036267456 -0.009892504 0.14458145 -0.30511904 -0.106088266 0.17844914 -0.05890737 -0.22415198 0.16278435 0.12286366 0.1419285 -0.008436984 -0.11418874 -0.10331393 -0.1420613 0.0070687984 0.005179622 -0.049599975 0.38412786 0.123772725 0.17208348 0.056532867 -0.11951895 0.017314456 -0.16371888 -0.063391075 0.03168185
417 0.35934988 0.13385889 -0.6814008 -0.05299855 -0.33526304 0.012483766 -0.019889152 -0.08247244 0.30738524 -0.26028657 0.17514537 -0.34906307 -0.30033395 0.0561328 -0.06888273 -0.29833388 -0.22141688 -0.35621262 -0.47403148 0.13503668 0.359149 -0.14695238 -0.21618779 0.38889572 -0.18548894 0.16878116 -0.121896416 0.24323381 -0.102328874 0.4909329 -0.04542764 0.11518424 -0.1816544 0.8477703 -0.20364983 -0.28123578 0.040536594 -0.1517356 0.08791113 0.13882704 0.2274599 -0.38277653 0.007949546 -0.03968108 0.41424957 0.16553776 -0.023214528 -0.08261261 -0.18437581 -0.29866415 -0.07350092 0.26648152 -0.40167704 -0.26358908 0.5122009 -0.093759194 -0.1469329 0.0231868 0.16060644 -0.5071264 0.1679514 -0.15029022 0.078447044 0.23203105 0.069194175 -0.3552193 -0.028721016 0.11629052 -0.259351 -0.18699364 0.13974479 -0.09008849 0.27838272 0.15865776 -0.120539956 0.10078512 -0.108500436 -0.029119313 0.026481975 0.11988697 -0.35877678 0.17740943 0.091468886 0.17693803 0.19998936 -0.22615498 -0.0006639695 -0.14605987 -0.2540229 -0.21702418 0.14379546 0.26659408 0.054468807 0.2577796 0.028262785 0.014526852 -0.13391949 -0.06205492 -0.1298807 -0.004587752
39 -0.3552693 -0.25960836 0.57275987 -0.29922354 0.5565567 -0.24471784 0.7530833 -0.44353995 -0.4323379 0.119992256 0.16271669 -0.021352928 0.37738043 -0.09436438 -0.1017699 -0.19729294 0.30346385 0.2500918 0.5558232 -0.32224852 -0.23277819 0.18375789 0.015470625 -0.2902508 -0.05010671 0.047293834 -0.4528366 -0.55989987 0.0063135577 -0.35036495 0.15489116 -0.19661199 0.40603176 -0.70785695 0.033482272 -0.26065245 0.012779938 0.18072994 -0.3161425 -0.076331034 -0.22513753 0.60826147 -0.39721668 -0.006667637 -0.3344629 0.39785835 0.08994482 0.2240633 0.10662163 -0.07111134 -0.23164544 -0.044546198 -0.019438434 0.055614773 -0.8444614 0.14002477 0.27334693 -0.11756713 -0.38495687 0.28399768 -0.24367014 0.18096249 -0.11206333 0.10154689 -0.23641537 0.3021129 0.22486335 -0.31332484 -0.1330471 -0.28702417 -0.42710263 -0.29346815 0.29445815 0.018768182 -0.29503638 -0.2908306 -0.3385187 -0.007177306 -0.09069483 0.04661505 0.015571739 -0.06555196 -0.16619809 -0.11751859 -0.16752666 0.0960071 0.15479884 -0.3311957 -0.14215969 0.007737 0.013229046 -0.41864148 -0.025525518 -0.07996653 -0.050059482 0.058501814 0.15868522 0.15114747 -0.038722772 -0.28424326
1095 0.2110497 0.2374867 -0.53830385 -0.072686955 -0.28473845 0.25286943 -0.258111 0.12124562 0.3983704 -0.04202547 0.022943215 -0.23836948 -0.11888993 0.2796564 -0.06993778 0.030703682 -0.33428 -0.3372519 -0.4196018 0.14000013 0.20177214 -0.020606583 -0.14192092 0.30847338 0.0132303145 -0.11079868 -0.056176376 0.4762072 0.14255448 0.4023295 -0.26051125 0.057924107 -0.059255444 0.7857203 -0.043891694 -0.14918676 -0.13942532 -0.009528529 -0.019324841 -0.038866557 -0.07618084 -0.26138517 0.19125828 -0.12930523 0.5102502 -0.0010265736 -0.18701719 -0.14270653 -0.050738376 0.1521418 -0.114092454 0.1342405 -0.29371116 -0.092889495 0.34279913 0.2019658 -0.40577802 0.18161117 0.5210712 -0.30270472 0.22283319 -0.20794787 0.13519734 0.33948115 0.083950385 -0.07551498 -0.078528404 0.21665503 -0.045563694 -0.28930745 0.06378936 0.22545429 -0.016753461 -0.02562675 -0.0411433 0.12032341 -0.21075723 -0.22150995 0.2250942 0.072917394 -0.16079222 0.18638438 0.25824696 0.25472593 0.278936 -0.33009556 -0.19555551 -0.213633 -0.29925087 -0.08796269 0.038704585 0.43882847 -0.07236554 -0.053316526 0.01866337 0.00096322806 0.04491267 -0.27072105 -0.02804116 0.15045236
1946 -0.872455 -0.28870958 0.6928711 0.14328574 0.4546412 -0.22791667 0.31478646 0.037594084 -0.30497035 0.5162273 -0.090646856 -0.04456758 0.0054124123 -0.30879524 0.2107738 0.020720754 0.40202186 0.32933855 0.21123607 -0.08076428 -0.3121594 -0.013970634 0.1267867 -0.44601604 0.27720156 0.21988854 0.2603435 -0.31211385 0.32414153 -0.70438457 0.18904154 -0.39607736 -0.21035777 -0.71334046 -0.03617089 -0.09436591 -0.15460306 -0.091616206 0.44992614 0.15221341 0.0051325704 0.41192514 -0.46061128 -0.07416084 -0.41535124 -0.22271448 0.14461549 0.15514472 0.10974431 0.3134014 0.28357273 -0.3229339 0.1842419 0.116846584 -0.70630157 -0.051340748 0.17649019 -5.9070182e-05 -0.26687923 0.35578507 -0.13753606 0.2815435 0.030632338 -0.27647102 0.15182304 0.32397243 0.10022396 -0.2658893 -0.17314209 0.103730015 -0.06634831 -0.040931117 0.350471 -0.31314775 0.2716121 -0.23393461 0.29576555 0.005543599 0.06897307 0.07173426 0.56409353 -0.26766756 -0.1299611 -0.3913272 -0.35837728 -0.15958466 -0.16973685 0.16035241 0.6166564 0.3527591 -0.18825375 -0.20259184 0.26181504 -0.26272008 0.4814487 0.26749453 0.31736755 0.63431156 -0.25918674 -0.26270574
556 -0.36259544 -0.17681873 0.4631191 -0.28664973 0.53323025 -0.19095515 0.6379009 -0.07062959 -0.33637184 -0.0055953283 -0.14042579 0.31867614 0.3873056 0.1290497 -0.012736586 -0.1309649 0.07194867 0.2364861 0.5132464 -0.43316504 0.016544027 0.16297401 -0.2792586 -0.2741336 0.04841616 0.01101687 -0.19809636 -0.512696 0.18951192 -0.40412655 0.31656623 -0.15129356 0.16791663 -0.8815259 -0.02391041 -0.15935026 0.2591496 0.0782991 -0.14212 0.03033073 -0.13201976 0.32334876 -0.2272197 0.2261483 -0.30839986 0.11809355 0.07131794 0.26678556 -0.1473996 0.27557012 0.02652918 -0.2985922 0.21314968 0.07519837 -0.68992656 -0.07776324 0.3587784 -0.23329516 -0.15316328 0.10081151 -0.28116912 0.040215675 -0.11517357 -0.05981824 -0.25076818 0.06003964 0.169756 -0.33531022 -0.07238961 0.095643274 -0.49834874 -0.2742411 0.39736727 0.28598386 -0.045315146 -0.11785669 0.26177043 0.059017166 -0.5013009 0.17368755 0.21202362 -0.20099758 -0.2614621 -0.15883286 -0.3592079 -0.28556773 -0.025679518 0.059654985 0.00059175876 0.23187509 -0.08159721 -0.43840942 -0.01163065 -0.09921367 0.15216053 -0.06418964 -0.0029677756 0.19579768 -0.01943889 -0.20493479
752 -0.14689772 0.050702073 0.49980795 -0.13430125 0.32100827 -0.0963321 0.4039387 -0.10081991 -0.15155609 0.13516574 -0.014398284 0.2993794 0.23354572 -0.08663183 0.21958522 -0.07408317 0.21644369 0.19059207 0.35647994 -0.1888486 -0.37768286 0.13568217 -0.23774226 -0.35067603 0.10663568 0.0645856 -0.011847602 -0.43326363 0.06839256 -0.58983076 0.19434479 -0.06305695 0.120649 -0.5776392 0.08486569 -0.0877037 -0.009380946 0.43855536 -0.09070657 -0.13188517 -0.110712476 0.6578917 -0.3017923 0.10293437 -0.28584215 0.21911775 0.33441517 0.1225643 0.06829439 0.30174783 -0.00667984 0.016113391 0.114685595 0.06674148 -0.536244 0.20400606 0.40294078 -0.27171934 -0.32756993 0.24802083 -0.26825866 0.036602434 -0.2392145 0.003960142 -0.14768445 0.10287461 0.2700638 -0.4398459 0.008949994 -0.10053326 -0.66774756 -0.29940498 0.26171952 0.045833103 -0.041885994 -0.40153039 -0.0441453 0.15527965 -0.24684656 -0.13634871 0.17687264 0.051033694 -0.3139005 -0.1592617 -0.19529131 0.043864876 0.04352238 0.083944626 0.22759576 0.40890726 0.049802672 -0.4799921 0.34936398 -0.09055024 0.27764997 0.08472643 0.22798137 0.11843268 0.23827493 -0.24809378
1570 0.34243506 0.23376845 -0.482462 -0.0025412764 -0.5961786 0.20395333 -0.4269118 0.0026341297 0.47403884 -0.42900437 -0.06374047 -0.25831297 -0.34716555 -0.08846749 -0.17186916 -0.002049208 -0.14447184 0.050437767 -0.5203015 0.13555811 0.14764632 -0.088381395 -0.3627577 0.26291975 -0.1384262 -0.15398474 0.1340837 0.42971665 0.064347014 0.5023049 0.14341336 0.35898894 -0.010872884 0.43008617 -0.10211747 -0.07088586 -0.07328944 -0.15313183 -0.06739346 -0.032078825 0.14023586 -0.4900443 0.32557425 -0.28981876 0.4200987 -0.18683729 0.10492 -0.18842888 0.047150858 0.014018086 0.050428446 0.14731091 -0.2737029 -0.2503824 0.5498367 -0.082392335 -0.2884102 0.13699819 0.5265465 -0.09921536 0.1343077 -0.009120873 0.2369083 0.17212835 0.1756073 -0.21462652 -0.1968863 0.24237575 -0.17918816 -0.23813675 -0.12164243 0.18131128 0.14735928 -0.061521236 -0.10755965 -0.0829116 0.029309398 0.08787838 0.2602297 0.019647334 0.013083672 0.06711946 0.33123872 0.080428295 0.15996872 -0.121004425 -0.19818702 -0.36046886 -0.13575175 -0.08639431 -0.068419956 0.44458625 -0.014386781 -0.025525281 0.29446188 0.055825975 0.0021495624 -0.32679886 0.002187896 0.35500592
1243 0.37606427 -0.02923843 -0.5844435 0.066738725 -0.4225688 0.051664814 -0.27859437 0.027761746 0.5631098 0.031358883 -0.056341156 -0.09010486 -0.2970576 0.24754766 -0.4083071 0.1324416 -0.30780193 -0.008859771 -0.35386592 0.15473785 0.20903842 0.11961359 -0.1851993 0.14089625 -0.19917636 -0.19030964 -0.114380404 0.22712812 -0.16320428 0.31545934 -0.05961319 0.3556586 -0.23087777 0.5771472 -0.33956167 -0.050914176 -0.1116334 -0.032809004 -0.017126689 -0.030078012 -0.039619632 -0.4323702 0.25003132 -0.09241141 0.38551384 -0.12594332 -0.105485626 -0.22908795 0.06387557 -0.052196085 -0.20236057 0.15663417 -0.08702467 -0.025467392 0.5853721 -0.16026737 -0.31128064 -0.01856322 0.46332723 -0.27648503 0.28013012 -0.20746978 0.15720122 0.09046972 0.06789979 -0.25031203 -0.041094597 0.07799478 -0.07636203 0.07725228 0.01165379 0.15244348 0.07561969 0.13848957 0.107320845 0.19434962 -0.06908709 -0.06574508 -0.10661817 -0.039007656 -0.14608377 0.2036607 0.3486426 0.17171668 0.08308716 -0.014802071 -0.28349605 -0.1396503 -0.1699725 -0.0059502013 0.14671421 0.3155889 0.05149458 0.23037219 0.16332678 -0.17957959 -0.08640654 -0.2749379 0.011692154 0.13040596
1813 0.1712253 0.06996224 -0.2766018 0.104574725 -0.4229207 0.009333158 -0.3137096 0.020360898 0.36094448 -0.33224627 -0.1127789 0.039442632 -0.07163392 0.059483495 -0.09622068 0.35399318 -0.30349928 -0.1158269 -0.43827194 0.4534703 0.3216019 0.3651732 -0.13522759 0.12679966 -0.12163498 -0.2972433 0.30633113 0.18931112 -0.11708584 0.32472315 0.029864252 0.14910746 -0.24354006 0.9441896 -0.059521362 0.057767704 0.054629203 -0.21616006 0.12012861 -0.114403866 0.16451433 -0.43224376 0.5778082 -0.0028279657 0.40858212 -0.087197036 -0.35379896 -0.27885288 -0.4423458 -0.14294949 0.14058246 0.061091382 -0.26956555 -0.094256684 0.52788514 -0.07617985 -0.1231335 0.032119565 0.40478837 -0.43013617 0.2722301 -0.0010349953 0.045144543 0.21356574 0.09710587 -0.4012218 -0.13285919 0.24104372 -0.21281296 0.08023295 0.03948716 0.0899368 0.005680161 0.25693786 0.4423751 0.30731255 0.21226257 -0.36742327 0.3299553 -0.15750346 0.0127582485 0.5393176 0.266084 0.26554814 0.16298194 -0.10633162 -0.31744844 -0.1379973 0.19588032 0.1819396 0.1683695 0.44382906 0.10676813 0.13561405 0.35208604 -0.10481737 -0.05153057 -0.089497514 0.030698324 0.2947207
848 0.28006434 0.13104196 -0.5486092 -0.21601199 -0.44651988 0.20630834 -0.2157433 -0.13503616 0.51989174 -0.010523256 0.13152802 -0.030292103 -0.26349843 -0.01639566 -0.38228083 -0.099680424 -0.27815956 -0.119096555 -0.5782552 0.29628697 0.23186943 0.106856845 -0.15193383 0.061999865 -0.29632276 0.12427651 0.16305844 0.38384083 -0.23038949 0.4896414 -0.2343904 0.069862634 -0.11668296 0.6562235 0.029260447 0.01518837 0.0793805 -0.37616047 -0.24041557 0.16574892 -0.005516559 -0.42362916 0.0870507 -0.26687196 0.36542562 0.16195269 -0.16373095 -0.09380438 -0.2318618 -0.09839634 -0.1104795 0.3419869 -0.23638272 -0.26812744 0.4043414 -0.047519036 -0.08861977 0.15134397 0.39790022 -0.34487715 0.32559708 -0.10749338 0.12441786 -0.017208038 0.05689684 -0.24945845 0.038267773 0.22960407 -0.17902683 -0.06690306 0.036518972 -0.01751678 -0.0756874 0.020714257 -0.11369412 0.4430756 -0.024320228 -0.0780352 0.13844383 0.19024478 -0.15545054 0.22203387 0.20384204 0.07090273 -0.039824773 -0.20919333 -0.25011036 -0.29478192 -0.15821654 0.07546954 -0.048925932 0.2457364 -0.14338112 0.11629715 0.03359487 0.03749526 -0.009883276 -0.09993232 0.085461564 0.22677451
54 0.32703376 0.3265563 -0.643201 -0.14334339 -0.26957753 0.09229858 -0.22328287 -0.0058284556 0.19931921 -0.35634467 -0.04164162 -0.20489573 -0.16810025 0.07549007 -0.12086449 -0.17570995 -0.26529887 -0.29184783 -0.4299002 0.0059607453 -0.037258133 0.03548137 -0.20973812 0.3908289 -0.23035589 0.04606063 -0.04832626 0.35956573 -0.0034366986 0.48621032 -0.26445356 0.24304804 0.03778709 0.6280917 0.008802044 -0.31842962 -0.07582564 -0.00825479 0.14976951 0.1085324 0.14393988 -0.33509296 0.22841315 0.041373286 0.33586067 -0.101274855 0.08940533 -0.26014695 -0.106585376 -0.32686144 0.045298208 0.030200059 -0.19978626 -0.25732535 0.58290267 -0.026150918 -0.14462896 0.12985837 0.32726455 -0.13689302 0.30524614 -0.25390032 0.0236027 0.111987896 -0.19557546 -0.2697779 -0.08784372 0.06126725 -0.14897749 -0.28443608 0.3367692 -0.10172876 0.04612376 0.044974044 -0.19273469 0.25010377 -0.136301 -0.17854413 -0.012564199 0.21984486 -0.34184757 0.014515382 0.25887874 0.11546166 0.039205845 -0.06594808 -0.28893307 -0.2828304 -0.31073916 -0.045037862 0.10964656 0.385691 -0.14989421 0.16292053 -0.124837734 -0.16732612 -0.010142473 -0.23640835 0.034159712 0.006484963
70 0.35941195 0.11302389 -0.7411645 -0.33599928 -0.24725595 0.19978172 -0.24902025 -0.33138835 0.2621983 -0.27386317 0.22787628 -0.1594933 -0.097199515 0.096499115 -0.1721137 -0.024926884 -0.25501534 -0.40331596 -0.18439361 -0.03800962 0.017038353 0.15192579 -0.31528136 0.38563702 -0.3194832 -0.074702896 -0.049913835 0.12539496 -0.10445622 0.5430505 0.0050465516 0.41540837 0.01809325 0.7733755 0.026794072 -0.28284758 0.095948584 -0.15165445 -0.08490366 0.124159925 0.02830828 -0.32686272 0.28088295 -0.050219484 0.3628892 -0.031189084 -0.028542584 -0.019202862 0.00016052405 -0.40452647 -0.08228705 0.16348766 -0.20766921 -0.11246999 0.57476354 0.07865669 -0.06978253 -0.008424149 0.3315108 -0.31460595 0.24045531 -0.104697876 -0.05968235 0.18541092 -0.050384138 -0.25641072 0.06882481 0.14631267 -0.13504022 -0.20491302 0.2000904 -0.004761119 0.029938681 -0.12460967 -0.15373206 0.20810644 0.012529177 -0.27106202 -0.16564418 0.21109258 -0.24296017 0.30644232 0.15073119 0.37417632 0.046714246 -0.0978169 -0.047927473 -0.37827435 -0.24195915 -0.08869165 0.23195319 0.19238833 0.05588992 0.21030727 -0.09291955 -0.091065705 0.18642932 -0.23393074 -0.01223566 -0.06135069
262 0.3908847 0.12693876 -0.4892669 -0.20134924 -0.2928096 0.25383678 -0.0464097 -0.21042998 0.2755589 0.0863118 0.06056287 0.032969866 -0.17456464 0.041987054 -0.23680776 0.08824878 -0.10683805 -0.25514564 -0.30225512 -0.03997298 0.098801434 -0.07431883 -0.22004618 0.5226971 -0.21986023 -0.088546336 -0.073115654 0.39295772 -0.074350685 0.33609754 -0.046867855 0.3690464 -0.18248779 0.718599 -0.18736695 -0.40703532 -0.15913752 -0.20095994 -0.057192996 0.3939256 0.027980525 -0.39272448 0.33676967 -0.24207741 0.5322011 -0.15092866 -0.008994698 -0.37684307 0.20853171 -0.20835155 0.16917504 -0.04768173 -0.16048786 -0.16847861 0.6797018 -0.15952902 -0.031047795 0.009237213 0.40508533 -0.34292415 0.59832567 -0.0627409 -0.09496558 0.24130037 0.29100066 -0.31366307 0.054770146 0.07742418 -0.102592014 -0.24763966 -0.06303117 0.078788504 -0.16491444 0.17239068 -0.25928885 0.20781976 -0.10933543 -0.26776952 -0.0037116096 -0.02042842 -0.4055771 0.10999549 0.085358754 0.11117208 0.39857507 -0.20335582 -0.008654497 -0.29983082 -0.4964326 -0.25982878 -0.058279917 0.13607232 -0.009791142 -0.06007112 -0.1939911 -0.24101637 0.03476223 -0.36460623 -0.014487461 0.12763369
1383 0.21488492 0.010804078 -0.7286861 0.06775468 -0.4237953 0.03835841 -0.38872495 0.31345093 0.39175257 -0.10582489 -0.11102002 -0.21967436 -0.25765434 0.14869252 -0.26304922 0.16052127 -0.0038762987 -0.25321287 -0.28127846 0.3925068 0.093206584 0.056573376 -0.24513589 0.29297262 -0.0077851294 -0.09124733 0.14586255 0.23303455 -0.10081695 0.51232237 -0.07440696 0.14388055 -0.17357565 0.80159354 -0.031745568 -0.31810457 -0.21781676 -0.09842155 0.19768359 -0.11151502 -0.082382634 -0.22497614 0.18928021 0.021408033 0.38293228 -0.030622456 0.12055703 -0.20529331 -0.065882176 -0.0952915 0.016350523 0.107931435 -0.25099835 -0.14537247 0.52994764 -0.0017122072 -0.2365744 -0.07171062 0.48089647 -0.17313774 0.22792587 -0.17945665 0.077516295 0.19983684 0.0131106945 0.01267774 0.15046327 0.39321625 -0.1373162 0.09952311 -0.07187595 0.2637787 0.13951157 -0.0075032613 -0.013643572 0.08997819 -0.102254085 0.019336551 0.31230986 0.2808217 -0.2565237 0.31758997 0.10158197 0.050670188 0.23432375 -0.11091856 -0.05943435 -0.23705246 -0.05850533 -0.074790634 0.040381495 0.30571926 -0.27002466 0.13295372 0.20083688 -0.09147365 0.051493037 -0.3404342 -0.12153281 0.12530302
729 0.5243325 0.07799685 -0.6789383 -0.2625852 -0.38460737 0.21721318 -0.22782488 -0.12121079 0.233817 -0.35060748 -0.018824099 0.023170173 -0.067353114 0.06281625 0.024573995 0.08612374 -0.38193348 -0.2404971 -0.23056324 0.2197956 0.1862023 0.03523513 -0.20812331 0.1845099 -0.122532316 -0.26843345 -0.089218415 0.17356741 -0.043778952 0.4290419 -0.19081329 0.11053528 -0.16069157 0.8351865 -0.2332067 -0.08365632 0.072383456 -0.08264681 -0.10425819 0.10566638 0.06315942 -0.40101826 0.36919662 -0.016079033 0.33262712 0.11311038 -0.1385462 0.01588965 0.04437892 -0.09033553 0.03126373 0.16206595 -0.24921073 -0.035228826 0.29977903 -0.02747937 -0.1308927 0.09640254 0.39916062 -0.16733232 0.22163801 -0.17296156 0.05902126 0.30125207 0.10326845 -0.12529354 -0.015309073 0.28281087 -0.18681024 0.023659639 0.078643136 0.08763153 -0.0725626 0.12318162 -0.1387452 0.060809214 -0.08385126 -0.12502058 -0.04817768 0.14074133 -0.30430734 0.05849764 0.33263597 0.19553417 0.08291453 0.029960016 -0.12970655 -0.2174256 -0.2552746 0.015561952 0.21938536 0.4138826 -0.160547 0.114382245 -0.071784705 0.0861553 -0.0064230687 -0.3127834 0.08233154 -0.03056389
1720 0.2797749 0.06892065 -0.50167996 0.06855219 -0.62142265 0.12068519 -0.20083588 -0.072910674 0.3609357 -0.004378688 -0.10033605 -0.14027084 -0.25161067 0.20204838 -0.23191735 0.25046924 -0.2390659 -0.31099415 -0.24489152 0.0017895261 0.21195343 -0.15964174 -0.2656033 0.2683396 0.11576842 -0.2538749 0.13364954 0.24094148 -0.24065937 0.43000928 0.07242429 0.21067463 -0.06806223 0.6417942 0.14320917 -0.13825023 -0.12609082 -0.12137406 -0.06277002 -0.0561539 -0.09498523 -0.88054353 0.1013184 -0.24175566 0.52194065 0.046211008 -0.18052682 -0.17170954 0.17372948 0.06391891 0.08988374 0.06208769 -0.24500166 -0.086133204 0.73639065 -0.061698686 -0.12713265 0.016656308 0.54450655 0.055178814 0.31330913 0.08879425 -0.11240939 0.15111324 0.56019026 -0.22814721 -0.12962455 0.27744716 -0.2206833 0.05424704 0.1428542 0.26940525 0.045750834 -0.10711039 0.027769452 0.023655307 -0.058365364 0.03864873 0.27200592 0.16158792 0.04588447 0.2779516 0.17568344 0.42184198 -0.051432595 0.16234861 -0.0373939 -0.10706552 0.06774799 -0.02831843 -0.025214681 0.4331251 0.063954234 0.1694595 0.22152697 -0.012716265 -0.056786075 -0.16913673 0.013953674 0.2114948
69 0.25333104 0.12227872 -0.64881134 -0.12684627 -0.35172296 0.0022674738 -0.05069926 -0.09908493 0.18804511 -0.0856568 0.010498548 -0.09432293 -0.22355728 -0.004092317 -0.11456839 -0.13305013 -0.1709061 -0.2545242 -0.35107255 0.032637946 0.16809143 0.12347003 -0.06072505 0.4324534 -0.093231395 -0.012794809 0.0084166825 0.10717338 -0.21360649 0.3137134 -0.090907276 0.20187783 0.030190311 0.81856316 -0.083407976 -0.39324158 -0.120100565 -0.11279779 -0.03116013 0.018952772 0.2325772 -0.40709472 0.2584359 -0.10396027 0.46797457 0.16026652 -0.11064525 -0.03290204 0.0088431705 -0.42298517 -0.09563087 0.19626385 -0.0472075 -0.24627228 0.46032202 -0.032910604 -0.21973054 -0.13288385 0.3879901 -0.11729365 0.21085449 -0.2490176 0.03476526 0.19110745 0.13244414 -0.20725907 0.11320188 0.15962936 -0.073801056 -0.1808374 0.114076875 0.19181675 -0.07218942 0.096811205 -0.18871126 0.24113284 -0.1820913 -0.18067956 -0.07172957 0.02983779 -0.33191592 0.20281492 0.14131363 0.11815276 0.0350502 -0.0874446 -0.15825057 -0.18999946 -0.1925703 -0.07256562 0.11557038 0.32759598 -0.05545019 0.34360853 -0.18876925 0.09146145 0.017784782 -0.3047077 0.06951958 -0.107508056
309 0.1803779 0.1160995 -0.5283971 -0.11251113 -0.2640617 -0.01569904 0.00057372125 -0.15570705 0.4641156 -0.17113644 0.09617661 -0.28979704 -0.06632263 -0.053782895 -0.05390864 0.08017185 -0.21991241 -0.35199493 -0.4677675 0.28589374 0.23982409 -0.2384102 -0.3238837 0.3546834 -0.3699799 -0.061166126 -0.0975867 0.43477988 -0.34729752 0.3507845 0.17278767 0.16106866 0.041738905 0.8031004 -0.116002664 -0.33701858 -0.3691066 -0.44009945 -0.23649028 -0.0022047157 -0.103112355 -0.113895565 0.26891917 -0.10660807 0.40092194 0.094726294 -0.040508103 -0.26068854 -0.28459287 -0.4249904 -0.16954488 0.06306194 -0.16285546 -0.32832187 0.50088084 0.020145038 -0.19960506 0.0025184397 0.5363203 -0.16425447 0.013365024 -0.123706564 -0.040660314 0.43420374 0.09918578 -0.28017145 0.08933124 0.2810205 -0.08604889 -0.27829438 0.19479553 0.27462065 0.07394418 0.1228547 -0.033024423 0.08180547 -0.31895897 -0.08508468 -0.08244057 0.15453926 -0.349716 0.10940561 0.25994265 0.12648909 -0.00048932596 0.15978508 0.04645365 -0.39356437 -0.18871513 -0.16620475 0.079484396 0.4414715 0.033064328 0.0026848402 -0.046690967 -0.07331971 0.14016365 -0.31179154 0.09024258 0.19329293
1133 0.22031733 0.158773 -0.51000035 -0.06471025 -0.2406002 0.33536005 -0.2584601 -0.10193942 0.39061219 -0.45208403 -0.27120376 -0.24561381 -0.31432 0.032573845 -0.32877523 -0.07217307 -0.34898365 -0.18507785 -0.57025933 0.25458044 -0.011054873 0.1103402 -0.15319748 0.41317037 -0.09796521 -0.19960023 -0.0073943804 0.37593988 0.030821955 0.146645 -0.21380113 0.50000334 -0.32427984 0.7343128 -0.08184693 -0.32574642 0.12886786 -0.19188455 0.031210776 0.09661182 -0.07443867 -0.34278318 0.14135419 -0.0679943 0.28374332 -0.11712525 -0.41433054 -0.19344585 -0.09410517 -0.098479025 0.10843566 0.28493398 -0.2776603 -0.31285852 0.4001193 -0.017482316 -0.43128094 0.051500525 0.44559225 -0.1821522 0.26162893 -0.20119353 0.046225443 0.2319741 0.13716747 -0.1299056 -0.037887063 0.4606492 -0.20117013 0.0144431135 0.045886237 0.18201536 0.26984325 0.004738497 0.23784415 0.21625057 -0.105362825 -0.010885703 0.051687505 -0.16288027 -0.31606373 0.13928099 0.30294287 0.13026124 0.24658401 0.16887283 0.05600437 -0.05764882 -0.06939563 -0.14406858 0.17730337 0.109406345 -0.24946052 0.32741365 -0.10989094 -0.34261915 -0.06794148 -0.052338954 -0.032995682 0.15003945
512 0.47464448 0.0675758 -0.43037024 -0.12809806 -0.44518012 0.019193623 -0.24662758 0.008629854 0.2354232 0.005977426 0.02595168 -0.049326446 -0.17497094 0.15529194 -0.20280562 0.07456529 -0.08320881 -0.26334396 -0.40643942 0.010950306 0.12757806 -0.06419856 -0.1250287 0.26630804 -0.06487436 -0.108209215 0.011289787 0.33253893 -0.00609824 0.45425576 -0.09820929 0.2100802 -0.015875496 0.7996771 -0.15763566 -0.2753055 0.14461294 -0.0071023307 -0.14044791 0.15294863 -0.066541746 -0.42465934 0.040359743 -0.13249494 0.36944768 0.1350865 -0.08388413 -0.12711373 -0.14439929 -0.33642548 0.057631277 0.10222093 -0.21830375 -0.2947547 0.3720881 0.20207112 0.26813436 -0.18142857 0.5964067 -0.29097822 0.41991258 -0.07207098 0.008875783 0.22447596 0.045150794 -0.34853172 0.022459762 0.44317645 -0.31025705 0.12776 0.2886807 -0.051386334 -0.10779684 -0.12956867 -0.084299676 0.45329878 -0.11853726 -0.041613977 -0.020778788 0.13990393 -0.420646 0.21548037 0.31979373 0.25869548 0.19796427 -0.067626625 -0.16210003 -0.1653595 -0.35877198 -0.16268632 0.09604699 0.28870422 -0.010461868 0.40919837 -0.10663102 -0.12034102 0.04961165 -0.17736648 0.28348798 0.0061756186
1375 0.43859085 0.15692195 -0.47448027 0.19060184 -0.55843157 0.24906398 -0.18851542 -0.2373867 0.3822862 -0.15302786 -0.11514762 -0.1600938 -0.10410513 0.052659255 -0.041109413 -0.17194596 -0.124055505 0.044589106 -0.37491444 0.3329535 0.2686064 0.34633678 -0.035478838 -0.037706275 0.035403606 -0.23535417 -0.25875762 0.4660163 0.058272418 0.3634519 0.16503249 0.2234231 -0.16966955 0.5639715 -0.08237057 -0.25375205 -0.060229976 -0.1004331 -0.24954414 -0.14216973 0.017052697 -0.6843219 0.19249663 0.048710972 0.23054095 -0.23015031 -0.121901065 -0.3310982 0.004761091 -0.28491887 -0.0691493 0.43420544 -0.13892527 -0.02504997 0.6002434 -0.11644922 -0.32435635 0.20052178 0.25861004 -0.53722006 0.38749176 -0.06484118 0.16505781 0.14712654 0.22706364 -0.29685137 0.35425904 0.22889115 -0.13339226 -0.25340724 -0.05830101 0.14675614 -0.13102964 -0.06811043 0.050671812 0.36662734 -0.18467905 -0.11682089 0.3532416 -0.14942715 -0.09013252 0.022273127 0.108400285 0.35323477 0.21527934 0.23750846 -0.14185862 0.036193486 -0.27432048 0.038743846 0.045637067 0.47176656 0.21745391 0.15474692 0.031329922 -0.11258586 -0.14719315 -0.33793446 0.084571056 0.05082842
1490 -0.26191178 0.010053072 0.7995094 0.17509928 0.07242941 -0.34929973 0.39870903 0.068954304 -0.4694011 0.038035665 -0.15921357 0.3710099 0.15057297 0.032629788 0.1518266 -0.24752654 -0.21105944 0.34420627 0.51942605 -0.33976644 -0.25346982 0.0053151976 0.2097649 -0.2357597 0.26936147 -0.09925687 -0.1165156 -0.5000848 0.45947418 -0.41482 -0.060635842 -0.10571755 -0.10060081 -0.70342773 -0.076357625 0.09042269 0.090522096 0.33641973 0.03153091 -0.1797146 -0.26391545 0.4400742 -0.11151865 -0.024064396 -0.43103567 -0.065329604 -0.14658773 0.27993074 0.043421403 0.53840375 -0.2828372 0.02228165 0.14202715 0.08728104 -0.37434128 -0.21963593 0.42749482 -0.13091698 -0.418702 0.2524782 -0.17632201 0.07421588 -0.19673857 0.12395324 -0.13974309 0.4516095 -0.005964189 -0.5050564 -0.15184648 0.22833702 -0.5145903 0.011555284 0.24486873 -0.17818648 0.15970963 -0.3549428 0.30249277 0.35650828 0.061836705 0.10356978 0.3943673 -0.11028874 -0.19389385 -0.31383368 -0.19974373 -0.1259966 0.1550947 0.045089006 -0.0010506653 0.12698038 0.013600583 -0.52911866 0.19768806 -0.32859343 0.38832 0.17895319 0.09758411 0.2474113 -0.1589121 0.21508141
251 -0.28286323 -0.0372405 0.46857008 -0.24669729 0.42818454 -0.30855268 0.70079744 0.054162256 -0.3459693 0.06821481 0.21783315 -0.016213771 0.29399878 -0.122738495 0.06829395 0.09236328 0.026869101 0.21434876 0.41495994 -0.3723121 -0.0023615137 0.06275909 -0.04302904 -0.036296777 0.10443614 -0.10182091 -0.21812005 -0.4682381 0.022211941 -0.3977112 0.15390065 -0.26017523 0.36573696 -0.6347978 0.11753836 0.032532103 0.08000111 0.15083925 0.03489152 0.129032 -0.014136863 0.60347486 -0.4087174 -0.1027917 -0.2723204 -0.08613532 -0.030570978 0.26711404 0.071317874 0.150665 0.038431026 -0.0049836617 0.03914091 0.09879157 -0.8639511 -0.15281327 0.7169487 -0.4067738 -0.43920353 0.53650206 -0.058328576 0.46247974 0.11972213 -0.37397367 -0.17046157 0.37549874 0.24669383 -0.16082607 0.28690425 0.25875723 -0.30927178 -0.10731607 0.3028824 -0.07855915 -0.12511533 -0.3941103 -0.31250173 0.2978172 -0.2369343 0.14365946 0.26270056 0.021032352 -0.28184336 -0.4344235 -0.062581666 -0.49371007 0.32868883 -0.300643 -0.12204178 -0.06404555 0.16817269 -0.42407495 0.06534965 -0.22860481 -0.22309253 0.049409118 0.10336081 0.16962233 0.34117317 -0.26673654
943 0.40985864 0.35111713 -0.6879652 -0.29270127 -0.45513192 0.18776317 0.124465555 0.30273095 0.4279925 -0.13898508 0.19673537 -0.05659235 -0.13218206 0.062228143 -0.36205843 0.058792546 0.021279387 -0.45136556 -0.1838221 0.22534615 0.11716209 0.1404061 -0.34191066 0.27903092 0.04611528 0.2781803 -0.08482852 0.1979938 0.0070696147 0.34485787 -0.096554644 0.14325915 -0.06431838 0.6211628 0.0022088892 -0.29385036 0.14426069 -0.115299724 -0.06791674 0.17896712 -0.023091724 -0.29366753 0.17842816 -0.10503317 0.45687518 -0.11456687 -0.046954736 -0.083199866 0.21166879 -0.050335057 -0.012409328 0.2453632 -0.14255428 -0.1905808 0.5880441 0.093303196 -0.332601 0.0119196195 0.56507033 -0.41698676 0.40737772 -0.3336131 -0.037816834 0.3373993 0.108969174 -0.3034668 0.03233946 0.43327442 -0.3335584 0.15978858 -0.1082476 0.1980824 0.031661525 0.0029166958 0.27203482 0.2986058 0.06341494 -0.1943451 0.27826485 0.03108651 -0.33420333 0.08266967 0.4200403 0.024512107 0.14914344 -0.0433161 -0.1186577 -0.26960686 -0.4842726 -0.008768217 0.059515208 0.37461364 0.00028543622 0.25054234 -0.11672 -0.059394013 -0.20989092 -0.14387122 -0.043824717 -0.13836117
537 -0.49414906 -0.307798 0.45843065 -0.1331478 0.51754457 0.2173798 0.48344344 -0.17982593 -0.5367808 0.27867284 -0.007590616 -0.03296549 0.27038285 -0.20786496 0.12836218 -0.28142005 0.14840125 0.2486514 0.2557837 -0.46367976 -0.21174058 0.19210891 -0.31026918 -0.10616662 0.06537076 -0.06567992 -0.45109206 -0.39445195 -0.13083279 -0.78292155 0.053468347 -0.14276385 0.03807495 -0.80500764 0.19493215 -0.1933776 -0.023212876 0.13578364 0.0014351832 0.24455126 -0.04577631 0.5101734 -0.30518574 0.30038792 -0.52246296 0.12966317 0.1411001 0.19438119 -0.19212422 0.035911407 -0.015966715 -0.37759423 0.025878962 -0.0004500826 -0.69486636 0.13156258 0.60028917 -0.20772444 -0.06255613 0.09463376 -0.27877507 0.0932592 -0.34149256 -0.013183972 -0.26292637 0.28155148 0.38812408 -0.3584142 0.088283904 0.015314662 -0.3104883 -0.0407413 0.27662727 -0.09479238 -0.0046276497 -0.093813196 0.073477075 -0.043256737 -0.09449743 0.12832536 0.13871412 -0.16526502 -0.04584982 -0.1641996 -0.13994029 0.17385717 0.013161269 0.18550594 -0.10954538 0.12104055 0.060149316 -0.6890114 -0.005397152 0.04022373 0.17096448 0.06351952 -0.18278566 0.1852977 -0.03957496 -0.0018541183
467 0.111986846 0.16087286 -0.71808773 -0.056677498 -0.21153112 0.11021025 -0.23775642 0.11538991 0.4213355 -0.0571782 -0.17567088 -0.110001415 -0.46312678 -0.04446275 -0.07459269 0.2537545 -0.07330863 -0.24457204 -0.54194903 0.18309632 0.070767604 0.073859446 -0.1941662 0.3256054 -0.10528085 -0.40683338 0.029241772 0.4005178 -0.14413968 0.20869075 0.0009865118 0.14194672 -0.20907633 0.6689719 0.072713606 -0.5388047 -0.22764054 -0.06089567 0.12603283 0.12324315 0.014164569 -0.27334967 0.1595746 -0.4015987 0.37670344 -0.15499178 -0.0708627 -0.14860004 0.0065909596 -0.27765352 0.01464294 0.22166745 0.027240235 -0.14575788 0.46717986 -0.027375137 -0.15052097 0.09987075 0.5194069 -0.40203202 0.17679192 -0.20780884 0.080105886 0.1257636 -0.10324925 -0.10372429 0.22641964 0.22065243 -0.0011149511 -0.11988558 0.12885012 0.08781904 0.03664269 -0.03655343 -0.010606854 0.17673466 -0.29215062 -0.2344443 -0.19686049 -0.10032324 -0.4191282 0.17378421 0.3360779 0.19965512 0.632725 -0.21690644 -0.07831985 -0.42322046 -0.17796646 -0.017035475 0.16664632 0.21465947 -0.120199434 0.21616173 -0.3208255 0.0016856594 0.08478385 -0.5705503 0.23531888 0.18251455
1652 0.26039714 0.24262428 -0.40454805 -0.021743752 -0.48868704 0.18468255 -0.41507488 0.18995649 0.3035328 0.14097504 -0.23994198 -0.025113694 -0.27655178 -0.025806574 -0.18137255 0.41100344 -0.41549635 -0.39588338 -0.3281218 0.3601468 0.17207581 -0.2297439 -0.13855764 -0.17545812 -0.3162547 0.110762164 0.09771672 0.3463853 -0.059238233 0.61425674 0.21297114 0.6565702 0.15237519 0.956592 -0.15862823 -0.028984686 0.06348514 -0.1719733 0.33171573 -0.09238554 0.095030494 -0.99973106 0.12873244 -0.3755346 0.42206526 -0.18165837 0.019946652 -0.08975525 -0.2447255 0.18309283 -0.22821142 0.5364003 -0.22727402 -0.28970212 0.7291648 -0.24967499 -0.2856053 0.1520151 0.3279887 -0.150318 0.15682437 -0.15338707 0.3569839 0.60250914 0.00034197382 -0.009239119 -0.28172496 0.8515335 0.00026602688 0.27722543 0.25857818 0.09620294 -0.10174294 0.0074763587 0.1616512 0.17831492 -0.38990948 -0.06230407 0.12440952 -0.3081799 -0.047493085 0.41957644 0.49628782 -0.08613328 -0.21231133 0.2864869 -0.22799405 -0.016142529 0.05403867 0.20076858 -0.10628045 0.072667666 -0.015884763 -0.29155737 -0.07376228 -0.06475697 -0.23721288 -0.1036659 -0.08099412 -0.06297905
1030 0.39705884 -0.15896581 -0.29071307 0.12747678 -0.37031505 -0.09500824 -0.17261103 0.24759586 0.8095704 -0.0995695 -0.0002987475 0.10723287 -0.096584834 0.15534258 -0.29129884 0.0044786073 -0.21259448 -0.050540816 -0.64439094 0.099817 0.2513913 -0.0789356 -0.309567 0.21598893 -0.28051388 -0.060457405 0.0058744773 0.8239334 0.015830299 0.40789053 -0.08975728 0.07846742 -0.1480295 0.81077653 -0.14854172 -0.18313487 -0.4354484 0.1644185 -0.18690999 0.16575067 0.13811289 -0.49625108 0.31388178 -0.12237117 0.4101756 0.1934143 0.052996114 -0.122681 -0.07642117 -0.114550225 0.12864426 0.02964997 -0.11025657 -0.07713071 0.48460087 -0.022766214 -0.067838445 0.035531227 0.67654604 -0.24614927 0.29192403 -0.50897247 0.22285573 0.1282733 0.094379745 -0.18247251 -0.07076712 0.1453039 0.014469403 -0.09518193 0.28995857 0.33916757 0.09761532 0.0037462446 -0.14339381 0.08202247 -0.20221804 0.17344917 0.123344764 0.07936999 -0.25599027 0.2779719 0.33450332 9.011681e-05 0.38809586 -0.15200573 0.23255494 -0.19553198 -0.27684528 0.06243527 -0.0015809172 0.3282808 0.10941439 -0.01075765 0.25534856 -0.20141433 -0.0924493 -0.13683476 -0.076030076 0.032942392
929 0.7081561 0.30462384 -0.42036283 -0.25228578 -0.358724 0.39421436 -0.25547966 -0.291288 0.4235643 -0.36857027 0.057134513 0.10113523 -0.2706109 -0.05091587 -0.3995177 0.06233817 -0.43428606 -0.11330198 -0.45514116 -0.06509774 0.23419783 -0.3297344 -0.0008219585 -0.07843032 -0.07669581 0.27428135 0.07258584 0.3825202 -0.14303873 0.16890648 -0.13962643 0.3197791 -0.23811822 0.82735825 -0.26204923 -0.023559822 0.18712628 -0.068025 0.11806739 -0.120790504 0.23615621 -0.4708231 -0.07838845 -0.27189544 0.15340395 0.09169492 -0.12991032 0.071560256 -0.17062461 -0.23623553 -0.051470857 0.0026620328 -0.2842673 -0.25733858 0.5159961 -0.26432902 -0.34703383 0.07576311 0.8067818 -0.3942502 0.12954517 -0.30846256 0.23035239 0.073707566 0.10906962 -0.09390542 -0.054272123 0.26672465 0.28151354 0.009785854 -0.06367758 0.18063153 -0.21612972 0.23459357 -0.01472223 0.21334216 -0.4188352 -0.44601282 0.10697549 0.0043713995 -0.13692737 0.25198033 0.27952045 0.17635526 0.20180333 -0.041435402 0.06278929 -0.2317543 -0.28687462 -0.095304705 0.06295645 0.44891062 0.08296955 0.29560655 0.018823741 0.004522462 -0.017132971 -0.06081325 0.14074151 0.09759179
1081 0.2731655 0.026633633 -0.77405125 -0.22442372 -0.45716724 0.33035523 -0.25171658 -0.1250846 0.29692492 -0.27997863 -0.08745271 -0.12818433 -0.316846 0.031548083 -0.22276187 0.05911382 -0.06938337 -0.2875945 -0.36297727 -0.016218314 0.1862422 0.039727923 0.011835021 0.15925008 -0.08672017 -0.08453772 0.06756359 0.25405777 -0.1117083 0.29332536 -0.049116332 0.26496714 -0.08028835 0.76221657 -0.08132595 -0.003253532 0.14003746 -0.18055448 -0.18746358 -0.047713414 -0.14333175 -0.5230794 0.18522888 -0.36621025 0.41801664 -0.063441195 -0.18701336 0.054265916 0.12038979 0.048090953 0.09943788 0.41310883 -0.2642135 0.09244275 0.71612066 0.1261595 -0.19872668 0.11103209 0.09119475 -0.3933554 0.17744665 -0.39525288 -0.07212346 0.13120992 0.054546818 -0.34039927 0.011013043 0.25690797 -0.1830751 0.059345506 0.13199633 0.28672984 0.10417086 -0.11952958 -0.30179313 0.0047246134 -0.119043976 -0.26459605 0.21414688 -0.028479485 -0.120731644 0.30941033 0.17357297 0.23234504 0.10850903 0.025640922 -0.0027751501 -0.16162045 -0.32665217 0.03923014 0.03261014 0.31404617 0.15241492 0.112069935 0.07084273 -0.029372111 -0.089308 -0.15566094 0.097717255 -0.008154841
300 -0.549025 -0.1573558 0.47991794 -0.54006636 0.38458836 -0.21330751 0.55082595 0.04676157 -0.53348964 -0.1380394 -0.18446921 0.29194486 0.37376288 -0.37844837 0.15611733 -0.040482853 -0.1549306 0.21536282 0.30156428 -0.26801926 -0.32006046 -0.24946682 -0.20393552 -0.3868002 0.4095452 0.19263278 -0.28656697 -0.6062717 -0.08456293 -0.21388425 -0.0046406817 -0.0069125276 0.11248603 -0.6526689 0.06684605 0.023662727 0.05235757 0.23826882 -0.11084006 -0.03427233 -0.084369406 0.43977168 -0.2787916 0.26169038 -0.47415268 -0.085456945 0.3799076 0.19438562 0.061785743 -0.01014938 -0.04950893 -0.26792428 0.28506947 0.22039565 -0.6179479 -0.05477544 0.38672382 -0.1757697 -0.38508168 0.1908728 -0.25556305 0.05087948 -0.10955028 -0.117998 -0.080965444 0.026073024 0.37265423 -0.40944546 0.05393405 0.19969127 -0.20430271 -0.3121827 0.15483353 -0.14921682 -0.12410617 -0.107524484 -0.29499283 0.081703015 -0.38843298 0.2813188 0.10962983 -0.09707436 -0.35866022 -0.028189512 -0.4128794 0.09510229 0.08451384 0.24730149 -0.0042758905 -0.05437138 -0.27809462 -0.37244076 0.07357365 0.06747912 -0.03784015 0.026508883 0.2205181 0.27297932 0.052342184 -0.34183526
71 -0.4314044 -0.06169639 0.39574528 -0.49328646 0.6307756 -0.19930093 0.46601996 -0.10391279 -0.8516885 -0.26635647 -0.032168735 0.11080963 0.22913195 -0.16551751 0.007001704 -0.62760365 0.0011706718 0.29921833 0.65841496 -0.45790824 -0.58289444 -0.20168838 -0.005858233 -0.18681973 -0.06797517 0.0012640196 -0.46367046 -0.3110418 -0.27415848 -0.42905378 0.081199184 -0.3284941 0.19442247 -0.610988 0.023290439 0.1491113 0.2291321 0.21984571 -0.3122801 -0.17572479 -0.44095355 0.53027934 -0.3916031 0.36718833 -0.3138193 0.12942782 0.016140224 -0.033361025 0.03665544 0.21304497 -0.16779417 -0.24150926 -0.06993924 0.0845034 -0.6917353 0.088773504 0.742003 -0.21078153 -0.33661827 0.40906116 -0.53852373 -0.006661443 0.025954552 0.025203198 -0.21328413 0.16098647 0.118759885 -0.35798106 0.16898079 0.1472772 -0.4400949 -0.24600704 0.23414415 0.23435934 -0.075070806 -0.20641375 0.44385746 0.17978491 -0.3508195 -0.15627097 0.15076268 0.22459602 -0.16838326 -0.36964118 -0.543174 0.048499815 0.11575796 -0.22552422 -0.18958801 -0.020583589 -0.26927945 -0.63137054 0.08097105 -0.14614822 -0.060132496 -0.018850124 -0.2345587 0.06364823 0.5358269 -0.32556346
1852 -0.454189 -0.40178463 0.6329373 0.34478435 0.5146245 -0.1898974 0.40350172 -0.086193725 -0.51870733 0.2120784 -0.14692248 0.22399348 0.07447683 0.017504591 -0.07693373 -0.016308803 -0.20092331 0.17938232 0.45040363 -0.021022048 -0.3250339 -0.10996009 -0.09850436 -0.6987484 0.12458535 -0.43726107 -0.12092234 -0.5640826 0.40044442 -0.51276326 0.15583822 -0.29040697 0.053957585 -0.64993376 -0.058867242 0.1915173 -0.1428888 0.28201297 0.2011615 -0.17694783 -0.26627654 0.28397375 -0.42719933 0.20539212 -0.43207183 0.082448825 0.13521537 0.19367926 -0.062209927 0.43038046 -0.1354418 0.0044849855 -0.005086616 0.17022695 -0.42443472 -0.12399965 0.019315537 -0.17816387 -0.41225183 0.48670235 -0.6539968 0.36621153 0.28706902 0.21379423 0.075033076 0.13588865 -0.28594437 -0.025120748 0.039745204 0.13943298 -0.6303324 -0.29630616 0.3887897 0.15625873 0.2582809 -0.3373079 0.35928696 -0.056411896 -0.10328299 0.03169975 0.5308241 -0.4565472 -0.21167204 -0.04562716 -0.13691646 0.15231729 -0.11066264 -0.035304405 0.3634604 0.37898824 0.16218284 -0.46975085 -0.0437126 -0.29271606 0.5508165 -0.1296202 0.22973523 0.11517409 0.04822373 -0.2694964
1292 -0.30654353 -0.16286221 0.7263521 0.08261172 0.4383825 -0.051806614 0.38213286 0.15647443 -0.15581423 0.27227375 0.20716988 0.05043246 0.5796753 -0.18317954 0.02910527 -0.361971 0.151951 0.14727475 0.21999194 -0.37559226 0.10253536 0.12047745 -0.097174086 -0.42054996 0.1399865 0.022490127 -0.101491764 -0.3042029 0.37138602 -0.6995919 -0.093036905 0.029469064 0.3414129 -0.7655779 -0.124769494 0.29229483 0.30869156 0.20864062 -0.037632756 -0.086221874 -0.52212876 0.5011509 -0.50197506 -0.06940347 -0.15212648 0.15721555 0.2616566 0.16632104 0.09086688 0.36791235 -0.035400853 -0.458428 -0.061626524 0.14942537 -0.66344875 0.017649144 0.21711877 -0.0122789405 -0.12670241 -0.082227655 -0.22594997 0.5094603 0.03326856 0.22866924 0.09146784 0.32352978 0.2955136 -0.15218551 -0.15322511 -0.11494907 -0.59987926 -0.023874931 0.36959782 -0.11013004 0.2488943 -0.3734808 -0.07567521 0.039534066 0.2257986 0.058713935 0.58466536 -0.17174722 -0.35565558 -0.15201081 -0.012638075 0.050145388 0.30988452 0.11979249 0.019990811 -0.027233724 -0.013161766 -0.38563696 0.18948482 -0.23558547 0.18740135 0.01674531 -0.0752155 0.21175519 -0.09972171 -0.18334602
1713 0.0956153 0.21548396 -0.45981973 0.1422213 -0.23878063 0.08803231 -0.44733447 0.31641325 0.31901428 -0.19695279 -0.017760484 -0.14641927 -0.25334507 -0.021208081 -0.31480205 0.11756745 -0.4982335 -0.33320457 -0.7763111 0.2424553 0.44939157 0.112789355 -0.21169579 0.39246914 -0.0969029 -0.09326378 -0.069567464 -0.12692034 0.12364524 0.30965015 -0.27053335 0.28209186 -0.29316595 0.6816483 -0.076230496 -0.17186859 -0.0874071 0.07803798 -0.076844625 -0.18153198 0.26838866 -0.7164395 0.46379992 0.112841986 0.6677053 -0.14238682 0.08673352 -0.26747143 -0.5234457 0.22024255 0.08745124 -0.024435854 -0.28715912 -0.1500352 0.39447036 0.31672156 -0.5109774 -0.28365976 0.23102957 -0.5075572 0.4309057 0.0601585 0.03901869 0.06380025 0.2957916 -0.21185455 -0.09392854 0.21345544 -0.19920865 0.20745638 0.18574952 0.31201985 0.1303324 -0.054998845 0.37041405 0.12005542 -0.24965312 -0.3340818 0.11982591 -0.14435992 -0.25863317 0.1738635 0.3766425 0.12649198 0.23671187 0.06035811 0.12841378 0.14097096 0.29468128 -0.040779002 -0.30049634 0.48433197 0.008820071 0.32705465 -0.11413905 -0.05212051 0.009662753 -0.17016353 -0.065998584 0.4061007
1343 -0.31724927 -0.19753064 0.53649545 0.03507052 0.5229041 -0.12588166 0.40863308 0.18680207 -0.22881667 0.10953396 -0.17193115 0.11711968 0.2700492 -0.16792169 0.19311094 0.051846847 -0.17365362 0.5865571 0.17041503 0.017984534 -0.053160354 0.09026383 -0.15252678 -0.4173135 0.3498923 -0.039664287 -0.43536234 -0.21729307 0.30761403 -0.6212804 -0.018290296 -0.18582222 -0.016397588 -0.68635255 0.26459023 0.6477225 0.092304975 0.4091245 -0.03919693 0.13442442 -0.23139223 0.4748601 -0.68661785 -0.18380888 -0.44688463 -0.42375824 0.083084725 0.2818059 0.016229194 0.47886837 0.030106226 -0.05145272 0.20104714 0.1639281 -0.46015614 0.2122634 0.12127428 -0.12887093 -0.41920245 0.44279864 -0.41370532 0.22198667 -0.012364741 0.082653314 -0.21009949 0.21612756 -0.1932629 -0.22328962 0.0700855 0.1488653 -0.13887402 -0.10969587 0.26619333 -0.26540664 -0.0464021 -0.40860128 0.22250961 0.20031467 0.04507311 0.1819657 0.37403095 0.082329 -0.1957769 -0.4469564 -0.15121393 -0.079141006 0.0051004407 0.21426477 -0.19390756 0.22757651 -0.13934503 -0.45434147 -0.021865742 0.017616663 0.38177806 -0.3267715 0.1927429 0.111899264 0.36304575 -0.23120299
1583 -0.37999976 -0.12486322 0.9076289 0.035928078 0.26395988 -0.024915999 0.37627488 0.1998248 -0.45293912 0.114419214 -0.12490372 0.09459126 0.16385955 -0.07085917 0.09184134 0.14770423 0.07699422 0.13630468 0.56197196 -0.110860854 -0.025591858 0.14593409 0.19346534 -0.35934225 0.17459635 0.104156196 -0.30562288 -0.3553723 0.52116185 -0.6330304 0.43427008 -0.021498738 -0.09719694 -0.59407616 0.15879403 -0.035362117 0.22302704 0.118627004 0.2342431 -0.14833856 -0.2565978 0.45438194 -0.32252395 0.06801733 -0.13466395 -0.102081604 0.10832355 0.06651863 -0.1138307 0.52469945 0.015905784 0.09693522 -0.013597529 0.5290361 -0.6299588 -0.41842455 0.14485045 0.024432857 -0.48515296 0.37541157 -0.15553227 0.25119817 -0.14487511 -0.028263606 -0.08950451 0.58878803 -0.12512095 -0.18211594 -0.11262064 0.12915592 -0.14929956 -0.13017648 0.06368377 -0.22760144 0.1032625 -0.05429897 -0.025113674 0.06067046 0.033951245 0.22823218 0.4400666 0.09016246 -0.4455881 -0.11749533 -0.18248264 -0.19474725 -0.23927747 0.36504284 0.27679205 -0.028033102 0.04487676 -0.26984155 0.253035 -0.3853561 0.49735525 0.050088707 -0.083125174 0.41628224 -0.0019314729 -0.21794826
1579 -0.5605071 0.00030354247 0.35305905 0.070174046 0.38091955 -0.30565602 0.50977415 0.07017916 -0.27989495 0.44452104 -0.27922463 -0.021002468 0.37427393 -0.06576879 -0.063916415 0.18035138 0.2661512 0.3058323 0.37687057 -0.1389888 0.11824511 -0.23487702 -0.031654328 -0.25361124 0.48353943 -0.34649625 -0.18489534 -0.5978084 0.34139067 -0.69329244 0.09164585 -0.106899016 -0.2198633 -0.7139139 0.1865962 0.07545303 0.19645281 0.1518699 -0.07955041 -0.15936898 -0.34035364 0.53172696 -0.38003153 -0.29121685 -0.6175917 -0.41366404 -0.100411244 0.28618747 -0.15572084 0.4264368 -0.06395487 -0.39795694 -0.012337472 0.23906097 -0.624082 -0.09585204 -0.25045195 -0.0048414245 -0.42503655 0.25341144 -0.41119823 0.28532168 0.03628358 -0.16528991 0.22683083 0.58898664 -0.09652657 -0.01952572 -0.20625106 0.19495445 -0.5252825 0.060483303 0.14711516 0.044299573 0.34894934 -0.20315798 0.20473266 0.22901945 0.34675023 0.18902539 0.3993747 -0.3272554 -0.22582185 -0.4674012 -0.04394649 0.20225695 0.027555145 0.10518259 0.122048564 -0.0063727535 -0.13005367 -0.5308619 0.07369886 -0.33566687 0.61745983 0.043139048 0.08647316 0.0133035155 0.04430643 -0.31301638
465 0.46371108 0.114687935 -0.83463866 -0.17666616 -0.31245613 0.1731868 -0.073344626 0.16783462 0.3197446 -0.31035316 0.23137356 -0.124532044 -0.16150944 -0.23908189 -0.20052923 -0.16688398 -0.28448397 -0.29978186 -0.52711695 -0.19242899 0.051315777 0.19279467 -0.073690385 0.075367756 0.017798986 0.007899753 0.049487133 0.2890953 -0.3026504 0.32722548 0.21178973 0.4409584 -0.4507917 0.6161722 0.13334832 -0.3641532 -0.32491562 -0.080821104 -0.10342944 0.009212509 0.25430807 -0.3916325 0.28453588 0.13067114 0.4223082 0.115665436 -0.1743409 -0.05921948 0.021729443 -0.066196196 0.07950278 0.40677395 -0.01805002 -0.05625063 0.4907158 0.12577665 -0.1754238 -0.09954256 0.5473966 -0.07666457 0.38363174 -0.04778651 0.0323756 0.44341365 0.005046183 -0.28577864 -0.041973714 0.15020639 -0.022441363 -0.13779305 0.21985753 -0.13786654 0.048282903 0.055588495 -0.03907486 0.31038103 0.103542514 -0.13441677 -0.030893534 -0.016689641 -0.34968406 0.33377776 0.41663527 0.23401816 0.4724608 -0.078357376 0.09314489 -0.194867 -0.08664167 0.033859674 -0.04444042 0.3557955 -0.16268478 0.40091494 -0.13749482 -0.07626883 0.0876345 -0.5720452 0.055956606 0.13650635
867 0.1704529 0.0792363 -0.52400357 -0.039412 -0.514144 0.2647252 -0.4504597 -0.11773719 0.30749893 0.035370033 -0.051408056 -0.057839133 -0.31906074 0.075811416 -0.07556223 0.03879938 -0.18943779 -0.24586868 -0.35773823 -0.04977671 0.10959981 -0.08006114 -0.06169218 0.21592885 -0.21933202 -0.105314426 0.072117195 0.46374512 0.060015514 0.07228965 -0.1458338 0.21987827 -0.15155055 0.7436664 -0.13030814 -0.17699094 -0.045981042 -0.08627496 -0.09598434 0.00783257 -0.2825935 -0.35139564 0.37989277 -0.07138686 0.27562854 -0.029184965 -0.105426036 -0.13736546 -0.09185298 -0.121650554 0.13108076 0.10712968 -0.33966652 -0.22547252 0.52641773 -0.09278194 -0.12131086 -0.12137793 0.56216514 -0.42215964 0.34871048 0.069795616 0.12045743 -0.051071994 0.20239381 -0.46430725 0.16237517 0.38992512 -0.21094176 0.09853421 0.25012606 -0.00860049 0.1410726 0.009932825 -0.08839887 0.25034744 -0.23390687 -0.09794373 -0.17905176 0.19206865 -0.4817167 0.020513354 0.43591648 0.025725836 0.016185213 -0.039828576 -0.115564354 -0.34504732 -0.17491359 -0.06867668 0.11621651 0.3795792 0.074167594 0.15189995 0.27797282 -0.0029903338 0.19039258 -0.14750893 0.29628485 0.26042634
702 0.2515092 0.20748214 -0.676434 -0.059072074 -0.016771292 0.21165669 -0.18011229 -0.3538142 0.25429165 0.0011872669 -0.018152697 -0.43364733 -0.3373791 0.107882574 -0.19959986 0.12680653 -0.30385643 -0.4294275 -0.16082023 -0.073542476 0.29083392 0.18669721 -0.16566043 0.33826408 -0.26599485 -0.119512856 0.10759113 0.108865015 0.13382101 0.585206 -0.1773423 0.36620876 -0.026101865 0.7794667 -0.2027949 -0.32038105 0.12773448 -0.06391853 0.00562608 0.006563614 0.046508428 -0.47469196 0.20069143 -0.049014125 0.48670912 -0.13464269 -0.3229257 -0.03442895 -0.043141194 -0.16285722 0.19333208 0.16864173 -0.31110075 -0.008339405 0.48020658 0.23676556 -0.23971385 -0.008219292 0.20638591 -0.6051802 0.316603 -0.20148604 0.02985354 0.0687646 0.017635537 -0.13045622 -0.013749517 0.26789722 -0.25630614 -0.11162473 0.16957124 0.11822394 0.13302886 -0.11438054 -0.15731436 0.14451839 -0.058608554 -0.38687852 -0.18762344 0.09559685 -0.20170693 0.19297442 0.11197758 0.312733 0.23025794 0.10457624 -0.06097533 -0.25070915 -0.3499316 -0.08546659 0.2925023 0.27006596 0.15878958 0.18635328 -0.1505761 0.12626007 0.33628637 -0.076924205 0.119020656 -0.040238913
1927 -0.42973894 -0.34126425 0.7584604 0.41549528 0.41659254 -0.25710103 0.034281015 -0.06985216 -0.20006867 0.2581482 -0.10690941 0.05752468 0.057488594 -0.09298913 -0.10994198 0.13492382 0.115975186 0.35399708 0.47553566 -0.54776293 0.21996759 0.41324064 0.05539337 -0.45519233 0.20045222 -0.34339845 0.098778516 -0.54888254 -0.027066283 -0.3033581 0.079426415 -0.0760387 0.28136197 -0.85401046 0.21437968 0.38030759 0.042713787 0.35692245 -0.005848362 -0.25180015 -0.23770878 0.3096498 -0.2104403 -0.025400478 -0.5516702 -0.37429038 -0.2633789 0.44691578 -0.11513951 0.43507397 0.101838365 -0.10070419 0.00498067 0.33420643 -0.57714427 0.09642267 0.16496417 -0.26746038 -0.21551602 0.4622179 -0.340805 0.47078186 -0.14001141 -0.51177484 0.033084843 0.23254599 0.13440222 -0.024911104 -0.28632745 -0.050501503 -0.29755488 0.13643005 0.5604341 -0.1061823 0.33189127 -0.071588 0.30874932 0.1474841 -0.08973841 -0.03658403 0.6952726 0.029439436 -0.20057358 -0.19587225 -0.546815 0.19065684 0.03281573 0.14313659 0.36318874 0.12206941 -0.24463049 -0.4039851 0.4090897 -0.44229254 0.2730217 0.24601404 0.1014002 0.2651277 0.112637706 -0.15186405
1218 0.028515477 0.0747214 -0.44777545 0.2072004 -0.4783507 0.12292986 -0.5742109 0.15747601 0.41942477 -0.32513714 0.2236395 -0.17741506 -0.39869148 0.13548791 0.099306785 0.009079718 -0.34453055 -0.16838951 -0.82622844 -0.059208978 0.2396914 0.3071724 -0.017077215 0.36969206 -0.30208862 0.039152477 -0.2269238 -0.101188794 -0.0751281 0.16615477 -0.11659665 0.40212795 -0.3362615 0.8980428 0.0401889 -0.05604725 0.113390304 -0.16951366 -0.099671766 0.19455048 0.28538913 -0.31739306 0.36788917 0.059363857 0.5145233 0.13158673 -0.39403367 -0.3005299 -0.11426142 -0.22133106 -0.18945876 0.32059216 -0.074675314 0.03664021 0.45974556 -0.25923896 -0.27934787 0.030585498 0.40567067 -0.44853967 0.30159226 -0.15137239 0.13239965 0.17101425 0.34992346 -0.2528141 0.13514428 0.1811434 -0.15060836 -0.09461514 -0.21748698 0.3376924 0.0107662985 0.004524649 0.04811935 0.33211902 -0.0551712 0.035212196 0.34396142 -0.15807502 -0.13029553 0.2693182 0.23657493 0.10700263 -0.031028036 0.093233734 -0.12403027 0.038151678 -0.4113486 -0.097098455 -0.124041885 0.35225633 0.1050214 0.16738886 -0.048626583 0.18596081 -0.28727895 -0.051969748 0.06921581 0.056032654
1231 -0.61248946 0.15828247 0.4356894 0.04389607 0.57366276 0.113419555 0.5419368 -0.02738111 -0.54650855 -0.05967784 -0.104311794 -0.0685792 0.18621714 0.47032845 0.44007602 -0.15454806 -0.06230794 0.24766561 0.35038024 -0.28618637 -0.03872878 0.12110153 -0.18154477 -0.15776058 0.1630229 0.10871191 -0.15614969 -0.42327833 -0.069950856 -0.15155482 0.13746856 -0.3563661 -0.05442324 -0.695448 -0.051137395 0.10708631 -0.13179298 0.3279336 0.32852292 0.0843814 -0.05733703 0.25891995 -0.73933184 0.15259393 -0.69943136 -0.19546244 -0.060593534 0.045802318 -0.113536485 0.7256064 -0.06530321 -0.2888158 0.13623728 -0.10060144 -0.64386797 0.20087385 0.24844612 -0.08428502 -0.35401413 0.14641249 -0.0719731 0.36350444 -0.16662136 0.17660426 -0.33475417 0.35093737 -0.11587772 -0.12653388 -0.069780074 -0.15883964 -0.44597927 0.029456228 0.030991988 -0.17071716 0.0017280091 -0.45179877 0.30056632 0.5111583 0.049420148 -0.18693651 0.43472695 0.25823334 -0.1941536 -0.58986 -0.3986342 0.25151947 0.084044985 0.08687062 0.118098475 -0.05245724 0.022057235 -0.5391086 0.09798971 -0.5738213 0.38969582 -0.31437653 -0.07829235 0.07742511 0.19539599 0.14957845
660 0.38242134 0.17593862 -0.6758554 -0.20913666 -0.48501322 -0.071859755 -0.40532938 0.080384225 0.5367971 -0.07542801 0.08709259 0.16220309 0.16442351 0.029511936 -0.31917733 0.20382448 -0.5423954 -0.22699675 -0.73402864 -0.05563421 0.2645058 0.012435997 -0.3512263 0.2477224 -0.24380621 -0.16862015 -0.18581533 0.52027607 -0.35643807 0.18426517 -0.07456231 0.36881003 0.15764694 0.6307087 -0.22381978 -0.14042601 0.043868277 -0.2914736 0.16488077 0.19677539 0.21563926 -0.41782638 0.21033506 -0.21299186 0.44085425 -0.3247432 0.026571378 0.112311 -0.09549531 -0.2540217 -0.19782394 0.44917172 -0.1534797 -0.01837386 0.29999673 0.12288863 0.029612057 -0.060870856 0.2191258 -0.37945804 0.4513774 -0.37176365 0.23844539 0.133271 0.021816427 -0.41905755 -0.05569064 0.22193725 -0.09972579 0.044607975 -0.21923429 0.01697809 -0.36527017 0.009656334 -0.08493951 0.012473857 -0.11201996 -0.17955534 -0.07522604 -0.013769473 -0.39774752 0.3031076 0.3257064 0.30529332 0.26214585 -0.01870694 -0.3340602 -0.25613835 -0.22733831 -0.10233589 0.13569139 0.31468922 -0.025777563 0.25177762 -0.26174504 0.14096297 0.30377498 -0.32218742 0.06669976 0.044230957
608 -0.50135005 0.024561314 0.342502 0.008705582 0.4771773 -0.31815764 0.5914298 0.007014733 -0.50236756 0.23239723 -0.071992874 -0.20367046 -0.004294541 -0.14852825 0.12577489 -0.2667017 0.1163934 0.20694189 0.4336094 -0.19247577 -0.41236922 -0.09294404 0.06678652 -0.14192712 0.2485805 0.014243061 -0.19770205 -0.37844378 0.22503076 -0.38570842 0.220219 -0.26817155 0.12787339 -0.8677832 -0.10749954 -0.029717576 0.4622614 0.19929488 0.028320685 0.14735298 -0.2641782 0.3960842 -0.64404273 0.24852034 -0.20462604 0.12087621 -0.07145231 0.3310769 -0.27838993 0.43527633 -0.13492702 -0.02302659 0.26518577 0.01667172 -0.5328285 -0.041753814 0.29925376 -0.068983 -0.35995984 0.14010549 -0.28711522 -0.00573137 0.075253695 -0.08533197 -0.40892273 0.37879363 0.16410027 -0.1500758 -0.08746841 0.11261476 -0.3111491 -0.025231749 0.29072583 -0.0075270007 -0.2151395 -0.06516541 -0.24870865 0.20144461 -0.26825467 0.31462193 0.06446253 -0.16288684 -0.21063936 -0.29143605 0.013370394 -0.0041645765 -0.07610365 -0.044480406 0.013304946 -0.071005 -0.14695708 -0.37197125 0.09620098 -0.11327882 0.07019748 -0.24187467 0.10653698 0.2435837 0.003319242 -0.32351077
182 0.5194293 0.1110323 -0.64297634 0.13957761 -0.009845477 0.41095808 -0.10077936 -0.4514821 0.4298624 -0.10787299 -0.23196858 -0.15777484 -0.23397179 -0.179165 -0.47186458 0.0038941312 -0.21558297 -0.024407849 -0.39800715 0.043197602 0.047554467 -0.098785445 -0.4263731 0.1891537 -0.5057981 -0.09157804 -0.12521581 0.118779585 -0.30126798 0.48395622 -0.39997742 0.37505507 0.083233 0.6403846 -0.29903114 -0.2015824 -0.053231455 0.16709106 -0.18127598 0.11164587 0.44851583 -0.54861265 0.48085332 0.1301824 0.44607332 -0.092332326 -0.46971905 0.021777174 -0.046492323 -0.20956372 -0.020185597 0.3610054 -0.4809348 -0.23940897 0.53517854 0.22289662 -0.15858607 0.10925831 -0.09238979 -0.5685313 0.51104856 -0.38854742 0.002357178 0.16247661 0.090069935 0.06983336 0.17948915 -0.01883507 -0.2390014 -0.10241946 0.23084517 0.010020609 0.05808912 0.12869482 -0.06592118 0.5795205 -0.01741154 -0.47480288 -0.1848071 0.0022157244 -0.4574368 0.16535203 0.35005766 0.28008914 0.18832275 0.08003398 -0.15348242 -0.5843379 -0.50518084 0.067508854 -0.10239349 0.46044353 -0.316661 0.29100567 -0.06022701 -0.18500893 -0.0217959 -0.4515256 0.2956965 0.11576499
1902 0.6292205 0.08181701 -0.5983408 0.23007903 -0.43830836 -0.008507638 -0.434697 0.15291284 0.062407162 0.11381864 -0.012584917 0.11719694 -0.19733976 -0.0057917377 0.17044769 0.23219714 -0.075117365 -0.25097635 -0.41964734 0.46078783 -0.052207828 0.09608311 -0.06569798 0.39307866 -0.38383067 -0.14999695 0.32200307 0.3591937 0.0072472678 0.61419404 -0.07630912 0.2204038 -0.008222662 0.70495313 -0.03551062 0.30931032 -0.31892642 -0.36563748 0.08355815 0.31919876 0.22740957 -0.7379104 0.5725494 -0.25920364 0.59022856 -0.6407041 0.24807867 -0.17846726 -0.17268927 0.022410506 -0.1576912 0.45010203 -0.14410307 -0.3246029 0.4048034 -0.12499726 -0.107424095 0.28980458 0.52818745 -0.30284396 0.47225234 -0.09851809 0.16036771 -0.041600913 0.12923113 0.059379112 -0.116897635 0.20091325 -0.35041425 -0.12314135 0.2141768 0.42036238 0.007867655 -0.23963052 0.056404922 0.3008891 0.032573745 -0.18369249 0.37631655 -0.078731865 -0.14112276 0.2172994 0.1252223 0.20784606 -0.24237838 0.010088173 -0.07766251 0.16706093 -0.22940612 0.23514615 -0.22033982 0.4595427 0.23139709 -0.12111737 0.35632572 0.25679198 0.009219066 -0.30536893 -0.26337403 0.19453193
715 0.6253102 -0.1623996 -0.6545966 -0.19881573 -0.36535513 0.16661642 -0.34200683 -0.21460764 0.506372 -0.31673628 -0.12094827 -0.35864875 -0.3348167 0.057352558 -0.18222426 -0.01214726 -0.4630418 -0.18096752 -0.6520221 0.23118202 0.30912897 -0.11664075 -0.24824095 0.09269317 0.008582105 -0.41673374 0.004414843 0.41515735 -0.1698224 0.4394296 -0.19367811 0.06812956 -0.08023488 0.62351215 -0.13238588 -0.10508855 0.04096832 -0.012972061 -0.07992004 0.37592995 0.10691462 -0.29587284 0.15778063 -0.12191542 0.32196572 0.2615437 0.0374849 -0.14260536 -0.036454342 -0.18523934 0.03538377 0.09371848 -0.17882586 -0.13284941 0.45475852 0.032516368 -0.034988295 -0.16185494 0.17100888 -0.3140663 0.43125522 -0.45020673 0.2480311 -0.120812885 0.09776813 -0.13216335 -0.12225832 0.123269096 -0.18739673 -0.3960543 -0.15141316 0.019258251 -0.11831916 -0.029300118 -0.03090136 0.32026252 -0.03068533 -0.0883069 -0.06455926 -0.049776565 -0.2542386 0.3744551 0.14674498 0.31133246 0.36986935 0.19395521 -0.16108257 -0.30464247 -0.1597473 0.04382084 0.15111884 0.13104369 -0.17780285 0.24097143 0.07965198 0.031985033 -0.14358978 -0.042157654 -0.10321501 0.16219735
21 0.11440004 0.08297728 -0.6236178 -0.2705598 -0.20932698 0.301749 -0.13623737 -0.20586847 0.32794914 -0.19829403 -0.035619758 -0.20442149 -0.21197191 0.36085832 -0.2254078 0.07632185 -0.12919101 0.05496343 -0.55776185 -0.03398171 0.28712037 0.02262992 -0.2403288 0.41072103 -0.27925956 0.20117727 -0.24667263 0.19837348 -0.18466236 0.1413042 -0.09649991 0.48398146 -0.055456124 0.527297 -0.27376944 -0.53710294 0.26187027 -0.05765866 0.10436179 0.196509 0.11122807 -0.5351888 0.37058595 -0.027675854 0.21390826 -0.025630264 -0.29006317 -0.14604025 -0.1724514 -0.13299865 -0.16708353 -0.14874037 -0.3223956 -0.18323463 0.59234005 -0.22954494 -0.14001003 0.10951157 0.5870062 -0.032671746 0.514688 -0.26484963 0.104652695 -0.013138837 0.21791051 -0.189261 0.19118269 0.11867747 -0.33801115 -0.06850097 0.10295754 -0.038874555 -0.1021234 -0.09235404 -0.15382314 0.42873144 -0.09712446 -0.02495927 -0.18735732 -0.06260699 -0.25928125 0.15312469 0.23241119 0.16991736 -0.08300482 0.14211172 -0.2499431 -0.3050375 -0.35009202 -0.4314404 0.14783664 0.53900814 -0.027306613 0.33916333 -0.27522048 -0.30269358 -0.10157102 -0.38650706 0.047719914 -0.039510082
353 0.38375813 0.2566304 -0.8690899 -0.1558764 -0.29248834 -0.030546011 -0.3227583 -0.12348196 0.7143184 -0.040736742 0.32636654 -0.097807206 -0.29927123 0.010256974 0.09250435 0.19233984 -0.12272641 -0.2889781 -0.41241863 0.14425863 -0.15599619 0.110369 -0.2182462 0.6843858 -0.032360762 -0.053940594 -0.32990456 -0.014377112 0.03996 0.39983246 -0.24673864 0.17863083 -0.34957144 0.6436106 -0.28296715 -0.3146976 0.19674273 0.08225234 -0.19388354 0.13546264 0.11862872 -0.41675472 0.35931742 0.049838323 0.49236363 0.19746202 -0.043395236 0.095421866 0.019467935 -0.20337887 -0.14720936 0.13750409 -0.15572147 0.066047326 0.33119094 -0.037648175 -0.10708114 -0.03252254 0.44954166 -0.5338303 0.36816818 -0.33636668 0.0627415 0.24738261 8.3437444e-05 -0.21813864 -0.07162964 0.11453149 0.31850603 -0.09280694 0.39051542 0.22423768 -0.34014556 0.07036552 -0.10162365 0.44953263 0.27714944 0.023522612 0.14986506 0.111508995 -0.34586585 0.10788912 0.23569733 0.18478414 0.35370556 -0.02934662 -0.060534984 -0.46795377 -0.4489671 -0.14513278 0.29874206 0.15157185 0.2548522 0.23796909 -0.15297914 0.23195918 -0.12029859 -0.2555846 -0.093755305 0.03275699
1 0.31397876 0.042452145 -0.5343986 -0.5238707 -0.50296366 0.23925175 0.16550316 0.13988157 0.23554264 -0.22471865 0.085278474 -0.05421678 -0.47003508 0.08037399 -0.093342125 -0.40503246 -0.15383379 -0.09384697 -0.06521677 0.18530156 0.11528757 0.036407482 -0.10681444 0.19868284 -0.04202371 -0.21815777 0.0032084386 0.28854698 -0.50824547 0.45464876 -0.07414454 -0.08546694 -0.28419822 1.3733454 -0.14851238 -0.8982592 -0.39280105 -0.10412671 0.3106386 0.113112226 0.08334114 -0.6206043 0.53340596 -0.060599938 0.18835591 -0.0016011859 -0.03987918 -0.21211296 0.37681562 -0.6590821 0.35910118 0.34622186 -0.02018621 0.18047526 0.68647385 -0.41833392 -0.32236212 -0.0761903 0.5068872 -0.381061 0.10564295 -0.27672225 0.1944636 -0.13148382 0.09181411 -0.22313017 0.108747445 0.0483243 -0.46870747 -0.026334321 -0.13552727 -0.2823025 -0.15934372 0.25886294 -0.25932598 0.47229752 0.19599003 -0.16250923 -0.3348088 0.15077083 -0.631586 0.061880983 0.22871178 0.25671875 0.18808736 0.036039922 -0.25605884 -0.5499371 -0.28131726 0.20878285 -0.11181431 0.2625089 -0.1775675 0.5063779 -0.39606386 -0.09961311 0.114381485 -0.012646933 0.27917764 0.004531124
1023 -0.4146683 -0.24561961 0.43087718 -0.23449332 0.5453733 0.15044743 0.72332346 -0.37170961 -0.30579373 0.075337045 0.28459683 0.40395334 0.40168703 0.05406065 0.17818601 0.21986036 0.33742756 0.18014593 0.043849736 -0.014031928 -0.03698321 0.30115905 0.12908848 -0.36819014 0.116106935 0.5644006 -0.29796264 -0.15853684 0.37785408 -0.42791083 -0.043556064 -0.08154798 -0.010567308 -1.1358532 0.10498089 0.26336962 -0.39996323 0.43900782 -0.14890777 -0.2841506 -0.2310607 0.74270445 -0.41465724 -0.07719434 -0.6790292 -0.122137375 0.21563528 0.32991713 0.0127170915 0.20009407 -0.20197165 0.011689494 0.2494849 -0.31448385 -0.7147259 -0.11066251 0.028655361 -0.15934621 -0.34290206 0.10090121 -0.061517313 -0.13448606 -0.26242498 -0.21035115 -0.049356367 0.22730404 0.29402527 -0.10864302 0.12383011 0.013213979 -0.69917125 -0.09427815 0.42635772 -0.13145177 0.14441523 -0.21226405 -0.49062246 0.21201572 0.36194214 0.18573426 0.35330582 -0.030514488 -0.23450813 -0.13136172 -0.5107832 0.22438939 0.4246237 0.15879227 -0.09025089 -0.19720362 0.013960382 -0.32754114 0.25072515 -0.36798632 0.33506474 -0.24276488 0.07692159 0.32725024 0.17722316 -0.3039175
1610 -0.3695385 -0.20419526 0.41900682 0.4033881 0.28602934 -0.031994488 0.271131 0.015767183 -0.46957746 0.3894247 -0.14045668 0.32338646 0.5685995 0.17438756 0.11409494 -0.101062916 -0.027118023 0.3779369 0.3131303 -0.25507945 -0.108708255 -0.22560678 0.3465444 -0.72226936 -0.0078076916 -0.38324136 0.21943413 -0.6677072 0.2630117 -0.6594466 0.18486346 -0.25034082 0.21744275 -0.7417925 0.07498504 0.40847704 0.014175041 0.15881887 -0.11986008 -0.17220266 -0.1323222 0.42450064 -0.5695077 -0.230296 -0.4666607 -0.09904299 0.22685279 0.21527784 -0.012319276 0.42744258 0.053929675 -0.082192406 -0.1334018 0.40817022 -0.5928175 0.25379425 0.41437677 -0.26532373 -0.048133258 -0.053653892 -0.29643035 0.102217846 -0.23807862 -0.33513585 0.10912507 0.19813266 0.05169827 -0.22588792 -0.06357509 0.089578204 -0.69055635 -0.32954165 0.39871848 0.09618699 0.04644537 -0.27194044 0.34272444 0.147626 0.033803456 0.008950999 0.2401618 -0.016137524 -0.5167233 0.011042931 -0.21829265 -0.2197 0.12412743 0.3982434 0.4299774 0.2839009 0.08030283 -0.426056 0.11012754 -0.13874039 0.52673477 -0.2264088 -0.25672576 0.2235534 0.2030252 0.034535464
825 0.38815385 0.3197249 -0.61107266 -0.118063435 -0.3052098 -0.049409438 -0.23390003 -0.21170834 0.24110013 -0.20615968 -0.16343096 0.24072309 -0.45530415 0.09784672 -0.25323153 0.003729909 -0.23091571 -0.30977955 -0.41660574 0.14311714 0.26874205 -0.11639246 -0.20840816 0.36323065 -0.03868118 -0.17482366 0.06310781 0.3397772 0.057964075 0.16132532 -0.14689246 0.03111216 -0.12096374 0.8122289 -0.013260248 -0.037819725 -0.023939442 -0.25087655 -0.24936453 0.17551161 -0.09152205 -0.28468427 0.044727586 0.03952095 0.50641763 -0.002505828 -0.18033905 -0.021170909 0.17314704 -0.3097905 0.12568319 -0.011986482 -0.12731631 -0.24948068 0.52717566 0.14023459 -0.41957214 0.16856515 0.48340392 -0.23794612 0.25898466 -0.35184976 -0.1548983 0.056553915 -0.0025084796 -0.27788162 0.08618806 0.19265541 -0.07636687 0.082795955 0.11364304 0.2536897 0.19538723 0.23884046 0.05282151 0.41829062 -0.11985313 -0.27758497 -0.10758032 -0.019239847 -0.26192424 0.24576697 0.19757488 0.106268585 0.24412197 0.1752561 -0.29721457 -0.37834108 -0.24853787 0.1522368 0.03233924 0.21860018 0.23290882 0.3160283 -0.087919176 -0.23759153 0.062290065 -0.024501435 0.28662887 -0.16676004
1745 0.19954559 0.2292887 -0.61161226 0.19525486 -0.38630444 0.2580413 -0.5272751 0.18447699 0.60499924 0.16994293 0.11566553 0.10621695 -0.41123492 0.17045511 -0.041401204 -0.2653548 -0.3320045 -0.1162912 -0.22056797 0.14982118 0.36279017 0.20541568 -0.048036043 0.040301874 0.12556012 -0.34593683 0.14520244 0.11929781 0.19261202 0.37331602 -0.074584 0.13395193 0.0040779747 0.6738861 0.0746773 -0.16518508 -0.11866917 -0.046315778 -0.15776156 0.14361618 -0.18781722 -0.6324492 0.36937132 0.033575755 0.4303003 -0.016917309 -0.0048374785 -0.32072422 -0.088384174 -0.1447763 0.11548308 0.31242383 -0.06700859 -0.141383 0.4101745 -0.18432033 -0.17629986 -0.042488467 0.2598882 -0.48418126 0.22191352 -0.01934947 -0.09279162 0.12854818 0.14340842 -0.56684476 -0.19280826 0.46033525 -0.20359404 0.20690699 0.06478662 0.37748024 -0.07105365 -0.11025299 -0.20282783 0.38790646 -0.25289628 0.094946675 0.36280146 0.0842524 0.1435723 0.15358227 0.33641097 0.41742173 0.09904977 -0.14279242 -0.4362065 -0.18687871 -0.17334542 0.12793155 0.09984778 0.56841993 0.14604025 0.0825403 0.056584038 0.16010278 -0.029985094 -0.18053812 0.1655708 0.41374546
940 -0.17776679 -0.27873278 0.4330733 -0.3635574 0.042327877 -0.14213277 0.7445501 0.42604312 -0.5500756 0.5401532 0.056961883 -0.09707864 0.5954403 -0.026717814 0.4082002 0.050915767 -0.0374275 0.10143272 0.38808498 -0.25282443 -0.45493942 -0.16378531 0.06070493 -0.41623577 0.28546852 0.2224003 -0.48306173 -0.45045665 0.18138894 -0.65741044 0.41335803 -0.116619386 -0.057840686 -0.6486426 -0.07654822 0.23255147 -0.066264085 0.27576762 0.4005525 -0.029588027 -0.21053785 0.41549364 -0.076710284 0.12820823 -0.4754759 0.066321716 -0.027660051 0.3189609 0.12944286 0.09980505 0.096495576 -0.2039308 0.12913656 0.22097169 -0.68686837 -0.2304686 0.46137366 -0.12257263 0.12333238 0.21232584 -0.3790124 0.03534649 -0.13978723 -0.335929 -0.23880148 0.7326959 0.15524815 -0.27204022 -0.024583643 -0.18275881 -0.2652073 0.010997522 -0.048126273 0.08023681 0.38266078 -0.3471944 0.040842865 0.17298785 -0.21056746 0.43200156 0.07951222 0.090961136 -0.27955845 -0.1094913 -0.32160512 0.17193252 0.22736746 0.0011236367 -0.03842402 0.23178089 -0.08236213 -0.1771217 0.07580838 -0.30470994 0.5843756 0.19607167 0.2250289 0.117598474 0.10364946 -0.33417326
1544 0.557311 0.24180591 -0.36508062 0.20057897 -0.5726859 0.40092248 -0.40097535 -0.17893863 0.39471906 -0.48183 0.26243824 -0.17580903 -0.33979702 0.09718213 -0.021131158 -0.16202667 -0.41146082 -0.5387677 -0.46526578 0.25284824 0.3943254 -0.15567042 0.04372362 0.24670064 0.23783766 -0.19202907 0.013589484 0.2310886 0.20269978 0.35873538 0.07787899 -0.13622817 -0.13067657 0.8501191 -0.2372884 -0.07334343 0.15879253 -0.08394187 0.098231666 0.045792222 0.031384736 -0.6429048 0.19846155 -0.09125468 0.17542909 0.021340735 0.057706792 -0.16643928 0.104010485 -0.117700435 0.20803297 0.29698896 -0.23471905 0.14457817 0.7766116 0.046759076 -0.043104183 0.4129984 0.33218715 -0.666249 0.19976498 -0.14415437 -0.167347 -0.034748234 0.048306357 -0.21604581 -0.10550932 0.28567716 -0.060121857 -0.12434824 -0.12313499 -0.14172536 0.019851707 -0.3150528 0.2978664 0.04130227 -0.042658687 -0.34388947 0.33652326 0.024621818 -0.06318096 0.037920535 0.38036525 0.3473035 0.00896217 0.2075585 0.06613191 -0.058996607 0.089724414 0.12019161 0.082935795 0.26996136 0.1891351 0.20558389 0.19740006 -0.04283437 -0.08118257 0.015353009 -0.13002382 0.20790792
1446 -0.33249056 0.2439344 0.5197336 0.19892038 0.54446393 -0.32771134 0.43242127 0.22298065 -0.28611335 0.26032436 -0.041185006 0.4442321 0.069098614 0.18913211 -0.23152019 -0.10187873 0.06895413 0.24032617 0.545303 -0.40529665 0.11845997 0.3417473 -0.04237901 -0.4030262 0.69851357 0.033457126 0.031232964 -0.017932171 0.1922737 -0.5857281 0.02396304 -0.038116485 0.18587251 -0.69426537 0.11580806 0.33452794 -0.09224536 0.07124626 0.06906238 -0.24648353 0.080316834 0.84367174 -0.35699508 0.13169123 -0.31190404 -0.58303446 0.024550285 -0.20435368 0.07792773 0.8034412 0.15507141 0.12795763 0.39885584 0.4085308 -0.9937168 -0.0139565915 0.10576479 -0.056616686 -0.2525739 0.103142716 -0.4786881 -0.08542774 -0.62341404 -0.15789568 -0.021014147 0.27836254 -0.23095928 -0.22784394 -0.07007265 -0.0977017 -0.31978652 -0.34021366 0.48366913 -0.10282694 0.4520476 -0.2645867 0.07288139 0.34668833 -0.021475514 0.010073468 0.35717586 -0.38944995 0.0065265363 -0.17608114 -0.13974024 0.11885871 0.0029984878 0.071668774 0.18910111 0.013159569 -0.137845 -0.5615216 0.026755841 -0.44591746 0.015305601 0.102210656 0.30428097 0.36472997 0.3105427 0.04505153
1390 -0.45620462 -0.17214888 0.5299392 0.388866 0.43187264 -0.38963002 0.4789819 0.045887377 -0.15003225 0.19157507 -0.15717262 0.1697935 0.01542854 -0.3468395 -0.05830014 -0.15736714 0.22793847 0.5598347 0.35839126 -0.14842512 -0.78057694 -0.33320835 -0.013070789 -0.73505723 0.21200798 0.12818632 -0.31026414 -0.12302995 0.2577993 -0.36366826 0.21103793 0.040088974 -0.17962869 -0.76144356 0.0375702 0.06432737 0.15886098 0.06168503 0.16236678 -0.348528 0.11808727 0.37743947 -0.32944095 0.13080351 -0.5912908 0.049245734 0.14550908 0.35405368 0.26165748 0.49559912 0.01666371 -0.19487318 0.08330206 0.20812714 -0.58950824 -0.0727535 0.3809047 -0.16316669 -0.32546115 0.1630566 -0.40867528 0.35859007 -0.36720487 -0.36865932 -0.2832057 0.3788532 0.13508274 0.11699838 0.36773396 -0.049660303 -0.64427435 0.038340423 0.5289521 -0.09298685 0.19951081 -0.03788046 -0.45681706 0.39392465 0.15264633 0.027437286 0.29751724 0.07840858 0.049194675 -0.27253172 -0.15578482 0.15541637 0.15333728 0.027762465 0.11774454 0.20059063 0.15317634 -0.19192968 0.27577195 -0.28398904 0.14963719 -0.08321624 0.07163447 0.31063148 -0.2853566 -0.22979309
494 -0.30640206 0.23353021 0.5679024 -0.47528136 0.5097812 0.10987669 0.58488214 0.14713892 -0.40000916 0.27738142 0.11363401 0.0136502655 0.32970276 -0.15389356 0.4221954 -0.52957344 0.21583188 -0.05414368 0.3729373 -0.44478232 -0.5077007 0.22742286 0.17907706 -0.29000247 -0.0941811 -0.07172019 -0.26134318 -0.07517217 0.17399749 -0.240158 0.32651377 -0.3212099 0.32635733 -0.7063363 0.10244039 0.017979013 0.1890387 0.33303618 0.13676162 -0.15492792 -0.3854727 0.93308157 -0.7631356 -0.05351771 -0.64170593 0.09096153 -0.19190216 -0.09547525 -0.20872346 0.6006877 -0.11662684 0.0029515643 -0.012819988 -0.11306745 -0.6885579 0.037840873 0.3042801 0.35041907 -0.18541038 0.124502085 -0.26417747 -0.29316533 -0.21833818 -0.4598259 -0.21984234 0.42849717 0.06164434 -0.26979786 0.12735115 -0.024336107 -0.18199827 -0.10022753 -0.16275017 0.10288162 -0.14480443 -0.48786947 0.088469826 0.18917613 -0.1405773 0.02699663 0.35955283 -0.05512691 -0.2628083 -0.28985766 -0.02646993 -0.11557039 0.10861384 -0.20248315 -0.19505376 -0.1806272 -0.09415198 -0.3782728 -0.15131952 -0.09420736 0.21599662 -0.01571321 0.1872336 0.020499295 0.28352514 -0.5830833
1195 -0.43121573 -0.10720847 0.49837807 -0.027045695 0.07912851 0.04593887 0.3911198 -0.13456668 -0.5220103 0.11723273 -0.023943257 0.22519909 0.46534806 -0.2519183 -0.061869558 0.17395718 0.33574533 0.37780774 0.37067375 -0.30195478 -0.2242588 -0.115057044 0.12110837 -0.093911745 0.117152765 0.27693555 -0.27552587 -0.32333606 0.03504972 -0.7879726 -0.0021135618 -0.25084278 0.02369996 -0.6809773 0.18286315 0.07160374 -0.07769417 0.09280371 0.094628066 -0.22055058 -0.40302798 0.59291613 -0.5242569 0.12654476 -0.19452092 0.10989925 -0.28071555 0.24544914 0.04390196 0.35253835 -0.10755276 0.009938581 0.39346436 0.2655598 -0.33401543 -0.3055045 0.2671048 -0.10418841 -0.054299884 0.28771102 -0.071629904 0.12070773 -0.17745164 -0.031544715 -0.07507689 0.2875803 0.09178421 0.025984751 -0.17371064 0.18003997 -0.6758683 -0.4386559 0.6044213 0.103205636 -0.012311748 -0.15080237 -0.026472723 0.3985875 0.03611641 0.14988114 0.4362639 -0.34407827 0.13327476 -0.33922893 -0.083866075 -0.013871458 -0.091842696 0.07563583 0.33587965 -0.23203121 0.12428033 -0.25410697 0.16719745 -0.36698252 0.43438202 -0.1274981 -0.03798869 0.29011235 0.16808224 -0.07870474
1154 -0.3869931 -0.015825963 0.5398377 -0.13595816 0.6288653 -0.09937699 0.5395259 0.21000314 -0.16642481 0.057300013 -0.3563737 0.30666736 0.285729 0.06007398 -0.0855692 0.26179272 -0.02264045 0.21204853 0.12990405 -0.19341908 -0.24764562 0.025560897 -0.08838909 -0.4075922 0.23061195 -0.27803737 -0.30652845 -0.15246874 0.04406998 -0.5639836 0.21917562 -0.009769336 0.17571215 -0.84744143 0.10933298 0.3268465 0.17697366 0.015818672 -0.033976436 0.16672716 -0.35740906 0.5180995 -0.41249594 0.20547257 -0.4334158 -0.14063926 -0.21062653 0.32783622 -0.025789533 0.36833945 -0.22842127 -0.00031216396 0.117604606 0.13403538 -0.5300946 -0.051865805 0.2896493 0.04212663 -0.031077437 0.2537819 -0.2975231 0.51445675 -0.31246075 -0.04629409 -0.25255257 0.15979353 0.25920558 -0.113926314 -0.16758661 0.08222645 -0.40443957 -0.10249679 0.0700426 -0.26191708 0.20977442 0.01715478 -0.06487583 0.25975123 -0.29602048 -0.12828602 0.46459574 0.2594146 -0.19063593 -0.41850212 -0.09100919 0.27965075 0.30229965 0.053139042 0.2593953 0.05995267 0.015182013 -0.6327439 0.12336533 -0.16853851 0.11348931 -0.020430628 0.09674009 0.2837405 0.016774472 -0.1389944
638 -0.54564387 -0.38765943 0.9504129 -0.32998925 0.85506815 -0.08548966 0.94040143 -0.094939046 -0.34036925 0.21843924 0.028800668 0.49142286 0.08998789 -0.053047627 -0.332371 -0.20151752 0.3480158 0.4824284 0.44377592 -0.510436 -0.2212235 -0.075476 -0.009998578 -0.07431825 0.4479142 -0.03630944 -0.44209945 -0.14086424 0.3472182 -0.22101669 0.24616493 -0.15936035 -0.18483423 -0.58384246 0.3073551 -0.2824055 0.22756767 -0.028549418 0.23307855 0.080449134 -0.04593281 0.8672498 -0.30357155 0.4776389 -0.4242867 0.45861378 -0.21531783 0.23819424 0.2649042 0.23683454 -0.13402094 0.1316022 0.31870127 0.0914667 -0.6850674 0.36308634 0.40254158 -0.1570772 0.05875574 0.28850654 -0.3003599 0.23222911 0.10917622 -0.26831922 0.03434696 0.20078485 0.5304549 -0.22632681 -0.21183766 0.061349377 -0.5871284 -0.3786255 -0.054339007 0.08080578 -0.057872675 -0.5196294 -0.08869363 0.31356952 -0.2733211 0.42954144 0.15926309 0.0939905 -0.10026751 -0.13385169 -0.16473924 0.10198648 0.17607407 0.03538919 0.4347574 0.04978107 -0.22473902 -0.60561895 0.017175496 0.09868352 0.12890494 -0.11490953 -0.16446757 0.06337213 0.06577926 -0.08991561
604 0.3045702 0.25367627 -0.51576567 0.072989166 -0.35320553 -0.08668685 -0.43686262 -0.07714774 0.53493774 -0.299339 -0.057287805 -0.11124382 -0.066748686 -0.1291964 -0.20736125 -0.1201443 -0.44942957 -0.5517683 -0.43390244 -0.22519478 0.2201292 0.044951748 -0.23900473 0.33098415 -0.056040436 -0.3821508 -0.22174568 0.3159185 0.015951687 0.26107967 -0.19026436 0.41391587 0.23348196 0.6590995 -0.25598538 -0.10888762 -0.069656484 0.058233734 -0.17286755 0.19916321 0.2815985 -0.5503537 0.2700747 0.03536495 0.3239498 0.0465239 0.25911492 -0.13685666 -0.059916623 -0.042885125 0.13029724 0.2516871 -0.07553513 -0.21228947 0.68694234 -0.12388766 -0.17556965 0.018885393 0.38572514 -0.0905757 0.08925494 -0.4651466 0.20983344 -0.09744493 0.09674612 -0.14206627 -0.16955113 0.279277 0.042453755 0.07952272 0.084317274 0.20270327 0.13948292 0.09598118 -0.16100973 0.22681768 -0.12705475 -0.14250018 -0.14144829 -0.03333713 -0.35668084 0.27634907 0.30155975 0.033128187 0.21512063 0.117612176 0.0663008 -0.36722985 -0.42867246 -0.12348434 -0.3277015 0.43043914 -0.055522863 0.063863926 -0.031372666 -0.3404088 -0.112367265 -0.21615769 0.06299388 0.12970272
1440 -0.51118064 -0.6307348 0.38239655 0.2113717 0.4994394 -0.10688188 0.6670981 -0.23285107 -0.4218162 -0.07180399 -0.36044368 0.0732915 0.36391798 0.20883462 0.30950776 0.1686431 0.36311492 0.4003489 0.48467156 -0.3805669 -0.14383262 0.2489049 0.15447885 -0.40810698 0.24246842 -0.22707179 -0.32077718 -0.655124 0.46248904 -0.47254336 0.147168 0.22553137 -0.1711941 -0.98242 -0.006273918 0.23106375 0.12900105 0.45172065 0.11447396 0.21592091 -0.064073965 0.19068956 -0.691478 0.07740598 -0.22478558 -0.575415 -0.1408691 0.4989475 0.12550873 0.22800781 0.0008835015 0.016539738 0.006773201 -0.15325819 -0.5761957 0.48802742 0.34193558 0.029626079 -0.010282929 0.06456396 -0.22315413 0.49630138 -0.21182683 -0.1439764 0.18698262 0.29806146 0.05218352 0.0885178 0.259611 -0.19670111 -0.5132395 -0.10202523 -0.12654035 0.083479606 0.16517752 -0.489519 0.17072366 0.25204337 -0.24297847 -0.20909742 0.70141685 -0.18556377 -0.6124301 -0.050821986 -0.04206746 -0.19781426 0.11052852 0.32309604 0.27616867 -0.055029117 -0.17578161 -0.5792427 0.39236248 -0.5616805 0.37758192 -0.11952026 -0.10063458 0.39371115 0.08916546 -0.021272037
1556 -0.5176058 -0.11089454 0.54582125 0.21750681 0.4621777 -0.12661801 0.6469354 0.1556878 -0.31286517 0.31052876 -0.45658264 0.10020942 0.36959177 0.19091764 0.17030542 0.43513188 -0.0019488734 0.23621234 0.52478725 -0.2771804 -0.17093538 0.021275215 -0.23385467 -0.27625343 0.43757847 0.208615 0.25498694 -0.51502293 0.19543666 -0.08757264 0.043207493 -0.09687292 0.44523913 -0.8660322 0.14400584 0.26684496 0.1111258 0.46163267 0.07169763 -0.046825822 -0.46469176 0.54524976 -0.29679233 0.053660855 -0.28836322 -0.25177452 0.11758326 0.46240765 -0.29419422 0.47189036 -0.1818988 -0.22928654 0.07793687 0.450954 -0.64032185 0.14806022 0.07974657 -0.012532833 -0.518426 0.19455233 -0.13868077 -0.21111868 0.20807698 -0.2608125 -0.29418352 0.24042745 0.096419536 -0.12845759 -0.020987768 0.02838728 -0.5627772 0.22530518 0.24725842 -0.13715096 0.077443145 -0.3407526 -0.019672114 0.09390391 0.15694322 -0.078614734 0.75038993 0.27885565 -0.13565749 -0.43752158 -0.26272264 0.14253989 -0.072635725 0.43687916 0.10367907 0.32970896 0.17539781 -0.17039728 0.11431853 -0.26745218 0.4716378 0.17680512 -0.15727673 0.18213883 -0.064153865 -0.13321096
1831 0.3521067 0.08654062 -0.47230223 0.060792666 -0.38984784 0.025834814 -0.3133603 -0.038197085 0.32216844 -0.37315398 -0.1824235 -0.27447408 -0.33913583 -0.033158917 -0.107207045 0.06446926 -0.32112464 -0.35332546 -0.23245098 0.3935528 0.39342237 0.045087557 -0.0053273537 0.38564983 0.05356337 -0.49150825 0.3868397 0.062420942 0.22510482 0.36674392 -0.21487169 0.26228815 -0.14851901 0.7215913 -0.01367068 -0.15310134 -0.19405104 -0.1357064 0.12540536 -0.019937063 0.17658411 -0.66759986 0.20712397 -0.0513634 0.36369517 -0.14224577 -0.04218043 -0.12252924 -0.054210916 -0.1930195 0.20791 0.1242385 -0.28994524 -0.15344077 0.47467682 -0.42024085 -0.14605866 0.26095083 0.6402784 -0.18108407 0.0003780895 -0.09083951 0.15310325 0.117798306 0.42474508 -0.25712276 0.054907158 0.3896298 -0.11515828 0.01837322 0.11410221 0.1891221 -0.06121568 -0.011957722 0.08462186 0.23585485 -0.20142448 -0.18659072 0.21358274 0.12754872 0.04449722 0.27507332 0.1963282 0.2009868 0.16695295 0.024358263 0.1491126 0.11641179 0.037092187 -0.0030455547 0.07135531 0.2109076 0.10600935 0.068726934 0.1106597 0.041008465 -0.0639348 -0.055367786 -0.022309365 0.22282736
1272 0.29745373 -0.26102197 -0.7610063 -0.14461398 -0.3146631 0.08897144 0.032126233 0.31123182 0.3646793 0.025939118 -0.07655697 -0.018828856 -0.32823923 0.03166999 -0.22991037 0.21800974 -0.34443745 -0.08744282 -0.48085836 0.47684222 -0.002277397 0.36041823 0.010112929 0.3243733 -0.33125135 0.014613348 -0.03541112 0.13270013 0.04242719 0.5137273 -0.12764601 0.4431051 -0.11879043 0.89712876 0.0465362 0.043073114 0.06749245 -0.09760747 -0.24430181 -0.13109979 0.32799485 -0.2889979 0.57173723 -0.13118194 0.4547438 -0.18134524 0.013071726 -0.36676028 0.14566913 -0.23663498 -0.07502863 0.32024765 -0.21043661 -0.31322 0.38687253 0.06942427 -0.116751775 -0.13554253 0.40163198 -0.26877496 0.20764938 -0.0867291 -0.12327955 0.111870036 0.12748313 -0.30341917 0.1028573 0.15621258 -0.36791378 -0.03527209 0.007330057 0.36930007 0.070847265 0.111087576 0.056206137 0.21741176 -0.17979726 -0.20349431 0.22698309 -0.012839449 0.15506068 0.13337201 0.3890332 0.12814288 -0.036065347 -0.25140086 -0.22761957 0.123638205 -0.16203 0.090334184 0.11987608 0.58674157 -0.42756292 0.079693496 0.017450524 -0.03803234 -0.12753412 -0.08706458 0.22199352 -0.14381237
1794 0.36164698 -0.27404422 -0.7361275 -0.016220173 -0.66955805 0.44738698 -0.46762466 0.039013084 0.5182268 -0.055860993 -0.21675935 -0.26800162 -0.33016205 0.08192832 -0.012811247 2.515224e-05 -0.14329207 -0.62736315 -0.65774083 0.1260915 0.31466448 0.11162127 0.025326362 -0.053349014 -0.24737276 -0.109109506 0.14480962 0.36879057 0.3625842 0.29653528 -0.34073052 0.29242143 0.095617756 0.9154884 0.25165302 -0.0913424 0.07892897 0.08027999 -0.09988627 0.2637047 0.24484056 -0.6592146 0.3382527 -0.27459174 0.48224548 -0.06334626 0.051520605 -0.3095785 0.15422846 0.14647506 -0.019811913 0.11196846 -0.19103177 -0.32705832 0.59684783 -0.19559972 -0.40300465 -0.0077024577 0.047736365 0.31395128 -0.16816589 -0.10347057 0.09853742 0.16928743 0.43128738 -0.22054946 -0.04047855 0.3392931 -0.16401114 0.013869325 -0.109413095 0.53227127 0.22275622 -0.16826633 -0.0004911058 0.13188337 -0.111258425 -0.08734107 0.044294886 -0.12230306 0.010256763 0.17389275 0.35684964 0.37678075 0.17367008 0.22906141 -0.10526115 0.045614824 0.044366032 0.060144417 0.12959576 0.11380401 -0.24015746 -0.10580895 0.032251514 0.21061373 0.0745134 -0.21424402 0.0221164 0.25594532
406 -0.21140666 -0.0821072 0.77814335 -0.32217973 0.58386153 -0.24344142 0.50865763 0.43335298 -0.71710336 0.16105756 0.10641067 0.17962265 0.57194346 0.004589758 0.40166345 -0.3722284 0.072725624 -0.09116885 0.09644731 -0.29880974 -0.15079668 -0.22559045 -0.05201144 -0.024652684 0.4658884 0.27731347 -0.12384379 -0.29593104 -0.1837778 -0.30521098 -0.11128413 -0.3520198 0.25482297 -0.83411753 0.15024962 -0.027221527 -0.12040264 0.104539156 0.2558372 -0.03608877 -0.23712486 0.5369192 -0.53929526 0.08479253 -0.06709735 0.017128265 0.14709513 0.6345357 0.024065195 -0.06811923 -0.24269885 -0.18095437 0.6000295 -0.042541355 -0.7911498 0.18255484 0.25786203 0.04645423 -0.38811824 0.34771374 -0.48463878 0.17387106 -0.4086198 0.14502753 -0.40586987 0.11026131 0.2925633 -0.5172926 -0.14378053 0.08920408 -0.79924047 -0.0049720556 -0.12155734 0.17032252 -0.24368131 -0.32839936 -0.3314812 0.21033481 -0.27524373 0.362943 0.12037781 -0.30388254 0.18989697 -0.46140048 -0.385563 -0.3199702 -0.09614118 -0.13897586 0.034993805 0.10432629 -0.097844206 -0.6511426 -0.17079386 0.033143353 0.15508625 0.17483373 0.02692583 0.35492164 0.17323644 -0.15334034
815 -0.24933633 0.26393744 0.11619585 -0.0009407054 0.27490672 0.14447728 0.1964172 -0.20581995 -0.20711008 0.10668222 -0.28873467 0.08704742 0.2500916 -0.37313938 0.09112351 -0.22587575 0.01557078 -0.086344205 0.30102596 -0.5537644 -0.46717453 0.10077237 0.21588983 -0.48292473 0.0596629 0.17953156 -0.32313204 -0.07540084 0.33565694 -0.66921914 0.11493048 -0.0015908693 0.13558269 -0.7521909 -0.2752687 0.044646703 0.07990382 0.012623231 -0.20680979 0.06565409 -0.3639583 0.44908765 -0.57626104 -0.01947251 -0.32095757 0.558841 0.2194236 0.1968798 0.14746058 0.5965052 -0.24356225 -0.22227909 0.46166456 0.22535053 -1.0212903 -0.22387761 0.39689094 -0.1302264 -0.49689624 0.19597241 -0.07103342 0.34587184 -0.27122226 0.008296522 -0.12485262 0.44153568 0.14905927 -0.3887362 -0.05455427 -0.0021658791 -0.5405722 -0.058508858 0.22953627 0.2616568 -0.03288372 -0.20342681 -0.041579776 -0.006284963 0.046846025 0.026927955 0.4558617 -0.25785807 -0.07947228 -0.4032099 -0.062172197 0.21129179 0.25865796 0.12368109 0.06935464 0.37343663 -0.363268 -0.44242293 -0.0157854 -0.40033555 0.0632586 0.018788999 0.0039177528 -0.061884757 0.27713475 -0.33632165
1369 -0.42930543 0.037692502 0.5734226 0.128673 0.53523356 -0.15800144 0.42567658 0.41243446 -0.35051617 -0.12078038 -0.04554141 0.104088716 0.19488494 0.10090296 0.10189539 -0.0023052567 -0.0044070915 0.673682 0.21120586 -0.26827598 -0.10798901 0.11325656 -0.22385825 -0.49220043 0.2676156 -0.26605895 -0.07170328 -0.4220297 0.109243415 -0.33398828 0.21506739 -0.26218137 -0.0571821 -0.86591434 0.1592271 0.0049643377 0.3544953 0.14133383 0.09452899 -0.07388263 -0.2680258 0.49607238 -0.39309675 0.14796627 -0.41772127 -0.37502998 0.29698053 0.22020249 0.31350666 0.39275357 -0.44790763 -0.20398585 0.0021864953 0.23801571 -0.5293392 0.29827824 0.5100589 -0.4925366 0.07498245 0.0060834223 -0.2510282 0.11472732 0.10972499 -0.24089289 -0.035502546 0.32378733 0.3101073 -0.17610113 -0.004753172 -0.014881061 -0.3363416 -0.0011509345 -0.10262253 0.05005087 0.2533636 -0.54493654 0.18385062 0.0842473 -0.09919389 0.20535007 0.58496237 -0.12691689 -0.17364413 -0.30074257 -0.6701339 0.1627682 0.2767177 0.047818094 0.28868514 -0.018143788 0.12373817 -0.5968294 -0.04072869 -0.4013207 -0.0142938895 -0.018510237 0.35505834 -0.019638482 0.14987308 0.270262
834 -0.41755185 0.039450664 0.7059381 0.0068259006 0.28219414 -0.24772185 0.4878526 0.0859427 -0.5169702 -0.20207193 0.28601623 0.27494282 0.0037229003 0.021531783 0.116605766 0.11106094 0.0153236855 -0.024727896 0.45145172 -0.18632363 -0.12915197 -0.08339638 -0.22312032 0.09520671 -0.1000972 -0.02521445 -0.034004312 -0.2352773 0.22674504 -0.32524946 0.30388418 -0.06022763 0.12832655 -0.8552361 0.018095814 0.15297878 -0.07162945 0.047653347 0.12769741 -0.038328733 -0.27489394 0.43354112 -0.52093077 0.42742887 -0.32828555 -0.057369135 0.07338714 -0.0029279666 -0.15780312 0.30198947 0.110131934 -0.051348392 0.24728265 0.20133406 -0.9653709 -0.15782623 0.527721 0.17284048 -0.3777435 -0.22066508 -0.31755495 0.17361183 0.08468614 0.038256273 -0.11237658 0.1731576 0.06876252 -0.41696087 -0.05244774 -0.17355624 -0.5016499 -0.16651435 0.40240887 0.13231285 -0.07528673 -0.17223874 0.0054866155 0.4379246 -0.12698917 0.43514892 0.6548807 -0.27988365 -0.36307034 -0.1801707 0.005003238 -0.25073686 0.105790816 0.22519043 -0.379051 -0.07493748 -0.20637748 -0.46765602 0.33986944 -0.10651224 0.20667234 -0.12758075 -0.10595807 0.046788353 0.34161508 -0.1452982
1990 0.37166706 0.46645394 -0.4299825 0.46364495 -0.40336528 0.23761238 -0.24994668 -0.154561 0.30798414 -0.12699293 -0.15557875 0.1988267 -0.23724899 0.17467156 -0.14615445 -0.1405109 -0.34254593 -0.6849672 -0.77381694 0.54224473 0.05125355 0.12460029 0.1278603 0.45120296 -0.2861239 -0.09692725 0.34157708 0.24398166 0.15565862 0.642093 0.44736278 0.08984771 -0.46389377 0.54548234 -0.0036789689 0.20006089 0.0075461357 -0.15989015 -0.025696147 -0.2738784 0.34997338 -0.69562334 -0.08512 -0.17402911 0.31320584 0.015023886 0.28516066 -0.0817844 -0.47755176 -0.22485091 -0.29997888 -0.1064358 -0.3244359 -0.27013823 1.0205866 -0.06438184 -0.43623233 0.39512762 0.24852343 -0.35759524 0.2848997 -0.77018934 -0.27219862 0.35819826 0.03576286 -0.6531042 0.18329805 0.069124706 -0.30767328 0.16290279 0.0070135603 0.44461635 0.26099634 0.05158122 -0.032139413 -0.3239615 -0.40821338 -0.6006955 0.14736614 0.13322717 -0.12398335 -0.07031173 -0.026598003 0.25471145 -0.025683604 0.49344757 -0.24556106 0.44851986 -0.169513 0.22307296 0.38398263 0.6800802 0.13350669 0.17317487 0.2936805 0.18509814 0.349816 -0.1459649 -0.21651481 -0.17693123
789 0.08646297 0.19610824 -0.9857975 -0.18390538 -0.10614126 0.21763137 -0.221678 -0.08639795 0.41946408 -0.6228132 -0.20566247 0.10114189 -0.13807131 0.1075871 -0.2864054 0.3468128 -0.55776435 -0.39867026 -0.24456461 0.30567208 0.10123136 -0.11841272 -0.18271573 0.4177725 -0.65254587 0.063030995 -0.03186499 0.3558915 -0.14272992 0.41434908 -0.32420737 0.4473826 -0.14613178 0.75176597 0.19726339 -0.06836058 0.10195327 0.113134176 -0.19962855 0.56807435 0.1180685 -0.59327644 0.2133695 -0.3384997 0.32635054 -0.08788695 0.028344592 0.076376885 0.283896 -0.17616649 -0.123834625 0.21344471 0.02083833 -0.25863403 0.19252643 0.22403428 -0.5835578 -0.21621001 0.61627936 -0.20012905 0.3918027 -0.1065591 0.36101615 0.11930858 -0.049697313 -0.5066371 0.367997 0.26418006 -0.35070804 0.29506338 0.011691471 0.048230063 0.1721936 -0.30689272 -0.14245474 0.52500707 -0.02662084 -0.27156514 -0.37200114 0.29595265 -0.37183255 0.21171425 0.16091932 0.051333964 0.24350885 0.20300137 -0.29091483 -0.055616755 -0.2842176 -0.01915472 -0.13658822 0.04446062 0.2993014 0.09476963 -0.17916214 -0.17655027 -0.07331817 -0.51097274 -0.19212554 -0.050861686
873 -0.4226512 -0.06004624 0.32736576 0.03489787 0.5157673 0.08426619 0.47535557 0.13403592 -0.032641415 0.1523608 0.12791762 0.25004584 0.48109525 -0.24878356 -0.009727644 -0.15901127 -0.14140092 0.031790093 0.47070128 0.11790926 -0.2064063 0.13035512 0.24205317 -0.27024218 0.11908597 0.16140765 -0.12971002 -0.357741 0.09705518 -0.36843786 0.24151796 -0.34455797 0.3161048 -0.64723814 0.044147775 0.1244266 -0.0043336665 -0.0015145256 -0.07660466 -0.21303868 -0.36242536 0.41475183 -0.3170367 0.06452633 -0.71461344 0.058873963 -0.070721366 0.258036 -0.02047598 0.4670054 -0.11048029 -0.16137023 0.30178577 0.35438755 -0.39205563 0.09444277 0.5767998 -0.23512101 -0.06358232 0.115926035 -0.42482662 0.120608725 -0.015191948 -0.2027421 0.01483324 0.7830632 0.26201284 -0.28190503 -0.20872566 0.3922448 -0.30066985 0.14995866 0.13741621 0.24581338 0.17541113 -0.38256094 -0.11175902 0.26812196 -0.15077305 0.30436185 0.20728236 -0.12895201 -0.103091486 -0.3106491 -0.3473427 -0.14632128 0.3744545 -0.06059809 0.044412553 0.12572911 -0.1571161 -0.6561546 0.18577237 -0.15621144 0.17099299 -0.18598959 0.21694298 0.13136604 0.08036995 -0.039654747
654 -0.3704455 -0.16262998 0.2435647 -0.25308144 0.33599666 -0.0087781465 0.73536277 -0.07925669 -0.6236449 -0.13315952 -0.4022463 0.24302001 0.52737683 -0.21769027 0.13358079 0.17583665 0.09509161 0.3978021 0.70504385 -0.26438412 -0.26876387 0.3100033 -0.3673839 -0.3198552 -0.10251373 -0.10255778 -0.35895792 -0.36608025 0.060510725 -0.5760577 -0.02775126 -0.16276498 0.1385015 -0.8127433 -0.060528427 -0.028251227 0.06775892 0.33885446 -0.34147602 -0.06992538 -0.06352432 0.3701062 -0.25341967 0.08208936 -0.5706317 -0.041832075 -0.013569794 0.2807788 0.06606692 0.25665337 0.1741671 0.055784285 0.19298422 -0.18235523 -0.8169667 0.15264854 0.5970622 -0.061579805 -0.26604784 0.2978977 -0.16498615 0.17105441 0.06380347 -0.2283703 -0.2917885 0.12285158 0.10112887 -0.255739 -0.23495041 0.19267553 -0.6584339 -0.2861749 0.35849836 0.28293565 0.13984235 -0.11705188 0.09991932 -0.05702303 -0.33106494 0.044698432 0.3506997 -0.38640398 0.01693085 -0.042575136 -0.28068212 -0.06571909 -0.055016417 0.04292606 -0.14596707 0.013234403 0.02131243 -0.21294269 0.11413324 -0.17299555 0.21927519 -0.19395986 0.1016065 -0.0045182835 -0.054376032 -0.20465638
