2000 100
392 -0.1013514 -0.4193399 -0.33254176 0.07029144 -0.1420751 -0.01713848 0.32882935 -0.34546855 0.3854021 0.23699087 -0.22154672 -0.104694836 0.21436058 -0.23203057 -0.18215066 0.3152389 -0.15614799 0.3805624 -0.24391118 -0.36040166 0.21049893 0.46486545 -0.25425977 -0.30374244 -0.0520739 0.20879358 -0.07261996 0.15161958 0.09273123 0.39719746 0.4409252 0.0442494 0.055380214 -0.19619004 0.14141424 -0.24205546 0.50892246 0.17163408 0.21677788 0.6019288 0.2631087 0.077384405 0.13452062 0.20905583 -0.29736027 -0.34386167 -0.14853963 0.21711507 -0.5277953 -0.04299712 0.18881936 -0.015796727 0.34581336 0.49029523 -0.5057972 0.24793473 0.10316878 -0.17940928 -0.20481107 0.0911037 -0.102139995 -0.27465746 -0.057915132 0.19471338 -0.28711283 -0.2982144 0.18730076 0.14501512 -0.08694888 0.015518939 0.2712242 0.04652867 0.5720594 -0.10673853 -0.5684933 -0.28302503 0.42799807 0.28516653 -0.604699 -0.0001290894 0.15926282 -0.024148155 -0.34032992 -0.041045465 0.24127975 0.30528206 0.025584541 -0.06967652 0.3815243 -0.074341595 0.35551378 0.34761658 -0.15532394 -0.22948717 -0.054651223 -0.16570805 0.2580479 -0.22140253 -0.42874366 -0.029874513
127 0.0705332 0.235556 0.5008636 -0.0028105557 -0.08300839 -0.39431784 -0.3520856 0.03661518 0.32756788 -0.3035983 0.018464288 0.049260393 -0.51189405 0.15133154 0.13673532 0.19555478 -0.16610464 -0.36743405 0.033263236 0.31631088 -0.27694467 -0.54028463 0.2771906 -0.10311611 0.1281799 0.15764424 -0.36364284 -0.12997042 -0.1434383 -0.055204548 -0.03655397 0.11688031 -0.2248747 0.21228233 -0.15806863 0.4887676 -0.21449836 -0.1558181 0.057000272 0.01622381 -0.4634005 0.29484415 -0.436605 -0.59330535 0.29872125 0.3927919 0.22175191 -0.15376365 0.22769497 -0.0036671367 0.09389609 0.136905 -0.060984194 -0.06597829 0.46907845 0.17963818 -0.06959573 -0.051199727 0.2492575 -0.20905618 -0.1122386 0.41986015 -0.27359986 0.11825066 0.32822117 -0.067521915 -0.33559462 -0.5163962 -0.20104177 -0.088196956 0.092607014 -0.00590736 -0.2735702 -0.22630823 0.23860295 0.25390634 -0.33605957 -0.3611575 0.31145778 0.1262334 -0.32846472 -0.12819627 0.21557796 0.054153673 -0.16331403 -0.10103339 -0.3113301 0.38974282 -0.23141885 0.09356569 -0.04620433 0.13325097 -0.23906177 0.02292093 0.17409848 -0.15619631 0.20034999 0.04474719 0.3953682 -0.010941016
958 0.016072985 0.013139893 0.4899363 -0.070055045 0.12858362 -0.27371192 -0.26759493 0.39200023 -0.028430043 -0.006835417 0.008538848 0.17990345 -0.33228585 0.25518933 -0.050666895 -0.09394022 -0.04690451 -0.38459802 -0.029793441 0.23957828 -0.2209966 -0.41048336 0.047720578 0.10070581 -0.19275138 0.19749127 0.009743053 -0.11757094 -0.3922941 -0.16845283 -0.22079714 -0.038070902 -0.13530956 0.056281988 -0.20232317 0.325587 -0.37576103 -0.109635204 -0.026968032 -0.20869325 -0.3054169 0.40125996 -0.34098655 -0.28009087 0.25159135 0.38113534 -0.012441215 -0.10550922 0.40111348 -0.0005380217 -0.1817656 0.20258847 -0.075268805 -0.23689117 0.31390196 -0.06545989 -0.29682377 0.19991219 0.14345792 -0.03368599 -0.35368857 0.2867651 0.06308933 0.14563987 0.3219861 0.070053935 -0.16550419 -0.31335264 -0.16026784 -0.23753054 0.05619144 -0.016092502 -0.012765653 -0.24603572 0.2260996 0.18597211 -0.2698043 -0.2883113 0.32199433 0.16176967 -0.2940906 -0.05139289 0.20430647 0.051640198 0.10481306 -0.029666565 -0.38561973 0.064726934 -0.5374208 0.20671396 -0.3082988 -0.061460327 -0.027772712 0.14748514 0.16189308 0.10444747 -0.17841482 0.10415166 0.4700845 0.07981741
1112 0.04157353 0.21507165 0.34238002 -0.07770205 0.05611304 -0.31064153 -0.3057969 0.09187705 -0.08557487 -0.09037584 0.050318655 0.10340825 -0.21759847 0.26727584 -0.071329236 -0.15111747 0.18616466 -0.39041057 0.10864959 0.22724849 -0.0908619 -0.445014 0.13635841 -0.013885403 0.11214026 0.20807116 -0.033478826 -0.040196173 -0.4198741 -0.005409689 -0.24469651 0.09883591 -0.12009559 0.24595688 -0.25342587 0.29960307 -0.39850137 -0.10476797 -0.19146791 -0.26637396 -0.42140573 0.3474932 -0.3398745 -0.40603372 0.21772486 0.36962357 0.07331866 -0.15236981 0.34851846 0.084163964 0.055945635 0.035009522 -0.22030927 -0.03210563 0.2909532 -0.113261655 -0.11268919 0.051392477 0.18187228 -0.06279038 -0.15381528 0.39632496 0.02744921 -0.068321355 0.27106425 -0.0072086714 -0.22079296 -0.23375773 -0.18990763 -0.115257956 0.11353108 0.10694097 -0.173787 -0.025862549 0.2568469 0.057653096 -0.43510717 -0.28657493 0.41937304 0.14888056 -0.25788242 0.030088667 0.26930597 0.0058984063 -0.04571111 -0.028084898 -0.1927548 0.21645623 -0.30748862 0.07239437 -0.052619908 0.05049554 -0.15371776 -0.007904675 -0.008107532 0.054452445 0.05128597 0.14999063 0.53883487 0.008426593
1898 -0.0030157464 -0.0060959533 -0.26317188 -0.05949916 -0.30682027 0.11293929 0.12335891 -0.16402705 -0.1990406 -0.007889969 0.014476552 -0.12520449 0.41044927 0.023321882 -0.113441385 -0.11206319 0.15421407 0.43446332 -0.09991469 -0.3547781 0.10363309 0.49117678 -0.21553333 0.16464572 0.089605324 -0.0750254 0.099453315 -0.004192331 0.15363829 0.19121791 0.22074544 -0.30531716 0.10396647 -0.14586394 0.30225396 -0.6003755 0.45551196 0.33632746 0.30290586 0.07875379 0.57558495 -0.042869795 0.29480082 0.3362134 -0.304585 -0.26153117 -0.23663618 -0.08109054 -0.48701206 -0.28851724 0.1640181 -0.17943333 0.16982387 0.16201515 -0.3259878 0.1517888 -0.059232138 -0.17448883 -0.37256417 0.11294103 0.23764813 -0.2830732 0.14145266 -0.17890187 -0.40816554 -0.12062397 -0.0119741205 0.6861516 0.22948533 0.18222009 0.20446584 0.15028702 0.39950585 0.28074902 -0.20031533 -0.23475014 0.35451862 0.37170163 -0.28156614 -0.20584519 0.22815026 0.10796497 0.10539639 -0.0121098 0.33961794 0.43655995 0.44286558 -0.11955724 0.5311904 0.18353125 0.32239342 -0.3111393 0.3816373 -0.19947875 -0.23535158 0.1566231 0.026224637 -0.35604718 -0.69540405 -0.085227355
1767 0.13076219 0.28985023 0.32901996 -0.0459419 0.25019285 -0.2071602 -0.4121164 0.27302706 -0.40045053 -0.22877046 -0.08789432 0.31752416 -0.29008564 0.22673713 0.011560278 -0.13167372 0.12998223 -0.32721925 0.0035324192 0.17918582 -0.061786372 -0.3490399 0.1437351 -0.03413812 0.029257556 0.049083307 0.07736007 -0.14430356 -0.13724625 -0.1341984 -0.43952876 0.036225002 -0.10483774 0.49494585 0.0001726803 0.079938345 -0.2487715 -0.11163239 -0.19463804 -0.34899247 -0.3422678 0.1974738 -0.12138936 -0.20898566 0.1447834 0.40028375 0.07323965 -0.13822989 0.25803465 -0.011864166 -0.15748294 -0.0641808 -0.15080573 -0.05897282 0.48832723 -0.08542625 -0.3330516 -0.14371033 0.34403253 -0.12250178 -0.13689329 0.32427904 -0.0039854287 -0.18655787 0.2746088 -0.22061577 -0.52036405 -0.03609374 0.17131262 -0.21043466 -0.042206295 0.13943766 -0.25355172 -0.033336915 0.319299 0.22920406 -0.47645578 -0.35422373 0.47524983 0.17192407 -0.23386143 -0.08766304 0.39330247 -0.055642776 -0.033767357 -0.18857703 -0.08866504 0.17648119 -0.33950987 0.22700028 -0.15550709 -0.17276649 0.057912003 0.005703889 0.1439167 0.04018408 -0.1245043 0.13478105 0.45643365 -0.03972774
1424 0.11933225 0.15187988 0.4598595 0.081580214 0.1268672 -0.28544334 -0.05974074 0.08456958 -0.28032753 -0.07071875 0.18159476 -0.049942408 -0.29848638 0.36695334 -0.06807673 -0.11879714 -0.07601393 -0.4041863 0.12119458 0.42916167 0.0050685126 -0.55990434 0.11864699 -0.050338764 0.067570545 0.21534589 -0.056347176 -0.13895497 -0.31958297 -0.10085858 -0.47165415 -0.00048640458 -0.14097142 0.2480404 -0.10274467 0.21909288 -0.31011543 0.0031703438 -0.031173525 -0.45376095 -0.32890865 0.04206746 -0.12049968 -0.33025682 0.15441817 0.33797783 0.10202048 0.16810341 0.04514838 -0.017306564 0.12872924 0.025551047 0.003312709 0.23187734 0.4929007 -0.21092954 -0.2148938 0.23304814 0.087209985 -0.31242025 -0.17750803 0.416302 -0.026265796 -0.08233546 0.39657325 0.45776877 -0.18909605 -0.26144785 -0.12875423 -0.18781498 0.057896834 0.16957492 -0.22432049 -0.070208915 0.30171254 0.21089986 -0.39348748 -0.17953044 0.4349311 0.18261872 -0.33682883 0.008579074 0.30333492 -0.2704783 -0.036270782 -0.037451148 -0.11396212 0.40096384 -0.5713551 -0.055195596 -0.1277889 0.08165174 0.16386022 0.06905382 0.018946756 0.02529385 -0.12280262 0.06936647 0.58529145 0.19875285
1188 -0.06886431 0.26793978 0.37945646 -0.09417025 0.2950677 -0.07284879 -0.294876 -0.0012971933 -0.15358019 -0.017509775 -0.018647484 0.15284431 -0.36061475 0.22819203 -0.038412735 -0.055587403 0.20153323 -0.443395 -0.20484307 0.12160993 0.034829278 -0.60921466 0.060183182 -0.027138809 0.14664808 0.14617795 -0.13565603 -0.10925748 -0.24743257 -0.11152365 -0.2602433 -0.22819926 -0.043308355 0.16966714 -0.058696933 0.24539979 -0.522307 -0.19334139 -0.15346369 -0.49329242 -0.20157738 0.26078692 -0.122206986 -0.29681563 0.3112671 0.35374293 -0.019674897 -0.29277572 0.25042474 0.106231235 -0.10286828 0.101049475 -0.114187084 -0.048255518 0.3985835 0.12421221 -0.038732093 0.11398142 0.20652506 -0.20029837 -0.1264459 0.31051558 -0.097776294 0.11268638 0.30410036 0.06840277 -0.3908875 -0.35092932 -0.29188713 -0.062300783 0.1256537 0.093355246 -0.25914833 -0.061735403 0.1440244 0.14111713 -0.28660613 -0.15319331 0.27447963 0.29143962 -0.26358488 -0.026023634 0.3329216 -0.047881525 0.012774217 -0.17756625 -0.16163838 0.081180714 -0.34484288 0.15533891 -0.37304685 0.17406532 -0.054803543 0.26494208 0.030659482 0.049258024 -0.10862125 0.4548851 0.36816108 -0.033396296
417 -0.00033895375 -0.24467734 -0.24701789 0.025792815 -0.14173077 0.12017638 0.3013661 -0.36925477 0.36263216 0.39199606 -0.30121255 -0.018596753 0.047394097 -0.556788 -0.12003084 0.13646856 -0.31045598 0.37802765 -0.20052809 -0.07903616 -0.040609475 0.28403226 -0.26604354 -0.086080424 0.33314168 0.08904416 0.16827357 0.28979513 0.28956404 0.19488165 0.30874062 -0.15540336 0.14667828 -0.28504175 0.36934122 -0.40308088 0.31893414 0.16889557 0.11345393 0.60904574 0.23991986 -0.22857764 0.31472656 0.17883101 -0.26134804 -0.09525453 -0.010303653 0.43710876 -0.7711511 -0.10991096 0.17501634 0.05803814 0.53047717 0.03247996 -0.48958284 -0.046099357 -0.02283319 -0.09728432 0.12082701 -0.0009686389 -0.060249414 -0.34386447 0.029738372 -0.0824847 -0.6017647 -0.22448407 -0.03374226 0.21243723 -0.12344302 0.06814211 0.2956325 0.21024196 0.35093093 0.10826176 -0.37707263 -0.12530589 0.57046986 0.0803568 -0.42118248 -0.098449 0.03157275 -0.16640702 -0.26834542 -0.06053849 -0.00036919987 0.13801286 0.17114528 -0.24885121 0.6067492 0.00086786353 0.41245896 0.3183096 0.1228704 -0.08686432 -0.111822866 -0.0055811508 0.15223917 -0.33500546 -0.5836124 -0.18485123
39 0.15449028 -0.4228736 -0.58180815 -0.076059 0.09934921 0.10555695 0.19392298 -0.2412342 0.5560335 0.424805 -0.29709116 -0.17605929 0.022257447 -0.3107766 -0.30915678 0.297736 0.08240484 0.37305015 -0.027492145 -0.07551079 -0.124739155 0.27946505 -0.040622957 0.005639018 0.13496934 0.21189426 -0.051791947 0.21736233 0.12572567 0.43804318 0.4880748 0.118965685 -0.15537067 -0.15441552 0.20034252 -0.18261613 0.31277418 0.26893932 0.25615516 0.7571626 0.5657525 -0.19213505 0.36706865 0.22563848 -0.39500332 -0.29766008 0.17731094 -0.21238454 -0.48094 -0.16994311 0.4599241 -0.2532921 0.40398216 0.038086418 -0.44383603 0.3439484 0.18622115 -0.07106731 -0.015796486 -0.039002396 0.19556594 -0.20459859 0.06669105 0.12314895 -0.38781202 -0.40061814 0.20927918 0.34209615 0.11296171 -0.073992305 0.007000344 0.10619282 0.28959125 0.13397926 -0.5585151 0.05042334 0.46042475 0.05239613 -0.47964114 -0.21444315 -0.008572176 -0.036805645 -0.54948896 0.17480336 0.020867476 0.35639575 0.021370826 0.070361875 0.6402308 -0.1752154 0.18834083 0.24109606 -0.06796962 -0.15694939 -0.07878449 -0.19551831 0.014316522 -0.45559153 -0.6759575 -0.0135694565
1095 0.020375928 -0.44330144 -0.4314841 -0.0465591 0.06998131 0.11455484 0.2227015 -0.27653614 -0.02610298 0.2889227 -0.2534121 0.014300376 0.21950287 -0.2404139 -0.1610206 -0.1188248 0.07290655 0.71974295 -0.20130488 -0.6519076 -0.091894284 0.58250815 -0.17561668 0.21860333 0.11777576 0.17660193 0.16519241 0.10398299 0.0051867086 -0.007407864 0.46460932 -0.23054747 0.04219563 -0.41432178 0.479481 -0.43220568 0.382089 -0.039869692 0.12295501 0.2815106 0.38665038 -0.010033925 0.37272024 -0.10467881 -0.17310518 -0.25319856 -0.18365988 0.18804811 -0.561026 -0.10375712 0.29475746 0.101939626 0.15128766 0.07573085 -0.8388315 0.19929822 0.011144948 0.1938611 -0.040640295 -0.08052293 -0.12573016 -0.21185614 0.032303203 -0.092953 -0.18035023 -0.25089562 0.113532074 0.35949188 -0.08957142 -0.13764806 0.26769146 -0.08294309 0.52657104 0.22148134 -0.048493072 -0.23061073 0.50796306 0.14915127 -0.38396347 -0.0076568173 0.12023448 -0.018125135 -0.3211396 0.074228205 0.15548 0.3239708 -0.007915092 -0.17025918 0.32828027 0.065356925 0.22754532 -0.123180084 0.05686206 0.053482864 -0.03929297 0.2792294 0.30418035 -0.3371098 -0.15648012 0.09896657
1946 0.14459576 0.30924103 0.07592219 -0.30603942 -0.030394789 -0.32832712 -0.2710652 0.29193065 -0.3962022 0.042617805 0.037698083 0.08994132 -0.032307696 0.12607686 0.05643301 -0.14395197 -0.11175537 -0.41057795 0.2677392 0.11842013 0.0649096 -0.6522693 -0.100717716 0.11950303 0.103472404 0.49032286 0.14481449 0.15851787 -0.19238149 -0.2766306 -0.3647849 0.11677526 0.039000984 0.06365876 -0.20961228 0.22237195 -0.1760492 -0.1957829 -0.21685885 -0.818733 -0.47868085 0.30419958 -0.37440187 -0.5880687 0.31137365 0.48688146 -0.24975696 -0.11177862 0.32462233 0.049211767 -0.39330915 0.11175976 -0.2521436 0.0004546293 0.33575296 -0.2238072 -0.06750419 0.034971327 -0.03427431 0.085557655 -0.2223338 0.6179541 -0.117147 -0.12691948 0.600005 0.31713688 -0.39576226 -0.17346624 -0.06202705 -0.22797877 -0.17972918 0.038349997 -0.3864245 -0.07250229 0.41522214 0.0114057055 -0.35186237 -0.2628406 0.6180427 0.28204095 -0.29045865 0.13820083 0.28224698 -0.02410243 -0.0012844208 -0.16611272 0.05350734 0.3991599 -0.10929449 0.0076638437 0.0045514824 -0.23382595 -0.20238267 0.034910098 -0.022099117 0.07600343 0.090579584 0.08911997 0.22109044 -0.15245046
556 -0.300366 -0.2772162 -0.20069298 -0.05585349 -0.03698479 0.061921265 0.16935396 -0.29884207 0.22822288 0.2918351 -0.3667112 -0.3037407 -0.06127495 -0.45619297 -0.08459611 0.22655426 -0.026996057 0.29126027 -0.21840051 -0.14584349 0.006147287 0.3829995 -0.2618968 -0.14050171 0.19505501 0.03950684 -0.0536533 0.18291228 0.06178063 0.20653287 0.3389716 -0.28927988 -0.049323875 -0.22884177 0.29399458 -0.2900893 0.39884242 0.23524985 0.3660659 0.6154811 0.38542038 -0.20842393 0.07048396 0.13035855 -0.17794119 -0.6143213 -0.17994136 0.27328542 -0.5217309 -0.08687864 0.4441482 -0.23188496 0.41999292 0.26912865 -0.39792478 0.3195844 0.035365276 -0.054163065 -0.09448791 -0.024653755 0.22738324 -0.10318809 -0.02424481 -0.046386007 -0.42967823 -0.10974757 0.1615655 0.006971474 0.1077781 0.07137803 0.1132142 0.026169976 0.34861666 0.30621725 -0.4032998 -0.11860116 0.24558148 0.28768808 -0.41369796 -0.109417915 0.1095509 0.10902849 -0.35744613 0.22945637 0.019038942 0.40056184 0.30594376 -0.08724611 0.38864005 -0.08226025 0.2982453 0.3294295 0.11172424 -0.17599751 -0.27111349 0.025085518 0.21455547 -0.135174 -0.7049837 0.16032806
752 0.13625416 0.20002554 0.39093715 -0.093525626 0.13433473 -0.2334467 -0.24427806 0.14348575 -0.11941758 -0.31942657 0.005595674 0.091690905 -0.5998056 0.20072435 0.0063705463 -0.048798412 0.09425276 -0.42336988 0.019496538 0.22279823 0.032032598 -0.57924694 -0.034064744 -0.18664211 -0.04174146 0.056963965 -0.027224451 -0.0464111 -0.37818226 -0.10325902 -0.10017077 -0.07036635 0.0024279065 0.20022859 -0.12114076 0.21396889 -0.4756543 -0.20793806 -0.11828844 -0.39516038 -0.29077992 0.36030436 -0.18788508 -0.48535386 0.13289095 0.16468368 0.15599173 -0.0979797 0.4525854 -0.0016357034 0.048768684 0.06262961 -0.24344558 0.019230502 0.33143115 -0.08695223 -0.030475877 -0.11804527 0.1245084 -0.18581161 -0.06231054 0.5060324 -0.4016942 0.4105994 0.0468947 0.201386 -0.28479576 -0.33824775 -0.16653088 -0.043860998 -0.008997772 -0.0786846 -0.32325038 -0.035956956 0.15297236 0.30306095 -0.3415277 -0.2698121 0.39573565 0.2405735 -0.2581495 -0.028644916 0.23124044 -0.14861174 -0.05995266 -0.06202995 -0.21306098 0.27721295 -0.31555393 0.09080009 -0.35640374 0.24563114 0.062478136 0.16009218 -0.028603053 -0.11049534 0.03810838 0.27076057 0.32213178 -0.040269814
1570 0.21175623 0.18248597 0.39153084 -0.078670464 -0.07177051 -0.16522858 -0.36002395 0.11850982 -0.28496578 -0.26434848 0.14930981 0.31994346 -0.26648784 0.44036698 -0.24383982 -0.23297763 -0.13068734 -0.24778308 0.06351399 0.058143023 -0.12837231 -0.5337034 0.22910973 -0.070990466 -0.034467716 -0.08712003 -0.11031288 0.011627492 -0.32215297 -0.24668711 -0.53553134 -0.060926113 -0.1755661 0.15577002 -0.26093537 0.034109313 -0.35190606 0.10104491 -0.2162359 -0.2777329 -0.3578522 0.23177852 -0.29910007 -0.4534008 0.34069917 0.47420362 0.02194285 -0.1630527 0.31509516 0.06775613 0.06817776 0.24144684 -0.0079068635 -0.1489386 0.5233656 -0.04389345 -0.013626346 0.13440062 0.09266368 -0.15517177 -0.28477758 0.040195704 0.0046550115 -0.08717777 0.20183447 0.18677627 -0.34547934 -0.17246722 -0.08067261 -0.06845009 -0.028463768 -0.10187482 -0.19818991 -0.11320638 0.4327087 0.12997876 -0.27875572 -0.11726768 0.57766855 0.3519029 -0.46808097 0.040118847 0.18060543 -0.15773763 -0.115381844 0.08873571 -0.11025658 0.25883597 -0.3626505 0.046796627 -0.018212387 0.14443956 0.14433818 -0.097204186 0.04490063 0.07084914 -0.075706854 0.22064619 0.5846809 0.14793167
1243 0.022463147 0.25456166 0.5189171 -0.12628725 0.09793982 -0.18429287 -0.42436203 0.34025928 -0.31396434 -0.11288437 0.047557797 0.057367116 -0.37093988 0.28005722 -0.04263515 -0.17526706 0.15288574 -0.5403336 0.12736863 0.18068852 -0.13508712 -0.36440316 -0.031149065 -0.10130918 0.17678964 0.2050394 0.0009301276 -0.13148294 -0.2044073 -0.12565567 -0.21315403 0.02460994 -0.037191343 0.26327285 -0.2253335 0.26811415 -0.2767039 -0.047047403 -0.033649325 -0.35026 -0.3575863 0.16725668 -0.13910066 -0.38143644 0.12324163 0.22666946 -0.12991765 -0.11756412 0.35435423 0.14412026 -0.035554126 0.043335702 -0.08464892 0.050101053 0.47142327 -0.2510484 -0.11944779 0.096523255 0.13538468 -0.17885578 -0.16082148 0.14327796 0.01866354 -0.0026063945 0.143069 0.062120356 -0.20699067 -0.27767196 -0.12223924 -0.13510296 0.066864416 0.026402343 -0.21578014 -0.08161758 0.25933287 0.3655683 -0.4226207 -0.1537592 0.32749447 0.106363215 -0.30127013 0.059061334 0.3054526 -0.0034062788 -0.07226003 -0.08166871 -0.22023852 -0.013222314 -0.5268528 0.036981065 -0.19737773 0.057974726 -0.073746644 0.06844332 -0.08623888 -0.07624567 0.10758084 0.17885678 0.50529736 0.16269872
1813 -0.030122852 0.19547267 0.047127027 -0.16093747 -0.053366397 -0.06785159 -0.41905904 0.27364114 -0.4613978 -0.26094046 0.23326872 0.28220257 -0.39111707 0.34401384 -0.16909106 -0.44702312 0.007918862 -0.43134168 0.052780207 0.27302736 -0.1987614 -0.4730879 -0.1329205 0.20495757 0.08870628 0.04693944 0.08891516 -0.05368297 -0.32889777 -0.05592468 -0.49643216 -0.021666467 -0.09165982 0.54956466 -0.14208305 0.42764997 -0.53400856 0.009857268 -0.32693458 -0.79458797 -0.16667715 0.24653749 -0.34090996 -0.4822522 -0.07176481 0.26071092 0.12684359 -0.27162865 0.3675184 0.1521292 0.018178705 0.2922381 -0.19505402 -0.12633905 0.7667406 -0.164618 -0.31104553 -0.105039045 0.021617275 -0.053916436 0.20835464 0.25968006 -0.037470505 -0.024562078 0.1253531 0.09879926 -0.21557924 -0.45921698 0.07030624 -0.3255408 -0.017159233 0.027877564 -0.1836798 -0.082518555 0.14635766 0.11620545 -0.6241957 -0.29475522 0.4273584 0.0415988 -0.37741002 -0.2740101 0.27829307 -0.28492755 0.12543894 -0.13030589 -0.009702951 -0.1570912 -0.16143273 0.100417 0.030814603 -0.18032552 -0.014364129 0.031104013 0.11654835 0.3862234 0.013211609 0.06853544 0.36492193 0.0029141502
848 0.059063084 0.18562968 0.4701804 -0.16427669 0.3870832 -0.27673805 -0.08274025 0.10752602 -0.28544793 -0.0773669 -0.18964142 0.045273 -0.271698 0.32266924 -0.31413585 -0.14808857 -0.113943376 -0.17245707 0.13794085 0.3521728 -0.046689335 -0.33912104 0.069560155 -0.040577523 0.18840067 -0.0023759382 -0.12601309 0.044877023 -0.45031393 -0.1605843 -0.17685217 0.091368444 -0.27570915 0.25954932 -0.27897066 0.48729816 -0.18544978 -0.14972718 -0.21527277 -0.32097864 -0.584616 -0.0062564495 -0.21028209 -0.35432082 0.12357995 0.18117407 0.107848085 -0.28526464 0.26783234 0.22044116 -0.18257448 0.019239053 -0.077122174 0.18844414 0.35699412 -0.043424334 -0.124068245 0.031450562 0.34702253 0.0034990553 -0.23838425 0.25141025 0.02728915 0.21035933 0.2805058 0.108302616 -0.12603737 -0.44795626 -0.062204294 -0.12140988 0.066017814 0.09634203 -0.07455877 -0.18589653 0.13154341 0.14832592 -0.09819469 -0.29674888 0.47294047 0.21891084 -0.29426008 -0.038317043 0.3155148 -0.010868855 -0.019115204 -0.1465133 -0.26908755 0.09763771 -0.28491214 0.13043986 -0.27655798 0.12392914 -0.16693078 0.23627791 0.17558758 -0.10319722 -0.086565115 0.3167308 0.6494124 0.13180989
54 -0.08086435 0.34100825 0.46689045 0.04885129 -0.04103172 -0.21930636 -0.44635305 0.2254701 0.2624564 -0.07099788 0.0028419308 0.21342319 -0.22041862 0.23017779 0.033680875 0.2720146 0.08995309 -0.3321092 -0.029958058 0.29065612 0.015757706 -0.32933062 0.41129512 -0.2012785 0.2304625 -0.02062925 -0.104716145 0.06408583 -0.17255537 -0.10509921 -0.2753988 0.08438753 -0.24155599 0.093024425 -0.1720563 0.3674591 -0.17764214 -0.18666956 -0.040352777 -0.25000098 -0.5449301 0.17485572 -0.3806959 -0.43281102 0.16888905 0.5176897 -0.09166898 -0.052376237 0.42206168 0.19615039 0.09146793 0.059637006 -0.09597436 -0.05045641 0.10915196 -0.056624945 -0.14630741 -0.052449033 0.40955362 0.01202613 -0.1977241 0.49778104 -0.069070645 0.10844934 0.21303755 -0.026141616 -0.21747191 -0.37308145 -0.1175427 -0.23807956 0.16074702 -0.103901416 -0.18611409 -0.09392858 0.3155356 0.17111754 -0.2752105 -0.42673367 0.380656 0.07726193 -0.31217983 -0.15309887 0.3486603 0.04529894 -0.31104428 0.024827294 -0.31825626 0.23853382 -0.22055458 0.33948582 -0.30551547 0.17812951 -0.23349895 -0.12702763 0.21125533 0.028102733 -0.1592048 -0.056961745 0.4757937 0.031740706
70 -0.0021621275 -0.35231802 -0.32233182 0.11214382 -0.22385947 0.10413649 0.16898453 -0.36452225 0.58450043 0.26195884 -0.32409638 -0.25372353 0.26696345 -0.34105638 0.041228514 0.32419872 0.028591529 0.29240274 -0.14654258 -0.06569221 -0.007061765 0.31649 -0.18162875 -0.20752877 0.11874282 0.007043529 -0.052542698 0.19651778 -0.05579306 0.36452472 0.6133026 0.020221384 0.0072783157 -0.27768785 0.14907344 -0.30057195 0.30355194 0.23213594 0.35406342 0.6383525 0.4225699 -0.26178744 0.14016259 0.20956066 -0.35758606 -0.2476438 0.06601422 0.09638922 -0.353565 -0.19437186 0.48235622 -7.342949e-05 0.3543909 0.023411134 -0.5176116 0.13009521 0.10421207 -0.11206391 -0.120096356 0.14457977 -0.042757824 -0.11814626 -0.009239474 0.13552795 -0.1808654 -0.36132565 0.30246204 0.3077469 0.008770873 -0.099956684 0.12942915 0.06999324 0.31768954 0.018421981 -0.39141473 -0.047789697 0.3617513 0.124647446 -0.3381424 -0.23974141 0.22349174 0.03835799 -0.51926184 0.2765403 0.29076597 0.31328675 -0.1775272 -0.21342129 0.45620188 -0.09766862 0.34325916 0.28334296 0.026263427 -0.018483162 -0.079422526 -0.116165824 0.092836976 -0.43863642 -0.5421408 -0.14993039
262 -0.11953705 0.22242466 0.48174322 0.25266385 0.29188034 -0.16822653 -0.3332981 0.080704056 0.19597077 -0.33878002 0.14103483 0.06366548 -0.43902305 0.28902552 0.17139328 0.0101767965 0.0018644094 -0.2834219 0.2398697 0.30362234 -0.36296633 -0.5027266 0.20302846 -0.2498315 -0.19278955 0.09625849 -0.112326354 -0.1619088 -0.28944916 0.024416067 -0.19807841 0.25156763 -0.24964556 0.34026533 -0.17780286 0.15907642 -0.3018064 -0.17727119 -0.26627883 0.06386901 -0.42998528 0.24988681 -0.34890893 -0.51234925 0.35670158 0.34309164 -0.019446691 -0.20602323 0.35996568 0.1701876 0.19305463 0.14681599 -0.2492273 -0.03931092 0.25629175 0.009189768 -0.058137305 -0.051529765 0.22181007 0.068869285 -0.21652722 0.2031556 -0.24814062 -0.17215332 0.36785725 0.15226288 -0.37266308 -0.49767882 -0.13343044 -0.35145712 0.22186433 0.10484549 -0.20524581 -0.048590828 0.18634357 0.33319172 -0.29086757 -0.068154946 0.37461817 0.36208 -0.17715806 0.08609643 -0.12599531 -0.15456875 -0.22155239 -0.115501575 -0.2532117 0.28009167 -0.5006601 0.03540242 -0.17650442 0.26896036 -0.18805061 0.12939516 0.16771236 -0.25013846 -0.04363136 0.026876962 0.4171656 0.10944957
1383 0.27839512 0.09972802 0.052900754 -0.07069083 0.19571735 -0.18364894 -0.20554134 0.13861306 -0.24915358 -0.3315104 -0.030918939 0.13256519 -0.42465994 0.37227285 -0.0738195 0.041234534 0.20711991 -0.49635935 0.028994437 0.21102357 0.020813448 -0.29585007 0.32718477 0.051800445 0.12577401 0.1534744 -0.10642399 -0.10711246 -0.21033232 -0.010957836 -0.33969828 0.068073004 -0.069814645 0.30993062 -0.107383616 0.1615081 -0.23603266 -0.18242668 -0.21494001 -0.45904845 -0.5297167 0.12841633 -0.0016813797 -0.5297638 0.17947343 0.58132553 0.0055066817 0.057124063 0.26508927 0.15245211 0.012807933 0.32402018 -0.19433208 0.023010798 0.36307657 -0.10427501 -0.24090831 0.0897447 0.1848181 -0.1772893 -0.18915632 0.20745093 0.15996765 -0.026885161 0.23601934 0.29941466 -0.1913042 -0.20697752 -0.11729472 0.12287546 0.2403639 -0.06469167 -0.22832319 -0.18887138 0.37212873 0.33925602 -0.43225846 -0.020151952 0.35588393 0.29155952 -0.47958297 -0.14513572 0.15683798 0.0882004 0.12121614 0.032197557 -0.18802856 0.1644102 -0.44199935 0.28337148 -0.16060498 -0.084311165 -0.08869375 -0.037172537 -0.12281832 0.09239474 -0.0368204 0.27214965 0.4842142 0.1674645
729 -0.09453536 0.270228 0.20114854 0.023710014 0.2805382 -0.23807791 -0.07202174 0.059016768 -0.006712144 0.10613719 0.035517495 0.07448486 -0.40347326 0.14077055 0.09315661 -0.009000165 0.18495293 -0.39659652 0.10700918 0.14637493 -0.1557679 -0.48671693 0.20522694 0.07378359 -0.011094054 -0.11751004 -0.06644861 -0.18052733 -0.22173439 0.06806866 -0.13608031 -0.005175273 -0.013666987 0.22784792 -0.17937411 0.26623473 -0.2552469 -0.21518216 -0.008303844 -0.29431602 -0.31549624 0.15424241 -0.3088544 -0.43869182 0.16307056 0.2484284 0.04739109 0.04434185 0.29717222 0.24751604 0.06875204 0.1296828 -0.27846524 -0.1657652 0.40449923 -0.05685625 -0.021542214 0.18972419 0.119738914 -0.15908761 -0.31974468 0.24808134 -0.3290446 -0.014137668 0.26783603 0.021286722 -0.12632918 -0.43611172 -0.0046183257 -0.01485926 -0.020299818 -0.04693366 -0.27593505 -0.11979305 0.19975159 0.20784135 -0.37011603 -0.3397948 0.31979373 0.16061118 -0.2915179 -0.015111987 0.22082888 -0.07691607 -0.004672874 -0.059108563 -0.17630956 0.21525323 -0.5127843 0.15049899 -0.17378817 -0.0060401442 -0.17310192 0.15850243 0.04029912 -0.03687783 -0.05653753 0.13045214 0.49563777 -0.001722943
1720 0.04793834 0.4046394 0.3871415 -0.056645554 0.12440399 -0.34960282 -0.4308405 -0.12644821 -0.19274761 -0.17020068 -0.031555306 -0.012799644 -0.11225813 0.49368873 0.04057389 -0.05619854 0.33796504 -0.44130784 -0.040982407 0.13943744 -0.0071019186 -0.36825153 0.13681057 -0.06169189 -0.19380707 0.037813716 -0.12894389 -0.10578229 -0.11058704 -0.20502345 -0.2827317 0.054187883 0.018633613 0.28526962 -0.21825038 0.23650576 -0.5495127 -0.0062704654 -0.11672774 -0.26883858 -0.33646244 0.21693489 -0.2413637 -0.33640364 0.3235651 0.2318353 0.13915011 0.01299553 0.0909144 0.10401749 -0.108595446 -0.2183391 -0.22837202 0.02110078 0.51979136 -0.03943504 -0.099304885 0.081338376 0.040541068 -0.040308848 0.02676369 0.02634881 0.14486924 -0.064161085 0.35012707 0.1703269 -0.39687076 -0.12110529 -0.08763948 -0.09892564 0.13349392 -0.1096082 -0.38779172 -0.21686916 0.55717355 0.26991987 -0.51389885 -0.13848513 0.5504088 0.42872745 -0.21102639 0.11392384 0.4073511 -0.048526105 0.08346713 0.064938545 -0.02704261 0.26434743 -0.27666083 0.10168579 -0.09354531 0.0905685 0.008835974 0.26641154 0.12446364 0.15096939 -0.048484147 0.17372301 0.3394705 -0.027781406
69 0.2132103 0.14539304 0.23523867 0.10514179 0.08795515 -0.20430762 -0.27195597 0.13722572 0.09501655 -0.09874754 0.110927805 0.058451608 -0.34988186 0.2696436 -0.008805594 0.31264785 0.052980315 -0.48966014 0.052391756 0.25028315 -0.19294931 -0.26837382 0.0060981824 -0.1427136 0.024095891 0.16895619 -0.15774664 -0.10460428 -0.2161707 0.062092353 -0.0031462128 0.21210632 -0.015073871 0.35944012 -0.2989971 0.33357212 -0.3078384 -0.19434822 0.04086651 -0.22452565 -0.39860177 0.26446575 -0.34417635 -0.39625266 0.1386559 0.36269957 0.061447542 -0.07611805 0.35277334 0.3116854 -0.07087514 -0.06744216 -0.18736658 -0.010027188 0.45195678 -0.08875267 -0.090779185 0.046851788 0.14506513 -0.12848446 -0.06464579 0.28647476 -0.19931257 0.19225746 0.24155088 0.0026466108 -0.10154647 -0.43363678 -0.042448815 -0.23005845 0.096206784 -0.13118316 -0.36934927 -0.21107985 0.032814372 0.3648312 -0.24578525 -0.2760272 0.38264462 0.2069758 -0.35917932 -0.15837924 0.2783597 -0.079018205 -0.17414942 -0.14176328 -0.22927377 0.27239236 -0.21627736 0.17043921 -0.26066548 0.22237413 -0.2323362 0.09073707 0.08960548 -0.15273686 -0.16554782 0.0455669 0.3811225 0.021030856
309 0.14573087 -0.53117335 -0.475919 -0.036433045 -0.01970078 0.07927059 0.20719512 -0.47317255 0.45888424 0.27525243 -0.18617167 -0.16068287 0.053936623 -0.5001091 -0.261994 0.18383703 -0.13126417 0.5096517 -0.390833 -0.15151311 -0.2177776 0.46811205 0.16218567 0.16202633 0.041270297 0.19757594 -0.11083825 0.29908395 -0.03419442 0.22222604 0.5686725 -0.16223466 0.17944181 -0.29262888 -0.054646555 -0.16775377 0.25861254 0.3870629 0.07152462 0.4638497 0.5149998 -0.17575876 0.44740698 0.20971112 -0.25971615 -0.16021341 -0.10417867 0.016493548 -0.42269602 -0.13722667 0.31269917 0.011793231 0.4509687 0.03305706 -0.58046925 0.39278272 0.3630111 0.19940467 -0.20320262 0.21981321 -0.22117896 -0.03226855 -0.18377772 0.17679337 -0.4772147 -0.15321913 0.028962778 0.3566322 -0.021845682 -0.036673926 0.032664757 -0.045053124 0.3066775 0.05743702 -0.45609048 0.015051598 0.49071732 0.22507453 -0.3154643 -0.119029 -0.123079695 0.17935777 -0.13406442 0.37930745 -0.052654017 0.24840145 0.30216601 -0.0724136 0.67114466 -0.04890112 0.26577786 0.09548366 -0.17282835 0.11536488 0.018790092 0.123788275 0.1855396 -0.16640773 -0.54596174 -0.32903272
1133 -0.124144524 0.4847176 0.4164015 -0.2127279 0.09612047 -0.16495018 -0.26130736 0.26151285 -0.21226679 -0.25280088 -0.075047806 0.0819477 -0.3478891 0.089733645 -0.0594305 0.090588 0.1506901 -0.33377 0.102461934 0.37501943 0.15876544 -0.32456115 0.12209734 0.07457427 0.25053814 0.036100257 -0.18536216 -0.050592784 -0.33085304 0.014292914 -0.4837794 -0.011788558 -0.032804225 0.4213373 -0.3251816 0.3377308 -0.28168327 -0.03074995 -0.03651981 -0.3955769 -0.23662332 0.2517889 -0.5357443 -0.45785224 0.24943115 0.3241792 -0.17932789 -0.33792597 0.25663283 0.28921664 0.07065752 0.45805255 -0.059070297 -0.08767734 0.3916752 0.0113608185 -0.1832615 -0.0025841019 0.27249825 -0.20614512 -0.28507948 0.12816718 -0.27041906 -0.0014955216 0.49255395 0.2866865 -0.065447524 -0.15262593 -0.24768713 -0.19371453 0.17622612 -0.09949562 -0.24131343 -0.010436139 0.36028132 0.22611806 -0.41562694 -0.29571292 0.06376147 0.060857445 -0.102765895 0.21533859 0.09378445 -0.14024286 0.053125504 -0.21220228 -0.062081624 0.008222111 -0.37722462 0.17166871 -0.13111313 -0.0073432843 -0.18126538 0.12604703 0.15841778 0.08197919 0.11133172 0.099190645 0.48325992 0.04421628
512 0.0142473085 -0.30794623 -0.17027964 0.09206994 -0.07747711 0.04611041 0.26450068 0.036325462 0.1954488 0.22313747 -0.4763024 -0.181275 0.04998158 -0.32055467 -0.117459536 0.11363789 0.078875534 0.29507738 -0.36866128 -0.21151084 0.07423907 0.45654547 0.10326773 0.061780337 0.19408175 0.31107906 -0.023586484 -0.116911024 0.1093242 0.19463919 0.56401783 0.096441925 0.15043412 -0.09397909 0.29745713 -0.3194871 0.24847697 0.117114 0.3730195 0.47720078 0.49458262 -0.18338968 0.24990357 0.26314354 -0.35348406 -0.5903245 -0.17256165 0.12118633 -0.4645554 -0.0024319785 0.3410291 -0.21320905 0.40403673 0.42273274 -0.39720416 0.30444807 0.016789103 -0.0034933495 -0.077644534 0.11473072 -0.017632518 -0.14715509 -0.09744224 -0.2240747 -0.6582829 -0.3646215 0.17571095 0.26869372 -0.037309103 0.14641164 0.1331581 -0.03996669 0.15950826 -0.088226445 -0.39848998 -0.23067431 0.24374266 0.15582909 -0.4234864 -0.116054475 0.34329006 -0.10528627 -0.41188458 -0.036347724 0.1974784 0.47907645 0.09962725 -0.31137863 0.4388509 0.080502056 0.39287838 0.19951503 -0.011766401 -0.07010553 0.075115636 -0.19215105 0.14881766 -0.29071948 -0.38224894 -0.3742335
1375 -0.06462034 0.34094894 0.36559525 0.07120258 0.08291198 -0.26602986 -0.16656154 0.19255494 -0.088438384 -0.005236525 -0.121792465 0.14839546 -0.14279315 0.19770537 -0.28546426 -0.18063119 0.15743576 -0.35870332 0.22020864 0.31783092 -0.055809062 -0.58346635 0.053908 -0.012107982 0.051816717 0.08708307 0.030057786 -0.24996346 -0.09686865 -0.20119311 -0.5722791 0.065993704 -0.058524635 0.1973128 0.013081178 0.24229771 -0.403191 -0.118459396 -0.13059561 -0.23596868 -0.19117941 0.5325324 -0.11570432 -0.41637164 0.08921714 0.24173744 0.052365467 0.0007332058 0.43797943 0.10038232 0.026220193 -0.07104222 -0.123095326 -0.0615303 0.4398778 -0.023862658 -0.17367001 0.20600939 0.23432767 -0.27525035 -0.0975105 -0.054598436 -0.08372339 -0.020555707 0.33957884 0.120349765 -0.20234354 -0.27820554 0.067086406 -0.29347512 -0.08048641 -0.10946957 -0.52792305 0.065647 0.20487848 0.28110766 -0.31745872 -0.38322908 0.37762734 0.124743484 -0.31117415 0.3346946 0.5220989 -0.17913401 0.023730686 0.0012443789 -0.19902834 0.26967248 -0.4136474 0.15177105 -0.43044353 -0.016003223 -0.095472276 0.12612426 0.05630865 0.23812246 0.049849764 0.2042801 0.57912964 0.033639804
1490 0.16459988 0.48243394 0.4297184 0.0211309 0.18262556 -0.100632355 -0.107271075 0.16792874 -0.1377698 -0.28637233 0.33611172 0.06901468 -0.20865166 0.14441249 -0.11852596 -0.19554572 0.35853815 -0.28570876 0.117237836 -0.04971767 -0.24830715 -0.5393463 0.0686042 0.11791574 -0.12716682 -0.11104635 -0.1254655 -0.039871164 -0.28854644 -0.23715913 -0.31056795 -0.02551803 -0.061444987 0.53866035 -0.37029606 0.09084527 -0.347633 -0.22488394 -0.037153047 -0.5415324 -0.35297322 0.35460913 -0.12249467 -0.32977152 0.23496047 0.3765703 0.14093348 -0.27575582 0.20641054 0.15363234 -0.118112765 0.11234128 -0.17074691 -0.12391843 0.45337382 -0.2220475 0.041987587 -0.043318618 0.37454146 -0.32142678 -0.2613146 0.33367988 -0.1748413 0.040348057 0.22148475 -0.13002734 -0.34294102 -0.36806187 0.07067934 -0.05426075 -0.03296621 -0.094900355 -0.14317434 0.0017398951 0.36276716 0.2953691 -0.41890138 -0.014766252 0.3577847 0.074006066 -0.26269647 -0.1452091 0.010499274 -0.15926671 -0.017774895 0.07832365 0.18707457 0.07394088 -0.5765444 0.021539435 -0.10209874 0.15875214 0.019817159 -0.03443924 -0.060233872 0.110436566 0.117046885 0.11852851 0.43341997 0.07269306
251 -0.08866317 -0.54114336 0.053439904 0.059931144 -0.30471534 0.3029902 -0.030240925 -0.17887974 0.2783677 0.47689563 -0.10870103 -0.20308517 0.085821345 0.051438708 -0.056500997 0.15320411 -0.036254678 0.36005655 -0.3344786 -0.14168456 -0.077413134 0.38466126 0.10054317 -0.10547772 0.071625225 0.3076657 -0.122625686 0.013866697 0.042366248 0.19597302 0.65817744 -0.22208114 0.20441641 -0.397255 -0.015825726 -0.18478353 0.3426718 0.12107838 0.12705101 0.2837665 0.6964286 -0.15430772 0.006119764 0.288283 -0.4457426 -0.2339299 0.19328268 0.12476168 -0.41085953 -0.2920746 0.33791298 -0.17918779 0.171228 -0.01547717 -0.58729404 0.096031226 0.05333843 0.21096401 -0.13158149 0.17238502 0.02329074 -0.51077926 0.10970136 0.18896084 -0.3824131 -0.35788414 0.40339014 -0.023432456 0.2229232 0.10620292 0.21000178 0.07674472 0.5467375 -0.040850125 -0.31982604 -0.08744432 0.44401038 0.31877565 -0.7634341 -0.14474864 0.1796131 -0.051967215 -0.44398934 -0.031441424 0.2094492 0.5162116 0.1208899 0.023016306 0.24392736 0.19612072 0.45592538 0.31414887 0.19904648 -0.085872516 -0.057521135 -0.16730665 -0.10480363 -0.5208368 -0.64038336 0.05953308
943 0.11186935 0.49515963 0.27200657 -0.2070609 0.3000103 -0.32285443 -0.16546206 0.15773296 -0.050870985 0.0008563886 -0.29824755 0.26745814 -0.23766388 0.23081477 -0.0070247212 0.027768992 -0.08489474 -0.23567504 -0.09255783 0.4299609 -0.12039372 -0.41013253 0.16095719 -0.024669357 0.21255003 0.24783611 -0.05546078 -0.08051987 -0.045514707 0.066807166 -0.40006837 0.031188762 -0.15685055 0.39054796 -0.17476021 0.3949596 -0.19057412 -0.17391272 -0.06170893 -0.22058614 -0.6103136 0.23884793 -0.40751427 -0.7308886 0.3626548 0.44282436 -0.05579637 -0.32831845 0.25877807 0.18961045 -0.0031481045 0.17303886 -0.3208095 -0.3527348 0.3596905 -0.070785984 -0.3203637 -0.10255306 -0.11942884 -0.24411504 -0.065156855 0.34384283 -0.15485153 -0.11464545 0.1255052 0.09242024 -0.25078514 -0.099836454 -0.029365888 -0.31629115 0.2523335 -0.11920168 -0.44319725 -0.15282562 0.27461526 0.26251876 -0.29212403 -0.2542421 0.4878354 0.24037409 -0.07588974 0.08947272 -0.124596894 0.050736617 0.23592205 -0.08926237 -0.3558677 0.15432353 -0.34728596 0.2748356 -0.017297931 0.12575205 0.02280185 0.14333558 0.10022108 -0.009900341 0.076792926 -0.01907131 0.5623943 0.16866373
537 -0.07023486 -0.31011897 -0.33428225 0.16036764 -0.10382679 -0.009002835 0.2912365 -0.11586772 0.24702802 0.03838838 -0.37615168 -0.24603713 0.07680226 -0.31424987 -0.116691746 0.42939198 0.13489905 0.3564385 -0.04501036 -0.25968242 -0.021256162 0.40660885 -0.22711205 -0.0879586 0.18894945 0.119008064 -0.14362285 0.16014375 -0.06421287 0.20142633 0.44464937 0.047674153 -0.11148576 -0.23160009 0.47969082 -0.13568452 0.16646129 0.35292816 0.53902537 0.4574906 0.49845302 0.0069424724 0.093691476 0.33171254 -0.13225302 -0.33215368 -0.0167215 0.26476446 -0.5690067 -0.2579457 0.26467532 -0.39019287 0.59757 0.1465844 -0.5469706 0.35301772 0.28045282 -0.106501065 -0.25657168 0.1770617 0.042839825 -0.34564066 0.068762824 0.039108105 -0.14909841 -0.11517566 0.17553027 0.26123255 -0.21638656 0.18191697 0.32209277 -0.036200322 0.2202642 -0.04234341 -0.467298 -0.3455649 0.109305546 0.49974096 -0.27033544 -0.17728321 0.11937541 0.037624698 -0.4611402 0.04530673 0.23311798 0.29664135 0.17029594 -0.3652669 0.34750006 0.06579281 0.2648791 0.20627612 -0.16671962 -0.11473562 -0.12768997 0.08807394 0.3544442 -0.04989993 -0.55541855 -0.12026537
467 0.03289885 -0.06328034 0.526177 0.19282492 0.0149505185 -0.2674943 -0.1578414 0.20023826 -0.028678048 -0.39789695 -0.28745618 0.12964566 -0.20592107 0.22872593 -0.086037144 0.05359803 0.21438585 -0.48948365 0.23057432 0.52285737 -0.04163075 -0.4248217 0.50342214 -0.3014533 -0.04323463 0.10647702 -0.175562 -0.11438591 -0.32313964 0.038878977 -0.16818042 -0.09260338 0.07234153 0.050407674 -0.17413744 0.2520242 -0.44498783 -0.08024604 -0.06777934 -0.3177822 -0.28272545 0.37785107 -0.45555115 -0.26402602 0.3087917 0.41748488 0.041959185 -0.112325095 0.49919876 0.3145111 0.03641501 0.16998176 -0.36602488 -0.0007959579 0.2445701 -0.1962674 -0.046660732 0.058675945 -0.004920819 0.102915004 -0.33413216 0.39949587 -0.067241296 0.21375655 0.2517009 0.21719599 0.03570083 -0.24590556 -0.25199488 -0.032346208 0.22110994 -0.06318437 -0.15014742 -0.28978887 0.23731521 0.40853238 -0.008181989 -0.21883859 0.24581702 0.49257624 -0.27489924 0.09649825 0.36466867 -0.16455835 -0.025459072 -0.18985793 -0.23154962 0.023248404 -0.65076905 -0.100738764 -0.1272576 0.039161082 -0.27604854 0.10364716 0.36556643 0.092869855 -0.01776226 -0.06556115 0.56270194 -0.0012377213
1652 0.16438875 0.28548828 0.35066733 -0.27333748 0.31436345 -0.41329217 -0.5113681 0.37103438 -0.25182897 0.06011069 0.07629611 0.061018467 -0.31318232 0.35993725 -0.14559774 0.08604655 0.08221165 -0.29844657 -0.2944475 -0.024763986 0.23213789 -0.42313322 0.07108534 0.28561398 0.27475575 -0.11657177 -0.008748477 -0.3106718 -0.3824024 -0.29098007 -0.54010695 -0.07838947 -0.06100843 0.44411898 -0.3626645 -0.051472686 -0.41427565 -0.27093765 -0.1740909 -0.4950354 -0.50447845 -0.065781124 -0.04369094 -0.13894303 0.3629741 0.15360428 0.1966604 -0.1584337 -0.0023018683 0.1544104 -0.477594 0.231732 -0.29166153 -0.43315953 0.5871331 -0.30601656 -0.09617553 0.29823527 0.19495855 0.05910172 -0.18046778 0.30981985 0.45642826 0.3612476 0.105199054 -0.06485355 -0.89973503 -0.47755274 -0.1300744 -0.3043455 0.09537827 -0.18961468 -0.5432368 0.1488985 0.12202698 0.4761822 -0.40129724 -0.09499067 0.29345492 0.46390843 0.004823605 -0.133781 0.28238407 -0.21283343 0.14740805 -0.124446295 -0.17732796 0.07477084 -0.56481177 0.24245284 -0.1342549 -0.36543977 -0.33032346 0.044113476 0.20728685 0.0744052 0.012762459 0.259246 0.41368675 -0.15513176
1030 0.53171986 -0.7407245 -0.28376353 -0.058855787 -0.022000281 0.01889211 0.0317771 -0.17942157 0.30033958 0.16252531 -0.6074108 0.08146302 0.18032381 -0.525339 -0.11335282 -0.32916728 -0.31723946 0.34243953 -0.29062492 -0.3362507 0.061370064 0.49347785 0.027468197 -0.35623038 0.044492368 0.46401992 0.40661904 0.1906681 0.020855384 0.20933041 0.6972682 -0.118262164 -0.14683735 -0.405013 0.25044474 -0.62359166 0.1679914 0.44430548 0.044437353 0.3121099 0.34869036 0.009766376 0.24211933 0.25859922 -0.43303737 -0.3556141 0.08603835 0.34594458 -0.43350938 -0.19406027 0.3962165 -0.039104987 0.20673592 0.19740964 -0.6463725 0.065450005 0.47348374 -0.02869668 -0.032852106 -0.0400602 0.013285995 -0.39775634 -0.2243401 -0.15890263 -0.45058823 -0.21411149 -0.19446695 0.383345 0.21711804 0.28699958 0.15972301 -0.115783475 0.454441 0.07044359 -0.2719962 -0.1602776 0.31937438 0.37924936 -0.6738819 -0.12066555 0.13960077 -0.10828427 0.13971001 -0.0075006904 0.20429239 0.071969934 0.3955995 -0.15325265 0.46989086 0.10780464 0.45920733 -0.17364652 0.25589904 -0.039551582 -0.0040853145 0.2372301 0.12268016 0.030317232 -0.31163874 -0.090792395
929 -0.042898316 -0.02383369 0.54570496 0.21801808 0.09051148 -0.3372352 -0.3996038 -0.0041396883 -0.2990646 0.11861195 -0.34863374 0.27404726 -0.29300895 0.35264468 0.041869804 -0.3120661 0.04969442 -0.3476899 -0.081275985 0.35940745 0.13090992 -0.43540913 -0.13094443 -0.38652655 0.16792427 0.10227816 -0.005130892 -0.07356484 -0.49547097 -0.3002748 -0.2118807 -0.20246972 -0.04045502 0.46447927 -0.38262048 0.51136714 -0.25787798 -0.45193112 -0.29269964 -0.15872762 -0.20935379 0.08784703 -0.26307663 -0.5743661 0.18644226 0.18812594 -0.28688872 -0.011017028 0.40592203 0.009835359 -0.059699208 0.10149459 -0.18781215 -0.15370706 0.58740425 -0.27099374 0.031507667 0.3894859 0.35004067 -0.11761694 -0.4124394 0.3847642 0.015955228 0.20298406 0.28079796 -0.1437049 -0.26263857 -0.5520491 0.10714068 -0.1571429 -0.16431886 0.070631824 -0.26022315 0.11729286 0.26706856 0.2441216 -0.3280324 -0.19861656 0.4373894 0.18727757 -0.30798063 -0.15769209 -0.041497625 -0.017850555 0.13519274 -0.056984555 -0.10366903 0.24085909 -0.23617207 -0.03125866 -0.35395542 0.02806849 -0.14290035 -0.01120819 0.3161258 -0.054600667 -0.1839933 0.24180304 0.29824013 -0.0066485694
1081 -0.019417113 0.27327067 0.3615173 -0.06834469 0.14366935 -0.44828644 -0.28818548 0.08239201 -0.10126624 -0.17087775 -0.017604807 0.018754927 -0.3027055 0.22537227 -0.00929702 -0.15184298 0.23300491 -0.39724272 0.12557808 0.28658834 -0.026573187 -0.39329675 0.09888641 -0.013178373 0.09822766 -0.12582184 -0.12226854 -0.0080458345 -0.21293493 0.14631785 -0.38975883 -0.001937388 -0.019097818 0.27499035 -0.15337804 0.16693711 -0.3807145 -0.07489167 -0.2563859 -0.17351626 -0.42163974 0.48344067 -0.4563198 -0.3050411 0.13560788 0.280598 0.063561976 -0.34516886 0.18144019 0.19554225 -0.13368665 -0.17162389 -0.23227343 -0.18692397 0.39036274 -0.13741484 -0.3269076 0.054639377 0.21127948 -0.40943617 -0.217345 0.07979251 -0.031793766 0.043991733 0.342142 -0.26181075 -0.42357635 -0.12898426 -0.13621451 -0.19469161 -0.08625321 0.015900727 -0.11717514 -0.04181337 0.23268671 0.24245153 -0.39311254 -0.22329652 0.33731368 0.2004083 -0.18288292 0.053835683 0.09159129 0.010688615 -0.02926551 -0.42026997 -0.3602646 0.25259382 -0.3670959 -0.037958827 -0.11985097 -0.056296423 -0.15161319 0.13544445 0.0638718 -0.13050859 -0.021912204 0.116490334 0.5569963 -0.023797045
300 0.012059088 -0.23347571 -0.08854526 0.15537918 -0.20345359 0.31206337 0.24242401 -0.13340491 0.69728494 0.11518877 -0.16903481 -0.35613632 0.3108457 -0.30943212 0.015771126 -0.016193988 0.06055715 0.42348972 -0.3905241 -0.15434998 0.0675101 0.28397194 -0.25605625 -0.11867301 -0.013403399 -0.12069584 -0.25087845 0.09571513 0.21034779 0.1624515 0.4146109 -0.02101328 -0.10676986 -0.16515067 0.15837628 -0.039778885 0.4371034 0.2558198 0.3648207 0.4344279 0.355225 -0.0011194632 0.14487678 0.27847463 -0.44266292 -0.3879525 -0.07206518 0.02175356 -0.41808054 -0.15356985 0.37922025 -0.434941 0.6005253 0.054083325 -0.416875 0.27791274 0.023444543 0.28057292 -0.073561266 0.0075497227 0.06439309 -0.2363766 -0.16583279 0.2040095 -0.5353657 -0.20843402 0.30431506 0.37414724 0.023422968 0.1175625 0.18366867 -0.08928706 0.10253174 0.28621858 -0.38493404 -0.07089582 0.32974845 0.25447208 -0.35688126 -0.18089537 0.1441568 -0.109375484 -0.12122192 -0.19312654 0.021029465 0.22880565 0.15293494 0.15789343 0.4133322 0.10733489 0.16613933 0.2142658 -0.003051011 -0.08415245 -0.23746215 -0.31005812 -0.023323108 -0.012257251 -0.9142376 0.16702011
71 -0.08465965 -0.004112294 -0.45208177 -0.14043899 -0.094303295 0.20783286 0.10327896 0.20140891 0.4834308 0.4186925 0.17885783 -0.4310375 0.17738536 -0.5100645 0.1630076 0.2735657 -0.023330158 0.5044613 0.014392967 -0.06333852 -0.28748515 0.46287867 0.0865777 -0.1773515 0.2911751 -0.02054163 -0.12329425 0.20428441 0.004062625 0.5465402 0.5851471 -0.0039058202 0.2092527 -0.4289679 -0.07721437 -0.30108744 0.2707662 0.29915276 0.55373836 0.88110554 0.62492436 0.106253 0.21278848 -0.16167635 -0.081410855 -0.49784243 0.003736373 -0.038569592 -0.6699881 -0.058351472 0.2610494 -0.096999615 0.33916423 0.32293802 -0.6966419 -0.07688984 0.13885042 0.38179308 0.17336689 -0.061013 0.07964391 -0.2557799 -0.30280986 0.2979629 -0.6495687 -0.25937986 0.16574763 0.48876047 -0.0885613 -0.037141256 0.20324077 -0.035515808 0.6219329 0.5744455 -0.66611105 -0.16194704 0.49143118 0.23774037 -0.520543 -0.09821035 0.5240301 0.0995842 -0.509409 -0.20567584 0.37818283 0.28860143 -0.058174826 -0.2527178 0.8509022 -0.17638442 0.085060224 0.39391664 -0.26833698 -0.13829874 -0.17805947 -0.11305045 0.03904442 -0.13740908 -0.46023947 -0.09512307
1852 -0.22787319 0.5536341 0.40457612 -0.15252762 0.28375924 -0.2510893 -0.32556692 0.39734453 -0.50413966 -0.04302765 0.099306576 0.23545228 -0.22177613 0.057146076 -0.07333799 -0.15310183 0.6190519 -0.5367265 0.24352375 0.029941563 0.010719676 -0.57756543 0.13563219 0.040193766 -0.1005133 -0.07064344 -0.17588612 -0.3493407 -0.23759446 -0.3094988 -0.24764858 -0.12843268 -0.13935797 0.42518026 -0.16748762 0.038587276 -0.23856412 0.1158426 0.15784036 -0.45899904 -0.35603523 -0.04772711 -0.120725244 -0.35740718 0.1419552 0.15763465 -0.26076737 -0.28541005 0.2092661 0.1639526 -0.16200952 0.41814592 -0.15280332 -0.08011635 0.44928905 0.14041537 -0.041027255 0.070821375 0.27924523 0.09673805 -0.13950846 0.36143136 0.050182525 -0.16996671 0.34160218 0.16889447 -0.23845844 -0.21636984 -0.079620674 -0.17084639 0.13008207 -0.15957949 -0.38962966 0.073455766 0.22227432 0.39415815 -0.5880558 -0.08987408 0.48767722 0.17736953 -0.25995097 -0.073415644 0.5540564 -0.00841678 -0.1793844 0.036395088 -0.024645692 0.12884486 -0.10933977 0.08891237 -0.1294885 -0.09318182 -0.041601256 0.030249393 -0.055606786 0.14147243 0.047234673 0.22051288 0.5059189 0.0278438
1292 0.10260863 -0.39122328 -0.39692247 -0.020159326 -0.0791809 0.26972196 0.06348138 -0.29623103 0.22756684 0.24558355 -0.25765684 -0.033162832 0.3560022 -0.41918194 -0.08851872 -0.14741905 0.26654184 0.7268259 -0.19021007 -0.64948374 -0.023823516 0.21179374 -0.39731863 0.28193873 0.026953233 0.2663221 -0.37007645 -0.16189423 -0.015008381 0.301143 -0.002608634 -0.29660544 -0.065011315 -0.3129036 0.5022495 -0.22237572 0.2091606 -0.061428953 0.042419903 0.2464307 0.42082354 -0.32664222 0.0009990062 0.12993164 -0.52888393 -0.1464586 -0.21635045 0.023665396 -0.5959494 -0.27772874 0.25600436 0.036100455 0.2747196 0.2321535 -0.3859683 0.44777226 0.075720005 -0.09313688 -0.28455082 0.108737834 -0.04340931 -0.67183876 0.1194744 -0.04441538 -0.48188844 0.037891135 -0.03166448 0.28094357 -0.1934103 0.1461779 0.023924248 0.29843754 0.4950573 0.17752266 -0.04924569 -0.36194724 0.2803267 0.35095042 -0.41482922 0.13193923 0.32587335 0.1444594 -0.33736154 0.11398637 0.39345223 0.16997868 0.03572888 -0.30219233 0.619907 -0.13559152 0.23167193 0.07382917 0.4570116 -0.024980169 -0.10849155 0.39376733 0.28034592 -0.18730776 -0.24249196 0.04257127
1713 -0.28728047 -0.1272944 -0.5588884 0.17691356 -0.093443654 0.75367624 0.16043837 -0.19382599 0.117815636 -0.25939187 -0.1902257 -0.19577144 0.4381481 -0.44285166 -0.091368094 0.067992985 0.36150664 0.7324905 -0.42154706 -0.49145174 0.35694787 0.58264846 -0.48343495 0.36586383 0.16549405 0.1373639 0.20217294 0.064264745 0.18478028 -0.22039072 0.015019141 -0.37821907 0.07017257 -0.6448347 0.31639946 -0.45250565 0.36314216 0.23485605 0.2828736 0.12686831 0.38619804 -0.13004589 -0.037388433 0.4594086 -0.4480931 -0.21475434 -0.079684995 0.06636837 -0.31728262 -0.42917565 0.23889807 -0.15282832 0.3401873 0.44183144 -0.03780438 0.3240278 -0.21698034 -0.13663326 -0.21101247 -0.20618036 0.5051518 -0.2711189 0.033262704 -0.37180248 -0.42534447 -0.13043985 -0.03237518 0.36487967 0.13218234 0.41054904 0.2309241 0.11870346 0.3879528 0.21654332 -0.20185904 -0.4539968 0.3260044 0.41041255 -0.6829672 0.120156296 0.12894547 -0.46171886 -0.39331126 0.11380084 0.113101244 0.488321 0.10943412 -0.1364036 0.41055912 -0.03376905 0.24267504 -0.25770617 0.37085402 -0.25810272 -0.032098893 0.3278229 0.28401136 -0.3638579 -0.4259063 -0.09479561
1343 -0.28538093 -0.17468016 0.014979316 -0.15046836 -0.38830638 0.45829427 0.22000511 -0.24270788 -0.025321264 0.3279846 -0.15067405 -0.16185026 0.49756268 -0.26458812 -0.08635816 -0.3153787 0.16073917 0.64094037 -0.33053714 -0.57771677 0.27101794 0.6015218 -0.041176487 0.22277354 0.3661448 0.017899707 0.09291372 0.16781555 -0.023317374 -0.023009684 0.5492777 -0.50872815 0.07710773 -0.45944545 0.15021093 -0.5361024 0.22788592 0.36286607 0.1434559 0.4009616 0.35159877 0.23586808 0.083560094 0.32374156 -0.21005048 -0.35202023 -0.18600081 0.06988899 -0.41010684 -0.38204962 0.15050894 -0.02455343 0.5318656 -0.08206988 -0.6834073 0.21358731 0.47319543 -0.22456479 -0.09650482 0.009177752 -0.0006822862 -0.1844715 0.128603 -0.04205346 -0.49440226 -0.32025298 0.20623541 0.25614923 -0.20153297 0.15031591 0.3428178 -0.3227262 0.39965436 0.05750023 0.03460827 -0.24684054 0.2944165 0.008002859 -0.2821237 -0.14274508 0.43359935 -0.04767754 0.09494044 0.16771175 0.3093557 0.302881 -0.074558936 -0.16126405 0.14145972 -0.10263226 0.1786599 -0.34866092 0.33835587 0.04642396 -0.074892126 0.06396294 -0.018587533 0.062656656 -0.44947535 -0.12341397
1583 -0.07953311 0.38823527 0.3670886 -0.13787031 0.059337083 -0.2397974 -0.37110814 0.3097186 -0.20282583 -0.22251205 0.041274708 0.30485162 0.0368379 0.13823603 -0.073717974 -0.13868308 0.18761861 -0.38014236 0.15085685 0.0976476 0.09716387 -0.39210427 -0.2147887 0.30741486 -0.06828989 0.07705715 0.22307932 -0.24826036 -0.14903133 -0.2864894 -0.6390435 -0.003904592 -0.2786835 0.39831656 -0.089337975 0.26869285 -0.28108057 -0.12143766 -0.18941483 -0.461933 -0.4710294 0.30164164 -0.21164988 -0.53403074 0.17111799 0.2826083 0.51412445 0.09950406 0.31845832 0.048730858 0.14058314 0.23957133 0.014570668 -0.0805563 0.43301827 -0.136811 -0.4439602 0.05670086 0.27752262 -0.10949219 -0.30516627 0.1076561 0.20593579 0.14633746 0.3253041 0.037545804 -0.27219367 -0.38798636 -0.29307675 -0.07089702 0.06704534 0.02752952 -0.22895241 -0.22268964 0.20231578 0.51399815 -0.5639436 -0.40783703 0.2512014 0.15948555 -0.24229099 0.07157856 0.22523434 0.21105789 0.26813075 -0.22499734 -0.040102843 0.33356333 -0.51842165 0.14220542 -0.21846811 -0.041241847 0.30066386 0.022257008 0.028514387 0.12736285 -0.22914894 0.098021135 0.3822049 0.12350469
1579 0.27660996 0.60757774 0.18638135 -0.015191197 -0.114795655 -0.21474655 -0.033883307 0.1241159 -0.28214723 -0.34072846 0.0798984 0.04868079 -0.09159115 0.25448787 -0.138067 -0.10948494 0.42919192 -0.6285027 -0.11248577 0.022520062 0.1264385 -0.28828955 -0.045636617 -0.05047578 0.076595165 0.115963414 -0.16589904 -0.01973373 -0.08807344 -0.10607982 -0.36851174 -0.17663941 -0.08978403 0.35262236 -0.29890445 0.15242733 -0.049569428 -0.32915464 -0.2652239 -0.51116025 -0.5494491 0.28460762 -0.4259233 -0.57712644 0.4113253 0.14355108 -0.35769364 -0.07050399 0.51300377 0.06983215 -0.24743952 0.07127771 -0.44476703 0.1993082 0.41742668 -0.054099653 -0.3946701 -0.011131463 0.17105216 -0.24184674 -0.1997649 0.12184236 0.1749677 -0.2949774 0.5769429 -0.031261977 -0.01636882 -0.25480774 -0.30970785 -0.38695624 0.24739572 -0.1606084 -0.015900033 -0.34581715 0.48345473 0.22426525 -0.58678186 -0.18809922 0.49355173 0.28204966 -0.24970452 0.13822897 0.2871711 0.10224497 -0.034872983 0.26474145 0.037201032 0.041429307 -0.5017434 0.22993504 0.13270843 -0.13199618 -0.018436702 0.03098241 0.115968384 0.4080689 -0.28217846 0.3957201 0.56464726 -0.11328884
465 -0.08430802 0.16994053 0.4056356 -0.103663154 0.22661696 -0.52088326 -0.29529485 0.113346584 0.021330211 -0.20101863 0.14688317 -0.14330457 -0.28486174 0.12360121 0.13169628 0.027714508 -0.07255427 -0.3545926 -0.011126463 0.47234458 -0.24023847 -0.31395438 0.3150274 -0.114836864 0.01428823 0.15997063 0.21413049 -0.17885664 -0.3129872 -0.2515577 -0.11005907 -0.055396408 0.25157097 0.38633165 -0.39324716 0.3117461 -0.37976345 -0.12222067 0.09362298 -0.3900525 -0.41146463 0.5585575 -0.5593879 -0.42632502 0.17717066 0.18487847 -0.096376784 0.0011439957 0.57148015 0.0864025 0.12366055 0.23223163 0.18974535 -0.030864911 0.4684586 -0.003084881 0.07776418 -0.21685563 0.13826832 -0.22770269 -0.092888825 0.20274468 -0.028885044 0.019907258 0.39200222 0.2500474 0.015431199 -0.27452916 -0.15416652 -0.01614795 0.051647767 0.19080521 -0.31788585 -0.2794239 0.071964025 0.33604875 -0.35881966 -0.55006135 0.2858365 0.50716263 -0.33874255 -0.3609828 0.10927705 -0.1921928 -0.17935549 -0.1728258 -0.46877608 0.07282904 -0.40823698 0.2133069 -0.28458896 0.20140602 -0.18299244 0.094589576 0.1345378 -0.02703555 0.03896948 0.006020577 0.564601 0.03467957
867 -0.08001498 -0.40932015 -0.222396 0.030813644 -0.33543703 -0.1747198 0.35273886 -0.34402725 0.10432259 0.10246271 -0.7022546 -0.31838903 0.32456577 -0.20985998 0.043531697 0.17469002 0.043527316 0.28843886 -0.33068606 -0.14708433 -0.028435363 0.33806014 -0.021028817 0.074464284 0.12832142 0.23684315 0.20841128 0.20222586 -0.18649045 0.06660045 0.26826698 -0.27466524 0.1767622 -0.20300011 0.28350022 -0.43968686 0.49678367 0.347761 0.4175138 0.35541224 0.40687367 -0.13098277 0.08885138 0.30216405 -0.45606938 -0.38688004 -0.010904406 0.15550004 -0.54943496 -0.069389105 0.058462057 -0.22461987 -0.033423748 0.3214048 -0.5232771 0.44523847 0.09435366 0.13442558 0.0064068534 0.29820463 -0.046180643 -0.36483076 -0.25116867 -0.36887044 -0.5439249 -0.21281399 0.14192426 0.5268987 -0.11396889 0.057939284 0.08157483 -0.005320452 0.11903301 0.28071782 -0.31853846 -0.26726833 0.2607384 0.33995715 -0.44380146 0.020893121 0.09139942 0.12120264 -0.06354681 0.021830518 0.1851608 0.48617196 0.12370856 -0.258181 0.4044105 -0.16072384 0.34758043 0.23083034 0.045700926 -0.19945288 -0.06902593 -0.026975391 0.25919324 -0.17821638 -0.0940759 -0.005571813
702 -0.1151828 0.19995262 0.4567803 0.32334003 0.087519825 -0.2962531 -0.3543058 0.10920526 -0.068231694 -0.30113217 -0.08625075 0.00012358732 -0.39783692 0.32078627 0.23718937 0.17446256 0.16412826 -0.43210977 0.044586875 0.54913604 -0.2504563 -0.5055998 -0.0035808375 -0.08166802 0.06362449 0.105334505 -0.2442543 -0.058903877 -0.2271436 0.19098687 -0.25486696 -0.22863321 -0.06991102 0.003441605 -0.17569537 0.3324891 -0.3224167 -0.04449295 -0.2591682 -0.26739922 -0.41649604 0.06394829 -0.303362 -0.22634205 -0.056766756 0.3428551 0.019443652 -0.26829946 0.09473722 0.11486292 -0.011452308 0.08857156 -0.16811933 -0.17102574 0.41186962 -0.15274025 -0.3883276 -0.114221275 0.19103856 -0.2604244 -0.34015813 0.36138237 -0.07074526 -0.1673335 0.6221599 -0.10658989 -0.3887303 -0.5047104 -0.043290917 -0.18396844 0.03495656 -0.052193236 -0.1292488 -0.27665365 0.102164514 0.3581934 -0.34638396 -0.22995815 0.4395549 0.18704289 -0.20043679 -0.115757324 0.088095866 0.12174148 -0.047211997 -0.28647506 -0.3700883 0.008535156 -0.5068983 -0.011051914 -0.1041104 0.0884563 -0.22927369 0.031893294 -0.02564415 -0.043754112 0.19275789 -0.09476316 0.43484992 -0.28718337
1927 -0.25020295 0.37647685 0.57390726 -0.1251862 0.18168764 -0.38647023 -0.4992639 0.2781748 -0.48257607 -0.48561743 0.18219206 -0.14365514 -0.22824493 0.5633501 -0.26212874 0.023785498 0.25317746 -0.36911985 0.15278004 0.3961879 -0.20984797 -0.393069 -0.23079702 0.025247803 0.10763768 -0.04003844 -0.3070565 0.051662024 -0.35843766 -0.1653198 -0.487059 -0.14818898 0.0126082115 0.16726314 -0.3601956 0.26505378 -0.25754654 0.1399372 -0.13535543 -0.5394832 -0.38588384 0.30198184 -0.14140151 -0.18804018 -0.0490265 0.26161164 -0.23470847 -0.24797292 0.14985363 0.16203776 -0.2862883 -0.04108085 -0.067619085 -0.13310052 0.49535963 -0.2878915 -0.05596284 -0.19753043 0.12050275 -0.092634834 0.21595368 0.30651876 -0.038225606 -0.12176201 0.26843783 0.09856679 -0.5262171 -0.023604363 -0.18235524 -0.096905574 0.03536229 0.035725407 -0.14498071 -0.06820499 0.40137467 0.12931728 -0.37906417 0.0410944 0.45881495 0.10467551 -0.42615014 0.068466544 0.7526339 -0.1144664 0.12923066 -0.038873423 -0.045799013 0.12223254 -0.35012808 -0.10225831 -0.40304956 -0.39639997 0.033049725 -0.031054718 -0.087559946 0.1375458 -0.12263568 0.11302422 0.4813119 0.16748483
1218 0.0065579363 0.15799518 0.48220196 0.11171798 0.21667415 0.16029029 -0.32834587 0.12906028 -0.24831237 -0.24591573 0.3491552 0.47851488 -0.058690768 0.15668127 -0.2023962 -0.053300202 -0.12624212 -0.4319324 0.2943035 0.33777338 -0.14470495 -0.5109463 -0.20947355 0.17457053 -0.016140994 0.49671423 0.09376796 -0.15760055 -0.41839904 -0.28902602 -0.2421481 0.1761139 -0.080444455 0.23352744 -0.13585325 0.29720616 -0.34216696 -0.2088839 -0.05782274 -0.4222204 -0.32554623 0.35139927 -0.39326188 0.030385466 0.13935852 0.2351521 0.3469551 -0.28608853 -0.1394594 0.34352994 0.0041792095 -0.14133584 -0.3928825 0.007923828 0.7373835 -0.23799054 -0.27126455 -0.37482712 0.45678744 -0.3164654 -0.2054862 0.10285974 -0.118749484 -0.14447223 0.326457 0.30469522 -0.2280654 -0.26006263 -0.24325576 -0.3214492 0.046248205 0.03764136 -0.39311796 0.12998539 0.3545495 0.034465812 -0.6805655 -0.30947644 0.41401464 0.1963562 -0.36204952 -0.09962474 -0.08886525 -0.09443471 -0.053181 -0.51518446 -0.15848313 0.2174283 -0.32360685 0.32838416 -0.1856675 0.09523335 -0.14040391 0.17707665 -0.10439448 -0.11984672 -0.045534287 0.112062864 0.5002058 0.21562915
1231 -0.050992735 -0.35789433 -0.2638488 -0.16310997 -0.24156488 0.2278639 0.14854544 -0.45639342 0.27051842 0.06781957 0.10508608 -0.28307593 0.1147626 -0.44421643 -0.11092701 0.16472998 -0.11188369 0.47301558 -0.30814064 -0.3931175 0.016964672 0.7218583 -0.1346428 0.093110986 0.22344427 0.024049956 0.05811298 0.17537227 -0.20143811 0.012160612 0.18716514 -0.40109012 -0.037803307 -0.5327912 0.26187703 -0.60844064 0.2015493 0.1861446 -0.10945708 0.38260117 0.76270664 0.018702062 0.2593074 0.15559503 0.30309072 -0.35691175 -0.028199282 0.052038364 -0.64210206 -0.2823714 0.39359134 0.32229662 0.36773235 0.11882991 -0.6700462 0.077234015 0.2789528 -0.12178104 -0.3688126 -0.08332033 0.16921994 -0.40996432 0.005326343 -0.09238829 -0.3160626 -0.1529637 -0.30611217 0.42930537 0.1830261 -0.25207606 0.0660174 -0.34021726 0.33239213 0.22816871 -0.4841719 -0.26422757 0.24974857 0.37234926 -0.11130498 -0.27134636 0.06733936 -0.360908 -0.039106153 0.09942202 0.15228385 0.44324395 0.084780395 0.0011948551 0.4237323 -0.07206672 0.30918184 -0.30085748 -0.1810183 0.11010997 -0.1706336 -0.1591278 0.3526873 -0.14693438 -0.25886413 -0.3380494
660 -0.22273706 0.05438007 0.6351165 -0.16304187 0.11553591 -0.15727554 -0.23833494 0.17525208 -0.18234845 0.10653108 -0.29975224 0.13491447 -0.47827882 0.32386884 -0.29589605 0.017239178 -0.055500723 -0.33668342 -0.18917745 0.2085339 0.15842545 -0.6949879 0.14336301 -0.25341442 0.1307367 0.1394617 -0.22068219 0.0676577 -0.45529744 -0.20137797 0.15235351 0.032316353 0.012005169 0.28564575 -0.5040314 0.3388519 -0.6592954 -0.18438834 -0.026041277 -0.4300557 -0.55831087 0.16234556 -0.31433114 -0.3464563 0.36686593 -0.025057277 0.16479301 -0.23336466 0.30276787 0.22641212 0.072980724 -0.2501943 -0.22146182 -0.1327807 0.4221816 -0.056778967 0.08658067 0.023658106 0.002821946 -0.277571 -0.04008464 0.21456741 0.22058195 0.12829812 0.07754174 0.0962335 -0.22070552 -0.41051772 -0.009206448 -0.24440348 0.18695414 0.2968009 -0.184357 -0.15888005 0.17848349 0.42748812 -0.4101192 -0.33125633 0.27666292 0.058718838 -0.28506982 -0.07437107 -0.04788624 -0.23625685 -0.33882266 -0.30343157 -0.542 0.23581995 -0.4228093 0.33673728 -0.22244617 0.0043324735 -0.21979496 -0.021999905 0.22730379 -0.103592955 0.1723546 -0.09585412 0.73534465 0.11611605
608 -0.04721652 -0.13465172 -0.15916586 0.07702112 -0.071909495 0.24277104 0.45075515 -0.1360104 0.24892968 0.2666985 -0.46263063 -0.21565075 0.21610469 -0.41351786 -0.073765285 0.15304266 -0.0048456863 0.18798195 -0.29606238 -0.19318902 0.1451259 0.4056808 -0.044739824 0.14040177 0.15482655 0.17481086 -0.07602611 0.10478927 0.3929641 -0.07246012 0.52871597 -0.19265425 0.14802544 -0.3982285 0.06096345 -0.32212913 0.4349757 0.30315816 0.38265526 0.5623882 0.2724882 -0.1329454 0.14811015 0.38148198 -0.20027669 -0.16177717 0.078642555 -0.10066509 -0.7971204 -0.23820184 0.33403036 -0.12712745 0.4437642 -0.13293543 -0.39532098 0.28932938 -0.046432156 0.053419475 -0.187354 0.1918039 -0.123111494 -0.022977987 -0.055297777 -0.21622224 -0.31061268 -0.13373332 -0.07002526 0.13199244 0.0038889942 -0.05843374 0.22065388 -0.18245628 0.3996882 0.23270875 -0.15776284 -0.075706705 0.4362294 0.199482 -0.5185576 -0.10524758 0.1831059 -0.07475631 -0.22945487 0.11460233 -0.0011940503 0.45033917 0.12110573 -0.30344373 0.37353975 0.1342898 0.38974434 0.2951576 -0.16372265 -0.17380458 -0.27361783 -0.1630369 0.16165501 -0.16577993 -0.57488626 -0.15466136
182 0.06528368 0.69610316 0.58928126 0.38258976 0.19021395 -0.45870206 -0.17554803 0.49476397 0.26471594 0.08527872 -0.07649466 -0.06862179 -0.45259073 0.27095494 0.030342812 0.007518765 0.123231396 -0.27173328 0.23930484 0.613279 -0.3436005 -0.74674755 0.31252733 -0.079340674 0.07784166 0.051105678 -0.017521564 -0.20349248 -0.23046367 -0.12058875 -0.16645198 -0.052965038 -0.26583692 0.02731647 -0.5484609 0.5488842 -0.069906116 0.048346628 0.20188503 -0.14833002 -0.78710616 0.0686798 -0.42824578 -0.45525268 -0.054539096 0.27252147 -0.059511393 -0.23068719 0.13554335 0.07594366 -0.06465828 -0.045450687 -0.18973397 -0.06312609 0.3811989 -0.3672035 -0.02184435 -0.18926993 0.6026251 -0.03782384 0.037501935 0.11405622 -0.28788608 0.505177 0.51273245 0.22777583 -0.21585016 -0.52705586 0.20600595 -0.21213038 0.2825191 0.05969806 -0.058842693 -0.3861953 -0.12667134 0.3388896 -0.5598227 -0.22896272 0.09825005 0.28783542 -0.2820231 -0.054585535 0.19679974 -0.29645228 -0.15741472 -0.2083705 -0.3467928 -0.22298104 -0.2574367 0.09984894 -0.44068545 0.018030837 -0.62768966 0.084402435 0.3238032 -0.053438984 0.056243658 0.0939007 0.51679784 -0.14493628
1902 0.14287592 -0.212457 -0.4385151 -0.041167323 0.017730957 -0.20863998 0.35791838 -0.17118102 -0.17566498 -0.11718653 0.13041663 -0.37241825 0.77567667 0.035741854 -0.29726225 -0.12555404 -0.37575108 0.80451524 0.1040574 -0.2989026 0.18506898 0.5563663 -0.33041006 -0.045504358 -0.06594724 -0.052751455 0.0029383688 0.03587977 6.427772e-05 -0.16525446 0.25760257 -0.039134208 0.08428992 -0.6113172 0.6429716 -0.7012864 0.06467799 0.19887972 -0.14314556 0.18316886 0.25865197 -0.017292652 0.22859696 0.6789323 -0.21612623 -0.48833576 0.08197394 0.112206765 -0.6906749 -0.96202785 -0.19021411 -0.13995008 0.19845319 0.16469191 -0.6379694 -0.13065389 0.59350216 -0.2623961 -0.45430332 0.5169326 0.11279016 -0.35896823 -0.038371064 -0.1626797 -0.12665905 -0.28369558 -0.3751907 0.77048177 -0.05245723 0.01550572 0.27367893 -0.05490944 0.5295694 0.163902 -0.2483786 -0.43863213 0.114146695 0.55560046 -0.45199075 -0.3365033 0.038901933 0.2849869 -0.025053574 -0.13233022 0.45253912 0.24928668 0.19087292 -0.10366524 0.005529631 0.049520746 0.6739378 -0.26401296 0.20073526 -0.2443166 -0.29626134 -0.06043032 0.30923697 -0.2073794 -0.8113847 -0.08761141
715 -0.09094271 0.13327059 0.21852913 0.04979224 0.09615266 -0.14910296 -0.19411317 -0.06892769 -0.10549117 -0.26366022 -0.04513513 0.040099144 -0.27963087 0.25520968 -0.1363551 -0.15321915 0.16250154 -0.3123746 0.039329626 0.1886027 -0.0696491 -0.39958656 -0.07622577 -0.28204733 -0.120746575 0.104250975 -0.40859082 0.0042535868 -0.23083206 0.0035303973 -0.18972349 0.08596469 -0.10935011 0.27599245 -0.2614503 0.4568526 -0.40772417 -0.17283957 0.10072671 -0.1841575 -0.602328 0.2523369 -0.36707196 -0.32942477 0.15691333 0.21674386 0.06563158 -0.3089985 0.3090794 0.15916216 0.1541989 0.031554654 -0.10636425 -0.10665127 0.5067357 -0.21946101 -0.03132845 0.1442458 0.21029755 -0.27838993 -0.3755004 0.1503531 -0.11511948 0.065162055 0.3549492 0.29703513 -0.051489852 -0.5861445 -0.13829106 0.03119494 0.1231023 0.1084452 -0.13662778 -0.45697743 0.47010493 0.47740522 -0.56302625 -0.14213605 0.50443405 0.027135896 -0.20047735 -0.22487341 0.16978769 0.028284905 0.0029007269 -0.1947309 -0.05206989 0.14104189 -0.18463022 0.13362932 -0.25775054 0.003495336 -0.106836475 -0.029551247 0.114479825 -0.0846956 0.20783128 0.12422739 0.42435312 -0.15752469
21 -0.1835338 0.2646969 0.42435122 0.030048441 -0.15963086 -0.11607186 -0.34369043 0.12104207 0.266359 -0.14680904 -0.07848231 0.053090744 -0.38765195 0.08614518 0.17599717 0.34950465 -0.033532273 -0.44177824 0.0586422 0.25006557 -0.10263279 -0.49227664 0.049032394 -0.09809637 0.08413943 0.06282597 -0.15917881 -0.23033419 -0.08347782 -0.0015984607 -0.23145187 -0.07639677 -0.33958638 0.23868643 -0.1763351 0.4371547 -0.39763314 -0.04177711 0.13520066 0.060262766 -0.6857136 0.1514967 -0.5047392 -0.35607004 0.24903117 0.2296005 -0.024599316 -0.106013946 0.5071945 0.17792647 0.115128025 0.17693208 -0.11839517 0.16612299 0.5186686 0.043044537 -0.11656092 0.20546778 0.21345103 0.036204062 -0.53826666 0.18359251 -0.28185835 0.009217171 0.47939923 0.009602661 -0.27578005 -0.19551861 -0.357074 -0.4274427 -0.033398166 -0.043044407 -0.2542749 -0.31439632 0.11253877 0.16962689 -0.6900227 -0.35357794 0.15244915 0.054942068 -0.5939888 0.13513544 0.021834718 0.120091304 -0.059063707 0.058117807 -0.0832988 0.23956704 -0.58689535 -0.029348668 -0.2173404 0.16698067 -0.4427615 0.12996274 0.3280307 -0.28847295 0.06666421 0.06033492 0.42527455 0.28906134
353 0.6550209 -0.34252053 -0.3875636 0.05511706 -0.03704486 0.4194779 0.34463286 0.11645452 0.32171848 0.37296614 -0.34939352 -0.12239882 0.34608692 -0.662244 0.08474292 -0.27528316 -0.022572977 0.47225648 -0.49862844 0.10431999 -0.37696669 0.30628616 -0.16847931 0.028762568 0.0943589 0.32585055 0.19754395 0.3108914 0.18828852 0.4235962 0.80860263 -0.20878322 0.18109812 -0.0957791 0.6315435 -0.3658499 0.467189 0.29594803 0.5816829 0.47456655 0.4913564 -0.07955263 0.33094388 0.3270637 -0.31090444 -0.12454535 0.15308066 0.13197282 -0.47931617 -0.40811506 0.32886693 -0.4523997 0.046738986 0.3618848 -0.55740744 -0.14145942 0.21470566 -0.29931673 -0.2024319 -0.19601752 -0.15573397 0.12281182 0.064298496 0.28723544 -0.13088751 -0.08026204 0.2672038 0.05202174 0.058159307 0.28214172 -0.01961714 0.044353593 0.5315469 0.21704887 -0.36656386 -0.23143725 0.26666924 0.16067718 -0.40928394 -0.28380382 0.097922705 -0.43638462 -0.46582803 0.111248225 0.195969 0.10456291 -0.0011398888 -0.23889637 0.32581225 -0.027291825 0.20947017 0.3488375 0.21819119 -0.08843778 0.2126416 -0.15590896 -0.014315041 -0.352391 -0.5768742 -0.08397102
1 -0.2203139 -0.5393889 -0.34843847 -0.16224599 -0.27233985 -0.048428178 0.44575778 -0.6239872 0.75779665 0.6212125 -0.09644462 -0.044845838 0.47796363 -0.45418614 0.50946885 0.53574294 -0.27425066 0.31123248 -0.158814 0.0018395607 -0.36475536 0.38133648 0.10451728 -0.4340405 -0.2845491 0.24460185 0.012659446 -0.03381466 0.22137186 0.52325904 0.3529408 0.11653856 0.07312772 -0.31187236 0.2721768 -0.45457417 0.22297588 0.25260803 0.56899905 0.4697804 0.74158424 0.090311505 0.34422255 -0.013575359 -0.542134 -0.1565987 -0.26712188 0.0012276566 -0.3923485 0.2439652 0.59379154 -0.42116448 0.42143315 0.14361916 -0.5609226 0.32716796 -0.20419863 -0.40980816 -0.037727486 -0.034919772 -0.24592735 -0.5988122 -0.08567151 0.18485104 -0.59733844 -0.02135126 0.715368 0.084787235 -0.19464423 0.25930712 0.44379336 -0.008834188 -0.0139037445 0.25845438 -0.9025091 0.49051735 0.29080445 0.170932 -0.33620846 0.08901927 0.30994856 -0.14828888 0.019790007 0.095067866 0.021635402 0.29702392 0.19519174 -0.45424804 0.95767015 0.24723823 0.119078 0.36732274 -0.10530786 -0.76236475 0.1351388 -0.25892556 0.0615219 -0.22117122 -0.7561364 0.26973462
1023 0.34793633 -0.11556517 -0.07233678 -0.093897745 0.02404484 0.38851783 -0.046899676 -0.7322798 0.42325982 0.37765738 -0.59276295 -0.0637565 0.32613787 -0.22020653 -0.38109645 -0.26605052 0.19261478 0.5684922 -0.030201802 -0.029101845 0.110418715 0.4391346 -0.16877548 0.32898134 0.39077607 0.2735955 0.2234536 0.12263873 0.048820913 -0.24129467 0.21802269 -0.30635035 -0.013315022 -0.2979668 0.28879932 -0.40930933 -0.03189357 0.17470106 0.05303896 0.42166007 0.5973603 -0.04582899 0.51152945 0.48271275 -0.38335022 -0.40169412 -0.57566386 -0.3269429 -0.5366713 -0.62089074 0.41733807 0.0035696262 0.35062268 -0.32610756 -0.77732015 0.1861525 -0.006605911 -0.060506735 -0.02685065 0.15810609 0.1267962 -0.67369264 -0.25581047 -0.057439364 -0.22965987 -0.050841466 0.29230735 0.59229714 0.07306711 0.088512 -0.20023616 -0.04853127 0.52155656 -0.22457813 -0.37813658 -0.24239877 0.4221896 0.48276114 -0.6938678 -0.16319469 0.09944537 0.06415216 -0.19494216 0.12293794 0.36039352 -0.10081446 0.343839 0.14925858 0.2611244 0.15572777 0.1473014 0.13728888 -0.0980134 0.1812289 0.06596987 -0.27938843 0.22536427 -0.121440455 -0.4645197 0.002071831
1610 -0.44384852 -0.27727774 -0.20353986 0.07278724 0.0031054537 0.024028776 0.115755185 -0.4587709 -0.47371793 0.21270658 -0.21685524 -0.3119919 -0.025120942 -0.15011631 -0.10337592 -0.24981906 0.08313256 0.20705323 -0.070789926 -0.7600761 0.023620375 0.4845118 -0.29286698 -0.13120179 0.03580262 -0.23815474 0.20991838 -0.18861125 -0.053348664 -0.030862557 -0.13639754 -0.44846785 0.37191495 -0.5405146 0.39110243 -0.5490041 0.13038695 0.25383085 0.12611791 0.20179133 0.4188798 -0.08926579 0.02597426 0.5164267 -0.27570564 -0.78279245 -0.12605056 -0.0003430982 -0.5719154 -0.19202808 0.1851256 -0.0067182467 0.33780983 0.38665473 -0.3427831 -0.06605872 0.1722031 -0.17145352 -0.30323538 0.13884795 0.09165052 -0.2573485 -0.07605723 -0.068100125 -0.6922774 -0.27321023 0.5616998 0.75133103 -0.22620448 -0.22607099 0.036270987 0.28568617 0.24307114 0.12727916 -0.1741969 -0.15673368 0.2989221 0.65126264 -0.33880502 -0.25044245 0.16866198 0.03293724 -0.039695866 -0.05182857 0.3640767 0.44345716 0.13555229 -0.10781209 0.49525568 -0.21392453 0.25294155 0.1151723 0.2059647 -0.21796387 -0.298168 0.1460543 0.21751997 0.11409304 -0.65259296 -0.4034366
825 0.006773739 0.4416826 0.5020273 0.036157094 0.53195363 -0.21812308 -0.32331434 0.22123738 -0.042868447 -0.058429252 -0.18388945 0.19214481 -0.2278516 0.31151044 0.17253146 -0.14656152 0.03483385 -0.5933707 0.1742955 0.4699999 0.00043527136 -0.2546865 0.021270888 0.1674044 -0.07943371 0.045578633 -0.3655357 -0.02972703 -0.32027224 0.040070683 -0.026567942 -0.11544436 0.07214659 0.11629591 -0.07269924 0.6099414 -0.2631609 0.041840732 -0.06681155 -0.123993605 -0.5140595 0.31358275 -0.39439687 -0.53499657 0.26284552 0.35912627 -0.20811848 -0.3155944 0.26758915 0.118290566 0.02473255 -0.04094795 -0.20869392 -0.1620667 0.45770568 0.18384022 -0.06022156 0.015956325 0.19674967 -0.08343981 -0.027044479 0.31756464 -0.35620028 -0.03303672 0.30074248 -0.09793739 -0.24172102 -0.36594617 -0.19016522 -0.40001863 0.16049881 -0.051694486 -0.13533278 0.044081703 0.20826507 0.24998032 -0.23570654 -0.3737228 0.45029888 0.020454612 -0.03821706 0.08089536 0.29861107 0.11198202 -0.0035140724 -0.27143288 -0.13557558 -0.0058212695 -0.5234131 0.15665108 0.036439274 0.060309596 0.014065031 0.116110615 0.052809875 -0.09186839 -0.024674634 0.23520549 0.31781405 -0.008445745
1745 0.12240177 0.25644585 0.5014807 0.13126254 0.12473722 -0.25754628 -0.077672146 0.07528535 -0.7231026 -0.48437732 0.11225851 0.18681806 -0.21047011 0.3377603 0.096134305 -0.6249863 0.20492402 -0.56769514 0.0700105 0.4277779 -0.06441205 -0.4421742 -0.10241917 0.32365695 0.030276647 -0.0058542863 0.13176486 -0.25027314 -0.17694455 -0.22073047 -0.34346575 0.012824716 -0.031720378 0.042985015 0.006870553 0.09898203 -0.54071265 0.14509603 0.2939993 -0.45479637 -0.45177665 0.35873574 -0.2262172 -0.3492967 0.2452111 0.38072926 0.025499882 -0.066982195 -0.26289663 0.29307526 -0.08701714 0.003888342 -0.5712405 0.079130895 0.30363223 -0.10800949 -0.21199943 0.088127695 -0.015614629 -0.16383456 -0.18212736 0.20493184 -0.21095535 -0.029883336 0.06700549 0.23725545 -0.46294117 -0.15827076 0.12305651 -0.013764845 -0.17107837 -0.18563397 -0.5530854 -0.042105217 0.17333527 0.17521693 -0.26381359 -0.3950632 0.43034866 0.23372047 -0.21598268 0.057306793 0.4176463 -0.0462122 0.20301098 -0.18060951 -0.46058255 0.04561287 -0.48791635 0.168011 -0.17769904 0.13261385 0.016791929 0.24734257 0.25402635 0.3255203 0.055278856 0.118973814 0.6138535 0.05644216
940 0.3289157 -0.46291846 -0.2137849 -0.0026797976 -0.46576858 -0.010732697 0.054004513 -0.29384753 0.16596517 0.3966105 -0.26611868 -0.23781861 0.16964273 -0.13013536 0.034397326 -0.045063645 -0.26666033 0.49827206 -0.58363587 -0.41224685 -0.13416612 0.18595205 -0.25726217 -0.075848505 -0.18616273 0.23122847 0.47266755 0.13710241 0.15229943 -0.11849608 0.4912168 0.19842936 0.016918035 -0.4642077 0.36486956 -0.33425906 0.41876116 -0.042441133 0.14899068 0.46278948 0.5567083 -0.29513392 0.27040723 -0.013745202 -0.4653009 -0.5719117 0.221693 -0.03382948 -0.5013187 -0.38378182 0.26670024 -0.23736657 0.1996828 0.027483134 -0.6386821 0.21425857 -0.020087982 0.25331512 -0.34349576 -0.083040826 -0.092160314 -0.2710318 0.015606565 0.008643219 -0.2090891 -0.10578399 0.46146518 0.46689236 -0.15970206 0.14557935 0.1571693 0.21349442 0.45766774 -0.10283614 -0.3752547 -0.03677572 0.04372702 0.2280191 -0.10707734 0.028636364 0.34635243 -0.2286649 -0.004055663 0.11908007 0.29404068 0.40466285 0.5114745 -0.2799092 0.14353143 0.27372673 0.7401013 -0.012133969 -0.15504757 -0.36637303 -0.3633937 -0.07282813 0.04915679 -0.17301878 -0.6396449 -0.22075321
1544 0.10801591 0.29905233 0.30163732 -0.07316808 0.09261066 -0.32024986 -0.15498371 -0.085779905 -0.32150877 -0.14817493 -0.03293174 0.16165674 -0.30602157 0.18909064 0.093792655 -0.19056544 0.39301002 -0.6315409 -0.07963027 0.27485088 0.0030608072 -0.63125056 0.02436295 0.008307658 -0.08931243 -0.0026127899 -0.015720328 -0.30549398 -0.28194287 0.08782942 -0.2702066 0.030506963 0.070919394 0.1323899 -0.07691994 0.24017502 -0.52722216 -0.43069595 -0.14173146 -0.61066586 -0.28211245 0.21099214 -0.2464459 -0.52200395 -0.0252939 0.41293007 -0.11047333 -0.22583815 0.24429056 0.23299794 -0.08392348 0.25653195 -0.114730604 -0.41637465 0.51778185 -0.14379661 -0.3327388 0.2006472 0.20149268 -0.40238208 -0.15106724 -0.036311552 0.1436201 0.119416766 0.29985264 -0.032527287 -0.39821532 -0.32625845 -0.044203654 -0.18730593 -0.36598048 0.22145964 -0.51964474 0.13896354 0.159018 -0.1279483 -0.3057698 -0.3956142 0.7442233 0.15786332 -0.26410294 0.24505872 0.26703197 -0.3929042 0.038735755 0.00564581 0.08154837 0.065268375 -0.097423375 -0.16322574 -0.34306026 0.030326888 0.29204378 -0.2286783 0.025357367 0.16539507 0.23095483 0.08400668 0.68464875 -0.22857699
1446 0.0011729028 0.14474387 0.6683707 -0.01891407 0.21977815 -0.03584545 -0.14059335 0.14611821 -0.016622761 -0.62450874 -0.049520038 -0.02064633 -0.4199045 0.46290657 -0.13000804 -0.30580175 0.31641603 -0.10992481 0.020564698 0.42407748 -0.010284142 -0.38928387 0.004933029 0.12416938 0.041131333 0.041311633 0.0138927335 -0.081554845 -0.24702297 -0.25531456 -0.19526996 -0.22702347 0.09143015 0.15291315 -0.208957 0.44345054 -0.3643078 -0.19916655 -0.24803357 -0.52679867 -0.24980979 0.27258262 -0.22607109 -0.6526342 0.2488154 0.22502615 -0.24131691 0.0050419876 0.60556376 0.12939812 -0.21079901 0.16868429 -0.09021751 -0.06610827 0.16956407 -0.1575305 -0.69124824 -0.105358124 0.3538025 -0.050830964 0.09157115 0.2147455 0.07846141 -0.07526023 0.1722307 0.48741052 -0.38957936 -0.27845886 -0.096938156 -0.14598562 0.22485797 -0.1821559 -0.14419764 -0.062120393 0.286111 0.2490224 -0.15768449 -0.38021484 0.2027045 0.22554977 0.036503576 0.08852058 0.24991971 0.049772225 -0.009937526 -0.1882813 0.048493594 0.089200094 -0.60579914 0.09705538 -0.4965004 0.019769832 0.044863388 0.0009953522 0.22513887 0.060084086 -0.08011544 0.20368704 0.5153744 0.22742862
1390 0.38896444 0.25740263 0.49092078 0.083754145 0.2911491 -0.2894645 -0.30092505 -0.064880975 -0.20045866 -0.09099731 -0.2682018 0.34426674 -0.19461215 0.3231929 0.060292438 -0.2261805 0.1427802 -0.27807048 -0.017978542 0.05848928 0.050135557 -0.62784135 0.11299051 0.30055124 0.122532666 0.11264955 0.17833059 -0.19287492 -0.23538396 -0.0940026 -0.65143013 -0.4310489 -0.21424173 0.2791833 -0.13494003 0.40473264 -0.75679106 0.23165292 -0.40493098 -0.3696395 -0.24461658 0.29931065 -0.23451446 -0.34142846 0.011164294 0.20050514 0.13872118 -0.35218763 0.26547277 0.18930341 -0.1632471 0.24565746 0.020804843 -0.1314579 0.9334355 -0.22589664 -0.02949574 0.075832486 0.37606 -0.10179025 -0.38737315 0.38647386 0.1238484 0.1547556 0.4299162 0.20515792 -0.099279225 -0.01610117 0.010755725 0.23872639 0.12713298 -0.13495082 -0.27305835 0.007856973 0.18980393 0.45790786 -0.49182132 -0.08309667 0.23863763 0.18687525 -0.24957897 0.23655765 0.49775186 -0.011365861 -0.26123855 -0.073059894 -0.44805998 0.17081171 -0.4884171 -0.13570045 0.085866325 0.07599063 -0.23658043 0.0061736163 0.0011068301 -0.09420336 -0.18452011 0.14278556 0.3958241 0.19959562
494 -0.014139255 0.21849382 0.47131315 -0.14614818 0.08573247 -0.2975031 -0.3353143 0.22773983 -0.06479089 -0.21414682 0.010041094 0.22697572 -0.3544323 0.26294342 -0.055252016 0.031141214 -0.060882326 -0.15179105 -0.030414134 0.19253345 -0.25577965 -0.48739243 0.3099814 -0.1530662 -0.07645787 0.33745605 -0.116842695 0.13564461 -0.11051311 -0.027929673 -0.13572365 -0.022246087 0.11780562 0.1244212 -0.23056692 0.24498463 -0.65696645 -0.26418906 -0.32590672 -0.35826743 -0.67313313 0.25108206 -0.10731739 -0.6362829 0.3447559 0.10808259 0.24640411 -0.002468852 0.46408117 0.21442828 0.07488162 0.22290516 -0.3947228 -0.19663692 -0.108040564 -0.05792687 -0.31335095 0.36308444 0.24851435 -0.1592899 -0.4118498 0.37283695 -0.19650602 0.18431365 0.607375 -0.100600325 0.083035834 -0.7066543 -0.09845088 -0.39028135 0.010259353 0.04371021 0.10961703 -0.018809631 0.04227788 -0.04081949 -0.19672906 -0.28300706 0.44209042 0.3221395 -0.2219265 0.072197124 0.23089534 0.038753062 0.09186476 -0.16980277 -0.36559469 -0.13209662 -0.49232113 0.09461247 -0.18581004 0.1280815 -0.47702986 0.22691852 0.034060605 -0.12645732 -0.025932925 -0.022276001 0.54604244 -0.06028836
1195 0.24816816 0.4089409 0.36583316 -0.14080478 0.20475088 -0.18397813 -0.26831475 0.11778435 -0.0011166582 -0.11015123 0.08521419 0.08328073 -0.25886244 0.2623541 -0.047131788 0.12945908 0.18728714 -0.56282747 -0.091769196 0.34873474 -0.101186536 -0.31850263 0.17532514 0.21929918 0.07643362 0.16130836 0.16793866 -0.068537876 -0.49041155 -0.19249493 -0.37686238 -0.08493118 -0.062266078 0.43076923 -0.26487347 0.31788355 -0.27199316 -0.05040202 -0.3677275 -0.57611066 -0.1671866 0.28765655 -0.30004644 -0.4269702 0.118233286 0.5252091 -0.18597674 0.20829238 0.08043901 0.33770064 -0.07607548 0.10462807 0.0021995043 -0.06881984 0.4849123 0.19656157 -0.07654827 -0.014806767 0.18479255 0.05884111 -0.2186102 0.19194008 0.04625769 0.080909275 0.38847494 0.1656385 -0.23595484 -0.43574822 -0.17184927 -0.22289056 -0.11660272 -0.058034934 0.012796411 -0.058664963 0.33391136 0.42052168 -0.43481895 -0.08164285 0.22901478 0.33963704 -0.449249 0.22273111 -0.069428355 0.027326128 -0.110000856 -0.10625434 -0.032546386 0.026910497 -0.4280118 0.11904259 -0.11545617 0.21794412 -0.041212417 -0.088934824 0.07354728 -0.014818559 0.005709154 0.19774675 0.5860262 0.23564659
1154 -0.015121404 0.30326575 0.5618903 -0.056879513 0.50285035 -0.20674033 -0.3615715 0.38896266 -0.20033649 -0.2214835 0.026735947 -0.059383847 -0.47579724 0.36782315 -0.19891942 -0.04264554 0.08922863 -0.2898409 0.13472828 0.22907038 -0.014205316 -0.57841086 0.13089919 0.1311086 0.035155647 -0.11991694 -0.008800732 -0.03908077 -0.34680337 -0.076773316 0.0591026 -0.032092538 0.002466568 0.35946319 -0.46591 0.57770413 -0.47520494 -0.021608006 -0.16325533 -0.2274344 -0.041225817 0.097265944 -0.38422927 -0.2636147 0.19235484 0.20751765 0.032150194 -0.38444173 0.16930902 0.15602091 -0.25382957 0.27543914 -0.14955403 -0.051662654 0.34744185 -0.07789411 -0.13037968 0.022647735 0.14141414 -0.12943123 -0.12759703 0.2511103 -0.06360588 -0.06348054 0.43384868 0.13634542 -0.13569582 -0.118113756 -0.27593505 -0.38616323 0.17702018 -0.0678649 -0.15940185 0.023895172 0.06514456 0.08406271 -0.54337674 -0.18269217 0.39875603 0.20459515 -0.02476588 0.043215662 0.47870252 -0.25488946 0.017260697 0.047483966 -0.046425194 0.09029661 -0.6014915 -0.04185708 0.0072348374 -0.16155398 -0.08793943 0.293324 0.2875819 0.35190362 0.056611393 -0.1357155 0.48699725 0.14287284
638 -0.18326867 -0.6633341 -0.52535945 -0.19295385 0.11953828 0.23695141 0.51244235 -0.046578597 0.6492403 0.4920701 -0.33285382 -0.2742507 0.2391629 -0.18825662 -0.36195406 0.40905112 -0.110892236 0.12322379 -0.09560213 -0.22432044 -0.038652 0.37362847 -0.037053753 -0.23522872 -0.11914653 0.24970934 0.19533797 0.38239956 0.044291075 0.24215676 0.55614793 0.021849727 -0.20535219 0.059538253 0.47590142 -0.2160571 0.3651218 0.5881205 0.20837367 0.4363288 0.8948385 0.04784776 0.117939845 -0.07855094 -0.4448626 -0.4513387 -0.23758484 -0.079877526 -0.20591807 -0.3320108 0.30345327 0.022467328 0.37254128 0.17767796 -0.6771104 0.2730659 0.21495242 0.21131372 -0.19556986 -0.2959009 -0.17734255 -0.22187331 -0.032667235 0.0118601285 -0.5071753 0.03859927 0.41985723 0.07371688 -0.21283332 0.055429038 0.20179243 0.17594445 0.23058337 -0.016044425 -0.30049154 -0.41154927 0.17460835 0.2128373 -0.4110545 -0.1383982 0.060509633 0.31478953 -0.33575943 -0.3960703 0.5881887 0.054921914 0.21977355 -0.26181749 0.73284876 -0.03711492 0.34660435 0.38626194 0.2147633 -0.6139183 0.093602434 0.22225732 0.18733518 -0.22880544 -0.70340604 0.39768884
604 0.07976437 -0.22373752 -0.07302586 -0.06842184 -0.11755117 0.32353362 0.35290292 -0.02003854 0.31831366 0.22903544 0.0040550763 -0.43401763 0.10457902 -0.18328725 -0.06131154 0.05153599 -0.09073094 0.37170425 -0.017393975 -0.38106576 0.2668782 0.4389302 0.16226065 -0.21805568 0.013509846 0.26975486 -0.056949098 -0.027110917 -0.19736388 0.28230125 0.56978476 -0.18589538 0.14508016 -0.51938915 0.005471522 -0.47249126 0.5059953 0.25990584 0.44556314 0.6288008 0.09211513 0.29031348 0.10918123 0.39905095 -0.3660798 -0.19833645 0.037707534 -0.054459788 -0.6230723 0.00274212 0.42697448 -0.24894993 0.14355853 0.035319194 -0.511628 0.24026029 0.100337155 0.011411938 0.008563928 -0.1624433 0.2110231 -0.43173477 0.016674848 -0.26664856 -0.56174445 -0.2991573 0.16959922 0.298733 -0.09519986 0.016573602 0.18312362 0.09797559 0.6067135 0.30500832 -0.01518709 -0.17920035 0.23461716 0.29876062 -0.31292522 0.10164732 0.16358061 -0.04379776 -0.12489886 -0.18687755 0.008211469 0.2981786 0.3746681 -0.059483282 0.54010177 0.049263183 0.21739072 0.034006484 0.014462048 -0.098772995 0.029157158 0.05239865 0.01378321 -0.09524913 -0.5707115 -0.11124801
1440 -0.329246 0.27854845 0.28860855 -0.024929916 -0.016474098 0.072926454 -0.6822722 0.09792286 -0.16570424 0.0073486227 -0.10162503 0.27111647 -0.30338433 0.073619016 0.04500195 0.14633653 0.34896398 -0.32913005 0.24198638 0.15445842 -0.30318 -0.72093177 0.07353693 -0.066721596 -0.052801576 0.10462765 -0.005134156 -0.37860605 -0.24030232 -0.3693228 -0.788036 -0.24987026 -0.37716424 0.49019447 -0.24399462 0.10841923 -0.25060794 -0.36231953 -0.042296346 -0.16115858 -0.08556129 0.2983458 -0.56747556 -0.11081238 0.34153208 0.08338981 -0.16891974 -0.20137978 0.18917465 -0.34888783 -0.24742824 0.07432215 -0.08876466 0.09444193 0.5772935 0.07910879 -0.11241047 0.09580645 0.04028712 -0.31507462 0.013707768 0.29287913 -0.0077973655 -0.0044318005 0.52651787 -0.20364463 -0.26433182 -0.39412642 0.03571193 -0.54869807 0.28142658 -0.40459365 -0.34736028 -0.19496556 0.4693542 0.42160103 -0.60734975 0.12168002 0.42903766 0.05908726 -0.3716129 -0.11327351 0.5465207 -0.33266273 0.08204902 -0.39401615 0.147169 0.27517393 -0.53593886 -0.04774761 -0.16408263 0.0052026273 0.004222384 0.2618189 0.263173 0.35299158 -0.10213664 0.118664876 0.58241975 0.030111313
1556 -0.029070908 0.23461296 0.12978977 -0.08578989 0.26106623 -0.5435279 -0.6008937 0.051527046 -0.41177526 -0.35951108 0.12486416 0.10157459 -0.3532454 0.44804105 0.030726653 -0.33621147 0.20092171 -0.3000208 -0.07935718 0.1469398 -0.011293844 -0.33051938 -0.12235512 0.19285415 -0.0044668224 -0.03090619 -0.34694445 -0.18154182 -0.1480547 -0.09895708 -0.4308668 -0.10507402 -0.3956391 0.36721465 -0.1555956 0.14378317 -0.32745427 -0.11495747 -0.08944832 -0.28177068 -0.66178715 0.40479997 -0.24015702 -0.21622565 0.2584059 0.14884396 -0.07191571 -0.10083921 0.38030902 -0.033425998 0.00022270154 0.05753856 -0.29588652 -0.087743305 0.4352336 -0.44744074 0.027513754 0.090422586 -0.13850318 -0.47967845 0.21835388 0.4115034 0.16628769 -0.13280642 0.054137148 0.045769863 -0.5371186 -0.31759566 -0.07422081 -0.38481045 0.10304565 0.057950128 -0.17943162 -0.010897612 0.25027734 0.22983871 -0.4399957 -0.05244756 0.54880047 0.16797295 -0.2788768 0.1304947 0.10570561 0.45667633 0.115337156 -0.16106375 -0.017598126 0.122615874 -0.87528044 0.0168125 -0.15871418 -0.13958335 -0.037316453 -0.14651893 -0.096988685 0.029392747 0.28966507 0.18784274 0.54623276 0.3973249
1831 0.020527903 0.21909776 0.2862148 0.05664485 0.026008287 -0.1756609 -0.26810876 0.18555601 -0.25352788 -0.32480577 0.037235547 0.31973472 -0.28429532 0.2687822 0.088928826 -0.20338525 0.24527669 -0.3519003 -0.037240837 0.28230402 -0.058534056 -0.550293 0.049711097 0.00044339377 -0.0676776 -0.17149374 -0.28060785 0.07554632 -0.15722896 0.10287804 -0.7023659 -0.096318744 -0.13485983 0.37707296 -0.45060417 0.0031122086 -0.28842542 -0.103466414 0.03318196 -0.63546085 -0.107783884 0.31698415 -0.088519245 -0.4056597 0.163346 0.21477859 0.1287961 -0.12420645 0.09805843 0.020509034 -0.08521818 -0.033394434 -0.34086543 0.03641555 0.35621518 -0.27338257 -0.177503 0.28070235 -0.049149074 -0.090211056 -0.24583831 0.45130116 -0.0025156261 -0.01840206 0.37742853 0.28252938 -0.3913892 -0.32539365 0.13656552 -0.080189586 -0.018267877 0.013311541 -0.35306668 -0.104382716 0.31323728 0.07124307 -0.30112353 -0.14955738 0.3284694 -0.15903327 -0.22220401 -0.23432899 0.5541573 -0.29786465 -0.025322556 -0.027367663 0.10833983 0.2919245 -0.3274806 0.083694726 -0.114095196 -0.114859104 0.20782213 0.20741694 -0.10262519 0.106181845 0.008461319 0.13521555 0.6565631 -0.11868966
1272 -0.08301693 -0.37892917 -0.20800963 -0.22208846 -0.25389877 0.18767986 0.26945478 -0.24833068 0.13199085 0.27654937 -0.21285515 -0.04028207 0.11773333 -0.03488757 -0.4166324 0.3141368 0.19209653 0.652536 -0.029305788 -0.6065507 -0.012347982 0.28674564 -0.23462649 0.57991797 0.56426316 -0.038843546 0.34798923 -0.09409247 0.19157557 -0.10588327 0.1299757 -0.14482588 -0.23529074 -0.7409386 0.13191192 -0.45778546 0.21861207 0.35026073 0.24997088 0.40873 0.6694337 -0.20663002 0.21069627 0.19143642 -0.44477692 -0.8096951 0.13925758 0.15424988 -0.38798767 -0.2832361 0.13805628 -0.07023052 0.39250246 0.09270494 -0.3807158 0.019728893 0.076904 -0.20004836 -0.44636822 -0.25434732 0.17591761 -0.010294148 0.008641344 0.04674837 -0.49587536 -0.34186125 0.39844292 0.42808384 0.115486145 0.20189248 0.027197897 0.003043678 0.43118316 0.39910078 -0.33169022 -0.41207322 0.34748942 0.20882197 -0.1432354 -0.23185416 0.17348838 0.08216748 -0.16464323 0.35556114 0.3577372 0.003881575 0.2937938 0.01647603 0.17003778 0.15989563 0.45803738 0.016129082 -0.10420015 -0.24936114 -0.22354959 0.046532467 0.23403743 0.09341467 -0.20308332 -0.13394164
1794 -0.016071433 0.56390256 0.22255692 -0.191668 0.5191089 -0.13353966 -0.2747196 0.18242499 -0.30652526 -0.30218983 0.32043362 0.53490883 -0.306464 0.52465206 0.021986112 0.015425829 0.18494523 -0.09867281 0.3629477 -0.13449399 -0.005372461 -0.76789975 -0.23278627 0.4798523 0.29978493 0.03901221 -0.038420014 0.08808975 -0.20035124 -0.029981252 -0.38845995 0.019977562 0.06555944 0.26533493 -0.22450164 -0.16431712 -0.3337744 -0.62603056 0.054338347 -0.44698068 -0.29850712 0.2982727 -0.3101471 -0.13849719 0.1453819 0.27977532 0.019001586 0.10223513 0.2829394 0.23473835 -0.45899966 0.034307096 -0.55302954 -0.2816963 0.36286038 -0.20545316 -0.29355657 0.34113002 0.40167502 -0.14941445 -0.29173517 0.108482525 0.11839561 0.28721377 0.30933514 0.4828615 -0.37805876 -0.36360627 -0.28862765 -0.083716385 0.09056396 -0.08877719 -0.30069605 0.005298832 0.8378082 0.1842966 -0.5228382 0.023262994 0.41803235 0.32801273 -0.011115658 0.1497484 0.7496315 -0.21260002 0.2559529 -0.04931174 0.056714673 0.18475261 -0.22780535 0.23432806 -0.106326625 0.116060756 0.0038038783 0.25346646 0.095074646 -0.02752059 -0.25507286 0.051209383 0.5527309 0.31446445
406 0.3389049 -0.6119434 -0.3896261 -0.30072007 0.043258 0.0988043 0.46806487 -0.18262114 0.5543242 0.4805088 -0.41232547 0.1341747 0.29031378 0.00047631143 -0.10348795 0.26346344 0.18516122 0.4075128 -0.3203779 0.012567881 0.27659246 0.62875813 -0.29737553 -0.08324955 0.11552664 0.15595518 -0.20910323 0.21389717 0.14940895 0.22890589 0.9971382 0.18474606 0.32021245 -0.23441428 0.24199913 0.049779452 0.5817932 -0.23112953 0.46060014 0.5519646 0.68154305 0.010495792 0.13799445 0.26961714 0.14495991 -0.14640802 -0.1678185 0.1444473 -0.9168818 0.03791469 0.07241379 -0.3452818 0.7831346 0.15610673 -0.7381803 0.39509597 0.15437372 0.122630626 -0.38805223 -0.036897786 -0.45520124 -0.15862884 -0.008068021 0.33506525 -0.32204524 -0.16615683 -0.09480872 0.30253533 0.0056460616 0.066318534 -0.08362681 0.2883412 0.5888349 0.082820736 -0.2924152 -0.08803054 0.5447261 0.47913396 -0.25358126 -0.118987024 0.6225416 -0.2814132 -0.1892809 -0.08883729 -0.16208558 0.20030954 0.03541588 -0.011850126 0.45329744 0.37455785 -0.1937453 -0.0070172166 0.5159522 -0.17726454 -0.12405543 0.1731886 0.42548323 -0.13587826 -0.7512038 0.21435532
815 0.13464856 0.3377382 0.58581686 0.35035825 0.5199636 -0.4052815 -0.34974313 0.27542356 -0.1315355 -0.014225694 -0.019882506 0.030669697 -0.3872483 0.04738008 -0.18876928 0.12215133 0.05639369 -0.19306208 0.055196326 0.21673381 0.21112894 -0.79514325 0.1134191 0.12231891 -0.073782645 0.07331357 -0.13915613 0.033138074 -0.20352767 -0.13416502 -0.20631187 0.09288355 0.017165707 0.33210057 -0.34017408 0.1070145 -0.085160084 -0.29250598 0.16919792 -0.26634574 -0.3221813 0.42160568 -0.21260196 -0.41938573 0.4765365 0.014526231 0.0022954014 -0.28247917 0.3025312 0.25851876 -0.19078846 0.22583927 -0.421763 -0.13780938 0.4439673 -0.0101830615 -0.1465474 -0.3364325 0.15388179 -0.180891 -0.06123145 0.24753723 -0.08866318 0.22692065 0.4243734 0.3993102 -0.34193763 -0.40556225 -0.28712782 -0.2665106 -0.25708356 0.21831393 -0.1188968 0.060178217 0.07012598 0.035029583 -0.1702072 -0.29626223 0.18208846 0.3369662 -0.45575655 0.081601 0.4190459 -0.2143113 -0.09478138 -0.20198464 -0.30033848 0.29761523 -0.34096986 -0.18356667 -0.04615286 0.16268173 -0.2921437 0.24998173 -0.11862485 -0.20658092 0.032334186 0.257569 0.45684165 0.1713182
1369 -0.22533605 -0.14516267 0.05074383 0.14695469 -0.08804731 0.30091837 -0.066088274 -0.45176926 0.016494345 0.10684255 -0.17411344 -0.32294324 0.15147299 -0.11105752 -0.2985854 0.28148827 0.10163848 0.53286135 -0.4225478 -0.45769557 -0.21961148 0.5276379 0.11184365 0.28268614 -0.031706806 -0.2808836 0.10369907 -0.025432194 -0.15110536 -0.09128537 0.5090874 -0.32622167 0.07314734 -0.16873552 0.11241435 -0.28524512 0.2767732 0.14228602 0.326843 0.34387064 0.8547962 -0.22828203 0.34352764 0.106213346 -0.1402696 -0.26935887 0.049403366 -0.13451497 -0.22575282 -0.40519145 0.15907554 -0.28971317 0.39879966 0.5991793 -0.48231715 -0.2827219 -0.09522022 0.34718525 -0.28691813 0.014696139 0.0938944 -0.6727646 -0.2213106 -0.26634586 -0.60392314 0.11207801 0.28092816 0.73444545 0.38294125 0.28392318 0.12141388 -0.024455626 0.2783133 0.15042046 -0.4032866 -0.5000388 0.15338558 0.18847819 -0.41422743 -0.11557904 0.16591056 0.08047576 -0.20336272 -0.117760025 0.6763378 0.4263252 -0.0062314663 -0.051055796 0.37117115 -0.14217626 0.5821272 0.13850118 0.32922584 -0.16210388 -0.2635334 0.15820637 0.17389826 -0.17780769 -0.28697056 -0.13088822
834 0.08669888 -0.22520843 -0.124804094 0.23826835 -0.091848135 0.029277114 0.057373293 -0.3334012 0.24158898 0.40723422 -0.19626868 -0.015400204 0.12902905 -0.535245 -0.1308447 0.16468167 0.09550258 0.42306265 -0.026425412 -0.45103824 0.038874216 0.5331832 0.029598324 -0.0064083436 -0.108805545 0.098746404 0.09194201 0.48272485 0.12922116 -0.086958826 0.248848 -0.17043364 0.10785348 -0.5528877 0.20123345 -0.4892881 0.17259245 0.21212459 0.037677128 0.77510685 0.24825634 0.20641361 0.07996881 0.333973 -0.28333423 -0.4114756 0.024037777 0.4298479 -0.6961925 -0.0685809 0.4713105 0.035255127 0.5999845 0.24565776 -0.41777915 0.26577488 -0.17651413 -0.07844181 -0.27338225 0.07472806 0.2767235 -0.4978647 0.1901124 -0.22071993 -0.57007307 0.12529127 0.027661055 0.098407105 -0.00807431 -0.018416554 0.09743725 0.021531664 0.09030507 0.55433244 -0.15953198 -0.23577125 0.6149786 0.14195582 -0.39200673 -0.22921985 0.026888886 0.1039939 -0.38774616 -0.0071137147 0.03781899 0.107966855 0.10117295 -0.3147942 0.09323275 0.1392689 0.39053747 0.3963361 0.40739667 -0.04450599 -0.23207982 0.071511604 0.20771532 -0.02752334 -0.3941038 -0.08271222
1990 0.27088615 0.40366393 0.6108647 -0.22347139 0.334055 -0.42903432 -0.3063975 0.05651571 -0.1630015 -0.25354636 0.024749098 0.23174527 0.08519542 0.031847812 -0.08384021 -0.23182501 0.4826545 -0.9973612 0.4990549 0.19337365 0.13718265 -0.30120596 -0.3843326 -0.018106366 -0.0396312 -0.35384783 0.046180535 0.048506152 -0.1646074 -0.5303285 -0.47786772 -0.11899807 -0.073710226 0.12901251 -0.0614399 0.05706834 -0.6566865 -0.3038556 -0.6882772 -0.7937664 -0.3694672 -0.18955524 -0.0849945 -0.3167359 0.10671453 0.1381843 0.008258014 -0.43286988 0.7501343 0.06612999 -0.35061604 0.35878518 0.17298868 -0.1363735 0.74159706 -0.16925792 -0.6163082 0.6256218 -0.021374103 0.103521094 -0.013417746 0.6917116 -0.0074447924 -0.09020129 -0.007770944 0.07344757 -1.0495123 -0.40678972 -0.20380342 -0.3487881 0.16541636 0.09253565 -0.44687584 0.09242061 -0.17838939 -0.21138881 -0.21797688 0.17807177 0.53242683 0.5242332 -0.5493052 0.0811827 0.3633674 -0.19929683 0.2066567 -0.22100304 -0.05456336 0.14746526 -0.6831741 0.25079122 -0.04474481 0.2663614 0.04395527 0.1208933 -0.28124702 -0.03915815 -0.028547851 0.081254475 0.2877697 -0.20148343
789 -0.13587473 0.4266049 0.361393 0.26826757 0.5967425 -0.22615345 -0.41194072 0.3429276 0.32096115 -0.01922273 -0.179673 0.036741372 -0.49742228 -0.09123472 0.06477966 0.1613811 0.12875384 -0.4641108 0.30084717 0.4073877 0.24019264 -0.39378905 0.3437555 0.045809206 0.38821876 0.064139664 -0.4406118 -0.009483101 -0.33321437 -0.20268124 -0.21349661 -0.039787363 -0.3396747 0.3052425 -0.53020483 0.10718544 -0.17902146 -0.22982362 -0.064011455 -0.27685943 -0.37041318 0.039707966 -0.29121 -0.23650551 0.21707551 -0.033929158 -0.15054005 -0.36644515 0.5148058 0.07775691 -0.013962945 0.10859378 -0.2946555 -0.1273122 0.5144028 -0.24670078 -0.043425493 0.068614215 -0.1518048 -0.22228454 -0.32894862 0.31585935 -0.5113987 -0.01375792 0.16408584 -0.34026697 -0.071009755 -0.47640067 -0.4693175 0.058859643 0.36446068 -0.22853155 -0.33170223 0.033547703 0.6132003 0.09597657 -0.48121747 -0.36888805 0.3248435 -0.05266478 -0.3879824 0.34631726 0.31426623 -0.028941844 -0.06049304 -0.08306662 -0.556917 0.3403631 -0.5065228 0.22863428 -0.2254058 0.04662965 0.027474483 0.2604656 0.087799765 -0.2504981 -0.12578818 -0.10823125 0.49647745 0.50734663
873 0.13888253 -0.19891337 -0.38432106 -0.22571878 -0.031146267 0.11879279 0.41807273 -0.4647348 0.19951107 0.22050324 -0.2447765 -0.45883906 0.0311001 -0.16239893 -0.1229339 0.22628587 0.077686176 0.4988027 -0.23052508 -0.23033899 -0.2326547 0.5971453 -0.032730557 0.07546828 0.0002809915 0.07757002 0.09938228 0.2017721 -0.061666597 0.07908289 0.5350817 -0.26721376 -0.17140748 -0.2271139 -0.07921635 -0.21116479 0.3564832 0.1630964 0.13177106 0.13845615 0.3686456 -0.0713602 0.29111525 0.11963904 -0.5907607 -0.44525567 0.1751211 -0.14076267 -0.54760486 0.030330062 0.3516363 0.0014639351 0.08365921 -0.2518263 -0.59641886 0.13781078 0.21468067 7.267753e-05 -0.26325852 0.35402358 -0.112248436 -0.2153768 0.09806816 -0.032274425 -0.26085111 -0.14491178 0.06253211 0.33536577 0.08921263 0.41057712 0.010911812 0.062111255 0.36646152 0.5250015 -0.49615642 -0.39410365 0.48588982 0.46571714 -0.4141172 -0.010770133 -0.2176134 0.010813197 -0.21721415 -0.030293906 0.4318517 0.12800401 0.19335638 -0.22146831 0.25264436 -0.004145204 0.41565204 -0.098286904 0.24915838 -0.10235701 -0.14431086 0.12049298 0.17604247 -0.0538461 -0.534316 0.059917804
654 -0.121905245 -0.03995178 -0.36458105 0.05899222 -0.2032623 0.042860903 0.13809659 0.06589052 0.41977105 0.33826965 -0.0775974 -0.25307328 0.019150503 -0.54473716 -0.2880466 0.08340897 0.13552622 0.5116693 0.09341028 -0.16892493 0.0014396438 0.28775498 -0.21918848 -0.021083599 0.43581486 -0.0013145964 -0.066406004 -0.01603151 0.008554763 0.07956518 0.33592588 -0.30926937 -0.3232194 -0.16981569 0.2329193 -0.32347164 0.47019437 0.36113057 0.22973642 0.27091023 0.32788625 -0.14239639 0.09677225 0.2681113 -0.18534932 -0.7802769 -0.3754478 0.22976753 -0.3670491 -0.20242825 0.48951176 -0.35512292 0.32838604 0.14287587 -0.5109574 0.35552487 0.11685749 -0.13907802 -0.1921689 -0.11645051 0.15886627 -0.43299666 -0.1893488 -0.25534013 -0.45893335 -0.3225034 0.3879567 0.20192677 0.10312815 0.2626435 0.14731103 -0.10621155 0.7954805 0.15964949 -0.4917411 -0.14564763 0.15933236 0.33024758 -0.24755082 -0.11253094 -0.010149353 -0.031171286 -0.2886623 -0.02098371 0.18574867 0.54619795 -0.037325386 0.14594388 0.38895357 0.032216392 0.25863847 0.34013632 -0.1481957 -0.161545 -0.11382883 -0.040003054 0.20193978 -0.42800713 -0.5026045 0.099565394
