2000 100
392 -0.09859234 -0.23814169 -0.1156245 0.49356213 0.19649732 -0.1957377 -0.11245513 -0.56136715 0.27187067 -0.105037086 0.39779693 0.09919281 0.062489152 0.21531852 -0.33557686 0.0659193 -0.23532313 0.08320832 -0.09931778 0.4391277 0.21460149 0.6002616 -0.118429765 0.37535906 -0.07507837 0.2556094 -0.2276158 -0.04304149 0.4525447 -0.0915631 0.23984036 -0.090882026 0.012444048 -0.024081778 0.17884749 0.06069142 -0.22469124 0.05159898 -0.18490598 0.19288921 -0.19236225 0.33671218 -0.19792892 0.26321432 -0.15128124 -0.45194986 0.042299327 -0.2746543 -0.18058136 0.3164981 -0.17200337 -0.1426777 0.3443476 0.77546126 0.0604899 0.05772946 0.45372552 -0.0940992 -0.5009509 -0.18714048 -0.10146101 -0.23824386 0.07523064 0.010232979 0.4497013 -0.23515965 -0.37847444 -0.13966548 0.4383857 -0.28785756 0.11681356 -0.12846969 0.2781361 0.35568494 0.3056417 0.20374613 -0.12942353 -0.03811895 -0.17571323 -0.15076117 -0.22592695 -0.47487053 0.8359297 -0.33781162 0.1929073 -0.2470391 0.07806524 -0.12702462 0.018305397 -0.2816956 -0.08221519 0.15845333 -0.07369812 -0.3702889 -0.15710215 0.018996933 -0.2133129 -0.43080583 -0.20483074 0.1191689
127 -0.21499778 -0.4814214 -0.026349114 0.49076873 0.30942613 -0.36225444 -0.04589698 -0.31010613 0.1437624 -0.14501454 0.3477788 0.11345411 -0.063016415 0.2772669 -0.6048431 0.4567938 -0.26920795 0.5601461 0.18865287 0.50394064 0.30054352 0.6566 -0.100552894 0.23579712 0.22668761 0.19354866 -0.15586638 0.016991964 0.29730842 -0.08221366 0.0974567 0.2113505 -0.1580009 -0.15735285 0.33472905 0.14836703 -0.26570383 0.11655886 -0.3619115 -0.04361878 -0.27519116 0.35001013 -0.34972563 0.17642862 0.04780093 -0.37745568 0.11921425 -0.20930873 -0.20879062 0.3496929 -0.17891772 -0.007746179 0.43434936 0.6596477 0.059509616 -0.065751806 0.7666316 0.12648542 -0.258615 -0.29102257 -0.27954894 -0.2517331 0.052453537 -0.2832781 0.38681442 -0.15048566 -0.13570379 -0.07884804 0.22300386 -0.1054824 -0.23244455 -0.031151677 0.18953352 0.5323999 0.36239305 0.29003102 0.15728736 -0.16594988 -0.35498977 -0.08574078 -0.3547854 -0.4743793 0.5465687 -0.41023484 0.24056637 -0.26045927 0.2135257 -0.12105322 0.13636364 -0.084789485 0.029737588 0.16594675 -0.18619584 -0.112362504 -0.050207686 0.17534967 -0.20021202 -0.36033604 0.19908544 -0.19214301
958 0.026252504 0.18409461 -0.2024886 -0.3369782 -0.18594421 0.14589399 0.377317 0.32686663 -0.0949528 0.18920392 -0.2879468 -0.34398854 -0.23967724 -0.029571908 0.2820451 -0.19849709 0.14738783 -0.01745594 0.06301264 -0.12729526 -0.14671735 -0.3432568 0.18688664 -0.2539863 -0.035746362 -0.13466515 -0.15104178 -0.217034 -0.15222493 -0.07076016 0.09195598 -0.39526704 -0.02131738 0.012000571 -0.37726593 0.06570442 -0.14477311 0.1653082 -0.18310796 -0.053117946 0.43261427 -0.21114023 0.15673794 -0.18420787 -0.041438002 0.06126333 -0.13124013 0.032087404 0.221364 -0.24669154 -0.059493247 -0.11924628 -0.31944674 -0.8493504 0.106534354 0.035517197 -0.3120169 -0.25306594 0.06437628 -0.11601861 0.0065080523 0.34344193 -0.05638625 -0.05332125 -0.2809359 0.13483493 0.2836597 0.20764416 -0.3223976 0.27837095 -0.20012519 0.35788468 -0.28554896 -0.17442195 -0.45091096 -0.113122515 -0.107071035 0.029892815 0.31657115 0.16571137 0.09655855 0.2997406 -0.35037252 0.19142488 0.027085546 0.016841624 -0.41465122 0.06339271 -0.0044727316 0.117484964 -0.366434 0.035793457 0.27611527 0.13494968 0.31397685 -0.27195913 0.1255561 0.28579083 0.029784648 -0.1334408
1112 0.14213938 0.07387949 -0.15181854 -0.3033164 -0.23862937 0.14855905 0.24012817 0.28839916 -0.1145892 0.20174232 -0.4780547 -0.17934613 -0.18292007 -0.16508059 0.233833 -0.30028173 0.19953842 -0.10565729 -0.121046945 -0.21775512 -0.11893221 -0.21195415 0.14722167 -0.31880888 -0.14460813 -0.07896693 -0.2247093 0.0010178012 -0.08472705 -0.09287002 0.019056788 -0.22899564 -0.14843544 0.10627949 -0.3171524 -0.048886035 -0.17218779 0.01597386 -0.055391304 0.22900566 0.15051241 -0.36443058 0.27196488 -0.06095715 0.106236935 0.26130807 -0.0016013628 0.1858284 0.34986964 -0.15185457 0.007237944 -0.21375425 -0.21435048 -0.8898422 0.1489516 0.0563293 -0.30757695 -0.09575366 0.07681844 -0.16978444 0.12366584 0.2571205 0.0045011 -0.009155457 -0.26039517 0.11686932 0.32766065 0.058928773 -0.32084846 0.2627966 -0.087013654 0.31774166 -0.2744549 -0.11574354 -0.26683298 -0.11941126 0.035718128 0.0073612453 0.25964627 0.07841367 0.07570515 0.21125397 -0.3097537 0.10622036 -0.1871668 0.012842387 -0.16733272 0.04198117 -0.012499246 0.17919488 -0.2544475 -0.18663962 -0.0055247843 0.31153893 0.12411603 -0.2881686 0.12602715 0.262549 0.054835316 0.101104006
1898 0.10457302 -0.12674864 -0.06181297 -0.36521193 -0.14640473 0.33175915 0.44359887 0.17994253 -0.26426905 0.10299394 -0.39670774 -0.089776464 -0.0794048 0.03299425 0.303481 -0.15885952 0.2767724 -0.19788525 0.09417708 -0.38751817 -0.16256043 -0.29753858 0.12483036 -0.52433205 -0.10784229 -0.23336399 0.19556971 -0.29939654 -0.30977932 0.21014541 -0.14487422 -0.3671013 -0.062210396 0.075045034 -0.48746535 -0.09340255 0.018659368 0.23395029 0.097158894 0.10614952 0.12364993 -0.27896157 0.20221764 -0.16140403 0.33355978 0.32143593 0.015433859 0.1377331 0.30945987 -0.41356617 -0.11996368 -0.088034146 -0.27303618 -0.7044797 0.19886273 0.050884437 -0.45061454 0.023324631 0.31567013 0.18215187 0.10746137 0.24962862 -0.010606614 0.07171429 -0.25528222 0.06478679 0.47584414 0.11882122 -0.3063505 0.28414825 -0.24462396 0.20415735 -0.24365945 -0.30666277 -0.4439613 -0.039169304 -0.055584945 -0.10495145 0.05410692 0.13895713 0.14027956 0.027569845 -0.2608048 0.3480789 -0.3326593 0.049469933 -0.27864268 0.1319905 0.10222267 0.10826861 0.07934431 -0.20599487 0.08249918 -0.01597237 0.15076268 -0.34177503 0.13266128 0.28300515 -0.003946751 0.08975235
1767 -0.016718622 0.061462894 0.21411543 0.33778524 0.15450913 0.04055752 0.007667234 -0.3831579 -0.18730432 -0.2429792 0.35483623 0.19504656 0.068085216 0.19813019 -0.4353618 0.26649925 -0.07638006 0.096215606 -0.07560722 -0.08314538 -0.15006337 0.20597841 -0.13440208 0.32538095 -0.24596983 -0.19579478 0.07299275 0.22569059 0.28983322 0.04516281 -0.19649969 0.26339972 -0.35881078 -0.03145991 0.27618152 0.010149492 0.14770356 0.008548232 0.08878377 -0.2046339 -0.3587188 0.42709178 -0.06010659 0.17879602 0.41717163 -0.008346627 -0.06624085 -0.01943748 -0.31399468 0.15612656 0.0019975572 -0.34656855 0.13990124 0.99821633 -0.08106363 -0.090701394 0.31683898 0.3650315 -0.15483272 0.27677873 -0.12913945 -0.35783422 0.03675644 -0.4760809 0.20890717 -0.5677546 -0.6265783 -0.04928556 0.63777107 0.035101376 -0.21461008 -0.36830947 0.06696614 0.2459245 0.26732972 0.3434614 0.03445668 0.17792332 -0.37240985 -0.10707855 -0.19194894 -0.46532303 0.47053522 -0.065842114 0.07654041 0.02947494 0.23837131 -0.021407722 0.17309766 -0.23663804 0.25868842 -0.1729883 -0.095695026 -0.107164994 -0.16518094 0.48219514 -0.09587003 -0.5717816 -0.25835362 0.016018651
1424 0.043063436 0.17441589 0.15375163 -0.35266367 -0.26274267 -0.003049268 0.33713418 0.4699393 -0.392161 0.09721307 -0.34474197 -0.09390713 0.00481357 -0.20035596 0.41073045 -0.30863276 0.08468988 -0.2515172 0.17518237 -0.058730233 -0.10711347 -0.4691054 0.11471001 -0.3051189 -0.13747515 0.009315006 -0.1979814 -0.13878578 0.035896294 0.075966895 0.06421776 -0.3088323 0.28916672 0.0042144977 -0.51411545 -0.1341267 -0.27161697 0.30141512 -0.057223164 0.127107 0.26022676 -0.30027282 -0.102036454 -0.167911 0.15778211 0.28465724 -0.11012235 -0.10386336 0.20608392 -0.40446258 -0.0924523 -0.20276323 -0.3277535 -0.61321974 -0.046346236 -0.101867214 -0.17888291 -0.12268702 0.20087403 -0.08221001 0.24428628 0.19951983 -0.06606808 0.02797994 -0.05385689 -0.079568624 0.6599325 0.19578303 -0.2901447 0.14147294 0.01128828 0.3784332 -0.23351227 -0.38536158 -0.46460134 -0.07315881 0.09925982 0.046953972 0.40230972 0.21950352 0.17878579 0.11877741 -0.2548665 0.17308803 -0.20400248 0.08559936 -0.35877353 0.15307255 0.2537124 0.122971326 -0.16105995 -0.18087247 -0.05332281 0.22047694 0.22664005 -0.39957508 0.1859668 0.313196 0.09694132 0.11894784
1188 -0.101031594 -0.3059041 -0.025090363 0.6430412 0.05213113 -0.20598118 -0.14189956 -0.3867157 -0.052170277 -0.5101082 0.08840788 -0.12590066 -0.3227855 0.41985667 -0.23273854 0.27379942 -0.12277423 0.32370013 -0.10609847 0.28061286 0.1293526 0.20097882 0.064474374 0.22753175 0.055461694 0.09944318 -0.011113551 0.09925686 0.47802392 0.06393542 -0.30903864 0.24206868 -0.33167377 0.064733654 0.069801524 -0.13656811 -0.077239275 -0.013386536 -0.12443813 -0.22587581 -0.36300793 0.24900813 -0.09873012 0.09585709 -0.03944282 -0.16951583 -0.012093087 -0.15054858 -0.0067965197 0.13724008 -0.11686326 -0.047556564 0.15933648 1.0102171 -0.024872942 -0.14669268 0.26196992 -0.13285835 -0.53904116 0.12903292 -0.03066335 -0.33141035 0.06183838 -0.1332114 0.23837739 -0.076612584 -0.55888957 -0.057415377 0.43802908 -0.012995975 0.06768716 -0.42875856 0.033586044 0.24180728 0.15003856 0.18378644 0.028578058 -0.06505589 -0.16687162 -0.012051966 -0.015125706 -0.27434674 0.42238075 -0.17067504 0.10259184 -0.16815887 0.41389787 -0.19236673 0.10901653 -0.14341901 0.15995555 0.07256005 -0.107430406 -0.24787566 0.061467163 0.35529056 -0.22739364 -0.55517167 -0.27531183 0.0027685089
417 -0.057974882 -0.045877222 0.13075556 0.36958885 0.2718402 -0.23286404 0.06856647 -0.5343432 0.1140161 0.07039899 0.48573118 0.09592296 -0.042001817 0.124024026 -0.26527017 0.1555311 -0.109257944 0.4063764 0.14151718 0.62378985 0.22120659 0.3679866 -0.18168777 0.26093435 0.15377565 0.22864634 -0.12665497 0.12708421 0.63516 0.0056894566 0.16705926 0.42460603 -0.13246708 -0.037558343 0.52754414 0.006785753 -0.2989298 -0.17773396 -0.14633869 -0.031463854 -0.09324489 0.27845535 -0.54633033 0.16784641 -0.018843714 -0.16339406 0.066572055 -0.061675996 -0.40606594 0.15648739 -0.04042701 -0.22567686 0.27359256 0.7373384 -0.039205536 -0.3625198 0.41079646 -0.019823356 -0.06295269 -0.23657463 -0.11270308 -0.26231593 0.11901928 -0.16233298 0.2854025 -0.4118759 -0.4510364 -0.0706313 0.25318095 -0.36733973 0.19324054 -0.10651271 0.0109427795 0.20709793 0.4545521 -0.012519113 0.12396406 -0.19527295 -0.28869417 -0.15650606 -0.31659284 -0.49909434 0.5736793 -0.23025216 0.11397277 -0.19070418 0.16457531 -0.16575971 0.11182084 -0.3226561 -0.08383928 0.21702129 -0.07408611 -0.25126806 -0.13942954 0.3547486 -0.36101633 -0.3144981 -0.1399171 -0.11203979
39 -0.27060527 -0.25268131 -0.065908425 0.38902676 0.35759658 -0.017059095 -0.18074413 -0.22593212 0.16177936 -0.26282606 0.54315156 0.14030564 -0.093832485 0.22525394 -0.397168 0.42756018 -0.077453166 0.28008932 0.28560722 0.48169833 0.3038075 0.23083551 -0.025853278 0.12333204 0.39935845 0.32795855 -0.34499377 0.1402461 0.46288309 -0.16578005 0.09836237 0.06646035 -0.103930645 -0.09887239 0.6157395 0.10434718 -0.12953542 0.07885957 -0.19078355 0.056461666 -0.28078353 0.53661805 -0.16304451 0.2131645 -0.01324596 -0.55361176 0.114947006 -0.25207758 -0.16457461 0.407876 -0.056295916 0.006598969 0.39038804 0.49479893 0.05751668 -0.028855028 0.6222117 0.13419774 -0.11220295 -0.1539611 -0.0939039 -0.43764964 -0.016007366 0.23222034 0.08292595 -0.17203762 -0.2665594 0.0055810385 0.3672377 0.0044990885 0.10870816 -0.20111427 0.31532586 0.6255883 0.37028056 -0.042195413 0.12074209 0.18527678 -0.081294455 0.047892265 -0.19192909 -0.69061273 0.5208097 -0.31684083 0.14565627 -0.38502058 0.45362127 -0.29145503 -0.085673176 -0.19501282 -0.004077108 0.20220204 -0.109513186 -0.10736338 0.006612623 0.35956532 -0.17408423 -0.44851997 -0.16443905 -0.033133477
1095 0.09041249 0.29802838 0.042091202 -0.18083997 -0.24800323 0.24660838 0.4151093 0.34408036 -0.052509397 0.19858262 -0.15122253 -0.2701345 -0.23979284 0.042933494 0.25459516 -0.14703962 0.1411642 -0.05599571 -0.057381187 -0.2044805 -0.12089222 -0.3742605 0.264023 -0.21273366 -0.1397763 0.0750614 -0.092119575 0.051044926 -0.10254321 0.045428436 0.23683354 -0.4009363 -0.019336518 -0.090505 -0.21397625 -0.022478364 -0.07777015 0.34961244 -0.09448292 0.19602284 0.24242435 -0.38026148 0.054546945 -0.26061842 -0.062640905 0.21624523 0.17034598 0.20514616 0.18301049 -0.1251178 -0.020295424 -0.15965578 -0.1630071 -0.8813443 0.096911095 0.023539381 -0.4534646 -0.08116595 -0.20732802 0.010868666 0.26680863 0.49698278 -0.101360954 -0.15768489 -0.54714274 0.00291553 0.3375328 0.054533668 -0.44559586 0.2519619 0.012854857 0.31976157 -0.16375303 -0.5295707 -0.49505177 -0.14496061 0.054257113 -0.04184053 0.31268787 0.074276686 0.20552388 0.10213062 -0.25358307 0.12746738 -0.01929097 -0.03468363 -0.2744408 0.06707326 0.015981331 0.28787675 -0.5609652 0.11727791 0.123087324 0.17742124 0.1180754 -0.21531288 0.118779495 0.26415083 0.06163474 0.1042716
1946 0.28236464 -0.29963088 0.34535834 0.37314972 -0.19052725 -0.1419345 -0.32845938 -0.7308099 0.018486219 -0.52196336 0.4471279 -0.042653795 -0.23448609 0.20661108 0.037622936 0.5141297 -0.3593218 -0.08398363 -0.22442177 -0.06489145 -0.13061416 0.4324016 -0.0586632 0.28377336 -0.18888776 -0.25886866 -0.345821 0.07487615 0.24523251 0.026172051 -0.10536077 0.7363591 -0.4329678 0.007875702 0.8287473 0.06332607 0.17459935 -0.1735188 0.24952568 0.052470542 -0.40885448 0.023487328 -0.11288556 0.2880065 0.3092822 -0.39317378 -0.081404515 0.13814698 -0.19200666 0.10236008 -0.16769342 -0.009540638 -0.21973155 0.92134804 0.047718108 -0.13390967 0.3635183 0.04456091 -0.21414644 -0.006272838 0.047501937 -0.17649716 0.07242041 -0.36652192 0.11832121 -0.34207532 -0.68080956 -0.19555607 0.5760238 -0.2462384 -0.07579225 -0.046300597 0.351505 0.14767551 0.038118213 0.2552881 -0.19406825 0.06034243 -0.26508158 -0.32642367 -0.24333407 -0.0878362 0.6082427 -0.3499807 0.32259488 0.13527921 0.13499849 0.0037095672 0.23469651 -0.14897405 0.61496377 0.07605157 -0.5196554 -0.18780756 -0.59066623 0.45192292 -0.100998305 -0.5833372 -0.31043538 -0.02280198
556 -0.15290733 -0.06685655 -0.15493007 0.4328235 0.15400122 -0.21950585 -0.078362614 -0.34778526 -0.07035876 -0.33716613 0.3937884 0.07492789 0.09333113 0.21454209 -0.43417004 0.33813605 -0.14341581 0.29344502 0.0036904097 0.30576676 0.17855318 0.089940354 -0.38203847 0.070773825 0.10368142 0.14211741 0.054927815 0.3026636 0.4995086 0.06571087 0.06703031 0.16330679 -0.10638391 0.12318335 0.18691878 -0.024585601 -0.050283387 -0.053038668 -0.015487745 0.2608018 -0.51009154 0.3647291 -0.31214738 0.19379646 -0.0804006 -0.30617326 0.14960054 -0.34786874 -0.29158363 0.12663308 -0.2671343 -0.13304241 0.2771501 0.8056515 -0.048541117 -0.18139473 0.4015008 -0.18715352 -0.19470729 -0.22108836 -0.26451832 -0.43683806 0.24726015 -0.17265007 0.550933 0.023203831 -0.30029407 0.034184873 0.37240878 -0.051376116 -0.047218982 -0.1332215 0.31339452 0.2535438 0.27641466 0.019450791 0.052132227 0.11399276 -0.17248467 -0.12258433 -0.2624754 -0.5285696 0.6276683 -0.24131277 0.1055628 -0.14083111 0.14639458 -0.24889271 0.21012302 -0.08226803 -0.0688617 0.05783884 -0.2765705 -0.2849028 0.057453685 0.2373703 -0.11263268 -0.485972 0.097108155 0.031648904
752 -0.008791269 -0.06219491 -0.25136784 -0.28617433 0.013266703 0.11762294 0.10179866 0.3314184 -0.18250363 0.29554817 -0.3382286 -0.16769435 0.112732925 -0.23682903 0.2776189 -0.3960514 0.0979948 -0.0066707083 -0.061423734 -0.085486166 0.011090571 -0.26184756 0.07747972 -0.33386546 0.04303514 0.060541876 -0.10692118 -0.052740484 -0.063216895 0.21279673 0.13814287 -0.35823712 0.083380766 -0.01285127 -0.35524687 -0.058324937 -0.0168256 0.13801606 -0.23295768 0.11738462 0.2602257 -0.39720106 0.14073712 -0.21627495 -0.16807182 0.1694477 -0.108104296 -0.1152816 0.2705882 -0.23368269 0.15459399 -0.1927941 -0.2938106 -0.6765054 0.16617136 0.025245981 -0.17194012 -0.35377026 0.10329014 -0.21097302 0.19291168 0.29209125 -0.21836646 -0.013892431 -0.28013718 0.20279454 0.3904207 -0.04903373 -0.50531167 0.26740187 0.06740037 0.23031011 -0.14679572 -0.105614804 -0.36929667 -0.07499362 -0.12258522 -0.035079826 0.2684248 0.30458567 0.13257505 0.30441362 -0.5503668 0.2587314 -0.44777977 0.111076124 -0.081332706 -0.11680938 -0.037646014 0.0691738 -0.37505418 -0.15929446 -0.07025103 0.25519583 0.0116419075 -0.21519722 0.19839072 0.13514808 0.076630384 0.13129765
1570 0.1293148 -0.06830405 -0.12015501 -0.329751 -0.09541977 0.004426588 0.3208282 0.27806643 -0.30048174 -0.046816118 -0.395935 -0.27653143 -0.30135503 -0.14725408 0.22625111 -0.19825545 0.06049066 -0.30708048 0.17352521 -0.014674353 0.05556781 -0.52923876 0.06052678 -0.29860646 -0.29686102 -0.1952804 -0.0799832 -0.18406464 -0.24691582 0.061370112 -0.11453906 -0.31369957 0.17420559 0.09657574 -0.24062836 -0.034480803 -0.15727639 0.11686514 -0.10073362 -0.061380103 0.1663615 -0.2992157 0.19465022 -0.24680413 0.21045919 0.29347304 -0.04634 0.2031509 0.30372095 -0.22530155 -0.006208795 -0.17135243 -0.16411415 -0.48456818 0.095826134 -0.24590756 -0.35866725 -0.15726258 0.2925802 -0.044056892 0.20773298 0.11807758 -0.05022119 0.13068055 -0.25963232 -0.023121497 0.22792408 0.17298463 -0.35928094 0.11467285 -0.033399086 0.51515174 -0.18769078 -0.45630085 -0.593095 -0.09524691 0.0066413116 0.032977194 0.22041753 -0.0011266322 0.23214445 0.120343834 -0.4157304 0.32315397 -0.28674304 0.309432 -0.41811115 0.20515203 -0.23229003 0.121823154 -0.35159475 -0.06210568 -0.008607976 0.39659408 -0.03483231 -0.31785867 0.25820625 0.40561908 0.030473996 0.027479019
1243 0.092461795 -0.066886 -0.16522418 -0.34901613 -0.26011625 0.086750865 0.3030717 0.23821214 -0.19527216 0.4232319 -0.437972 -0.22402626 -0.103545435 -0.21693446 0.2936469 -0.27660295 0.03895235 -0.14275968 0.025288008 -0.10625827 -0.090322725 -0.47471565 -0.024071565 -0.3111864 -0.026880296 -0.08643805 -0.008018691 0.010325678 -0.10970302 0.019634556 -0.010855568 -0.44067377 -0.01481093 0.169284 -0.36537597 -0.041350614 0.095715016 0.21251519 0.1809702 0.068377525 0.2532878 -0.2552624 0.23535833 -0.34176722 0.036358293 0.08953148 -0.1119944 0.038124543 0.3680768 -0.31930825 0.10633523 -0.20807506 -0.22008774 -0.73492104 0.09718166 0.15401147 -0.32772616 -0.12677567 0.06650813 0.034549657 0.14560317 0.11839856 -0.004217666 0.088170364 -0.14817023 0.056622263 0.30215597 0.06795676 -0.41235214 0.2595641 -0.017754506 0.32847065 -0.20359893 -0.3115269 -0.25786245 0.050581608 0.006069125 0.03626596 0.2655665 -0.0779732 0.18803102 0.17307036 -0.1030816 0.25083756 -0.25965053 0.10590039 -0.14908959 0.03966454 0.0854951 0.06299081 -0.54500234 -0.1302593 0.054355282 0.12506065 0.26981577 -0.35146224 0.08287997 0.22586371 0.31002605 0.0126594575
1813 0.2778825 -0.22321431 0.32063702 0.44412854 0.16278806 0.15699397 -0.007963739 -0.5768814 0.0979536 -0.1925812 0.14811169 0.33969286 -0.070502184 0.62917835 -0.27846274 0.52284545 -0.037358053 0.17009795 -0.0949845 -0.0056440462 -0.16404746 0.22532754 -0.07761664 0.17249353 -0.15912513 -0.26410994 0.20387194 0.31793922 0.32760644 0.03872212 -0.5358916 0.40215185 -0.025029974 -0.18735963 0.29349732 0.23676132 0.3751631 0.12819278 0.23593895 0.16671643 -0.49088815 0.16951439 -0.26231825 0.02404829 0.39949208 0.03229994 0.19829191 -0.44908035 -0.15674672 0.09356857 -0.113092735 0.16342399 0.13747379 1.1306816 -0.20760171 -0.10125061 0.10744204 -0.07948491 0.081482686 0.010128264 -0.30376607 -0.1666744 0.11178773 -0.065113336 0.1623146 -0.3280649 -0.32215476 0.39690647 0.89895934 -0.28063807 -0.04180811 -0.36779925 0.31650826 0.386388 0.0948361 0.16035382 0.040452335 0.2534323 -0.23856373 0.03535395 -0.34767574 -0.29381597 0.50908566 -0.32282794 -0.011409841 0.02481058 0.13299134 0.21390614 -0.07747642 -0.34353414 0.2706787 -0.15271287 -0.2788889 -0.025659813 -0.39548787 0.6262639 -0.18540733 -0.32403722 -0.37474278 0.23397376
848 -0.14968206 0.16768004 -0.38763604 -0.41416216 -0.118442625 -0.046382982 0.2740231 0.4279453 -0.022317482 0.16216712 -0.3501039 -0.10387712 0.013991361 0.009572677 0.2536133 -0.42033166 0.20920298 -0.070052 0.0050366223 -0.05459532 -0.10888701 -0.37813312 0.1523375 -0.23955375 -0.12773986 0.1451384 -0.17136446 -0.23574851 -0.112811565 -0.13958785 0.011694457 -0.21376824 0.008077421 0.24782349 -0.3975183 -0.0187364 -0.013238384 0.13295543 0.12894785 0.012428143 0.4318847 -0.2908264 0.06662769 -0.0060135513 0.16230637 0.05854226 -0.09297402 0.22451967 0.35235918 -0.28907707 -0.06688142 -0.21711819 -0.48280635 -0.65277755 0.26271218 -0.15451778 -0.345861 -0.24901417 0.10803717 -0.10310188 0.19632304 0.29329866 0.10537489 0.18706493 -0.40370226 -0.048932653 0.38338318 -0.05734859 -0.4263231 0.0101106195 0.17922722 0.29921374 -0.20630497 -0.1673852 -0.23569916 -0.08338068 0.19154274 0.018627254 0.30301628 -0.124757744 0.15722418 0.071823604 -0.19489613 0.03853152 -0.070752814 -0.009114084 -0.23998192 0.009583461 0.03812793 0.12561962 -0.5782855 -0.028093832 0.08540024 0.022601306 0.29527652 -0.36579257 0.107373595 0.42996103 0.14716376 0.09829679
54 -0.07737754 0.1879822 -0.2704027 -0.43463492 -0.047444552 0.094881795 0.28003243 0.2091479 -0.07061991 0.2680019 -0.284752 -0.27081364 -0.14568016 -0.2806864 0.28464964 -0.28564695 0.005177627 0.20979223 0.10365167 0.11156134 0.0328378 -0.029788928 0.16924165 -0.17401287 0.098884664 0.011898601 -0.039632957 -0.057375617 -0.024462383 -0.19272923 0.21481593 -0.28690052 -0.11389024 0.0025184054 -0.38618463 -0.23638238 -0.11755004 0.17333211 -0.09687479 0.20375533 0.30981243 -0.041726887 0.033336017 -0.063210234 0.1022466 0.052113187 0.10636435 0.09554462 0.4949643 -0.18833007 -0.11695597 -0.08580981 -0.018649753 -0.8818046 0.35938898 -0.048581157 -0.006800418 -0.07177238 0.22821063 0.06965798 0.258137 0.26800424 -0.009255952 0.080668435 -0.06323024 0.21099721 0.5869884 -0.25317731 -0.50795305 0.28908575 0.077206716 0.35019708 -0.39505553 -0.29579705 -0.3453763 -0.110271074 -0.0402559 -0.044672128 0.09352154 0.090073295 0.034637082 0.24931236 -0.3307861 0.13836987 -0.036025457 0.0017752632 -0.30604672 0.11931798 -0.20385136 0.27173084 -0.40967956 -0.20533365 -0.07189845 0.3482015 0.0071948054 -0.4090407 0.14646016 0.62246805 0.16156617 0.010384888
70 -0.021497505 0.17101535 -0.23031715 -0.4032197 0.013279352 0.16604279 0.28511837 0.26512983 0.015673168 0.17842388 -0.2582886 -0.32158846 -0.15128817 -0.19129844 0.34919807 -0.34627807 0.30358493 -0.038211912 0.034337964 -0.022324314 0.090929314 -0.1288066 0.25395715 -0.13484865 0.1661635 0.10894828 -0.034096554 -0.21058698 -0.0039788373 -0.06906449 0.24395624 -0.35633126 0.0862029 -0.036473546 -0.49801683 -0.1892887 -0.18421349 0.26937905 -0.1520623 0.09145618 0.16176069 -0.14918873 0.15017706 -0.29697534 0.0775578 -0.07199343 -0.053046964 0.028068505 0.2311952 -0.4052976 -0.05092179 -0.31516063 -0.12719646 -0.94031703 0.10743987 0.08969902 -0.09121145 -0.06161222 0.14951088 -0.2292522 0.059978228 0.2759635 -0.042573 0.252951 -0.20600073 0.08250921 0.44671768 -0.17630191 -0.5873461 0.19181739 -0.03387404 0.25348344 -0.23836158 0.0073151374 -0.20749894 -0.19748646 0.03251102 -0.06767118 0.18068215 0.07033425 -0.11732229 0.18065682 -0.044030987 0.16603301 -0.14074676 -0.057785075 -0.13973437 -0.029793106 -0.08211234 0.22426791 -0.39283326 -0.27275547 -0.04667583 0.18827671 0.14393549 -0.3948558 0.21911567 0.37244073 0.21774116 -0.057156626
262 -0.09088245 -0.28598332 -0.08195384 0.5159108 0.23176786 -0.23220393 -0.22915953 -0.17673443 0.360248 -0.18624444 0.33295926 -0.016530141 -0.049953263 0.4032199 -0.56766146 -0.026898423 -0.27113798 0.2852329 0.106842525 0.5013763 0.23097175 0.17894879 -0.26876986 0.2187197 0.044882905 0.10714346 -0.18601431 0.08599729 0.36865222 -0.1475827 0.13652603 0.17314206 0.07939474 -0.0377453 0.21927625 0.24486375 -0.23381104 -0.0955574 -0.37417045 -0.12443655 -0.64439464 0.31382442 -0.18958478 0.13444453 -0.12692207 -0.43208975 0.11827769 -0.052131977 -0.16734734 0.4344694 -0.33614984 -0.12333633 0.21097803 0.49538395 -0.27251655 0.25087515 0.57357615 0.3164905 -0.42218438 -0.24128434 -0.19885822 -0.478859 -0.05310566 0.07176457 0.4643822 -0.43951696 -0.37064475 -0.04878298 0.35876966 -0.16884367 -0.018391317 -0.14673781 0.42514428 0.3473683 0.62867993 0.16817896 0.030073114 0.013495163 -0.1435926 -0.052090775 -0.24346541 -0.33807403 0.27854648 -0.34037048 0.14286488 -0.22437347 -0.117263906 -0.0150812045 0.13533786 -0.014371996 0.3154321 0.33073717 -0.26138395 -0.32705384 -0.31310716 0.24809465 -0.28688234 -0.47242472 0.098361254 0.14914234
1383 0.07249134 -0.2122177 0.16165626 0.22163087 0.020243546 0.0765482 -0.14967263 -0.5654693 -0.170838 -0.18346994 0.38068104 0.08769616 0.064903386 0.18199277 -0.312184 0.33212 -0.19959708 0.21886216 0.07601035 0.28429773 -0.1875785 0.010165656 -0.35194382 0.2561788 -0.19449256 -0.036182307 -0.29976293 0.12768564 0.4828164 0.20805916 -0.09029893 0.20686409 -0.22021541 -0.0902611 0.22802451 0.059654303 -0.093465246 0.20753177 -0.061527435 -0.23193048 -0.478938 0.34356847 -0.25944525 0.11240089 -0.1202893 -0.028588694 0.31930178 0.12336792 -0.15944225 0.34472507 0.13440979 -0.19763985 0.4431905 0.77481455 -0.01630814 -0.110595755 0.306683 -0.108453594 -0.19872086 0.18666944 -0.21293098 -0.36349237 0.05986122 -0.37010464 0.25692388 -0.35193565 -0.61896014 0.18586221 0.53498995 -0.05623701 0.15646142 -0.25548384 0.3912345 -0.08652779 0.24880828 -0.030351099 0.23295602 0.15280785 -0.30273417 -0.37986618 -0.13063322 -0.5442997 0.4591039 -0.00882319 0.23370957 0.23813021 0.28596988 -0.10538718 0.19742323 -0.40865937 0.2981704 0.14281355 0.052997205 -0.068727866 -0.12548105 0.12363138 -0.17485654 -0.72801167 -0.11868115 0.24298747
729 -0.075069964 0.1835209 -0.3091001 -0.45863703 -0.16044837 0.22070654 0.28249222 0.29798496 -0.028693303 0.28698656 -0.29476285 -0.3256438 -0.123693205 -0.13961707 -0.041401688 -0.19155361 0.3056279 -0.15178208 -0.000527606 -0.22879152 -0.036018386 -0.25612625 0.16119274 -0.33419237 0.05428391 0.051955 -0.070598915 -0.17468694 -0.11401622 -0.2212105 0.045427427 -0.41889668 0.14722648 0.056051787 -0.30309513 -0.020913234 -0.016985267 0.19674236 -0.14803916 0.17078532 0.30564117 -0.29074523 -0.035381008 -0.24391137 -0.022137275 0.20487921 -0.043060213 0.035133116 0.31695423 -0.19133697 -0.12077868 -0.17712459 -0.04217501 -0.8317287 0.087178975 0.004763756 -0.25427175 -0.13307719 0.1209819 -0.11752171 0.12277948 0.21767245 -0.18640515 0.103693284 -0.3030251 0.22147928 0.40550244 0.053452376 -0.34865236 0.12123175 -0.0073181274 0.14705908 -0.12855598 -0.223113 -0.41133273 -0.118957065 -0.060362093 -0.26056668 0.43338582 0.09041707 0.009669959 0.19789664 -0.21385078 0.10471167 -0.30458355 0.19113366 -0.15035704 0.020916903 -0.03288071 0.12049382 -0.2984314 -0.025940957 -0.026368625 0.22821498 0.16051054 -0.10743888 -0.029292125 0.37230924 0.1950971 -0.0057460256
1720 0.097888745 -0.37092945 0.25545436 0.54215634 0.012974199 -0.060461797 0.016546061 -0.3162597 -0.112074055 -0.45247647 -0.0032303135 0.105119705 -0.13138099 0.18170793 -0.39400166 0.15221207 -0.21206969 0.054655 -0.38566098 0.0024776699 0.21147785 -0.12630793 -0.38257965 0.24419688 -0.2931468 -0.21229745 -0.018390106 -0.039646104 0.29043627 0.20862487 -0.1278174 0.20718738 -0.20997395 -0.09883671 0.45204082 -0.10591267 0.022321926 -0.07486234 0.080377825 -0.17996746 -0.58773774 0.39247748 0.06633825 -0.0447289 -0.043754857 -0.1986701 0.01894624 0.007689441 -0.31414896 0.360757 0.0070286356 0.20126504 -0.006068553 0.99378335 -0.062217545 -0.15699352 0.15818815 0.3097527 -0.1108031 0.23871894 -0.13221619 -0.3666204 0.020810787 -0.3827849 0.4079209 -0.20656845 -0.32237834 0.2693289 0.5314248 -0.33952606 -0.15861923 -0.16940139 0.34706572 0.3172971 0.1589023 0.26762283 0.21007705 -0.10226405 -0.38553464 -0.0047178385 -0.20671141 -0.33604875 0.7657514 -0.1421283 0.23044772 0.00494634 0.24545956 -0.012121819 0.093268186 -0.3453226 0.26927242 -0.018891167 -0.26620647 -0.23647211 0.11508264 0.2653754 -0.112301126 -0.36257023 -0.18658297 0.27393696
69 -0.029565243 0.2771398 -0.37819 -0.29998899 -0.027609807 0.0561413 0.17525886 0.1666074 -0.011109216 0.32018146 -0.21689402 -0.27646586 -0.08262205 -0.18741517 0.07351613 -0.2429531 0.12617363 0.06130889 0.14072852 -0.15435475 0.13599859 -0.15925981 0.27802685 -0.28339958 0.14956234 0.027084377 -0.05315056 -0.2390702 -0.11737891 -0.12145108 0.2739192 -0.5885692 0.030861935 -0.114351004 -0.25149187 -0.23098029 -0.12697597 0.1766969 -0.12239572 -0.05826628 0.4472699 -0.18367952 0.07850416 -0.051483043 -0.14149156 0.05797879 0.0019525634 0.07944611 0.17689376 -0.21326922 0.12582581 -0.16858648 -0.041135415 -0.86830974 0.18743515 0.038703155 -0.17531437 -0.082686186 0.10823313 -0.010314482 0.12666312 0.18102978 -0.02776888 0.13106345 -0.25883955 0.19912457 0.5411343 0.028470507 -0.5597495 0.17568165 -0.010194114 0.312339 -0.19134152 -0.036419395 -0.3063329 -0.14743626 -0.07141547 -0.16969398 0.16902064 -0.077572756 0.07682532 -0.002807045 -0.2947526 0.12716377 -0.2570109 -0.068587005 -0.19040985 0.095171496 -0.059743855 0.18480954 -0.27808237 -0.32500607 -0.091991246 0.17503382 0.10583011 -0.27319714 0.28507698 0.29068118 0.29414296 0.020573609
309 -0.112503916 0.09007162 -0.24162698 -0.22074021 -0.08785815 -0.13127582 0.24744293 0.27052185 -0.02950602 0.120716326 0.062400725 -0.23823723 -0.23393406 -0.05406888 0.26266354 -0.22023372 0.14927521 -0.10389937 -0.10534663 0.28009096 0.19488257 -0.51453656 0.20587492 -0.22265336 0.025696028 0.102419265 -0.055248007 -0.30366868 -0.076677755 0.00425512 0.1925958 -0.46745488 0.06628422 -0.2075532 -0.054359473 -0.35918102 -0.032538727 0.1310198 -0.22641 0.28839624 0.35619065 -0.20376477 0.24845865 -0.10659289 -0.10129299 0.17925306 -0.0596011 0.099338554 0.30472243 -0.13553342 0.046948448 -0.050476883 0.034763973 -1.0568575 0.049314514 -0.05751216 -0.2407669 -0.1462708 0.074682295 -0.029669542 0.35042688 0.47088325 -0.03928139 0.085925594 -0.4268405 0.033299867 0.5825835 -0.23910931 -0.5452251 0.20078501 -0.12616184 0.077460065 -0.1271654 -0.45538425 -0.24359679 -0.35976484 0.033150632 0.0344331 0.33393198 0.02041767 0.048648898 0.27171895 -0.34951946 0.3357211 -0.19246833 -0.19415908 -0.08949812 -0.14519192 -0.13214555 0.33452094 -0.39996484 -0.34686288 0.030240871 0.17177689 0.32198822 -0.36168447 0.26417494 0.05264418 0.06395966 0.078374654
1133 0.060176212 -0.08209529 -0.22365503 -0.3572846 -0.28304452 0.16510256 0.34602582 0.08933239 -0.262877 0.20111477 -0.30113024 -0.096591406 -0.12050191 -0.01795517 0.21967712 -0.37008098 0.10369386 -0.17715117 0.07098111 -0.2802945 -0.050100226 -0.2860873 0.029618608 -0.09612035 -0.04456572 -0.04722853 0.041366044 -0.35269523 -0.20667586 0.12162188 -0.07957436 -0.35041878 -0.1501561 0.14589074 -0.4743954 -0.2455688 -0.008448137 0.18611537 0.20012955 0.2712234 0.0870844 -0.2028969 -0.011792003 -0.22357775 -0.07990592 0.17239073 0.028615214 0.17710868 0.38153827 -0.25914612 0.07226731 -0.07786635 -0.4304604 -1.072097 0.138167 0.085467234 -0.19255581 -0.12567104 -0.040323205 -0.26451212 0.16292132 0.04857659 0.034710072 -0.14149363 -0.17162392 0.28238776 0.29997686 -0.0050043203 -0.4773234 0.07116672 0.32514936 0.4195 -0.18139586 -0.32270697 -0.3377652 -0.269883 0.043716833 -0.23854603 0.24036323 0.07043452 0.12848975 0.17771588 -0.08728732 0.25518396 -0.07735316 0.20402005 -0.14131957 0.14089134 -0.18254627 0.2361037 -0.22662044 -0.21125644 0.18372592 0.45042646 0.15637182 -0.1304487 -0.063965805 0.32929966 0.25557435 -0.070785806
512 0.16854839 -0.14948815 -0.21553779 0.39874586 0.18263656 -0.034427457 -0.17530483 -0.59174585 0.2901555 -0.16366495 0.34207526 0.36051646 -0.115166165 0.18575098 -0.37843448 0.24199978 -0.0510528 0.5257334 0.047997423 0.37115616 0.08729928 0.22916791 -0.18712522 0.32901165 0.10986408 -0.07548005 0.050736766 -0.24507597 0.267297 0.17653567 0.03761359 0.13568778 -0.1739622 0.15979216 0.1684875 0.10222974 -0.24952954 -0.07302693 -0.0011689424 -0.10568751 -0.54586047 0.5788933 -0.50358737 0.20723316 -0.05460448 -0.25378403 0.047409356 -0.15249223 -0.13524345 0.45226538 -0.11227771 -0.20862882 0.17464735 0.68319815 0.17838176 0.06906226 0.5324215 -0.18527366 -0.26693588 -0.20154667 -0.19494666 -0.39428917 -0.0682474 0.15928136 0.39096874 -0.3720607 -0.40265763 -0.18629862 0.26601145 -0.30061322 0.12696782 -0.23422585 0.36221763 0.19896384 0.16436586 0.3863937 0.2960957 0.023655443 -0.13386193 -0.22449258 -0.35937637 -0.30769524 0.48836324 -0.34236667 -0.010669556 -0.33352327 0.22159226 -0.30632296 0.0178347 -0.13223334 0.06338321 0.0086446395 -0.08137211 -0.16039845 -0.13223325 0.313612 -0.3772033 -0.42531517 -0.3500981 -0.116267785
1375 0.20132323 -0.54697716 0.3050313 0.6230034 -0.040834077 0.1430749 -0.13610892 -0.39870754 0.080081716 -0.33819216 0.34579068 0.018630952 -0.15628444 0.19445825 -0.14062706 0.5687937 -0.31600946 0.06666407 0.04346051 -0.1308616 0.15169667 0.12737197 -0.1483158 0.16557364 0.22723344 -0.040470354 -0.11563017 0.11226462 0.20913155 -0.109235495 -0.17173679 0.40994164 -0.31180826 -0.07391498 0.42088205 -0.053976264 0.10762517 -0.028182417 -0.25927553 -0.12492736 -0.12290051 0.39174333 -0.38370836 -0.23062415 0.1493852 -0.18538962 -0.01646216 -0.20508285 -0.13780208 0.1373311 -0.18986706 -0.06670436 -0.04927449 0.8702732 -0.079120815 -0.2701139 0.46845436 -0.003922826 -0.20511214 0.28151104 -0.16626675 -0.43506807 -0.034033317 -0.33379072 0.2620109 -0.44359678 -0.263533 0.43270952 0.36168963 -0.10639859 0.05973801 -0.3069733 0.14613026 0.2937801 0.6625389 0.14425357 0.18055141 0.39119798 -0.28723532 0.22714756 -0.16903688 -0.4848853 0.6842422 -0.1059937 -0.22867644 -0.043322034 0.48491618 -0.22488172 0.20410505 -0.314751 -0.03558512 0.2650224 -0.0009892122 -0.13123338 -0.10950534 0.39618823 -0.21050912 -0.18963826 -0.43642217 -0.028460493
1490 0.058823243 0.17707592 0.15722673 -0.3632524 -0.28653497 0.22137193 0.45974314 0.29852214 -0.0581571 0.55883497 -0.5402092 -0.10385855 -0.09654194 0.0032776338 0.30142868 -0.3632751 0.35898092 -0.43878663 -0.20774013 -0.27344128 -0.008364231 -0.08018127 -0.0064058336 -0.3776892 -0.27115288 -0.09822562 0.05955814 -0.13180603 -0.061131738 0.24054718 -0.054296806 -0.34300205 -0.016886294 0.26485997 -0.23331726 -0.010367194 -0.08188557 0.1735987 -0.14915505 0.10093692 0.1949455 -0.110433795 0.32777327 -0.02920474 0.3281856 0.46742603 -0.059010256 0.04018027 0.3251701 -0.03197872 0.07774733 -0.1617496 -0.21621138 -0.59674907 -0.16261433 0.020374196 -0.31686452 -0.16094479 0.22007053 -0.13258016 0.42399737 0.087964 -0.40969545 -0.07807209 -0.20795062 0.21828347 0.45876658 0.43726555 -0.4320554 0.38038 -0.057656806 0.29739055 -0.1712091 -0.24542342 -0.34167844 -0.051314104 -0.020796448 -0.19442953 0.36007208 0.10106324 0.16505745 0.17135659 -0.4290085 0.092698954 -0.31660622 0.24126524 -0.3222379 -0.002934693 0.12300709 0.40200198 -0.32655522 -0.09001249 -0.16301943 0.24992688 -0.08635212 -0.0903905 0.12947975 0.18622892 0.30915678 -0.03742032
251 0.028184941 -0.082548656 0.05029771 0.090349026 0.23837538 -0.24905406 -0.15936415 -0.4392187 0.3362763 -0.56701136 0.2678945 -0.17596908 -0.0935524 0.31501484 -0.23455699 0.3940085 -0.103684895 0.32013154 0.021003673 0.5651435 0.18514468 -0.09948526 -0.06348497 0.37504733 0.3419231 -0.034911726 -0.14905015 -0.18845083 0.25832787 0.09892228 0.15797006 0.10178266 -0.011511092 -0.074411325 0.20634657 0.23118763 -0.11426565 -0.14428926 -0.575572 0.10623159 -0.18053569 0.38990912 -0.27621272 0.25110534 -0.2056587 -0.40867898 0.106736906 -0.47682586 -0.3171642 0.3784384 -0.42724845 0.107019626 0.5377787 0.6203426 -0.13395435 0.093384035 0.5876042 0.088554695 -0.2053654 -0.011244677 -0.36401442 -0.3392785 -0.22292069 0.11312827 0.48540866 -0.114536226 -0.28471094 0.12691554 0.5189394 -0.1758061 0.12338226 -0.22279616 0.024902206 0.43433714 0.28419176 0.18994036 0.10742292 -0.04959193 -0.34028783 -0.20959415 -0.23950294 -0.30210057 0.45694026 -0.2319326 0.2569259 -0.2969923 0.15971072 0.09341733 -0.053306084 -0.35172912 0.18770388 0.22295049 -0.08483314 -0.3352089 0.005863766 0.068408355 -0.4588302 -0.5631752 -0.12042743 0.093500845
943 0.27180272 -0.10940405 0.038110267 0.495668 0.24933165 0.040127967 0.11571517 -0.6405804 0.08693054 -0.4685774 0.18270667 0.09959088 -0.19694787 0.40267694 -0.6124253 0.41654545 -0.066146694 0.13794181 0.28929526 0.33044606 0.14253351 0.3015825 -0.31429955 0.26468816 0.018072944 0.21387187 -0.17911874 0.17253919 -0.010551849 0.3261958 0.24038742 0.22515438 -0.17935662 0.2772947 0.30293015 0.0216672 -0.35180303 0.010399697 -0.19915207 0.048986405 -0.471719 0.5089487 -0.1435633 -0.035887156 -0.0076442915 -0.048303463 0.27901185 0.20615914 -0.18869533 0.28311715 -0.00882482 -0.20837256 -0.017168585 0.545588 -0.17765634 -0.026300943 0.41271958 -0.041928258 -0.27338663 -0.104725406 -0.107688524 -0.5316846 0.008348963 -0.28871897 0.3519885 -0.1727275 -0.30361068 -0.04584936 0.50317055 -0.18588671 -0.098061144 -0.39699286 0.1656997 0.31312892 0.33050627 -0.0025719146 -0.047662716 0.07082097 -0.037985545 -0.14144494 -0.3486841 -0.64929855 0.4332504 -0.43976295 0.42155084 -0.15303448 0.17241827 -0.28681025 0.42305592 -0.61548305 0.11902627 0.3347146 0.2668958 -0.034622345 -0.25391018 0.28709596 -0.3406609 -0.52047783 -0.11320057 0.10185456
537 -0.25315118 -0.08580789 0.103611715 0.5467319 0.034866348 -0.1990054 -0.014706754 -0.42982626 0.040234257 -0.2578235 0.30424297 -0.11796775 0.2152265 0.24065803 -0.33748537 0.093021326 -0.012723038 0.4354042 -0.03208572 0.091100745 0.43467146 0.44263512 0.08973535 0.20042297 0.14490415 0.17123911 -0.110580884 0.11424383 0.44186035 0.090650104 0.21188973 0.111656904 -0.319217 -0.07751814 0.18689601 0.006692551 0.04481961 -0.022528864 0.0777301 -0.035121813 -0.5042973 0.51191795 -0.40009543 0.20921317 0.034904055 -0.36479908 0.24150042 0.018002376 -0.09743526 0.3264406 0.09088029 -0.12109523 0.28722033 0.59141773 -0.11241885 -0.13714783 0.700716 -0.23093516 -0.31150863 0.08238259 -0.059243828 -0.41748995 0.17880821 -0.028361628 0.31056783 -0.22742923 -0.6895332 -0.068924814 0.5218056 0.0854054 -0.11003656 0.07494266 0.19741301 0.40241027 0.27155626 0.1967856 -0.26257846 -0.047580153 -0.19886 0.025166422 -0.3571696 -0.40451452 0.70593524 -0.41130835 0.049615093 -0.11545167 0.18274373 -0.24958615 0.025778972 0.08076239 0.054085556 0.20739904 0.03428527 -0.06158602 -0.0012938064 0.43474004 -0.101277746 -0.60018927 -0.18391852 0.043477587
467 -0.057792176 -0.329389 0.017125301 0.70007324 0.3663794 -0.01788038 -0.38463503 -0.32195398 0.14480846 -0.21910311 0.32013133 -0.11287153 -0.016596345 0.5617832 -0.24360089 0.46163702 -0.12652148 0.4646507 0.059713062 0.28990874 0.01445283 0.13727507 -0.16006365 0.30431715 0.28572634 0.06795559 -0.21096599 -0.057632875 0.27996466 0.05057512 0.3481958 0.055117454 0.07310926 -0.08679804 0.08808382 0.32014307 -0.1483206 -0.031392906 0.09754217 0.016958432 -0.24418741 0.28932607 -0.23944466 0.013303331 -0.21054238 -0.27826706 -0.08430417 -0.030074365 -0.4420752 0.47885284 0.016194949 -0.023778312 0.4621655 0.5154954 0.2402112 0.039612733 0.38378587 0.084532745 -0.22491919 0.08688025 0.0370948 -0.56154937 -0.21978894 -0.1251112 0.66963035 -0.23927365 -0.56337506 -0.11434244 0.57318366 -0.08412055 0.1773931 -0.078771986 -0.042930696 0.3423367 0.31846485 0.45528078 0.36590698 -0.06515342 -0.21527497 0.005140202 -0.38454613 -0.015141864 0.40160915 -0.31519216 0.3819622 -0.18495794 -0.16515037 0.025753748 0.07887492 -0.09744659 0.22993964 0.120404 0.11616231 -0.21197683 -0.18604733 0.41232878 -0.48977384 -0.49446025 -0.083232224 0.17929505
1652 0.22723827 0.30837122 -0.15791021 -0.2545779 -0.3311823 -0.086817965 0.198452 0.28235942 0.18551187 0.057114027 -0.2538371 -0.12955049 -0.077527806 -0.2531838 0.22430466 -0.540736 0.4595114 -0.3613116 -0.16256274 -0.21219729 -0.1504443 -0.83912873 0.32679665 -0.08033265 -0.34940174 -0.114136696 -0.017171895 -0.11888582 -0.090375446 0.06597027 -0.10419555 -0.3547115 -0.4018015 0.053405594 -0.34211767 -0.09740902 -0.009108951 0.17953391 0.36934018 -0.23824663 0.3267791 -0.14914912 0.07014408 -0.31576952 0.027944079 0.24063124 -0.32224727 -0.13168353 0.15813437 -0.43898442 0.009887125 0.11183609 -0.38573837 -0.6421843 -0.15204176 0.40621054 -0.5126314 -0.42728186 0.19464745 -0.0023546987 0.21459255 0.20568736 0.20829006 -0.2718049 -0.48634756 0.25209227 0.5716593 -0.060147926 -0.5051284 0.20193471 0.12552127 0.09599786 -0.520998 -0.31601712 -0.7080112 -0.25694343 -0.27180305 -0.04829996 0.09364625 -0.008798112 -0.116732076 0.25681978 -0.6083454 0.3326351 -0.03995435 0.28195575 -0.30746162 0.0046498883 0.094444774 -0.06832014 -0.26756072 -0.09337315 0.1531142 0.08605237 -0.0056382143 -0.08620731 -0.05621622 0.16738838 -0.14016922 0.15403022
1030 -0.3096209 -0.19262485 0.1428571 0.28430977 -0.007583496 -0.5225357 -0.5653445 -0.5138605 -0.22836728 -0.17671701 0.53708965 0.11858738 -0.006873699 0.14289366 -0.4013111 0.56686074 -0.12960112 -0.057939302 0.07696008 0.38383344 -0.10185192 0.21011937 -0.54157114 0.2250571 -0.25294846 -0.0802764 -0.16823064 0.049464818 0.26269054 -0.06799268 -0.070268646 0.43061197 -0.24135618 -0.34300742 0.50949484 0.20930612 -0.42810172 0.14229262 -0.11730528 -0.110344216 -0.307418 0.2681104 -0.2270597 0.14510171 -0.13294277 0.21329099 0.13868754 -0.06361995 -0.05840424 0.22887094 -0.297342 -0.1559137 0.17707768 1.0574096 0.28236768 -0.016595114 0.32853648 0.27499738 -0.5246892 0.017174017 0.10337576 -0.18938373 -0.076732725 -0.17074116 0.21616216 -0.37723258 -0.73525274 0.17053956 0.47899756 -0.15734407 0.02183876 0.009517354 0.1046368 0.37124664 0.11451496 0.3890194 0.3469559 -0.00027860404 0.038460277 -0.112094015 -0.18251117 -0.57279277 0.63912624 -0.2543712 0.03826706 -0.36585385 0.05792629 -0.4895226 -0.1540683 -0.07166021 -0.04014804 0.42825863 0.031556685 -0.060365003 -0.21933077 0.19046904 -0.43729374 -0.45500794 -0.20897925 0.1538174
929 0.13695337 0.23036394 -0.54146063 -0.5205746 -0.19346374 -0.09892456 0.2903414 0.4163767 -0.22326095 0.018626608 -0.45811126 -0.25466293 -0.20414254 -0.3176406 0.22138365 -0.2544523 0.43183073 -0.3458702 -0.13656819 -0.14425775 -0.11285951 -0.22183149 0.3878495 0.032122865 0.14023562 -0.08067501 0.05704863 -0.021298017 -0.12271033 -0.107647516 0.25615814 -0.28445268 0.179402 0.32177928 -0.48907417 -0.008269437 -0.052990407 -0.12361599 -0.20929535 0.2699755 0.235803 -0.2478857 0.2225571 0.104548626 0.016868431 0.42193097 -0.31773373 -0.086227484 0.4164889 -0.29825327 0.19274591 -0.08537687 -0.038828146 -0.71852165 0.2823258 -0.060160603 -0.4454466 -0.0116769 0.31940225 -0.33695158 0.0949211 0.41309553 -0.23351783 -0.14131315 -0.348517 0.017083002 0.39515775 -0.009297583 -0.27553192 0.12549475 0.24175917 0.527976 -0.4484179 -0.3067984 -0.34898704 -0.35989782 -0.22587988 -0.04028712 0.2351508 0.019582162 0.28139007 0.07796714 -0.40065527 -0.107812546 -0.16334006 0.17496566 -0.23471989 -0.25912416 -0.026116977 0.24087517 -0.5739751 -0.13339138 0.16368464 -0.012143758 0.23665567 -0.026889905 0.32299092 0.036328133 -0.20202832 0.28156644
1081 0.19602941 -0.10829859 -0.31751314 -0.23251003 -0.06187667 0.20086247 0.14237815 0.09913386 0.013447295 0.12551442 -0.47338846 -0.13887568 -0.23776487 -0.23138091 0.2877188 -0.4099241 0.24240075 -0.28698108 -0.059338678 -0.22707212 -0.030563999 -0.24531747 0.1168345 -0.19119816 -0.20615213 -0.0053721163 0.0048061972 -0.22594073 -0.27120787 -0.07451703 0.05044907 -0.35647595 -0.089395605 0.008194159 -0.53605676 0.026863748 -0.18086207 0.1043205 -0.09406256 0.019529065 0.07842888 -0.37192285 0.25417563 -0.27261356 0.08208966 0.21352452 -0.07709564 0.15749314 0.33055308 -0.31520492 -0.072603896 -0.17494105 -0.12088594 -0.95254475 0.053212132 0.20974296 -0.28291827 -0.040488377 0.093798034 -0.40696365 0.17899653 0.13845624 -0.0014519551 0.18343674 -0.3328857 0.081985556 0.383992 0.060764145 -0.28903446 0.05348133 -0.114070855 0.02014582 -0.38328612 0.00846941 -0.37266478 -0.07107063 -0.12038851 -0.10795064 0.18170613 0.14994028 0.2624401 -0.0044785957 -0.3235848 0.25044444 -0.32313287 -0.07854437 -0.13135976 0.12509817 0.031747106 0.17984508 -0.4044836 -0.11092036 0.09828926 0.21041578 0.14368793 -0.216447 0.1539478 0.293665 0.09034788 -0.14395386
300 0.0038052008 -0.36227807 -0.11238101 0.4562586 0.1696206 0.046622537 -0.05218555 -0.40826324 0.043560147 -0.27167705 0.15340835 0.022793448 0.26729214 0.21181093 -0.5052626 0.35352686 -0.17286158 0.19022532 0.10788197 0.40137717 0.18986975 0.32818195 -0.20773932 0.0666323 0.3669225 0.3044828 -0.09742972 0.11292832 0.24889746 0.094450764 0.094954416 0.37771446 -0.3131208 -0.05189942 0.19321665 -0.25790453 -0.16076174 -0.045964018 -0.106611595 -0.12343432 -0.30903816 0.4062202 -0.12262213 0.0041260584 -0.48000833 -0.4058064 -0.010552947 -0.2740164 -0.12423774 0.15649772 -0.027296707 0.063895084 0.6478248 0.7739755 -0.105588965 -0.18187332 0.41962174 0.05008793 -0.14105137 -0.10499558 0.017112568 -0.5700795 -0.002855833 0.014490689 0.4962203 -0.22178416 -0.16298959 0.069003426 0.33039716 -0.32134238 0.056911904 -0.285849 0.09971297 0.37823886 0.34139445 0.24659064 -0.240662 0.065904774 -0.2674213 -0.2021874 -0.28574547 -0.24131905 0.44089738 -0.3916085 0.09962995 -0.17239016 0.34584495 -0.2227352 -0.09513371 -0.18275596 0.043141622 0.11500762 -0.117896646 -0.22768477 0.0680585 0.29131594 -0.12127132 -0.52825874 -0.046452776 -0.06975665
71 0.09687154 -0.42976093 -0.18005686 0.3131027 0.29501712 -0.3682465 -0.41117024 -0.6340476 0.49408707 -0.005501812 0.4370878 0.29423615 0.170837 0.46668845 -0.6734709 0.13352628 -0.048818417 0.09569489 0.016476134 0.45151168 0.51825225 0.49831423 -0.20100373 0.15539014 0.51720387 0.050466653 -0.1610077 0.046086296 0.4163487 0.21407078 0.224772 0.20500633 0.023685286 -0.108627535 -0.065388136 0.052967723 -0.60471714 -0.025207886 -0.21470258 0.07011808 -0.47751108 0.5033806 -0.3422906 0.04863893 -0.23322847 -0.5610115 0.10340037 -0.34354264 -0.05715939 0.30547786 -0.07067733 0.2806376 0.33790708 0.2764074 -0.15089722 -0.18206438 0.36048943 -0.028925803 -0.18962654 0.18352528 -0.23830898 -0.5761259 0.037546568 -0.16357733 0.3151959 -0.08838874 -0.5667729 0.047252458 0.6612958 -0.37216467 0.12802182 -0.33877966 0.15295254 0.23796116 0.5867605 0.11721337 -0.20845033 0.2772672 -0.23527868 0.08711327 -0.35814565 -0.2660764 0.71960247 -0.27898455 0.21062681 -0.14019167 0.6931507 0.013376556 -0.18634225 -0.044589877 -0.14635351 0.25499848 -0.20106609 -0.136098 0.05185913 0.33236986 -0.5196767 -0.29374292 -0.15703413 0.08854654
1852 0.2817061 0.311158 -0.04343484 -0.35160992 -0.0753364 0.29751226 0.26772258 0.3582697 -0.46352857 0.48462597 -0.22194503 -0.1528855 -0.12617676 -0.06856448 0.08538567 -0.067279436 0.21133223 -0.372449 0.013979648 -0.15878737 -0.042965695 -0.60407406 -0.035262447 -0.3277229 0.0022649574 -0.47407326 0.13612504 -0.010492497 -0.12300836 -0.26952913 -0.053031713 -0.462071 -0.271434 0.1358207 -0.29465547 -0.08267786 0.31610054 0.17971113 -0.08350628 0.2002756 -0.09872072 0.02598196 0.27535424 -0.23646885 0.08401068 0.18667875 -0.26770604 0.089116484 0.3137015 -0.36974776 -0.19995278 0.019202128 -0.37035146 -0.681053 0.27067423 -0.058086798 -0.63258237 0.22324103 -0.09746638 0.060804732 0.48548013 0.1451999 0.31427273 -0.06649587 -0.34469908 0.35882536 0.28128856 0.2658516 -0.62186146 -0.016265564 0.28902334 0.21066354 0.009073639 -0.44884577 -0.5858653 -0.2787037 -0.02885342 -0.2996797 0.15578215 0.43941 0.03925608 -0.054673724 -0.46766686 0.39564887 -0.35364515 0.39517206 -0.25329077 -0.1945059 -0.04223307 0.41945183 -0.2770639 -0.39816627 -0.21905603 -0.09405952 0.34614217 -0.22206411 0.3491618 0.2319737 0.09359674 0.02892428
1292 0.45248976 -0.11159278 -0.15203638 -0.12071664 -0.31582558 0.18419679 0.52592605 0.41637403 -0.19389541 0.3116714 -0.16497098 0.020998098 -0.036730304 -0.24651757 0.14350238 -0.20503657 0.1589446 -0.12380686 -0.09308214 -0.09216385 -0.10699856 -0.3741666 0.3000864 -0.2973681 -0.11727946 0.044741757 -0.122421645 -0.079922795 -0.26189598 -0.016775114 -0.08591006 -0.23090672 0.30130178 -0.10138519 -0.3959525 -0.16751689 -0.18285719 0.1419396 -0.10511555 0.06902592 0.07309218 -0.18189086 0.41689953 -0.03758575 0.09557273 0.43489334 0.27838287 0.1393091 0.23926663 -0.2766934 -0.39552233 -0.14308296 -0.29808658 -0.8715833 -0.0004553218 0.12549296 -0.37851653 -0.106932454 0.10626136 -0.14099228 0.30439088 0.33486375 0.09354535 0.21887513 -0.41614094 0.00584985 0.09375691 0.092355475 -0.2046822 0.19155079 0.15017255 0.2734754 -0.34883657 -0.40207005 -0.27945358 -0.11053536 -0.029515494 -0.3772852 0.22782074 0.02629497 0.35644358 0.071325645 -0.3216249 0.15555362 -0.26765224 0.07258956 -0.4569268 -0.18642822 0.08186818 0.21008085 -0.42103505 -0.08540921 0.39024153 0.24898465 -0.01477458 -0.21229272 0.21072547 0.24307115 -0.115831405 0.12368935
1713 0.2636442 0.01640304 0.27896097 0.64231277 0.52549124 0.011978593 0.38608235 -0.6129478 0.108939014 -0.26419526 0.3468669 0.24060382 -0.027412448 0.26391178 -0.24275263 0.4158244 -0.077170774 0.046369106 -0.07800993 -0.037205048 -0.22691315 0.24635383 -0.24111566 -0.005615984 -0.27912366 0.0072403857 0.048106663 0.09109198 0.24889895 0.23084071 -0.4015388 0.37933096 -0.12912476 -0.012890299 0.33437973 0.13708694 -0.014572777 -0.21043302 0.117740385 0.1399795 -0.46563143 0.37064523 -0.24979341 0.03688274 -0.06671007 -0.18423285 0.3021837 -0.30521268 -0.13759387 0.19292009 0.054787032 0.2558066 0.18293168 1.1582193 -0.28851488 0.16326368 0.14875548 0.01112176 -0.31488225 0.07906791 -0.079546124 -0.12942573 0.052738175 -0.4642052 0.40467554 -0.1725643 -0.6708467 0.2394289 0.64525944 -0.045315135 -0.15205242 0.018347764 -0.25756606 -0.05701773 0.34034526 0.20579384 0.17757516 -0.20519003 -0.13764644 -0.20637135 -0.0016459659 -0.28658772 0.7860714 -0.24859917 0.23798996 -0.26240474 0.0978963 -0.04734239 0.20713574 -0.38402927 0.35332572 -0.13623658 -0.31429157 -0.16181049 -0.018838946 0.30047414 -0.17402016 -0.83205473 -0.52804965 -0.06933468
1343 0.23535386 0.18028034 0.11223893 -0.38993254 -0.17117323 0.148696 0.4853983 0.15074004 -0.21061654 0.15085861 -0.40699098 -0.2953076 -0.09274446 -0.14116214 0.24646175 -0.09367391 0.05213426 0.06297922 0.17540894 -0.00060282985 -0.22904672 -0.25292978 0.18812345 -0.14669828 0.076567024 -0.09162077 -0.018461166 -0.0054325936 -0.35274807 0.036737572 -0.11875754 -0.1516105 -0.32625505 0.18926853 -0.42957312 0.19836599 0.009597087 0.13186838 -0.1024138 0.010601697 0.03810021 -0.41999725 0.16279872 -0.17222774 0.040878713 0.22847855 -0.10692975 0.13202049 0.31869945 -0.15258564 0.2850238 0.15553665 -0.21822304 -0.87319565 0.49776924 0.12922746 -0.586851 -0.009953748 -0.003663945 0.11171343 0.14647676 0.23351026 -0.11055682 -0.007310335 -0.23325287 0.13769974 0.50002646 0.18305767 -0.2430796 0.259528 0.007385697 0.08479966 -0.3988701 -0.29572693 -0.3478889 -0.13278612 0.01518798 -0.23279513 0.35773152 0.3332396 0.19099256 0.23931277 -0.3200531 0.24412353 -0.227329 0.10262817 -0.5348715 0.0627064 -0.029084636 0.18771763 -0.67495215 0.053329214 0.15673856 0.39672136 0.23006046 -0.30557626 0.13610546 0.3132984 0.14444399 -0.05248558
1583 0.23966081 -0.06558734 0.24312712 0.39499506 -0.15004653 -0.12525724 0.27751374 -0.5871421 0.2811036 -0.23963836 0.38591224 0.09911188 0.18918408 0.18657477 -0.3993943 0.24903084 -0.1642016 -0.041049797 -0.18329802 -0.018735547 -0.11119141 -0.06858812 -0.25758633 0.5697469 -0.23833516 -0.039988156 -0.2797157 0.15702567 0.4672662 0.02484879 0.001650714 0.40613055 -0.3029262 -0.1569259 0.4409739 0.24019966 -0.18952662 -0.40888613 0.18920867 -0.20659341 -0.28010812 0.32295638 -0.18291904 0.15066127 -0.070492424 0.06299161 0.007636161 -0.20376283 -0.10422381 -0.087208405 -0.29839718 -0.36333367 -0.1693817 1.0479156 -0.013476331 0.1249041 0.31540772 0.41281775 -0.2762295 0.06880954 -0.020716017 -0.33203042 -0.035450928 -0.07403572 0.38695133 -0.08275511 -0.594758 0.34136528 0.510802 -0.17938252 0.05122116 -0.057916608 0.15528996 0.48450133 0.21864067 0.07381089 0.1833243 0.1335139 -0.51334137 -0.11193186 -0.16666423 -0.5691667 0.6328136 -0.13110301 0.048504412 0.2856048 0.04692224 0.15829587 0.09942496 -0.3925006 0.23589636 0.05172428 -0.08121087 -0.11986704 0.15476097 0.55461216 -0.024522124 -0.6172746 -0.07064564 -0.18421501
1579 0.5112382 0.093877 -0.19607498 -0.2254242 -0.596794 0.18153521 0.3647124 0.079744555 -0.080508396 0.054539837 -0.5630919 -0.35800162 -0.11593159 -0.18985723 0.40183684 -0.045678183 0.22276926 -0.3377826 0.31604147 -0.48559162 -0.08483362 -0.27400756 -0.05569232 -0.29836214 -0.10507886 -0.21557294 0.10569716 -0.38581026 -0.2525695 -0.08170678 0.089230455 -0.11554611 -0.0037923593 0.07835661 -0.37298894 -0.21987012 0.015171373 0.3019371 0.17060432 0.32070613 0.052054632 -0.23876522 0.44917715 -0.13141449 0.09582141 0.29028377 0.122091375 0.2159441 0.58441716 -0.15213552 -0.0006279665 -0.19453116 -0.45217946 -0.79328597 0.09796007 -0.10292997 -0.5675474 0.08127481 -0.2689262 -0.11882217 0.33439744 0.32606852 -0.049006876 -0.027681129 -0.28597412 0.2799192 0.40751335 0.14649369 -0.28454012 0.023220422 0.002821913 0.10641496 -0.4307126 -0.40726298 -0.29600754 -0.037607305 -0.01806324 0.09026069 0.022712754 -0.1109469 0.39420035 0.3333447 -0.31772423 0.21479268 -0.03093254 0.23873138 -0.4896245 0.16519074 0.11143582 0.2923995 -0.020977497 -0.33790573 0.02930159 0.18860352 -0.073065005 -0.4036808 0.15412673 0.024551174 0.22535226 -0.08322878
465 -0.16218027 0.31023696 -0.53797376 -0.44119135 -0.10210898 -0.09506838 0.09542268 0.44180012 -0.09325468 0.46460345 -0.6018601 -0.13032915 -0.16230267 -0.0069262395 0.21454078 -0.34709752 0.06561854 -0.11217655 0.054595515 -0.0119827725 -0.036826387 -0.30109715 0.19833505 -0.30548793 0.11008346 -0.16192773 0.09401678 -0.16924706 -0.20869654 -0.104720496 0.47138116 -0.36297446 -0.01945058 0.07186467 -0.27044374 -0.29898676 -0.11913404 0.16426408 -0.096335605 -0.29764044 0.2898477 -0.3406501 -0.12924893 -0.25155893 -0.13839306 0.16129665 -0.23985657 -0.03241306 0.08909319 0.12998258 -0.037652023 -0.3195822 -0.1765203 -0.8746552 0.004648277 0.10472749 -0.48565504 -0.13457854 0.13563648 -0.22719587 -0.016088635 0.12130396 0.17084785 0.0061708265 -0.25831676 0.22530146 0.3187478 -0.03958123 -0.3756335 0.14251189 -0.08803005 0.52841216 -0.43257543 -0.080501124 -0.5612261 -0.15704119 0.114702195 0.123228855 0.38921195 0.34392142 -0.022763174 0.39906633 -0.10917987 0.07454974 -0.24439527 -0.03781494 -0.4006909 0.2160111 -0.15520892 -0.06388527 -0.44955802 -0.37484518 0.3313511 0.5976584 -0.04864179 -0.31079617 0.08246924 0.023282446 0.35548612 -0.05067372
867 0.09018981 -0.24779096 -0.22523797 0.33915687 0.086597204 -0.10043233 -0.027364984 -0.33789805 0.08465313 -0.36594054 0.3542555 0.2868065 -0.09455215 0.26819476 -0.27472216 0.2796288 -0.48238978 0.29364246 -0.052826107 0.12990949 -0.032891802 0.13386853 -0.32356834 0.32154372 0.081480555 0.040234488 0.13595727 -0.16212013 0.39561754 -0.106727526 -0.013516967 0.07621324 -0.12653543 -0.035050444 0.18659133 0.21960473 -0.11496289 -0.29810405 -0.17796056 -0.081853226 -0.5751656 0.40369108 -0.25703526 0.13887826 0.22758923 -0.006885602 -0.0073644323 -0.009404631 -0.014796532 0.17772835 -0.014703433 -0.05624726 0.35132822 0.64630264 0.028792076 -0.14998606 0.27693522 -0.09344114 -0.23701537 0.22889498 0.009760466 -0.23356698 -0.17322323 -0.29329813 0.59773254 -0.40071926 -0.29081067 -0.036451906 0.37473324 -0.3097761 0.077321924 -0.39349744 0.2968151 0.1955995 0.35884765 0.5360283 0.112162896 -0.12750968 -0.00211696 -0.0034375286 -0.5545216 -0.29299885 0.7105529 -0.42335248 0.123415746 0.112164386 0.30807823 -0.20310053 -0.11046049 -0.22982247 -0.010574682 0.17838442 -0.29876095 -0.28548783 -0.17311603 0.25058514 -0.43613264 -0.2998805 -0.25825593 0.14283334
702 0.11890011 -0.20254382 -0.046222083 0.5878658 0.41321272 0.018860653 -0.071568295 -0.39006752 0.15391964 -0.089474894 0.22640988 0.030140247 -0.34394258 -0.03050784 -0.20313682 0.4618723 0.17523289 0.20250577 -0.18503922 0.21473137 0.130129 0.20093988 -0.108292565 0.54616207 0.076237716 0.1020042 -0.094308525 0.18765505 0.35522595 -0.0078121214 -0.025705043 0.00898849 -0.29412907 -0.078776345 0.095909275 0.09021243 0.04802005 0.023244277 -0.26718986 -0.056210026 -0.51136667 0.45382246 -0.2680111 -0.11065929 0.13443331 -0.16990176 0.003949806 -0.08622319 -0.18069498 -0.04494854 -0.08092533 -0.2106269 0.39907265 0.5258947 -0.20521551 0.012342043 0.5413071 0.046033654 -0.15351287 -0.4035586 -0.42370337 -0.26340184 -0.10151337 -0.23262708 0.4390461 -0.44278994 -0.50778645 -0.17180547 0.4908595 -0.037797317 0.03815048 -0.5375369 0.06587024 0.3675393 0.36021668 0.23348558 0.19506432 0.020632122 -0.24627791 -0.023196712 -0.63506675 -0.5173663 0.60581505 -0.42433628 0.29717553 -0.0928388 0.0550593 0.021243002 -0.021000776 -0.14823027 0.42945415 -0.022616412 -0.27622834 -0.45514712 -0.103451766 0.2917624 -0.22983716 -0.39258736 0.12457401 -0.113789916
1927 0.17295757 -0.009916304 -0.25383273 -0.2927524 -0.15982535 0.28223684 0.5685027 0.24612233 -0.20204589 -0.040150434 -0.5229932 -0.15547784 0.041932162 -0.07131867 0.57162845 -0.20242965 0.1715314 -0.15028483 0.066251606 -0.3706097 -0.13310173 -0.34562838 0.22253893 -0.4330947 -0.090270795 -0.2945266 0.344791 -2.1371045e-05 -0.35958105 0.28563422 -0.6410257 -0.16904962 0.024573166 0.09999383 -0.63818204 -0.12812613 0.08559662 0.20542696 0.07232826 -0.03867388 0.22569275 -0.27929857 0.27452 -0.2761451 0.3483194 -0.0031124034 -0.036702957 0.0105539635 0.36942816 -0.3265567 -0.042697556 -0.31446844 -0.22793613 -0.748054 0.19577308 0.15436226 -0.49925122 -0.22807336 0.42902124 0.041514535 0.09795951 0.1444501 0.21576421 -0.12732224 -0.3890744 -0.053486522 0.35401103 0.1124875 -0.196191 0.10390253 -0.3659046 0.29063684 -0.28706264 -0.29357725 -0.2688382 0.005071287 -0.12090194 -0.010622096 0.24663663 0.20387842 -0.008373493 0.42841008 -0.027704202 0.2252534 -0.14667238 0.09047325 -0.4555324 0.056374963 0.22771937 0.0323954 -0.06351938 -0.2796761 0.10139841 0.07729726 0.18929 -0.3302228 0.21269715 0.3740913 0.09340579 0.113267235
1218 0.28164202 -0.35584182 -0.09070586 0.3488122 0.18382046 -0.13955867 -0.04421664 -0.50628453 0.039911993 0.18348259 0.51192534 0.21793924 -0.19950564 0.37100068 -0.30712724 0.4622409 -0.2136496 0.037172195 -0.07353921 -0.07578661 0.13727312 -0.10022512 -0.14202835 0.20471534 -0.0014574074 -0.124804765 0.026984986 0.2783363 0.17796972 -0.17070349 -0.56103396 0.21221806 -0.0263086 0.06640054 0.33977196 -0.002331778 -0.28577432 -0.019339502 0.1564085 -0.24378955 -0.2126999 0.09175974 -0.30147 0.40008017 -0.27343026 0.10837486 -0.10635338 -0.08266758 -0.32853457 0.33268744 0.13815673 -0.2507955 0.15105994 1.0988071 -0.0437648 -0.040009838 0.4374354 -0.3108757 -0.14958444 -0.13330561 -0.029064361 -0.45639545 -0.056611948 -0.22594287 0.18206856 -0.2496599 -0.45307395 0.27985874 0.87420744 -0.31787378 0.18174742 -0.01715625 0.1113815 0.32636818 0.544042 0.379728 -0.049054198 -0.1954259 -0.10024175 -0.033386692 -0.2970682 -0.7849038 0.50113857 -0.53954226 0.30633575 -0.22086754 0.40665805 0.08179518 0.48468465 -0.2948843 0.2549245 -0.089442655 -0.15030326 0.1048069 -0.3252225 0.029560052 -0.09677394 -0.26666272 -0.19622019 -0.51695573
1231 0.12645437 0.016842848 -0.06088313 -0.3776851 -0.10507611 -0.20353092 -0.13410833 0.13821276 0.087659955 0.16892256 -0.4667507 -0.37878805 -0.14394361 -0.18328212 0.13305897 0.029127885 0.17778897 0.051661607 -0.081604354 -0.16318417 0.12360736 -0.454979 0.14450718 -0.27415806 -0.36438972 -0.1137513 0.14035952 -0.06509216 -0.07297509 -0.031143915 0.024611607 -0.4220505 -0.095639996 0.094105124 -0.5175171 -0.21729805 -0.14670537 0.5031441 -0.0061933505 -0.030982513 0.037396032 -0.3357378 -0.11525968 -0.38726348 0.071867146 0.20386724 0.2697141 0.020892637 0.17602144 -0.3370736 0.31374672 -0.1783999 -0.19684908 -0.8933604 -0.021384237 0.085097805 -0.44428086 -0.17317626 0.39033353 -0.111324 0.24665935 0.5960597 0.06810543 -0.26845378 -0.22168031 0.017061295 0.6996523 0.02434681 -0.17841943 0.24678971 -0.04875645 0.13820212 -0.32065508 -0.5017594 -0.2133439 -0.47162107 -0.17467353 -0.20655206 0.33060706 0.27744836 0.062278267 0.21781671 -0.20833105 0.19312939 -0.2361981 0.20586859 -0.5556106 0.090208896 0.0032225375 0.20482674 -0.41020972 -0.073691346 -0.2593859 0.106665075 0.1974357 -0.14783117 0.15022162 0.53239125 0.025296228 -0.062440928
660 0.14914322 0.1984522 -0.4708817 -0.4406338 -0.12755203 -0.057593647 0.363181 0.6613292 -0.22843277 0.2854452 -0.43651786 -0.1490304 0.05095171 -0.25398064 0.03004689 -0.20984334 0.16107707 0.31709623 0.22239694 0.008790404 0.13498901 -0.52247965 0.31193238 -0.097124696 -0.19892493 0.010085744 0.21278253 -0.05731853 -0.30597395 -0.1276079 0.14698888 -0.3933113 0.0016919789 0.36491275 -0.48179185 -0.019247767 -0.1327511 -0.0076139322 -0.08031993 0.22019602 0.43792805 -0.1314821 0.31423163 -0.33530036 -0.0427825 0.15170586 -0.08757525 -0.21232186 0.26353386 -0.1490919 -0.046966113 -0.09697117 -0.24707623 -0.9830779 0.054365102 0.25471094 -0.34554353 -0.26875818 -0.00663236 -0.06118701 0.15722515 -0.115583025 0.1092275 0.17617294 -0.30206242 0.046389177 0.3418797 0.045581218 -0.4100093 0.0977192 0.2883644 0.35022685 -0.4502245 -0.018474614 -0.32866424 0.100309946 -0.09498439 0.05140218 0.32083356 -0.02170789 0.074084766 0.07442437 -0.28263575 0.11402942 -0.25390932 -0.22073612 -0.43600616 0.30645987 -0.14912602 0.13828826 -0.47551155 -0.06828338 -0.0044100196 0.07084062 -0.10899087 -0.6355516 0.26607588 0.21130304 0.034235656 0.12938075
608 -0.13385238 -0.16574591 -0.0010948975 0.48212197 0.16789447 0.07201704 -0.036735713 -0.55523765 0.1821538 -0.32115588 0.45200682 0.06389535 -0.079058036 0.016993029 -0.5749127 0.3092085 -0.27318275 0.29947823 0.13889708 0.47108114 -0.0514543 0.10350135 -0.21707323 0.4649857 0.051910456 0.0032159577 -0.04019103 -0.013238338 0.13206443 -0.051885534 0.08838012 0.2066975 -0.44486287 0.14290056 0.23312058 0.03011904 0.005623361 0.03480575 -0.22885378 0.083376385 -0.2945629 0.4519469 -0.29931638 0.21288075 -0.03971522 -0.1557068 0.13462617 -0.0031746086 -0.23554909 0.052120045 -0.048166413 -0.001966214 0.36460295 0.6160254 0.12623 -0.28249785 0.38064924 -0.124296956 -0.08449687 0.07064744 -0.050893236 -0.5344563 -0.07214423 -0.056047987 0.42669538 -0.09656888 -0.46843827 -0.20398448 0.32708272 -0.08898588 -0.004212695 -0.35421568 -0.10431993 0.051994495 0.38513187 0.14824884 0.17931855 -0.058395986 -0.16044748 -0.06145166 -0.24526866 -0.5629177 0.38300797 -0.4045888 0.3391562 -0.23436542 0.20921518 0.026277365 -0.0011800946 -0.21952428 0.024329795 -0.056812245 -0.26394033 -0.29049492 0.025821224 0.35030776 -0.2685195 -0.37009028 0.2357747 -0.047192685
182 -0.22085352 -0.3639267 0.09023942 0.43541327 0.2820746 -0.030711662 -0.12433971 -0.25698885 0.08581361 0.1272691 0.17938192 0.26266873 -0.02039222 0.26996994 -0.55463046 0.39583907 -0.07881303 0.21627061 0.22208478 0.254078 0.19353391 0.17562251 -0.27698296 0.41488716 0.4549391 -0.048499245 -0.38482186 0.37893385 0.29309088 -0.43184096 0.32859915 0.08878054 -0.19965798 0.2514975 0.0052026026 -0.023434073 0.08630858 -0.2781315 0.20118983 -0.17717424 -0.14213373 0.8758821 -0.048914537 -0.10872887 0.02146734 -0.4821932 -0.08230345 -0.32475853 -0.41788518 0.38922662 -0.043280598 0.1736011 0.54661864 0.23175244 -0.17130548 -0.002119293 0.8019629 0.013862696 -0.29951957 -0.14099191 -0.28974828 -0.585609 -0.012192539 0.030236376 0.03842112 -0.39055744 -0.4263793 0.10816643 0.4481041 -0.30232996 0.14015609 -0.33645645 0.32353875 0.40002424 0.52867985 0.32143635 0.17353278 0.28514943 -0.3937471 0.1956247 -0.49686775 -0.3191395 0.680459 -0.6967406 0.5729255 -0.21004651 0.3370526 -0.40534288 -0.18954591 -0.114352435 -0.19191052 0.24468945 -0.44586048 -0.101068534 0.1943146 0.4135376 -0.3275431 -0.53609604 -0.21567865 0.13061994
1902 -0.31314203 0.119504705 0.7709239 0.53349704 -0.11611919 -0.20969288 -0.28731915 -0.4884283 0.23482744 -0.50049657 0.1392243 0.02422217 0.27724764 0.38446522 -0.12119589 0.08078867 -0.30591282 -0.012094935 0.19695657 0.14064245 -0.00825497 -0.07047013 -0.013756799 0.23374335 -0.72440094 -0.28113076 -0.35071647 0.1865155 -0.18079229 0.29973933 -0.10120532 0.96413004 -0.18989132 -0.24773331 0.35905814 0.32911795 -0.16697614 0.047736738 0.002440504 -0.17581207 -0.1372346 0.10573442 0.322638 -0.2740623 0.44847098 0.005079893 -0.3149959 -0.040356625 -0.16253418 0.21197146 0.06369077 -0.3074933 0.13090959 1.2918103 -0.14086671 -0.3304422 0.28930297 -0.100688875 -0.118175715 0.3344536 -0.0026339372 -0.3721624 -0.3786604 -0.19654614 0.21475725 -0.50841904 -0.6465725 -0.11746115 0.70315707 -0.33718336 -0.017928977 -0.32484725 0.06963289 0.6173515 0.45835304 0.3834072 -0.2917061 0.15604167 -0.6170085 -0.1755879 -0.4419027 -0.6636741 0.59570247 -0.03928039 0.07203533 0.23226126 0.0015720257 0.2677363 0.5104287 -0.13277635 0.74023217 0.13815732 -0.39187944 -0.14582984 -0.3777626 0.49411362 -0.51522154 -0.48632246 -0.6383885 0.024200616
715 0.3789194 -0.011524759 -0.34435108 -0.28031152 -0.2804203 0.30851835 0.40058655 0.33930823 -0.18635562 0.40303153 -0.46016142 -0.33541617 0.09946614 -0.47455075 0.03593094 -0.33923048 0.342253 0.05791581 0.13626602 -0.046556074 -0.063050516 -0.28107956 0.2852283 -0.25390336 -0.13814722 0.068981916 -0.06678137 -0.1672025 -0.039599683 0.20882183 0.17466989 -0.39142224 0.0036647767 0.1435246 -0.33799535 -0.15687107 0.051210497 0.121203475 -0.09663078 -0.0011459003 0.30991408 -0.21534523 0.07905489 -0.17109627 -0.13029456 0.27788928 -0.100006856 0.009534483 0.38400942 -0.21024393 -0.057658568 -0.3287382 -0.13395421 -0.9003866 0.16410848 0.087736994 -0.0892442 -0.14568992 0.31423816 -0.11900583 0.15045613 0.26364943 -0.010658809 0.41393057 -0.36412787 0.28006154 0.1999606 0.013525697 -0.12096261 0.06962478 0.14011706 0.25253344 -0.2488338 -0.17320777 -0.21460159 -0.17143458 0.1278942 0.041561402 0.44393826 0.038080476 0.26526618 0.18159482 -0.011509661 0.16995423 -0.32140926 0.049476366 -0.51898545 -0.065571345 -0.15952069 0.36527336 -0.36915144 -0.18877143 0.038795825 0.080903016 -0.11853085 -0.1914469 0.16690312 0.32756272 0.46980974 0.16848694
21 0.045230422 -0.04004141 -0.35623667 -0.13701302 -0.31058946 0.08424035 0.37512055 0.26049617 0.019321054 0.16706651 -0.28496733 -0.3076194 -0.26950288 -0.085015334 0.16709882 -0.35815907 0.119338855 0.120747514 0.40291 -0.18740173 -0.22693777 -0.091946304 -0.015218433 -0.3521008 -0.2004505 0.046258304 -0.12398047 -0.19091333 -0.18309511 -0.17887849 0.21842831 -0.6637483 0.34354845 0.05702198 -0.3696893 -0.14137767 -0.27068555 0.15151145 0.035693593 0.025027944 0.24311526 -0.18252142 0.10431565 -0.18897478 0.0765789 0.0129795 0.03363784 -0.20992322 0.35078204 -0.27111813 0.0011863172 0.03315902 -0.15521692 -0.99614596 0.03719421 0.23276208 0.03565195 -0.10839677 0.29737502 -0.25430936 -0.068027005 0.099930726 -0.0815212 0.08114 0.03540012 0.3807034 0.6510057 -0.025423378 -0.37352195 0.29153123 -0.02239465 0.49193642 -0.07766435 -0.45441735 -0.21108498 0.13275899 -0.38071075 -0.23271468 0.28956252 0.001473613 -0.03990628 0.2579076 -0.34388432 0.21443252 0.07742849 0.0030062096 -0.011877273 -0.005008943 -0.19338109 0.28498873 -0.7096401 -0.3446575 -0.1228269 0.18593422 0.119491644 -0.3438927 0.23736286 0.104542054 0.22752982 -0.064877294
353 -0.058582556 -0.052597806 0.3479215 0.27668718 0.30031073 -0.25651038 -0.41882807 -0.17346416 0.41812035 0.13118781 0.35997838 -0.19319694 -0.06589025 0.26288953 -0.40713024 0.22501564 0.09585018 0.18836325 0.42250127 0.037140258 0.021257933 0.5802081 -0.30792493 0.15724754 0.34042358 0.09465717 -0.04663482 -0.07478886 0.5787681 -0.035281494 0.09029233 0.50150955 0.19467975 -0.0842304 0.06871844 0.24075189 -0.24574341 0.32373235 -0.17825758 -0.003470933 -0.21079496 0.47136435 -0.56503147 0.41703543 -0.24515566 -0.05166447 0.036168206 0.057839237 -0.31751204 0.52601767 0.037666637 -0.3537119 0.23302047 0.66623515 0.07938937 -0.14260459 0.6150586 0.13167553 -0.037714727 -0.04632036 -0.16347872 -0.4259237 -0.018863743 -0.015619356 0.09751473 -0.56075495 -0.4223402 0.02634051 0.635938 0.00053549476 0.034006186 -0.3431497 0.05832818 0.38692307 0.36906454 0.48430043 0.133005 -0.1585698 -0.0009278742 -0.2774097 0.014757718 -0.5566769 0.66923624 -0.42091355 0.37821847 -0.4107209 0.5092937 -0.41901332 -0.010135011 -0.067775935 0.10905143 0.20706306 -0.2610867 0.16131984 -0.47048497 0.33450192 -0.24567372 -0.3278513 0.052848365 -0.051396582
1 -0.05830812 -0.03871477 -0.6567623 -0.5028249 -0.23019391 0.43045926 -0.008940632 0.10112588 0.1699899 0.56214476 -0.45780653 -0.41446367 -0.35688874 -0.5717011 0.26192862 -0.5052764 0.048186284 -0.11336313 -0.19046028 0.07706501 0.289637 0.035511114 0.007735282 -0.5524285 0.15278772 0.043052346 -0.007524223 -0.014460013 0.006033243 -0.17353363 0.33192655 -0.22302583 -0.1985014 -0.042153455 -0.26756966 -0.4869106 -0.119282834 -0.0814324 -0.27401835 -0.24393947 0.46548682 0.13418694 0.12899986 0.098933086 -0.3466622 -0.017422017 0.32089972 0.07275904 0.15232866 -0.17791338 0.1059977 -0.24030316 0.11803291 -1.1800829 0.47927526 0.047839515 -0.30775988 -0.15581359 0.7070499 -0.22110079 0.0026915146 0.3658443 0.18811888 0.014384859 0.09043235 0.3692343 0.6168295 -0.14595987 -0.8436383 0.17291462 0.36910447 0.8286933 -0.14661783 -0.21508868 -0.3339546 -0.10554 -0.1836616 0.12563711 0.24088533 -0.19901362 -0.10250833 0.4360634 -0.28170392 -0.048523847 -0.44864243 0.11742857 -0.14825359 0.14136598 -0.12993354 -0.17557101 -0.06886132 -0.22251114 0.02428485 0.11867061 -0.13421251 -0.526952 -0.021775354 0.32464284 0.6639487 -0.10207747
1023 0.09188452 -0.3884945 0.16678941 0.49669918 0.1152488 0.1390359 -0.36982068 -0.07153305 -0.28298903 -0.572046 0.13829744 0.3743233 -0.09917578 0.8601136 -0.18290088 0.38566506 0.06434593 0.13788064 0.1443534 0.13664965 0.133651 -0.19293109 -0.5362976 0.2407582 -0.03196787 0.02893888 -0.36974356 0.19366828 0.40713796 0.11087861 -0.18962322 0.242348 -0.44824085 -0.2977453 0.65724796 0.028865132 -0.011974357 0.07644573 -0.13083705 -0.30770537 -0.4034131 0.19583434 -0.1952223 0.1756506 -0.007049961 -0.25431588 -0.20575199 0.023264289 -0.13436325 0.3049002 0.3717324 -0.19266635 0.13158645 0.8028128 -0.13573372 -0.051005848 0.6325694 0.23825632 -0.40422726 -0.17622197 0.08208326 -0.020959156 -0.2952003 -0.21419127 0.18620457 -0.10052571 -0.54306823 -0.17102021 0.46203035 0.15487885 0.39839756 -0.42648676 0.060575582 0.513067 0.56258816 -0.25644854 -0.082359225 0.031087495 -0.34967536 -0.19381264 -0.105822474 -0.3356143 0.62572145 -0.36430734 0.17979303 -0.33912507 0.27270487 -0.3072106 0.09215236 0.03785402 -0.26939762 0.42797643 -0.059751716 0.101148434 0.10322031 0.8128299 -0.19181712 -0.7253165 -0.45044464 0.026129687
1610 0.002566732 -0.4603885 0.46262002 0.43639013 0.18223491 0.36072353 -0.03290638 -0.44227248 -0.04439058 -0.06203643 0.11300721 0.51873356 -0.3261701 0.3905934 -0.38673437 0.29866934 -0.6186161 0.27686965 -0.44019198 0.104324065 -0.14814591 0.31657964 -0.19729134 0.09686589 -0.27649987 0.04019226 0.07024205 0.041568726 0.17448755 0.06763245 0.12466086 0.5545609 -0.20023154 0.18181998 0.020789206 0.47701734 -0.12200441 -0.17795904 0.19848152 0.03471066 -0.59443116 0.120610446 -0.13753004 0.066153236 0.2672774 -0.28051683 0.10948438 -0.0333724 -0.3985044 0.24616739 -0.04395496 -0.4327659 0.06562107 1.1333226 0.06236648 -0.19189274 0.06104909 -0.35577053 -0.35079122 0.29013562 -0.23998855 -0.13392104 0.09190169 -0.31142527 0.38082895 -0.48676592 -0.3452385 0.30140823 0.5151663 -0.2131038 0.20207414 -0.4830617 0.30643043 0.5700545 0.14515083 0.08394693 -0.03135062 -0.017144863 -0.39289713 0.13567479 -0.14375664 -0.119867064 0.76126075 -0.17212208 -0.06019438 -0.04568354 0.18113793 -0.16782664 0.5603789 -0.21131204 -0.08769493 0.03039623 -0.4387837 -0.33016756 -0.072937086 0.43481544 -0.38129315 -0.42969748 -0.121767655 -0.04480201
825 0.024229124 0.15359342 -0.1029127 -0.3058029 -0.116624415 -0.093530566 0.520024 0.38544145 -0.18975256 0.082285434 -0.30180812 -0.099398226 -0.25929853 -0.06469212 0.2242283 -0.18984754 -0.017377809 -0.30146512 -0.10676426 -0.04880727 0.09046913 -0.012901756 0.28498498 -0.19564493 0.119884126 -0.27266073 0.17071435 -0.24620265 -0.17881729 0.20542063 0.036372364 -0.33240435 0.016748466 0.038032744 -0.4735191 -0.29576245 0.2367048 0.24494514 -0.14094584 0.044203818 0.19723426 -0.37710962 0.13945015 -0.15917873 -0.12043404 0.092168294 0.094603136 0.16184482 0.28555787 -0.4678103 0.08527273 -0.11830893 -0.16847211 -1.0746166 0.44586134 -0.06620196 -0.21306118 -0.15698104 -0.0048635565 -0.28467295 -0.09628762 0.041362453 -0.034603003 0.14938653 -0.39371812 0.40405393 0.36111265 -0.091720894 -0.65516543 0.1613273 0.03679738 0.14298438 -0.5279923 -0.17800523 -0.21653454 -0.08302735 0.05772341 -0.09810223 0.24283321 0.053273015 -0.026183708 0.0009585212 -0.3622243 -0.098144874 -0.097945 -0.049912114 -0.3221644 -0.1564733 0.19203614 0.19111437 -0.23469314 0.0023502263 0.042648807 0.2329839 0.42583776 -0.0011310212 0.2541149 0.13589808 0.22204545 -0.029639378
1745 0.07967905 0.04705816 0.0057385284 -0.24563587 0.05906963 0.38457364 0.5051212 0.14025272 -0.28811955 0.29562238 -0.37920994 -0.010890494 -0.23877758 -0.06737924 0.26120105 -0.34759253 0.15878561 -0.2975705 -0.23561387 -0.37212703 0.03427727 -0.32106045 0.29761067 -0.42932773 0.15221024 -0.45715356 0.13691096 -0.050289962 -0.09262178 -0.13052495 -0.29648 -0.5235095 0.064278714 0.039102107 -0.14454181 -0.011254085 0.13165542 0.120713145 0.23333126 0.03183636 0.44068164 -0.5401687 -0.22079381 -0.3635054 0.11939294 0.39295363 0.10749773 0.3561529 0.330051 -0.37451747 0.121612675 -0.34595716 -0.46985686 -0.5339408 0.06123862 0.047114793 -0.54535514 -0.082347766 0.035875 0.14129561 0.35147405 0.62438077 -0.099924445 0.32536167 -0.2323905 -0.022936555 0.44513813 -0.043286093 -0.68717825 0.5409621 0.009796569 0.12823436 -0.30181453 -0.26195458 -0.47104943 0.22795206 -0.06496413 -0.32488492 0.43799323 0.003773635 -0.13936926 -0.033005513 0.069165036 0.30799592 -0.32564053 0.12405181 -0.022216644 0.1542362 0.022297716 0.11917959 -0.16858049 0.07344664 0.026126936 0.22220246 0.055102456 -0.36378086 0.3018612 0.16233322 0.080023706 0.0038241295
940 -0.025198137 -0.48129404 0.34714505 0.3235182 0.059370317 -0.20383088 -0.22284605 -0.40543056 0.24446207 -0.39359516 0.254093 -0.1477231 -0.111881346 -0.03152106 -0.24807402 0.7018762 -0.16554543 0.40500906 -0.40707883 0.15329377 -0.14984035 0.2576673 -0.48895854 0.05236109 -0.22105557 0.08332487 -0.26123583 0.037600257 0.46771303 -0.032574084 0.18965727 0.14180438 -0.46321094 0.095779926 0.8720897 0.06047943 -0.25112477 -0.31984925 -0.22988841 -0.27226645 -0.33746406 0.4127928 -0.12688039 0.017079312 -0.3675307 0.14009647 -0.30055526 -0.38088685 0.0953654 0.12114428 0.053732812 -0.27985746 0.33708784 0.86317337 -0.20213479 -0.16464996 0.24579309 -0.42297322 -0.20484333 0.1940917 -0.3242296 -0.32176024 -0.48947287 -0.21394633 0.37323675 -0.3205092 -0.17207403 0.25772524 0.44688252 -0.11903571 -0.099013254 -0.05540472 0.4384888 0.5924329 0.27167985 0.1614636 0.06343949 0.20098548 -0.46633828 -0.40240836 -0.42901206 -0.4020357 0.34687734 -0.6464542 0.22004443 0.005460918 0.31661987 -0.14866129 -0.19281273 -0.33656552 0.33605632 -0.06542848 0.13015534 0.013361992 -0.09876748 0.06480854 -0.37466794 -0.5875572 0.10911557 0.079548284
1544 0.2514558 -0.03830144 0.04795092 -0.49188247 -0.346803 0.5599985 0.39869487 0.37739658 0.05035258 0.2094383 -0.3108298 -0.20684963 0.015255865 -0.1785382 0.508315 -0.15028255 0.19039582 -0.0212558 -0.41944668 -0.4082144 0.18672495 -0.17136519 0.4384389 -0.24956831 -0.060358822 -0.18898085 -0.11090004 -0.062029418 0.05145621 0.23348722 0.048609998 -0.1675448 -0.1306371 0.06316242 -0.4930148 0.029625287 -0.0441708 0.07795791 -0.17813902 0.1034553 0.22235441 -0.044728696 0.06436335 -0.4079095 0.4134149 0.35052228 0.09513101 -0.034199 0.20683397 -0.56360453 -0.08036622 -0.21521512 -0.31106237 -0.5357903 -0.023070227 -0.17041956 -0.69908196 -0.07762379 0.1936283 -0.44616237 0.21110313 0.25863403 0.065864235 0.011317034 -0.3548837 -0.017926995 0.4610127 -0.07091098 -0.49045014 0.0013391261 -0.054947887 0.2669729 -0.39855847 -0.32853925 -0.071300216 -0.23415911 0.06993007 -0.35058555 0.33741727 0.2175829 0.18680206 0.31254733 -0.31206423 0.25105816 -0.5061603 0.015461355 0.17487335 0.09987579 -0.12855159 0.14015707 -0.2534373 -0.31402558 0.06868675 0.26910445 0.030825244 -0.25482142 0.07001874 0.5016387 0.014054177 0.086858205
1446 -0.035202857 -0.06837611 -0.20459016 -0.49922106 0.19899645 0.1620951 0.29187295 0.24049114 -0.27197242 0.30864668 -0.48154947 0.12707914 -0.09944547 -0.056832373 0.45484155 -0.25192508 0.31710306 -0.20377222 0.01857239 -0.24110411 -0.24484454 -0.58871704 -0.0005246948 -0.12185003 0.17250854 -0.25983942 -0.03146878 0.09276495 0.0012017684 0.3935869 -0.083209574 -0.17837483 -0.0050774543 -0.17694953 0.013455736 0.03913968 0.2933694 -0.045131397 0.0842181 -0.090823 0.34330863 -0.92852306 0.08609075 -0.1299963 -0.16880216 0.59916836 0.071488395 -0.016327852 0.118441865 -0.17025976 0.15126729 -0.37866122 -0.5752054 -0.8878646 0.060306642 -0.09014566 -0.123859175 0.026736382 -0.17698205 -0.23112103 0.016374836 0.17516266 0.16379671 -0.09549243 -0.23683201 0.23506075 0.27302647 0.12325145 -0.6111286 -0.020770984 0.10789347 0.39454454 -0.5441941 -0.43805048 -0.21100618 0.07665503 0.14090754 -0.1784704 0.23376754 0.2372682 0.2848516 0.52354324 -0.18589953 0.094549365 -0.15806614 0.17169462 -0.7197519 0.105499126 -0.10229125 0.20451434 -0.007798491 0.0982523 0.57798815 -0.18699893 0.20840232 -0.33638296 0.17413062 0.48992965 0.25343925 0.035496633
1390 0.15759721 0.12715822 0.022150664 -0.37586662 -0.4809838 0.1130215 0.35862008 0.3134836 -0.30368862 0.1292098 -0.21593839 0.0026749347 -0.29834056 -0.20147488 0.5055302 -0.50263053 0.13658896 -0.5362421 -0.14397588 -0.060636718 -0.22705968 -0.7288352 -0.06464013 -0.17810257 0.067959465 -0.07676579 -0.17050645 -0.23378335 -0.12352959 -0.106988035 0.15363315 -0.30334824 -0.20437248 0.0216705 -0.15781558 -0.3146996 0.018213246 0.14733304 -0.23162414 0.21033424 0.15521577 -0.16678937 0.23293056 -0.21785526 0.27206948 0.4170118 -0.0013458581 -0.045497395 0.31064883 -0.18322924 0.012306784 -0.06355983 0.005767489 -0.78092396 0.10056595 -0.02069129 -0.15564679 -0.12227966 0.3815357 -0.028336585 0.13300772 0.10856205 0.23096217 -0.07417733 -0.41486335 0.04173194 0.5513404 0.16297351 -0.18628864 0.4700467 0.46691626 0.4514735 -0.24408221 -0.075481996 -0.5746238 -0.1999913 0.04074841 0.078420535 0.38324577 -0.095586896 0.4512945 0.21795505 -0.4758706 0.0888278 -0.21470161 0.06421636 -0.005988557 -0.090049565 -0.017309552 -0.030540688 -0.27618998 -0.19861996 0.38351822 0.10889169 0.1890468 -0.2678341 0.42740622 0.3865439 -0.10110753 0.09246908
494 0.28531072 -0.20492528 0.02321909 0.49689943 0.16691126 -0.395646 -0.2249872 -0.63037825 0.4719271 -0.24968012 0.23160617 -0.079676375 -0.08294385 0.6847814 -0.5037263 0.26566094 -0.14490476 0.569053 -0.31498343 0.37656894 -0.12397112 0.40413085 -0.37564918 0.58813286 0.08369327 0.14695208 -0.19238271 0.06391959 0.59826213 -0.08287552 0.48619696 0.27315778 -0.053525902 -0.11720167 0.41229978 0.27371636 -0.31856245 -0.07993346 -0.159415 -0.086630784 -0.3570354 0.06908739 -0.257706 0.23808534 -0.2489697 -0.29219761 0.13522565 0.012691496 -0.064782515 0.4388119 0.07400457 -0.12794264 0.23476435 0.72547334 -0.19045816 -0.24458084 0.19415982 -0.13074028 -0.35758057 -0.1750059 -0.23686323 -0.27349925 -0.30234388 -0.46939802 0.25073633 -0.1348228 -0.4759403 -0.07935103 0.3543098 0.19023412 0.20611031 -0.5138248 0.05386259 0.36036098 0.1754933 0.21907963 0.013339405 0.3004548 -0.25805262 0.027086722 -0.28496218 -0.43786767 0.4219476 -0.66425806 0.4067596 -0.31740215 0.31334195 0.29516813 -0.15665248 0.03211803 0.06026741 0.68999016 -0.27637586 -0.26711857 -0.1527859 0.10928649 -0.17946911 -0.08524885 -0.13707517 0.15546204
1195 0.33409467 -0.12786007 -0.21635717 0.25609267 -0.08731294 -0.12928858 -0.0507506 -0.25905368 -0.025319675 -0.3931845 0.299069 0.112007454 -0.18155578 0.4623932 -0.34167755 0.3558086 -0.20852679 -0.013055307 0.015072089 0.33596343 0.4512858 0.2511067 -0.29048145 0.3777323 -0.015042795 -0.26414555 -0.2537355 0.21324547 0.36201248 0.032835785 -0.09209184 0.067943245 -0.08584245 -0.13556854 0.61150604 0.116906114 -0.038745694 -0.11740832 0.09670942 0.08649749 -0.44966245 0.12818955 0.1704917 0.17454162 0.114781536 -0.20027117 -0.062457416 -0.077909194 -0.090047084 0.604374 -0.1589904 -0.06913569 0.1788073 0.6634029 -0.02299549 -0.037577383 0.37913767 0.09551684 -0.19712645 0.07445215 -0.098455496 -0.33464804 0.20284459 -0.4342667 0.50910217 -0.24102204 -0.5483216 0.29217142 0.5667234 -0.14665395 -0.11879441 -0.16400065 0.07929721 0.15956001 0.22179614 -0.025507748 0.11657587 -0.090573646 0.11239852 -0.28608766 -0.29077023 -0.3056585 0.54140496 -0.13611121 0.021165388 -0.023214713 0.5094648 0.050917525 0.07996082 -0.36971763 0.130662 0.011481685 -0.039191987 0.27599528 0.0025569473 0.6890436 -0.77023757 -0.44726792 0.012245948 -0.12264763
1154 -0.11390528 -0.0068132444 -0.09205124 -0.19260493 -0.22684674 -0.18273985 0.35513783 0.29298446 -0.058535058 -0.09860969 -0.27602547 -0.055886753 -0.17022713 0.08569071 0.30085298 -0.20622666 0.30255818 -0.21896625 0.0033656126 -0.3340639 -0.1330427 -0.48814905 0.04276225 -0.09063989 -0.247273 -0.18415634 0.14865705 -0.12094218 -0.4392232 0.082142115 -0.15672953 -0.35975027 -0.11364142 0.21260852 -0.3235555 0.031590365 0.17258485 0.40867186 0.10273172 0.18975116 0.17680158 -0.13781443 -0.15375361 -0.30297384 0.10279265 0.34010822 0.0105650695 -0.11066178 0.17951764 -0.23932786 -0.047000367 0.0356062 -0.15565585 -1.0960519 0.014495944 0.15224084 -0.37680516 -0.5731999 0.122656986 -0.052598402 0.10737863 0.036234353 0.081340894 -0.04701286 -0.36030623 0.11981304 0.36341092 -0.07847145 -0.34264284 0.08848246 0.09112348 0.21824035 -0.07367815 -0.09956719 -0.4315097 -0.3343394 0.050140265 -0.109614715 0.23935695 0.30728337 -0.17451122 0.40478915 -0.47790444 0.13493505 -0.117488526 -0.08356628 -0.34801877 0.08620682 -0.19497338 0.27618307 -0.31936967 -0.1511863 0.24728747 0.1454754 0.35581192 -0.17982188 0.19455335 0.22234258 0.1493182 0.13225949
638 -0.019585991 0.017926197 -0.38638216 -0.13562939 -0.12094483 0.09156111 0.18176578 0.24899362 -0.20290731 0.142684 -0.27050146 -0.29219738 0.003285717 -0.21049578 0.2602597 -0.111546405 -0.11841024 -0.37783822 0.30494276 -0.036557823 0.15591988 -0.04948844 -0.19187932 -0.3962261 -0.29019374 -0.020597374 -0.10680455 -0.1754599 0.008213121 0.06340492 0.23106103 -0.29351676 0.13431607 -0.0930309 -0.63163716 0.03002375 -0.14317682 0.12808265 -0.341998 0.0721357 0.26532423 -0.12752703 0.22691962 -0.16435932 -0.098400876 0.15738063 -0.065872215 0.055850986 0.080561005 -0.31657407 -0.07873841 -0.033364218 -0.052021395 -1.0730186 0.35800686 -0.08694656 -0.1901348 -0.25636682 0.15790431 -0.34561333 -0.002954735 0.09627728 0.18869248 0.25731656 -0.57356954 0.27392858 0.5003198 0.046491962 -0.51223534 0.36280435 0.29648197 0.7564781 -0.14087433 -0.36341962 -0.24066469 -0.06300671 0.056875616 -0.111048244 0.23928468 0.41548315 -0.1470231 0.16072151 -0.1350609 0.17227386 -0.31932208 -0.23609357 -0.110854805 0.21557988 -0.045051266 0.34336138 -0.28704533 0.032611083 0.40149435 0.101615794 0.012850372 -0.22440967 0.19567825 0.25426635 0.40253186 0.2503694
604 -0.11843224 -0.33142766 0.07267699 0.49177757 0.33991614 -0.02904996 -0.12447216 -0.26250377 0.100984335 -0.15344894 0.39729026 -0.20351905 0.27191803 0.062463272 -0.48674047 0.40202105 -0.21707632 0.13862972 0.17063823 0.235109 0.14138204 0.26722255 -0.07270298 0.24168205 0.20028846 -0.046905402 -0.011444488 0.1040944 0.06364545 -0.119128436 -0.042199247 0.42613906 -0.25424322 0.07907424 0.09163731 0.27554876 -0.21043217 -0.1859077 -0.11205408 0.007830687 -0.33160448 0.32003355 -0.18317884 0.05299046 -0.12712088 -0.026090536 0.15797462 -0.04823335 -0.33175516 0.33666423 -0.25675333 -0.26902556 0.5365326 0.56990874 -0.006366947 0.041621633 0.29352033 0.005834733 -0.41082865 -0.052117802 -0.22639889 -0.43850526 -0.06072884 -0.4741666 0.39230108 -0.06961422 -0.18298002 0.08277456 0.6260627 -0.32226473 0.023816157 -0.37324333 -0.22100343 0.54153043 0.17323789 0.3572911 -0.037636355 0.056773245 -0.15638348 -0.06470568 -0.11574267 -0.31888977 0.7758203 -0.26111788 0.30908424 -0.08738302 0.16092342 -0.032365665 0.017972294 0.20251127 0.17576984 0.29409617 -0.42535576 -0.043490652 0.29446012 0.039527968 -0.34369418 -0.46629918 -0.008223822 0.13231392
1440 0.24172945 0.17016692 0.026090063 0.15890218 -0.29672053 0.45239547 0.061564963 0.4280502 -0.38560635 0.10369008 -0.5062342 -0.38617617 -0.68271756 -0.24989434 0.43992984 0.064287424 0.65599054 -0.1088621 0.07413601 -0.30722368 -0.0765563 -0.4031946 0.0211453 -0.42432854 -0.3143551 -0.05458311 0.16722286 0.050539028 -0.1715383 0.26746547 -0.10752076 -0.2772233 -0.14682658 0.41162622 -0.6526687 -0.23727126 -0.26440918 0.22187017 0.26493347 -0.021004485 -0.005555677 -0.014318593 0.14165086 0.111621395 -0.03465716 0.17396004 -0.027950542 -0.092072524 0.11525481 -0.48142824 -0.09457696 -0.17085046 -0.40863767 -0.91012836 0.32338023 0.30453208 -0.12250071 -0.22772653 0.28028566 0.2442842 0.1595138 0.21356869 -0.23103559 0.08728675 -0.26224896 0.008382736 0.3746099 0.2904378 -0.52908844 0.05102376 0.000743816 0.58804834 -0.014635908 -0.23279685 -0.3567686 -0.356452 -0.011353495 -0.16418843 0.15387326 0.3024098 0.33175915 0.45555994 -0.43630084 0.19883713 -0.26408857 -0.034187492 -0.39736918 0.1244617 -0.15972483 0.1345061 -0.37960342 -0.11109472 -0.24090068 0.092265464 0.22412436 -0.0691892 0.31121913 0.48067853 0.27955076 -0.205718
1556 0.43806887 -0.22739315 0.35687143 0.6088349 -0.06512857 -0.08963972 -0.16221905 -0.545827 -0.19513014 -0.5028682 0.072889514 0.30805013 -0.09104913 0.19588946 -0.5241793 0.4277209 -0.22755426 0.12984245 -0.28600866 0.004825095 -0.09219753 -0.11445592 -0.31234652 0.28696603 -0.1222926 -0.0832909 -0.07041447 0.49568963 0.09242565 0.3164545 -0.13053481 0.26039565 -0.2166078 0.08444326 0.17508568 0.43312076 -0.017111424 0.22674985 0.19219835 -0.00070225156 -0.27878937 0.14763544 0.16875593 -0.04206727 0.17732742 -0.19767645 0.24583426 -0.109452836 -0.18177499 0.026561113 -0.10760038 -0.13293864 0.10390173 1.1483089 -0.27824998 0.016494807 0.32178965 0.07078802 -0.1789568 0.006623874 -0.022014568 -0.42911813 -0.22695717 -0.16693471 0.34057942 0.105790846 -0.34226948 0.26763535 0.9743011 0.054392956 -0.477128 -0.35716128 0.20764664 0.16886799 0.22396354 0.14407092 -0.10002243 0.11881244 -0.24300174 -0.44172075 -0.4315063 -0.6045452 0.44375587 -0.19032472 0.24544306 -0.23467597 0.01836817 -0.097068064 0.43830076 -0.38060516 0.40453196 0.06705917 -0.034671854 -0.16321872 -0.27416652 0.21557485 -0.2092629 -0.3832994 -0.3473024 0.20572452
1831 -0.07054678 -0.11364193 0.4282834 0.24481525 0.043397922 -0.12726177 -0.06009613 -0.51478237 -0.005883211 -0.36433408 0.31532866 0.13180129 -0.07747607 0.2652115 -0.35906896 0.49436647 -0.21570557 0.18382965 -0.11004287 0.040759742 0.04363989 0.24004944 -0.22275196 0.010451482 -0.040810786 -0.122613534 -0.10900996 -0.09077133 0.49327073 0.3131243 -0.23986498 0.43085787 -0.43409586 0.021297874 0.2603148 0.0023326883 -0.16213197 0.030025203 0.06517529 0.24884005 -0.36655626 0.2391101 -0.45876572 0.25042227 0.33688277 0.06063242 -0.14244889 -0.16714697 -0.16350065 -0.012661388 -0.32488722 0.0598828 0.12107866 1.0927156 -0.20153075 -0.34310496 0.09521004 0.22358745 0.060644872 0.39667132 -0.0045633116 -0.13083337 -0.06580202 -0.12885338 0.578586 -0.13555391 -0.69457084 0.34888524 0.50857204 -0.16181503 0.28560153 -0.2729488 0.18685351 0.09625692 0.06848731 0.18636794 0.10738021 -0.08173432 -0.49798372 0.084972136 -0.20533289 -0.38944775 0.56453145 -0.20002967 0.032912523 0.1282188 0.28136465 -0.056026142 0.032461826 -0.2388649 0.7148508 -0.012479552 -0.037891217 -0.378658 -0.11043598 0.2680513 -0.13427353 -0.25972652 -0.19354783 0.2943576
1272 0.0706094 0.22033572 -0.20732549 -0.42545944 0.13772267 0.047606926 0.11765072 -0.05494537 -0.1939821 0.24725398 -0.5517611 -0.15544005 0.08205363 -0.115414545 0.35481277 -0.1749579 0.54181516 -0.4490999 0.097574286 -0.24703303 -0.07357484 -0.44028834 0.11289814 -0.27739635 -0.10647471 0.093573146 -0.22517346 0.06272925 -0.326108 -0.14446455 -0.10487381 -0.28097782 -0.08075949 0.10404185 -0.039448004 -0.08258301 0.080427535 0.016274963 0.1882847 0.18467478 0.301673 -0.23125425 0.17679594 0.0045135426 0.19741404 0.09945159 -0.09521293 0.06932919 0.6364934 -0.35297018 -0.089820564 -0.2530797 -0.20073666 -0.75216925 0.04960222 0.11518151 -0.11841529 -0.45434827 0.014883309 0.33391127 0.022100678 0.38172463 -0.1671201 0.18357798 -0.23651706 0.2681712 0.50400126 -0.044786 -0.19841684 0.26057673 -0.09767838 0.32851326 -0.0804233 -0.2818203 -0.3077892 -0.30895016 -0.011249552 -0.040384166 0.054252654 0.16093312 0.06260496 0.10117899 -0.5038066 0.15199085 -0.5377077 -0.19510388 -0.46320552 0.06309544 0.19459568 0.24915151 -0.29861242 -0.054017946 0.22985563 0.24708535 0.46459216 -0.23162028 0.16997652 0.47537154 -0.004168548 -0.14480199
1794 0.326848 -0.3240548 0.07723427 -0.37989104 -0.017610133 0.07487526 0.3732121 0.34075567 -0.24513245 0.12491892 -0.32081524 -0.5859097 0.04540604 -0.15427166 0.19559531 -0.323396 0.36143234 -0.17531374 -0.08858417 -0.3243466 0.09886149 -0.4943817 0.21839339 -0.60874397 -0.1644657 -0.14064951 0.05688909 -0.27362555 -0.11421071 0.30924743 -0.181937 -0.44593403 -0.18407351 -0.11113018 -0.28486192 0.05945513 -0.18201587 0.12118845 0.16013053 0.22058758 0.26002347 -0.30538088 -0.011591754 -0.10905327 -0.07871649 0.41881773 -0.15361112 0.2343929 0.09832108 -0.2935771 -0.105458 -0.06494519 -0.39261404 -0.74170095 0.2811925 0.26072025 -0.4019139 -0.1292789 0.080451235 0.25994882 0.1019982 0.41087583 -0.05364552 -0.08375314 -0.5505546 0.332258 0.179412 0.16695361 -0.5633408 0.211121 0.20093526 0.22361419 0.06002775 -0.35545388 -0.51699996 0.026536034 -0.3806755 -0.2227567 0.2302289 0.16107544 0.041487988 0.2987739 -0.3611527 0.2675231 -0.47936118 0.3994897 -0.28483135 0.26142046 -0.07247092 0.006873337 -0.31298018 0.13875078 0.27304566 0.1427385 -0.005119315 -0.053837646 0.28155082 0.21434867 -0.09161152 -0.14205182
406 -0.24381834 -0.42692977 -0.088146 0.07822389 0.6370323 0.031146022 -0.37622887 -0.33016932 0.107965164 -0.3715141 0.5494682 -0.092213646 0.33794352 0.19860534 -0.49612433 0.556563 -0.55848783 0.42634907 0.096183375 0.45017925 0.4423769 0.87485766 0.32334697 0.22217555 -0.03082092 0.15275715 0.05913837 0.46614707 0.55301845 0.59747016 0.12235899 0.09849304 -0.4756758 -0.05968946 0.48084956 0.024040895 -0.15334539 0.23329782 -0.21509205 -0.0020970067 -0.27303237 0.39318833 -0.03924758 0.17038664 -0.35250792 -0.10061302 -0.15830201 -0.16450764 -0.68133485 0.44364655 -0.1581818 0.1551556 0.57990146 0.59104437 0.1157095 -0.027746618 0.15301093 -0.2777227 -0.29545486 0.072208025 0.19876236 -0.18615216 0.08004655 -0.4182509 0.2224986 -0.2756862 -0.6429603 -0.23666988 0.5906458 -0.24068195 0.54137105 -0.27417752 0.30369565 0.08340162 0.6363036 0.19434266 -0.11980502 0.121635035 -0.28374147 -0.31166145 -0.4466101 -1.0905184 0.36123493 -0.13013572 0.2111188 -0.29734504 0.12421915 -0.23202446 0.038397744 -0.040169526 -0.12189995 0.32737795 0.4590951 -0.2557152 -0.34325576 0.26474833 -0.573528 -0.31678766 -0.12310913 -0.14546797
815 -0.038247928 -0.45659754 0.0070075435 0.27622786 0.13685343 -0.4404333 -0.39961985 -0.22658543 -0.086887084 -0.11574343 0.5279222 0.13086973 0.0016647815 0.4554829 -0.5483485 0.42531285 -0.04928982 -0.09338641 -0.32031366 -0.10067764 0.61299837 0.07606248 -0.35000828 0.2954859 0.18047005 -0.08431595 -0.39008844 0.01548945 0.45136002 -0.35495976 -0.034721226 -0.2306185 -0.42772526 0.33796346 0.36071014 0.36405367 0.028892158 -0.20168087 -0.11809588 0.32887456 -0.4117543 0.14460215 -0.08242473 0.040587027 -0.19010487 -0.1875404 0.111483715 -0.22789893 -0.15096034 0.466437 -0.25782847 0.014771091 0.19894162 0.689383 -0.1818995 -0.11406355 0.2415791 -0.045399018 -0.063907854 0.19398522 -0.06512771 -0.27455416 -0.048926596 -0.30450752 0.33709192 -0.2412774 -0.6771329 0.0911668 0.31915262 -0.2452832 0.28157723 -0.48954177 0.06716182 0.44211507 0.3560184 0.15841185 0.085347205 -0.093807034 -0.013035596 0.19458733 -0.13542461 -0.5254177 0.42063752 -0.38392553 0.3867987 -0.06555863 0.5709009 -0.42993748 0.404131 -0.30954498 0.10557351 0.44042757 -0.0067771883 -0.085161306 -0.42581818 0.17399162 -0.0055194567 -0.5347139 -0.047300704 -0.012985735
1369 0.4872738 -0.26642144 0.1540001 0.22795317 0.04564169 0.040197082 -0.13531095 -0.19473636 0.47821757 -0.5631907 0.04234292 0.40531707 0.042977978 0.51676905 0.051740564 0.5460394 0.11878703 0.198617 0.0012851693 -0.0039039264 0.18230578 -0.07200358 -0.026397277 0.24000902 -0.12262147 0.12014746 0.0255461 0.15877216 0.33551106 0.123180084 0.044921868 0.27384526 -0.26407534 -0.12525165 0.07857572 0.22098742 -0.23157726 -0.22959237 -0.03512515 -0.15469447 -0.51977485 0.17583436 -0.23318857 0.088531956 -0.05807505 -0.14134964 0.15534595 -0.12997477 -0.34744397 0.21432884 0.10101925 0.021332009 0.3328609 0.94491667 -0.06902639 -0.29493684 0.42547953 -0.4459502 -0.35705513 0.45989436 -0.17994592 -0.64605635 -0.16691834 -0.21356165 0.561172 -0.2697854 -0.32199076 0.38088584 0.44993654 -0.006830882 -0.29966587 -0.06265505 0.4978019 0.035391156 0.5195545 0.24973017 0.14938992 0.026981765 -0.2603743 -0.097412445 -0.20886306 0.029388065 0.64567727 -0.18441486 0.08891047 0.06452347 0.15074159 -0.34278166 0.05281491 -0.16028443 0.09263387 -0.29196122 -0.067771904 -0.4542886 -0.10932743 0.20767295 -0.1912195 -0.61328197 -0.19684067 0.211057
834 0.014480685 0.13830473 0.16467366 0.7144045 0.2657229 -0.1829312 0.1104842 -0.5613973 -0.07836661 -0.39677775 0.32428142 0.13581544 0.29167083 0.16702028 -0.33671847 0.2685775 -0.32959157 0.2993886 -0.32530528 0.20657235 0.4411136 -0.35863796 -0.24369381 0.19309597 0.09898958 0.011371773 0.05829829 0.45505384 0.46092784 -0.054798342 0.12065969 0.1723575 -0.16525868 0.109310634 0.43103957 -0.05115343 -0.17829297 -0.20222007 -0.5493064 0.01590294 -0.36220908 0.4318157 -0.3757005 0.06658155 -0.014670397 -0.15125616 0.23732522 -0.24901275 0.0012459778 0.41404587 -0.013549124 -0.25643688 0.21033642 0.837168 -0.058190223 -0.32551152 0.22565156 0.084289804 0.12018174 0.121515006 -0.30206895 -0.4310352 -0.054274943 -0.016844565 0.73729444 -0.31451774 -0.75108206 -0.10355329 0.32299957 -0.31997606 -0.043161675 -0.21700384 -0.12775078 0.21810216 0.2397814 -0.094028994 0.24765709 0.021086505 -0.251094 -0.24498218 -0.18155581 -0.4920526 0.55376494 -0.25902817 0.12434557 -0.026408885 0.23238291 -0.026027173 0.36449793 -0.0820961 0.25364324 0.19037773 -0.33356667 0.13351312 0.17635408 -0.0025726613 -0.44099867 -0.40527314 -0.05282798 -0.14419223
1990 0.5722532 0.17191198 0.8191855 0.5147583 0.118535794 0.100606896 0.046720043 -0.6761404 -0.008900099 -0.23319976 0.23332 0.5753807 0.56495243 -0.050220516 -0.25374484 0.35928044 -0.031017385 -0.0116558485 -0.4709346 0.15484805 -0.06072071 0.05416406 -0.54851025 0.015813716 -0.3180862 0.22282305 0.025780296 0.2522536 0.7782746 0.23106712 -0.17298633 0.5878049 -0.10449243 -0.07063146 0.3797462 0.19051851 0.19827405 -0.027108278 -0.13137718 -0.00014103472 -0.42188352 0.19414686 0.026325293 0.064072035 0.17737941 -0.18686838 -0.1843777 -0.2853538 0.034799844 -0.119303 -0.20244192 0.29594356 0.24411593 1.1367723 -0.4387528 -0.25913826 0.21303566 0.19853713 -0.22362019 -0.091371395 0.050628617 -0.403312 -0.005242752 -0.31381413 0.9036022 -0.27280903 -0.69269794 -0.0966256 0.20594908 -0.42495537 0.18674633 -0.5474313 -0.056805484 0.46251833 0.11541042 -0.123621695 -0.2741131 -0.18082945 -0.19762784 -0.40451068 -0.54617137 -0.5252413 0.30114716 -0.6631488 0.19874236 0.26109555 0.38436186 0.21564989 0.18255463 -0.40733218 0.26269627 -0.35077158 -0.1562369 -0.19031192 -0.13999997 0.37455845 -0.10955456 -1.0045285 -0.7567566 -0.101252615
789 -0.02889994 0.4270439 -0.29428852 -0.27310258 0.1459206 0.0003263333 0.44323692 0.50716037 -0.17855528 0.33599702 -0.40832412 -0.33494315 -0.1416676 -0.20602585 0.3858739 -0.014076591 0.22720808 -0.38378263 0.24415018 0.06449859 -0.06280303 -0.23247096 0.13256438 -0.37410235 0.1017173 0.39790595 0.16475737 -0.24846685 -0.48010537 -0.1433333 -0.06372467 -0.4754447 -0.1854434 -0.09569387 -0.6783581 0.21778657 -0.07047341 0.43472573 -0.17126185 0.46423948 -0.075022854 -0.39123723 0.18918659 -0.050759066 0.05534566 0.27916187 -0.21383233 -0.16507703 0.52307904 -0.34592712 0.053471703 -0.24186164 0.0038866447 -0.78280836 -0.045483273 0.41922745 -0.15125895 -0.6030706 0.010996018 -0.17640916 0.037300903 0.24922703 0.11704878 0.3351287 0.15086763 0.450054 0.3702203 -0.1498599 -0.8342202 0.1546739 0.4514837 0.18319324 -0.4121275 -0.20022564 -0.5359085 -0.14192407 -0.1688465 -0.08850895 0.08773435 -0.02491228 0.024307678 0.26006967 -0.16549951 0.12230984 0.30351147 0.08722473 -0.12523969 -0.22599222 0.1869241 0.20530352 -0.39744282 -0.07062893 0.16622987 0.27287605 0.07856136 -0.12763463 0.32209536 0.342799 0.20606118 -0.3521523
873 0.024926733 0.0073413355 0.12459553 0.30779558 0.19224565 -0.1558291 -0.20968652 -0.33573607 0.5493177 -0.3497222 0.28976122 0.096750565 0.21577434 0.5530254 0.07145462 0.33292598 -0.23820108 -0.046465825 -0.010253407 0.29282543 -0.1382209 0.07339767 -0.2259867 0.3289721 0.24861841 0.15074965 -0.35201946 -0.0771792 0.2114345 0.13010728 0.023452668 0.37948805 -0.2947446 -0.072422445 0.43940693 0.010873295 -0.11104821 -0.26158792 0.008450318 0.049695108 -0.6434396 0.21046065 0.107629575 0.27237308 -0.10223092 0.258507 0.1661939 -0.35461447 -0.25772822 0.053131305 -0.12084781 -0.20391749 0.23104404 0.65637827 -0.10853276 -0.0006257536 0.1560215 -0.05476103 -0.22661589 0.032512795 -0.21789235 -0.17282431 0.033590987 -0.28278872 0.3523597 -0.31827548 -0.23623651 0.1442808 0.58166456 -0.011561952 -0.13267042 -0.10612363 0.42760658 0.30717856 0.4056433 0.2689472 -0.10009293 -0.23096521 -0.0659869 -0.24428947 -0.12141385 -0.4760844 0.78809154 -0.4617088 0.31723356 -0.22286455 0.4060312 -0.3842843 0.10592362 0.008700186 0.27763274 0.18232493 -0.013816897 -0.38930458 0.080634974 0.18358187 -0.45683452 -0.4168218 0.038286347 0.27253938
654 0.042890295 -0.08602886 -0.10002543 0.21951279 0.25453258 -0.2184099 -0.20147835 -0.4015551 -0.029187849 -0.29120216 0.242964 0.0043264157 0.009102619 0.30578184 -0.25345737 0.35293573 0.10101127 0.03059118 0.47810885 0.21703406 0.15751815 0.17892475 -0.3053141 -0.06858464 0.15624684 -0.08369369 -0.22174081 0.11337244 0.10477423 -0.25455377 0.09853006 0.103965595 -0.29692233 -0.012634779 0.15753192 0.25801027 0.29732317 -0.07715215 -0.040453665 0.36132708 -0.6273169 0.69496244 -0.30125207 -0.06896529 -0.15848489 -0.39887884 0.062414695 -0.28278586 0.33536077 0.39205042 -0.38711277 -0.14234553 0.27700576 0.9176109 -0.07949246 -0.081583865 0.45996162 -0.04160292 -0.35136002 -0.0015552483 -0.08253812 -0.588794 0.038979847 -0.10163733 0.6870988 0.026342124 -0.24395257 -0.053642686 0.3414125 -0.19035845 -0.12374391 -0.16466974 0.40955484 0.3331839 0.36780897 -0.07892675 0.0024632812 -0.028051654 -0.34231988 -0.02109774 -0.3864707 -0.4001298 0.69348603 -0.23610637 -0.12194158 -0.22100753 0.22792691 -0.20864052 0.096775986 -0.09592411 0.059437722 0.39851546 -0.35558635 -0.17909509 -0.3226658 0.31137997 -0.3024449 -0.49403852 -0.13182525 0.03436767
