2000 100
392 0.19963488 -0.3058343 0.20201406 -0.53141093 0.31457865 0.18884303 0.14528167 -0.45133 0.005206276 -0.040499575 0.24722034 -0.2201171 -0.01740023 0.529754 -0.3497791 -0.08157867 0.08200962 0.5081918 0.2931975 0.30486408 -0.024720786 -0.18648706 0.559485 0.5113163 -0.013294713 -0.14429088 -0.10478027 -0.4515323 -0.24966928 -0.31043562 -0.24062595 0.0027080053 0.027105533 0.508616 0.5057238 0.56515676 -0.46671054 -0.19746138 0.11265867 -0.20914328 -0.5092722 -0.38184753 -0.2775498 0.08114988 0.07158146 -0.03985151 0.5367951 0.057911247 0.32526308 0.46216425 -0.10140974 -0.10824007 0.29835826 0.093369186 0.40198082 0.18764786 -0.2475974 0.21007825 -0.026335472 -0.08882451 0.385065 0.4497557 0.19554584 0.41567335 -0.061880566 0.23538728 -0.05430693 -0.23022166 -0.038619876 0.10949471 -0.0073594856 0.049997415 -0.36305332 -0.039319564 -0.21148482 0.2500751 -0.087617 -0.5771891 -0.4026576 0.19288361 0.078861065 -0.43383306 -0.08096473 -0.284897 0.12186866 0.13845368 -0.088270076 -0.5262648 0.08588349 -0.105935775 -0.056879096 -0.012098599 -0.061814908 -0.24534377 -0.10237809 -0.10200128 -0.09818589 -0.19416462 0.29736865 0.025788842
127 -0.089542426 0.12968704 -0.3150659 0.037151553 -0.112075776 0.1468547 -0.2417541 0.14789231 -0.5970137 -0.083925195 -0.2817449 -0.32377008 0.26942888 -0.5788831 -0.023387562 -0.34852841 -0.28398573 -0.38115135 -0.15818797 -0.21124074 0.12684217 0.2804013 -0.15588076 -0.22907576 -0.1791278 -0.013805373 0.43395337 0.30522496 0.19925596 0.23171502 0.23216668 0.27088684 0.01650287 -0.1664119 -0.31636044 -0.025352327 0.13930479 0.2526482 0.052986313 0.1688558 0.5701895 0.17127278 0.01897068 0.1643425 -0.037551284 0.10337924 -0.1528364 -0.07398473 -0.18384673 -0.111566745 -0.008923846 -0.08403632 -0.07392021 0.10010736 -0.50673527 0.18440494 -0.006960693 -0.1832071 -0.34802607 0.015312016 -0.12287125 0.12116318 -0.17485258 0.32021937 0.067196324 0.08218971 -0.1485798 0.28511757 0.030229699 -0.36559227 -0.028666181 -0.07595831 0.4498778 0.3441626 0.30458915 -0.033733644 0.35417148 0.62644035 0.36002082 -0.23540038 0.024983568 -0.12515956 -0.269585 0.53331786 -0.10772416 0.06941416 -0.23269606 0.12435235 -0.36098108 -0.005975999 -0.20058693 0.1514601 0.24715494 -0.15499558 0.61031467 0.26829973 -0.12819123 -0.0593251 -0.008405181 -0.12826782
958 -0.08650804 0.13205399 -0.19810095 -0.042389926 0.0024660241 0.09696709 -0.39060995 0.1592399 -0.30462426 0.0118347565 -0.27054474 -0.08445446 0.3160911 -0.37329525 0.011950712 -0.11880421 -0.06025206 -0.24277754 -0.29087067 -0.27013803 0.10622389 0.19183108 -0.318013 -0.3774877 -0.34590912 -0.006123724 0.4708137 0.15868267 0.35038725 0.15140384 0.30602622 0.1136585 0.046973415 -0.28025234 -0.36668018 -0.067393 0.21050508 0.23693806 -0.110488065 0.2619326 0.29949176 0.34810033 -0.015852964 -0.043756407 0.015574014 0.20087448 -0.16549738 0.060875073 -0.32874668 -0.3360606 -0.07392606 0.15301159 -0.34020016 -0.04327886 -0.5946619 -0.027571136 0.038810473 -0.16103816 -0.019384442 0.12646635 -0.24621981 -0.12957253 -0.28671226 -0.12929359 -0.03677605 -0.009660271 0.10034774 0.20014535 -0.2963351 -0.35212183 -0.007944995 -0.028178938 0.07073217 0.4512654 0.3192833 -0.08273318 0.16656198 0.4476523 0.12231575 -0.3186483 -0.06317056 0.053664766 0.037231978 0.34641978 -0.17229338 0.199969 -0.24450374 0.2833443 -0.29947987 0.050773032 -0.22839528 0.01626797 0.13354698 -0.18887034 0.27146032 0.13161875 -0.021518245 0.24430412 -0.12825364 -0.19152215
1112 0.08982375 -0.08156862 0.33579448 -0.38059688 0.0733656 0.021291768 0.13715869 0.024631206 0.170494 -0.009979132 0.23224984 -0.04596711 -0.01494516 0.35323742 -0.19623257 -0.02024035 0.27889282 0.51027447 0.12976106 -0.021474052 -0.16915023 -0.28857338 0.45997453 0.067772865 0.315292 0.02151092 -0.1914697 -0.4581762 -0.19816963 -0.13173836 -0.018304143 0.15343231 -0.03926134 0.26889873 0.5017245 0.26955837 -0.26730046 -0.33776766 0.037440952 -0.20955642 -0.23271886 -0.44943678 -0.09663288 0.11014472 0.12794971 0.056641817 0.27355677 -0.20756263 0.16540189 0.4124084 0.13164306 -0.1825487 -0.0008560991 0.19008212 0.34933245 0.15465905 -0.05741342 0.09497753 -0.0051657413 0.16294162 0.49681172 0.14421807 0.22990747 0.11792777 -0.12588726 0.13273723 0.26040465 -0.45344096 0.043002874 0.24151567 0.23896477 0.08093015 -0.38001874 -0.21619642 -0.2969271 0.07653596 -0.29132128 -0.58730805 -0.3137349 0.4852326 0.22161964 -0.078687795 0.12177342 -0.29757825 -0.009533074 -0.06969919 -0.053639524 -0.31689757 0.069921486 -0.0041729077 0.06516671 0.04114771 -0.17570426 -0.10003747 -0.3372727 -0.18008538 0.06595233 0.0690052 -0.100862734 0.02683768
1898 0.12924281 -0.21068272 0.14363495 -0.075011835 0.062507994 0.093225665 0.27013928 -0.14717469 0.3472837 0.09558526 0.31328917 0.27677175 -0.076122575 0.45993227 -0.019491786 0.09256619 0.45205936 0.39171365 0.18935527 0.27057862 -0.5302431 -0.22036363 0.12370323 -0.082699135 -0.0716314 0.068709 -0.2911903 -0.39471772 -0.25880647 -0.2420638 -0.3564797 0.110294454 -0.004537976 0.13283303 0.47625405 0.1659064 -0.1500253 -0.31924656 0.19273281 -0.35193637 -0.19548947 -0.39144754 -0.022399217 0.1755086 0.386843 -0.121236145 0.124945834 -0.13622576 0.35088 0.5214339 0.103664204 0.064537935 0.39812723 0.08084693 0.52648336 0.12739295 0.17795093 0.16606586 0.15336965 0.090625964 0.11840553 0.23786177 0.09411195 -0.105816886 -0.26692697 -0.200834 0.27516523 -0.39517057 0.049966708 0.28425497 0.3970323 0.07428947 -0.6286303 -0.37672418 -0.34014633 0.3253903 -0.30478615 -0.80505425 -0.19485174 0.5475344 0.09143884 0.0054221535 0.16917072 -0.5074428 0.14376603 -0.19606104 0.2715161 -0.27678132 0.08179804 0.060097106 0.041482467 0.2736546 -0.22187522 0.3203311 -0.4175658 -0.0023210882 0.04983145 -0.21047443 0.004753286 0.15383996
1767 0.02830125 -0.18214981 0.4247386 -0.12682608 0.0589557 0.20137702 0.005417511 -0.21774398 0.29522893 0.06825774 0.4337267 0.081784785 -0.2653339 0.3415338 0.15728143 0.16710326 0.16771153 0.42129785 0.21653083 0.19199291 -0.30269867 -0.21656877 0.11308375 -0.0032646982 0.012555612 -0.21201119 -0.2753647 -0.18133889 0.08413546 -0.29278564 -0.30422783 0.2948891 0.0011054773 0.2145364 0.5349236 0.37985453 -0.11423769 -0.4107397 0.17599775 -0.1221791 -0.29656878 -0.33813652 0.048852213 -0.09280871 0.5149719 -0.050721582 0.055447493 -0.21250598 0.19736017 0.6382534 0.059424598 -0.13054535 0.39696103 0.022065166 0.7289941 0.25499582 0.11061585 0.119405985 0.10180843 -0.19151734 0.15099855 0.25182372 0.33898792 0.17021272 -0.15097351 -0.38380405 0.102487415 -0.3741057 0.33631986 0.045796547 0.3743785 0.038896546 -0.5257291 -0.31024474 -0.43218285 0.2850665 -0.33317629 -0.8995361 -0.21466124 0.421492 0.11297246 -0.221003 0.19886483 -0.305305 0.20057486 0.0897272 0.06908352 -0.11724819 -0.028202195 -0.059019446 -0.13933627 0.18361151 -0.31891894 0.036277507 -0.53984296 -0.21969402 -0.065267615 0.05239952 -0.16419259 0.10022772
1424 0.022633715 0.28812513 -0.28153172 0.14102942 -0.36786166 0.050771814 -0.41395226 0.07366436 -0.4935516 0.28183827 -0.58591515 -0.038017817 0.130591 -0.7513191 0.04194582 0.018833073 -0.08015072 -0.0603137 -0.15127987 -0.19735305 0.095717534 0.14328021 -0.38870212 -0.39183506 -0.3792075 -0.076842755 0.18485777 0.29610342 0.22168495 -0.12297091 0.10245685 0.35882565 0.17420852 -0.29193676 -0.2367617 0.0019130383 0.30605024 0.14738277 -0.15243705 0.30605322 0.4752629 0.15962061 0.038731255 0.027697895 -0.10319514 0.14719768 -0.2948738 0.2454556 -0.4093594 -0.25215155 0.20980719 -0.11322667 -0.045822605 -0.0011404024 -0.24071805 -0.009967196 0.061956838 -0.07950133 -0.17492078 0.013756601 -0.36189812 0.013491306 -0.3152014 -0.28450745 -0.0878859 -0.16549091 -0.013586698 0.4027913 -0.14230646 0.035507448 -0.08338327 -0.08316432 0.18477735 0.36081252 0.2222552 0.12759997 0.101752944 0.73205787 0.4262703 -0.229091 -0.16250126 0.15120839 -0.09264477 0.34676898 0.021926668 -0.16926882 -0.0119166635 0.5383561 -0.11603329 0.12425613 0.06347959 -0.06986769 0.082493074 -0.029260313 0.22900411 0.15338977 0.069996566 -0.13162509 -0.3247091 -0.06833851
1188 -0.031103546 0.08003006 -0.36373952 0.041701555 -0.15586554 -0.118247814 -0.28398782 0.077077426 -0.35872084 0.2226333 -0.30485725 -0.1431797 0.028275881 -0.43574178 0.1419918 -0.19242384 -0.10139254 -0.10590975 -0.17341888 -0.18759897 0.19063231 0.11761903 -0.21531405 -0.48724097 -0.28447685 -0.14751157 0.38228136 0.46553773 0.17065744 0.15552457 0.03858903 0.11043898 0.17078169 -0.25849485 -0.14896283 -0.23008959 0.18356785 0.38587037 0.07837236 0.11766503 0.41632697 0.32649863 0.19081391 0.19480917 -0.1024035 0.38026512 -0.13102046 -0.12258125 -0.26567084 -0.21260305 -0.03486412 0.1123729 -0.4157684 -0.021388743 -0.42140558 -0.071045496 0.041023597 -0.30127022 0.0456466 0.12311391 -0.20409016 -0.09914112 -0.19786692 -0.08065311 -0.23259233 -0.09467345 -0.13055703 0.37359148 -0.092121854 -0.25763384 0.032900017 -0.204232 0.21755171 0.36344272 0.2807247 0.12027017 0.08896384 0.45568243 0.38029662 -0.11500443 -0.13733949 -0.03763299 0.09605146 0.4561298 0.015300567 0.03660421 0.019403804 0.24792257 -0.2033976 -0.12715258 -0.16211449 -0.16579473 0.08999356 -0.1088788 0.37932527 -0.015484618 0.015258169 0.25621176 -0.07163918 0.085617505
417 0.11512546 -0.13822353 0.37284055 -0.38134697 0.18999426 0.08582292 -0.115240276 -0.16196208 0.14176896 0.11411526 0.22353517 -0.043438006 -0.07608535 0.70342416 -0.31082264 0.28694832 -0.06891326 0.7679269 0.35756764 0.2151871 -0.0064226002 -0.19456737 0.31459647 0.4207062 0.10846716 -0.042613626 -0.19577427 -0.4122233 -0.15877077 -0.16041563 -0.12861934 -0.04545718 -0.120014 0.5415276 0.3505131 0.4571148 -0.31219167 -0.16336323 0.2066946 0.122582756 -0.35166508 -0.84669256 -0.33066192 -0.20453 0.006950048 -0.04899125 0.2804834 -0.09471452 0.37554765 0.37296042 -0.06941087 -0.30358925 0.13989015 0.13546398 0.40878445 0.26114765 -0.09820206 0.13329455 -0.22861548 -0.33532026 0.5891061 0.44069827 0.6225584 0.14014657 -0.19720016 0.07104133 0.124250576 -0.3377738 0.122081645 0.34043202 -0.1256067 0.27588704 -0.3520127 -0.14055787 -0.3213641 0.15669906 -0.17731358 -0.4071817 -0.12576331 0.05507619 -0.05678121 -0.3329297 0.043249786 -0.26949978 0.24630627 0.22282636 -0.29024425 -0.27563697 0.07493697 -0.12577182 -0.06706304 0.03624436 -0.3066942 -0.2749042 -0.23446164 -0.070002705 -0.21360764 -0.31212893 0.19065769 0.055147313
39 0.059890497 0.24941896 -0.30332774 -0.17473987 0.089889824 -0.13201499 -0.35603046 0.0028708354 -0.31858122 0.24280247 -0.39979735 -0.33158746 0.27465877 -0.5346336 -0.06647717 -0.38650754 -0.27990544 -0.25969425 -0.18475424 -0.20692566 0.07347463 0.165914 -0.41040856 -0.06246071 -0.10249762 0.0109675 0.24489948 0.5923715 0.04939022 0.4078299 0.15033847 0.27227467 0.27152488 -0.20787397 -0.22146207 -0.023466572 0.12655374 0.4928528 -0.30812478 0.13689856 0.25953233 0.07324409 0.24596141 0.31137148 -0.21198305 0.37272295 -0.16753843 -0.0043440126 -0.10691877 -0.47418395 -0.10908592 -0.12066921 -0.18159373 -0.05799211 -0.56418204 -0.23472576 -0.15306763 0.0028508308 -0.18018322 -0.08497298 -0.052698273 0.008308575 0.16432875 0.23078506 0.10083555 0.018080637 -0.020129954 0.3492165 0.0035388884 -0.16449776 0.17776415 -0.08555488 0.4973653 0.4932443 0.2806429 0.026708048 0.29511988 0.7133411 0.37201673 -0.33676162 0.10121064 -0.19497338 -0.3001771 0.40180394 -0.18918991 0.016212454 -0.26097035 0.3049959 -0.21974851 -0.09964367 -0.079774596 0.05309246 0.18712199 -0.07919066 0.42140183 0.27938804 -0.1913047 -0.11233971 0.014353172 -0.024681523
1095 -0.030131241 0.18127976 -0.2560635 -0.08770003 -0.04708225 -0.015761254 -0.22106376 0.35715726 -0.38684687 0.020341363 -0.13588177 -0.115648344 0.27582052 -0.4057474 0.005865913 -0.14758171 -0.20675576 -0.15675732 -0.15798293 -0.054940596 0.002081206 0.28408933 -0.3763449 -0.5112481 -0.24111994 -0.090557665 0.27592698 0.049576014 0.2300731 -0.111026555 0.21333614 0.085122116 -0.053611897 -0.35884443 -0.3987358 0.0081480285 0.17852896 0.22728708 -0.07315772 0.2878226 0.27295294 0.3169087 0.1528259 -0.007528693 0.05383659 0.20678867 0.00925467 0.028383682 -0.42881557 -0.3750826 0.1498905 0.26858178 -0.3364761 -0.32702005 -0.62082314 -0.27905977 -0.24537459 -0.028774306 -0.12050328 0.14478518 -0.22604151 -0.11132307 -0.24925007 -0.010174488 0.03766942 0.017493231 -0.3186842 0.07608213 -0.18011275 -0.26348254 0.00991644 -0.20019639 0.16147968 0.19081755 0.37972453 -0.073079005 0.09328401 0.5044371 0.37577066 -0.29016653 0.091176204 -0.030502886 0.004879812 0.34401354 -0.20557569 0.045030847 -0.06066385 0.42149934 -0.24694942 0.10532806 0.102686875 -0.13703667 0.11248135 -0.14062612 0.46033636 0.0055083437 -0.04467445 0.2739047 -0.02873883 -0.024380017
1946 -0.14736544 -0.02157133 -0.065151304 -0.12986752 -0.1661608 0.11484507 -0.14571625 0.17107968 -0.35616836 0.25759423 -0.42101452 -0.14043611 0.55033493 -0.5846776 0.24761987 0.06126385 -0.09742494 -0.24907945 -0.30482155 -0.1473577 0.051500294 0.12222387 -0.35799706 -0.23778109 -0.38717666 0.105847955 0.41196173 0.38984707 0.15915044 -0.21489449 0.5169817 0.20935383 -0.08655819 -0.050932426 -0.53586686 -0.5144586 0.22932537 0.041194826 -0.13372356 0.35627976 0.49353668 0.17694438 0.34641615 0.084672004 0.035778563 0.12185165 -0.2181996 -0.25492296 -0.17165865 -0.3529384 -0.29336575 0.17296799 -0.31597006 -0.30952188 -0.25307548 -0.36915994 -0.09252315 -0.39624253 -0.12289734 0.13311827 -0.5081624 -0.067920305 -0.3519942 -0.1089573 0.08162428 -0.43210763 -0.17124687 0.39393353 -0.13256031 0.077427834 -0.17472467 -0.18452473 0.20939854 0.19524014 0.17344098 -0.10671656 -0.19749776 0.43948498 0.1039277 -0.0017690674 -0.021202348 0.2513168 -0.042562194 0.55087847 -0.23328274 -0.16017807 0.24781407 0.43267602 -0.33024463 0.35286745 0.12081601 0.11288909 0.079783686 -0.13982068 0.35219082 -0.04535776 -0.39927828 0.19773018 -0.06842065 0.12692043
556 0.10003596 -8.657569e-05 0.21262988 -0.37186444 -0.08798558 0.0801956 0.17720617 -0.16520874 0.19226773 0.073134914 0.21183982 0.012792733 -0.29255706 0.41764775 -0.19561279 0.11094569 0.11671007 0.4512355 0.3620427 0.15011609 -0.22420013 -0.111973755 0.4680183 0.18259989 0.11330262 -0.0026326752 -0.11119138 -0.27719557 -0.18810564 -0.2060197 -0.17146513 0.00637823 0.114328615 0.24855688 0.60329324 0.42593202 -0.4248915 -0.35203797 0.16168094 -0.19947344 -0.35490105 -0.5139509 -0.51723415 0.21420914 0.06886231 -0.105830066 0.097192645 0.31446713 0.2520558 0.38104123 -0.08621025 -0.19345665 0.31869656 0.11768005 0.45811564 0.16848734 -0.06882835 0.38186774 -0.02957773 -0.13667485 0.5648258 0.25166383 0.118239634 0.33123678 -0.03984471 0.17870452 0.17286201 -0.36055878 -0.09656918 0.3550829 -0.07773695 -0.063936345 -0.18444079 -0.14771958 -0.16860786 0.3184576 0.17925648 -0.70209336 -0.32236204 0.1080738 -0.0906586 -0.18552181 -0.24876149 -0.15511015 0.32214978 -0.13144295 -0.03962516 -0.5326489 0.2885473 0.04212912 -0.114693634 -0.0026731445 -0.04541322 0.008728496 -0.20055372 0.13730983 -0.22166245 -0.33193696 0.054876745 0.20109265
752 -0.0323916 0.36994082 -0.47264197 0.011306737 -0.20054264 -0.12891155 -0.20700015 0.33288643 -0.3698307 0.11094404 -0.339305 0.08325984 0.13397716 -0.5238665 0.118838176 -0.022754826 -0.26681408 -0.43394274 -0.04911731 -0.2549334 -0.043659158 0.2049214 -0.14630213 -0.15896651 -0.12916373 -0.10816365 0.20984003 0.56622034 0.13462721 0.3487634 0.3031708 0.16425778 0.03193157 -0.34374785 -0.20208843 -0.17039233 0.17694752 0.35529995 -0.15793832 0.11323294 0.11885621 0.21395856 0.21259503 0.059893448 -0.15744822 0.2565739 -0.13969187 -0.019179093 -0.34842744 -0.34505102 -0.012259328 0.28186285 -0.38494337 0.06584049 -0.34860066 -0.12547688 0.05632117 -0.2108381 -0.16400293 0.1320678 -0.2703843 -0.15599768 -0.4170088 0.14027949 -0.07568048 0.07404815 -0.06147381 0.40998268 0.16344601 -0.1417373 -0.045218993 -0.016016034 0.2751915 0.49888778 0.18257251 0.15561016 0.17185698 0.51206994 0.14892355 -0.00016033556 -0.14953478 -0.09998798 -0.18257974 0.5180932 -0.09277471 0.055043787 -0.01448991 0.2674258 -0.30204284 -0.13864955 0.03916169 -0.13284895 0.17319408 -0.17722914 0.30981255 0.16817349 -0.1228493 -0.05901164 -0.1522176 0.007391375
1570 -0.19580202 0.25222144 -0.23680009 -0.17145091 -0.3603694 0.10195339 -0.36739728 0.32857305 -0.3089285 0.050502583 -0.19071044 -0.10909182 0.27905297 -0.45059207 0.07323186 0.23210557 -0.12965633 -0.16634561 -0.10391228 -0.12864013 0.036708195 0.2100723 -0.32804185 -0.30002555 -0.34053668 0.038390975 0.24317348 0.28519842 -0.008438458 0.074789785 0.32965577 0.20683911 0.003637311 -0.5756949 -0.31088498 -0.056544147 0.12276123 0.22272606 -0.22538428 0.22701654 0.46966767 0.340457 -0.04225883 -0.047583085 0.16865176 0.109434605 -0.33223477 0.18833598 -0.08616946 -0.4321249 0.18158565 0.07360744 -0.25559682 -0.23871894 -0.34520254 -0.027383719 0.2654376 -0.39507508 0.08114757 0.10842883 -0.331336 -0.066569015 -0.4071606 -0.13510008 -0.05621632 -0.22035208 0.021563122 0.34228966 -0.18611537 -0.2276454 -0.02947807 -0.12954131 0.058372762 0.3037884 0.3929315 0.016341573 -0.08126064 0.40485865 0.35384953 -0.45839995 -0.102979325 0.3522754 0.045004465 0.26311114 -0.036259513 0.0701615 -0.040934935 0.49986205 -0.3665616 0.126763 0.09112125 -0.13026749 -0.025059653 0.045603376 0.18439695 0.088350445 -0.07199382 0.17517745 -0.21733098 -0.18444012
1243 0.06654091 0.055866927 -0.26040447 0.10815322 -0.2590316 0.060450874 -0.32709116 0.12410832 -0.3101611 0.08133324 -0.2703867 -0.02366023 0.05786166 -0.4283854 0.17333357 0.022483718 -0.053999417 -0.24213132 -0.23160379 -0.12833852 0.073522456 0.16553046 -0.34842607 -0.25061172 -0.32455382 -0.005052444 0.15962559 0.40506095 0.27802452 0.05925066 0.22724973 0.20732512 0.1679069 -0.2732015 -0.1848094 -0.10783552 0.108773716 0.16617912 0.0021349662 0.12243993 0.24488081 0.4142125 0.069025464 0.25675467 0.09768598 0.22236167 -0.3276375 -0.029794551 -0.31393045 -0.52022326 0.042180087 0.08699933 -0.19866462 -0.012975179 -0.73742 -0.21248387 -0.09238785 -0.1718552 -0.033077206 0.028293513 0.0012714975 -0.29860273 -0.32855403 -0.16807917 -0.050614957 0.17946193 0.069858976 0.21854243 -0.044922218 -0.12556736 -0.02852443 -0.2726501 0.15189207 0.3195271 0.33103842 0.093731746 0.16523957 0.44079977 0.30887473 -0.32540306 -0.15092461 0.10886336 -0.093411885 0.38090584 -0.13440634 0.046675824 0.0064548515 0.31782106 -0.3487215 0.13297217 -0.04702486 -0.105206706 0.34294337 -0.083837785 0.31149042 0.11790745 0.0326727 0.11923918 -0.058045227 -0.07344758
1813 0.29031175 -0.09801637 0.23954694 -0.21918307 0.08569392 -0.16608815 0.37430936 -0.1447373 0.2689507 -0.16226597 0.09421208 0.41988465 -0.42498174 0.4515481 0.075930424 0.22658783 0.186879 0.16478275 0.45444134 0.14821216 -0.3636727 -0.2500581 0.45930898 -0.02011501 0.0075942893 -0.030381216 -0.19183813 -0.31012228 -0.5137963 -0.110856384 -0.027523836 0.1509235 -0.059984963 0.18543169 0.3774869 0.32723695 -0.12839095 -0.54551226 0.17962936 -0.333802 -0.45988587 -0.24953236 -0.08198565 -0.032292668 0.2770952 -0.1860932 0.053975966 0.1952743 0.22166766 0.4255483 0.19489487 -0.27381015 0.38687402 -0.22321577 0.7345382 0.03635244 -0.056067057 0.21078672 0.124794304 -0.016094092 0.3575279 -0.13302484 0.0059218635 -0.20363848 -0.25068223 -0.41396284 0.3111329 -0.41821966 0.34143606 0.50667495 0.3371161 0.07698662 -0.42532715 -0.378583 -0.17763242 0.5133703 -0.4385649 -0.9796844 -0.36961213 0.3665447 0.29470116 -0.03093514 0.22926265 -0.537254 0.16059496 0.20395164 0.26012668 0.08806095 0.07397881 0.28047287 0.0011289167 0.055435978 -0.24935624 0.14575441 -0.3864645 0.18424714 0.06947605 -0.0011722625 -0.24164616 0.14884476
848 -0.056339834 0.1683437 -0.10614563 -0.009349175 -0.11396819 0.12539677 -0.23763646 -0.0011431426 -0.36962795 0.26870024 -0.11353231 -0.10846573 0.051467698 -0.38485023 0.092717364 -0.28887087 -0.09463559 -0.07384694 -0.05620029 -0.34825316 0.0700868 0.10858081 -0.39690167 -0.30313295 -0.20756748 -0.2078694 0.15801655 0.38161007 0.19954683 -0.015061054 0.14030707 0.1524303 0.15440227 -0.20281182 -0.43751973 -0.09338596 0.15896502 0.23816733 -0.061628047 0.093478955 0.22857212 0.36420202 0.2842632 0.05589517 -0.24522023 0.36030218 -0.059298266 -0.11310427 -0.16988496 -0.40823442 0.12646759 0.16510369 -0.38200912 -0.005469359 -0.457428 -0.08322401 -0.17415954 -0.36617118 -0.044126146 0.12640874 -0.24166644 -0.010847896 -0.20609148 -0.10594397 -0.15313756 0.10068958 0.049749132 0.18423966 -0.24850413 -0.107418165 -0.23106237 -0.08528062 0.2326653 0.4520068 0.57524514 -0.10614206 0.22320609 0.65875465 0.21481079 -0.36662865 -0.35739824 0.18939804 0.095340885 0.4075773 -0.16390836 0.22731932 0.023177773 0.3028884 -0.08161276 -0.16894941 -0.07626158 -0.16992785 0.34085643 0.0008648259 0.2983523 0.018476741 -0.18544196 -0.039158568 -0.16906297 -0.0377841
54 0.09043107 -0.32163972 0.120667376 -0.23701479 0.24907479 0.078770705 0.3144183 -0.2391385 0.1738886 -0.061310906 0.32753283 -0.019805608 -0.009360585 0.48421848 -0.3472622 -0.059218336 0.03378178 0.39963683 0.07676055 0.21673775 0.048632905 -0.19080646 0.23159714 0.5596443 0.016559765 -0.08850369 -0.2035309 -0.41077447 -0.21447036 -0.16534969 0.08904656 -0.007908564 0.11071599 0.47178227 0.46209812 0.38917384 -0.32112938 -0.32002753 0.1669045 -0.033527177 -0.25655612 -0.5123871 -0.32895017 -0.1055964 -0.13289891 -0.028947119 0.4718764 0.15427409 0.46725017 0.5686594 0.13310954 -0.35476774 0.2958092 0.03254391 0.35656756 0.3370677 0.02456793 0.29543844 -0.13690329 -0.15590928 0.4963525 0.19996361 0.4546532 0.22388135 0.017329428 0.08233879 -0.036169503 -0.52926743 -0.05836871 -0.11584063 0.1285174 0.008432906 -0.23652278 -0.21594746 -0.29132932 0.0030943756 0.06743234 -0.43651417 -0.33586693 0.26522002 0.017521638 -0.070013866 -0.20906904 -0.46852633 0.22577976 -0.06846324 -0.26290026 -0.557586 0.14483581 -0.21572469 -0.118979566 0.14186223 -0.19134998 -0.20243572 0.1662402 -0.112266034 0.1303166 -0.050759412 -0.07246496 0.04006546
70 0.20336835 0.062028695 0.24597333 -0.3670186 0.24773443 0.008690417 0.18511504 -0.368485 0.17836204 -0.095339164 0.26873258 -0.25052735 -0.14946161 0.5524316 -0.33557352 -0.1176708 0.17558414 0.3860298 0.19226079 0.07984835 -0.05702054 -0.34104487 0.3211552 0.4647264 0.07662251 -0.06277195 -0.22967368 -0.21595828 -0.22142886 0.015926428 -0.07111117 0.25517523 0.08490077 0.3217642 0.6632425 0.4982286 -0.3188094 -0.22750437 0.11043027 -0.11903368 -0.27705255 -0.4832403 -0.4463878 0.03418439 -0.054973286 0.016818315 0.48117647 -0.13875957 0.37375915 0.22092327 -0.018370267 -0.2677778 0.32010093 0.3219672 0.3324605 0.2358352 -0.29487845 0.4172256 -0.1266515 -0.18989749 0.6724837 0.13720483 0.47510964 0.19373938 -0.13225935 0.06485698 0.24163468 -0.21026272 0.0969819 -0.17704299 0.070258334 0.059495114 -0.22356518 -0.37046513 -0.441721 0.006118553 -0.05832956 -0.64012027 -0.34127262 0.19968466 -0.0806748 -0.4470342 -0.16872004 -0.35993528 0.099277295 -0.028803265 -0.090696625 -0.6309638 0.14757672 -0.33931816 0.025023008 0.09529569 -0.07896075 0.07936505 -0.142661 0.31254092 0.039584905 -0.31108165 -0.16389795 0.061414234
262 -0.024504168 -0.21384904 0.34306479 -0.42653897 -0.12374413 0.22739483 0.18470344 -0.09201496 0.26573962 -0.31085622 0.139951 -0.25532058 -0.10578685 0.30154446 -0.48131284 0.011006086 0.25011012 0.49270716 0.5070012 0.0045807413 -0.019586828 -0.09012935 0.56090325 0.07273558 0.29066482 0.045304313 -0.3393576 -0.49536514 -0.377063 0.09330555 -0.2128809 0.0028617908 0.30566794 0.2976973 0.41233027 0.2832265 -0.10835112 0.08390035 0.047519647 0.067970164 -0.47444075 -0.48280036 -0.4588692 -0.26096666 0.03177559 -0.44447193 0.24961631 0.24027032 0.3800808 0.6282991 -0.118747324 -0.12665111 0.30967146 0.25744146 0.4422624 0.21455449 -0.07940401 0.2921074 0.004227312 -0.10303658 0.74638635 0.35282102 0.19953583 0.44812456 -0.03979776 0.22430314 0.0629305 -0.309769 0.10268726 -0.16677165 -0.03975035 -0.053399283 -0.48253807 -0.3333243 -0.19766393 -0.07684736 -0.26464215 -0.63009775 -0.39858377 0.23891668 0.111091204 -0.30742186 0.063610405 -0.46659714 -0.16532096 0.11878083 -0.21943462 -0.6697335 0.18733439 -0.257778 0.08254971 -0.13613105 0.047560204 -0.08796124 0.037229795 -0.20656866 -0.053322226 0.07637042 0.18582834 -0.18677151
1383 0.105784826 -0.20716947 0.18635586 -0.37721676 -0.0168241 -0.0028988963 0.16996911 -0.19003628 0.23641573 -0.10593557 0.2894375 -0.13351804 -0.14578259 0.45860448 -0.1100506 0.08528703 0.043964267 0.5847357 -0.028532477 0.26478118 -0.40625906 -0.32968485 0.2813383 0.19826265 0.18993853 -0.0727681 -0.42328882 -0.53345376 0.07468962 -0.46313277 -0.3740753 0.049281538 -0.037723072 0.12983292 0.6673766 0.4692023 -0.23954067 -0.32284522 0.22383004 -0.13402964 -0.31634432 -0.36005762 -0.27854535 0.3285238 0.32879433 0.080652356 0.2593323 0.04092012 0.26674932 0.6942187 -0.18816197 0.1018467 0.2650017 0.026864685 0.52502 0.12951006 0.032346833 0.121084586 -0.069577396 0.10826258 0.18372461 0.1303134 0.25721833 -0.08302137 -0.024518939 0.014772042 0.022265771 -0.3306656 0.08264259 0.43890303 0.3462047 0.0342716 -0.45661044 -0.11637024 -0.20536663 0.3585553 -0.2664075 -0.61008894 -0.056326553 0.27758324 0.34874496 0.022183945 -0.07535288 -0.255276 0.42609915 0.03345256 -0.11708827 -0.28666094 0.024712188 -0.06382884 -0.028561618 -0.18040264 -0.11952155 -0.052150466 -0.31777072 -0.32266814 -0.08030559 -0.0043436694 -0.3168171 -0.07009134
729 -0.20432569 0.23661207 -0.4241696 0.030188926 0.024080541 -0.07054862 -0.20965166 0.28422478 -0.22330539 -0.10985889 -0.29232654 -0.07041401 0.14300574 -0.38952544 0.0074758674 -0.29245985 -0.024854753 -0.40692365 -0.008705203 -0.17794327 0.16015194 0.3143941 -0.24056348 -0.3422725 -0.106391385 -0.03940608 0.4388304 0.2465061 0.25643134 0.1454389 0.19235668 -0.062267646 0.015390509 -0.33990982 -0.24410301 -0.19162409 0.22697441 0.029862503 -0.0993256 0.13144986 0.38205832 0.17420262 -0.12631576 0.11750046 -0.14234115 0.10415955 -0.302203 0.0019536067 -0.27327782 -0.44331717 0.0146554075 0.27654153 -0.27693427 -0.17422953 -0.29407248 -0.1545574 -0.12651041 -0.12588342 -0.16093774 -0.01770858 -0.20161296 -0.1858268 -0.1423068 -0.13916487 0.25029474 0.1090044 0.06670877 0.20127538 -0.14254954 -0.015536587 0.05661653 -0.112982325 0.23363818 0.29515344 0.23972236 0.117292486 0.11681206 0.52702695 0.20712428 -0.3280459 -0.03625837 -0.12694208 -0.085777484 0.4821322 -0.16222776 0.14219943 0.03504175 0.13724402 -0.32603678 0.04116312 -0.14690343 -0.13308516 0.3195556 -0.16212115 0.5984321 0.24973828 0.053392664 0.073656395 -0.09855983 -0.11483438
1720 -0.06575572 -0.0696412 0.409974 0.0043030083 -0.2311917 0.07356233 0.044325307 -0.08420708 0.21267287 0.035417773 0.37848404 0.02816173 -0.101623535 0.34999135 0.11132841 0.3617765 0.2522949 0.32470992 0.4072846 0.4306953 -0.42196047 0.06718123 0.27274576 -0.008819722 -0.07550059 -0.20581587 -0.45213574 -0.58750397 -0.21214351 -0.10259839 -0.34286365 0.13666926 0.08050996 0.4563028 0.7310319 0.42276803 -0.3435316 -0.42232314 0.26234078 -0.51877886 -0.024516512 -0.42337137 -0.1676401 0.0570423 0.06290973 -0.17865482 0.12333546 0.10913603 0.35485837 0.39601147 0.05601054 -0.11365312 0.11417277 0.2742398 0.5076262 0.1979503 0.26810056 -0.09675717 0.06955158 0.15490092 0.22469702 0.27440685 -0.052732177 -0.14564316 -0.24435318 -0.0004203061 -0.046731643 -0.6153234 0.036428794 0.3771414 0.25498724 0.0066111377 -0.633519 -0.30782023 -0.36793903 0.073271364 -0.4853643 -0.7218241 -0.19122282 0.24109592 -0.049580354 -0.067926206 0.23431434 -0.41601756 0.14034379 -0.040342517 -0.05495204 -0.29530394 0.16554725 0.11404005 -0.0762885 0.15338142 -0.1386177 0.36557874 -0.28918603 -0.12062243 -0.06804765 -0.007564272 0.0060387626 -0.012771403
69 -0.025438488 0.15329893 -0.30784035 -0.05566399 -0.00011623278 0.022723181 -0.179982 0.06166805 -0.4688882 0.05464955 -0.39705595 -0.1419327 0.34890664 -0.28983662 0.05031266 -0.34690467 -0.22770663 -0.3336972 -0.21926256 -0.022882605 0.02911351 0.14631042 -0.17089869 -0.0916983 -0.24340996 0.15107189 0.2127868 0.35709804 0.061937053 0.24289124 0.051970027 0.13016783 0.14718544 -0.21356894 -0.29441363 -0.08048494 0.13265195 0.35579136 -0.10287634 0.20512582 0.31956664 0.29392904 0.13204487 0.2420141 -0.3050939 0.17115213 -0.018109733 -0.026962657 -0.2763643 -0.36682266 -0.10136076 0.12660901 -0.31523743 -0.1703331 -0.413684 -0.061642013 -0.12825619 -0.07575536 -0.31475914 0.12177523 -0.30786386 -0.09086759 -0.08262628 -0.039359394 0.030889332 0.113681264 -0.21661548 0.17695014 -0.13370997 -0.23672517 -0.028049665 -0.41196096 0.4166242 0.5195225 0.29523617 0.07656775 0.25525057 0.6660071 0.20573017 -0.37283286 0.0867678 -0.16483651 -0.24260134 0.42788467 0.0043606143 0.071564384 0.05933649 0.025471209 -0.29281244 -0.16125979 -0.2995209 0.0009362779 0.15578456 -0.05274819 0.37062916 -0.060654514 0.021753341 -0.15187612 0.022602314 -0.038724072
309 -0.14349131 0.15204556 -0.33700347 -0.08258872 -0.011921378 0.032502778 0.12966594 0.112207636 -0.4072609 0.110975884 -0.31005538 -0.30799136 0.17376064 -0.41081333 -0.16620126 -0.22021934 -0.295496 -0.31232134 -0.11420767 -0.3194494 0.1502083 0.27839246 -0.2246281 -0.181667 -0.1592069 -0.07493142 0.3071084 0.37173635 0.23481525 0.1519738 0.18834189 0.12616035 0.013454289 -0.15506764 -0.31342718 0.021251837 0.01945899 0.3915331 -0.23630022 0.47098997 0.4549312 0.3910458 0.21912831 0.13586327 0.039580315 0.25911638 0.10712877 -0.12743264 -0.23220338 -0.32749394 -0.22347592 0.12668578 -0.35953805 -0.10850357 -0.5707105 -0.21596281 0.079618424 -0.14565109 -0.11472957 0.060450893 -0.30890563 -0.05958735 -0.1411391 0.03906059 0.08790481 0.05858095 -0.14213003 0.2493285 -0.18145333 -0.22316688 0.08901195 -0.09640122 0.123581074 0.2492023 0.36713713 0.04077361 0.085790895 0.72789097 0.6409985 -0.34802184 -0.11370847 -0.18275829 -0.2740505 0.21852839 0.12228898 0.021750081 -0.229355 0.097898565 -0.32829538 0.06528893 0.07736158 -0.041812047 0.1074189 0.11966929 0.24714996 0.21706124 -0.07365686 0.18999518 -0.17584074 0.0048237536
1133 0.017235355 0.3143793 -0.44274268 0.14685276 -0.008455709 0.0022766236 -0.05254556 0.32085702 -0.16254318 0.023612794 -0.45364144 0.017367939 0.07211493 -0.32393873 -0.054198846 -0.09189985 0.022666508 -0.30551448 -0.44784153 -0.32513282 0.40599984 -0.033975095 -0.30992076 -0.39727357 -0.41017827 -0.11430839 0.347681 0.22973855 0.18135954 -0.12789038 -0.021781554 0.33922625 0.06364761 -0.20843942 -0.27691957 -0.22956795 0.3016861 0.14233874 0.015229665 0.19433124 0.34560037 0.17448227 -0.0029029998 0.27540708 -0.0037217762 0.14042377 -0.07940745 0.009077561 -0.08099403 -0.51231223 0.08213597 0.063085936 -0.4455123 -0.18556158 -0.3316768 -0.066920504 0.030199917 -0.50466067 -0.09188047 -0.17642584 -0.15488167 -0.26006037 -0.30126908 -0.25778502 0.10258233 0.13051814 -0.2169532 0.13829705 -0.29545194 0.0077474113 0.20457113 -0.079130866 0.39642575 0.3153737 0.21772066 -0.010434328 0.13750677 0.45471838 0.36169052 -0.17353082 -0.11192541 0.2651928 -0.1862404 0.5524528 -0.30027792 0.21015269 -0.0698605 0.3428463 -0.11193586 -0.092423126 0.117217906 -0.20597933 0.36031604 -0.081452504 0.35627675 0.23212644 -0.20031664 0.1581791 0.0013594382 0.1902141
512 -0.0449406 0.119196616 0.23483168 -0.36429146 -0.01745249 0.36692312 0.22432919 -0.2133649 0.18875796 -0.4160689 0.26948476 -0.13930124 -0.18633676 0.55423015 -0.23022135 0.07042117 0.25583103 0.44506413 0.14443156 0.012435267 -0.18381356 0.1834924 0.42264402 0.4751341 0.0154630635 -0.28748935 -0.09103728 -0.18494792 -0.18263021 0.001276192 -0.15179868 0.08746843 0.16353361 0.4395027 0.40900007 0.27727187 -0.29668203 -0.29304093 0.38554034 -0.2898198 -0.22390889 -0.33150345 -0.3662792 -0.048496153 -0.1693559 0.057960905 0.25898597 0.053887606 0.3851396 0.6058273 -0.19018611 0.0006046115 0.17454045 0.08911303 0.9366888 0.10427043 -0.26590464 0.31936002 -0.10348133 -0.2507724 0.69800484 0.2901601 0.2909408 -0.04675686 -0.09678785 0.015984198 0.18560977 -0.33399054 -0.030570656 0.24006733 0.061977096 -0.010880897 -0.43124783 -0.116668575 -0.28179997 0.15842257 -0.23886402 -0.5825776 -0.22962286 0.36856976 0.062025726 -0.19011228 0.07184881 -0.17582653 0.2574873 -0.07335087 -0.14363655 -0.36137635 0.28562307 -0.048953068 -0.23631766 0.39574778 -0.05915905 0.07413851 -0.19050913 -0.13260609 -0.20791881 -0.043981437 0.16495141 -0.09391005
1375 -0.0073889596 -0.28225735 0.31177118 -0.26890305 0.31904662 0.009709465 0.23628916 -0.019707104 0.22718671 -0.14970584 0.13496199 0.029505085 -0.16509028 0.2997402 0.11064037 0.11973008 0.0632341 0.5505756 0.21515615 0.3133455 -0.16873476 -0.45053637 0.1311358 0.11167969 0.086948596 0.28751463 -0.40373847 -0.31161803 -0.03558412 0.026643341 -0.22901332 0.038398266 -0.11330134 0.32904354 0.5366659 0.42036545 -0.14954108 -0.19075254 0.14339133 -0.23019698 -0.3636104 -0.65629286 -0.15509598 -0.1204905 0.023038145 0.016383352 -0.058308046 0.25187907 0.06673978 0.32630816 0.23765987 -0.119734526 0.08117851 0.09245878 0.6576756 0.11070068 0.38541576 0.15697177 0.006489615 0.12056786 0.47506368 -0.12908815 0.18587752 0.11055377 0.09033495 0.038021825 0.4354144 -0.70193535 0.112833194 0.24515879 0.03168751 0.19680542 -0.7991659 -0.3658997 -0.27276406 0.026115453 -0.4413129 -0.81286 0.09233889 0.5361853 -0.14930642 -0.19720732 0.15552138 -0.19889921 0.16058767 0.11899648 -0.009911879 -0.23961452 0.4108345 0.35566828 -0.116313204 0.07013505 -0.09310965 -0.16989654 -0.102741666 0.08035743 -0.31656173 -0.16950385 -0.12814592 0.06417998
1490 -0.24203701 0.19910918 -0.3216029 0.08108638 0.010538147 -0.131481 -0.46026325 0.13891219 -0.2955819 -0.020230932 -0.3874049 -0.017854087 0.22941269 -0.349827 0.20460856 -0.02967723 0.008324977 -0.34484068 -0.03541621 -0.078025065 0.15660885 0.16673872 -0.13638644 -0.30511215 -0.25237373 -0.1274283 0.1210359 0.2780496 0.04943848 0.05930901 0.4518058 0.12941334 0.10630264 -0.61954165 -0.06367327 -0.17206432 0.19533597 0.11827595 0.051743045 0.2682874 0.4486803 0.51832855 0.21935436 0.05078856 -0.03225619 0.041616395 -0.35636404 -0.011574804 -0.17790821 -0.21870817 0.37782308 -0.0002628967 -0.31918928 -0.18189584 -0.4263943 -0.060154036 -0.095557235 -0.4259795 -0.3021316 -0.0839446 -0.32546356 0.016625423 -0.43346307 -0.19831571 -0.016710578 -0.16596906 -0.059567142 0.3670974 -0.084435806 0.110321246 0.04682219 0.015599753 0.2886157 0.25912902 0.09884772 -0.020140704 0.08526148 0.51930636 0.36501697 -0.30191582 0.04449066 -0.051302202 -0.047348574 0.53914857 -0.28637996 0.022108633 0.13433072 0.29451668 -0.2228103 0.11141156 -0.12372019 -0.22695605 0.1954079 -0.102185465 0.14036323 0.3673313 0.10986416 0.14045227 -0.074766144 -0.111695
251 0.23000418 0.30529466 -0.33845577 -0.058639612 -0.10137914 0.07403091 -0.29112318 -0.011797216 -0.22258925 -0.12493598 -0.4794827 -0.1544954 0.29161742 -0.35457733 -0.09039118 -0.1818494 0.16376016 -0.49015874 -0.23755068 -0.0020698183 0.20702587 0.35529166 -0.17922978 -0.28843987 -0.17676531 -0.030021671 0.4918269 0.22329363 0.113105424 0.25589114 0.32047796 -0.0040434604 0.2606202 -0.24562205 -0.24768552 0.016970139 -0.04584886 0.3839174 -0.24879907 0.2578665 0.44599837 0.5910388 -0.03259583 -0.010475611 -0.16762672 0.15752125 -0.14748207 0.12222591 -0.25635105 -0.3733336 -0.058973413 0.054296732 -0.21544021 -0.02206194 -0.67044455 0.11852653 -0.19751233 0.12406923 0.008370673 -0.019060573 -0.2926392 -0.22246365 -0.0045003826 0.04278717 -0.030789888 0.06826645 -0.11456269 0.46197328 -0.30719852 0.013547724 -0.15405537 -0.09304206 0.19950697 0.5786228 0.30025703 -0.043721825 0.10124592 0.62379086 0.34105766 -0.26660484 0.109819174 0.20978217 -0.1872968 0.16200231 -0.054512993 0.06202757 -0.18673018 0.098866545 -0.41248676 0.10258596 -0.083175786 -0.029848555 0.07604228 0.019870315 0.48569262 0.12929584 -0.09435227 -0.15788214 -0.0072972197 -0.006749008
943 -0.17275457 0.35549465 -0.12778859 -0.038098097 0.000500867 0.0351204 -0.3379295 0.3476434 -0.30730623 0.14060965 -0.487374 -0.36567757 0.03175591 -0.4751828 -0.035505906 0.16861291 -0.33231422 0.032041498 -0.40744656 0.047891255 -0.085816 0.20529364 -0.2837857 -0.23270977 -0.33855665 -0.3753062 0.4848125 0.3101856 0.00019667635 0.18805963 0.13551089 0.35247007 0.13154916 -0.3895409 -0.40396732 -0.0986122 0.2470868 0.40504816 -0.16374287 0.20087181 0.33209804 0.33343577 0.12533098 0.00665065 -0.15820539 0.18609571 -0.09511403 0.04874709 -0.06346088 -0.4277619 -0.048975546 0.11083715 -0.32735303 -0.24990676 -0.46251437 -0.3352702 -0.28052974 -0.060227796 -0.25433722 -0.018648611 -0.1783285 0.08365317 -0.25480795 -0.00045435072 0.18819514 0.12048563 -0.16658232 0.11045176 -0.08614256 -0.28930873 0.1871364 -0.048780568 0.6165375 0.19362889 0.43462116 0.0728105 -0.077138156 0.4526328 0.15297928 -0.21077226 0.16806363 0.27661222 0.053933565 0.6056403 -0.15459748 -0.13645245 -0.14769593 0.2557989 -0.2530508 0.012242669 -0.22652726 0.23385559 0.34139612 -0.44777662 0.47525862 0.07234777 -0.010597994 -0.14495127 -0.09546143 -0.0530918
537 0.022423478 -0.040405132 0.13247499 -0.4015946 -0.112066 0.12048374 0.2539559 -0.06420396 0.13312137 -0.2349365 0.23630084 -0.165764 0.066576935 0.5679513 0.010653678 -0.17677066 0.09359606 0.5626594 0.19764458 0.062404543 -0.21906717 -0.20339978 0.37809852 0.11974794 0.17098382 0.19819133 -0.21845873 -0.34667656 -0.32755616 -0.11297607 -0.35091725 0.13385868 0.20557319 0.3456697 0.4193088 0.5294613 -0.24275701 -0.2604664 0.05536134 -0.031888925 -0.6251608 -0.60639495 -0.44278985 0.2528472 -0.21111979 0.10976292 0.2819198 0.1039689 0.3021586 0.50389564 -0.21131343 -0.122970834 0.15083544 0.14321637 0.5373081 0.11380615 0.0014820104 0.070201956 -0.047988016 -0.2621593 0.39384285 0.22490415 0.31881273 0.47145265 -0.09250033 -0.06661993 0.40520126 -0.20435584 0.12552454 0.13868415 0.30479002 0.091490835 -0.26213956 -0.28742844 -0.4362352 0.35293764 0.11352367 -0.6036937 -0.22452822 -0.01149537 0.0073288437 -0.20851386 -0.04732778 -0.41289485 0.27124748 -0.08607077 -0.033203613 -0.47568938 0.21064928 -0.21969496 -0.22345869 0.122803055 -0.024255991 -0.064270414 -0.40371162 0.06584338 0.11217673 -0.04888691 0.16273884 0.38618892
467 -0.027421236 0.44418478 -0.2924111 0.031658776 -0.09602901 0.21144767 -0.14280388 0.36331284 -0.40924096 0.19727731 -0.3442274 -0.25256193 0.4713085 -0.3294607 0.002709143 -0.01787163 -0.17950958 -0.063425444 -0.05420436 -0.043542344 0.1075597 0.19265985 -0.1428135 -0.28169507 -0.13756849 0.09935728 0.39186442 0.21675265 0.37093446 0.27046904 0.28462332 0.0029072836 0.26878121 -0.24492921 -0.65202075 -0.048116624 0.25756338 0.32678232 -0.14208286 0.2647291 0.11964892 0.43456244 0.1751768 0.031996988 -0.19739164 0.027952582 -0.04082032 0.18122876 -0.2647531 -0.2093088 0.0053621386 0.13891129 -0.25707877 -0.23399307 -0.33236808 -0.079154834 0.023558207 -0.124679886 0.04409921 -0.12430837 -0.20065589 -0.26643783 -0.44373184 -0.1649227 0.16481882 0.25602084 -0.0048831585 0.63765633 -0.52822137 -0.496984 0.06434741 -0.20941837 0.07133276 0.55744326 0.25085163 0.07285845 0.17065577 0.6393931 0.16508454 -0.24261405 0.100150675 0.13233152 -0.036591116 0.3426962 -0.0046478715 0.13271093 -0.14302893 0.0821045 -0.37020552 -0.21500717 0.053792685 0.012325336 -0.00030352283 0.043955915 0.4190536 0.24257012 0.013443506 0.25501013 0.023983942 -0.20344926
1652 -0.32592103 -0.035075303 -0.026719024 0.35161978 -0.1911555 0.24627422 -0.3258608 0.3785296 -0.30120605 0.23179518 -0.518237 0.0913687 0.32394263 -0.17532244 0.08564941 -0.26049152 0.09294838 -0.48939413 -0.11488208 0.0203688 0.062821455 0.3813933 -0.334689 -0.28331953 -0.7527561 -0.20504111 0.40256813 0.37535742 0.31239468 0.0403402 0.30620295 0.27096793 -0.09242581 -0.22024304 -0.38031223 -0.3460648 -0.088770956 0.38071173 0.2007706 -0.13951047 0.42897108 0.64342004 0.32270536 -0.1603948 0.12490644 0.32620534 0.11906692 -0.11454079 -0.03997368 -0.3968712 -0.23032911 0.03754118 -0.60078955 -0.30598897 -0.41446874 -0.0037659532 0.017834904 -0.26812223 0.009743481 0.010484188 -0.6050683 -0.34690362 -0.1253533 -0.29794824 -0.013613961 -0.11582845 -0.12843606 0.25957632 -0.04504848 0.10520204 0.057193343 -0.20445451 0.20064412 0.46944055 0.33732733 0.048659753 -0.37722114 0.71451145 0.2009671 -0.17534167 -0.18366091 0.1340918 0.07823444 0.42880544 -0.047871433 0.006404506 -0.08161118 0.45007244 -0.09828344 0.08098093 -0.36447755 -0.47991824 0.037050825 -0.08292741 0.067449406 -0.07490091 0.2848979 0.02288872 -0.20612651 0.1499937
1030 -0.12032175 0.4884732 -0.20092262 0.07913234 -0.11455737 0.04836941 -0.18980446 0.16946274 -0.48495165 -0.07672712 -0.076178044 0.23759195 0.54863685 -0.65665144 -0.13865677 0.12823969 -0.36867732 -0.09574306 -0.02797098 -0.038954515 0.25166544 0.217943 -0.25249895 -0.24273817 -0.25165117 -0.1685804 0.46472242 0.35301512 0.3269365 -0.12364451 0.18386912 0.027809251 0.013900252 -0.35623416 -0.5265191 -0.017790021 0.20619185 0.20010093 -0.07087312 0.4863721 0.18220815 0.34570372 0.57109857 0.099328585 0.07470752 0.34154415 -0.48436752 -0.1523026 -0.38845375 -0.46745855 0.013496947 0.10011036 -0.35855916 -0.014457812 -0.11068947 0.2098831 -0.1573297 -0.20639841 0.043231927 0.07207013 -0.26023045 -0.16622841 -0.23990412 0.028913245 -0.12351195 0.36799905 -0.3533425 0.40291747 -0.16224672 -0.24034992 -0.092437595 -0.094401985 0.051866222 0.4147985 0.22094406 0.19893515 -0.09457079 0.5470127 0.48961323 -0.31104767 0.081699446 0.31620058 -0.014576634 0.3682733 -0.1638952 0.11071711 -0.23032854 0.35609812 -0.38346982 -0.03630002 -0.028823927 -0.10331511 -0.12510723 -0.13948306 0.3706021 0.062567204 0.10517339 0.4132695 0.041821394 0.18198346
929 -0.018318465 0.5051539 -0.1875965 0.09836811 -0.02805203 -0.13305862 -0.35203242 0.16225235 -0.29035577 0.4589388 -0.12657525 0.006629954 0.19590421 -0.3777937 -0.073114306 -0.35499537 0.052931 -0.4689406 -0.1828969 -0.26160774 0.49888307 0.2949572 0.012344557 -0.25300437 -0.29095957 -0.41110408 0.1166013 0.2686362 0.15403658 0.041359827 0.24643977 0.17117292 0.182188 -0.35787824 -0.51636326 -0.27760512 0.07596111 0.5245194 -0.25095245 0.099533096 0.36595362 0.54089934 0.048808333 -0.1188322 -0.015582653 0.5546402 -0.244337 -0.17413351 -0.15050238 -0.55661374 -0.052382175 0.27793103 -0.11893949 -0.17673141 -0.5329573 -0.06909765 -0.11480727 -0.20888345 -0.005215752 0.012188363 -0.18999071 -0.1470641 -0.16125694 0.0034555567 -0.13162388 0.020063505 0.07540218 0.25846237 -0.16855843 0.16638727 -0.13160932 0.048315518 0.35975978 0.424072 0.21657307 0.15799582 0.08910745 0.44654366 0.22004744 -0.20912175 -0.18654172 0.027433492 0.27637005 0.49491617 -0.061892483 0.23615278 -0.1022956 0.2137869 -0.35948056 0.023650672 0.03810359 -0.31967688 -0.10493891 -0.10384454 0.39823276 -0.055478368 -0.04640581 0.11290333 -0.21920472 0.22000092
1081 -0.15305497 0.49114576 -0.23581178 -0.008311799 0.014560275 0.058397137 -0.4161393 0.3080326 -0.36424795 0.09913202 -0.24280894 0.0079656085 0.0027592764 -0.4848701 0.06078941 -0.1644057 0.0836381 -0.09749412 -0.15089509 -0.02824214 0.09014995 0.18666875 -0.27880868 -0.49945182 -0.31093952 0.12117211 0.31594843 0.2753696 0.051023655 0.108858325 0.15790375 0.10703328 -0.10606471 -0.14743724 -0.3917703 -0.33585522 0.12572236 0.33401367 -0.15002303 0.0371217 0.4730355 0.373341 0.19247036 -0.07362475 -0.012723061 0.33197933 -0.095674865 -0.12500726 -0.18925627 -0.5313698 0.011959798 0.1828694 -0.36930722 -0.049048666 -0.641804 0.06106484 -0.05007078 -0.2891526 -0.09434701 -0.039318208 -0.23035218 -0.19800527 -0.38117835 0.08804688 0.07836389 0.1207831 0.036168117 0.09442458 0.069499984 -0.19516528 0.28821114 -0.28753656 0.20773616 0.26092732 0.06694552 0.004238806 0.056137774 0.4703306 0.15404095 -0.20364906 0.02323521 -0.026380718 0.17511337 0.5322335 -0.13887271 -0.065414816 0.05853759 0.3694635 -0.21892922 -0.07335339 -0.11619344 -0.015338771 0.29603162 0.030921452 0.4223178 0.17447558 0.0008937994 0.06444795 0.020466631 -0.051793944
300 -0.067194894 0.06373697 0.16349979 -0.3172391 0.18720521 -0.09141769 0.05063349 -0.11397949 0.28481528 -0.102781065 0.15925261 -0.34588712 -0.17319068 0.49556553 0.09051035 0.02500727 0.093052156 0.2236163 0.28003016 0.17673585 0.07016042 -0.19520584 0.38221765 0.52846974 0.3266802 -0.27210602 -0.37398237 -0.29313138 -0.07470288 -0.13829029 -0.5218894 -0.04557351 0.17464343 0.51251847 0.6812366 0.25389302 -0.5436243 -0.09131054 0.31422043 -0.13581449 -0.13523625 -0.5667628 -0.3211198 -0.021581052 -0.22223395 -0.15873161 0.40729398 -0.108402684 0.29421756 0.5494116 0.1382223 -0.22902255 0.35647544 0.0967632 0.30735928 0.13877496 0.30235365 0.22043657 -0.0043964116 -0.12994377 0.30588758 0.12249967 0.370184 0.43596193 -0.24524687 0.26066148 0.28371772 -0.40291172 0.08063709 0.24745484 0.03317276 0.13550678 -0.21618745 -0.062258266 -0.3347542 0.008055133 0.2109183 -0.55372703 -0.38955438 0.21085583 0.081204124 -0.13775156 -0.15286112 -0.27752268 0.26782313 0.03548719 -0.12814121 -0.52874404 0.22637267 -0.022086032 -0.3137513 0.23939486 -0.28561136 -0.048213717 0.01880803 -0.03945915 0.15445241 -0.21394047 0.018899344 0.20538281
71 -0.003980279 -0.11860133 0.07944503 -0.7221774 0.30048198 -0.24157843 0.43318614 -0.31482932 0.14161496 -0.24464597 0.5108055 -0.026522646 -0.27342632 0.63962394 -0.29654264 0.06527857 0.19056162 0.25870463 0.16012044 0.011545111 0.22932594 -0.20576008 0.59380877 0.0835281 0.13681097 -0.07087421 -0.1796044 -0.499569 -0.20280127 0.08346616 -0.39447516 -0.018931108 0.255922 0.35093203 0.48819068 0.4444474 -0.28306964 -0.4558258 0.4107261 -0.12107321 -0.17764287 -0.502293 -0.25409904 -0.16158287 -0.29377657 -0.5029136 0.6950979 0.019127779 0.40496778 0.48251358 0.0014402766 -0.22535041 0.053591494 0.20582788 0.35816428 0.16890393 0.05736404 0.7581567 -0.07414681 0.29506722 0.84029263 0.214879 0.2819861 0.47430822 -0.19925216 0.5535493 0.39091203 -0.23115127 0.06110958 0.13129725 0.031798165 -0.120761335 -0.42298973 -0.021023007 -0.4426274 -0.1270613 0.047413938 -0.62288666 -0.31830323 0.17811334 -0.23192775 -0.4047894 -0.318053 -0.51622504 0.2338303 -0.3954831 -0.24978434 -0.25344372 0.10651924 0.22047809 -0.108519256 0.1751716 0.26152405 -0.28982198 -0.19149482 0.15047736 -0.15940869 -0.26590618 0.32076335 0.23169637
1852 -0.27561823 0.026242353 -0.23827434 0.1140072 -0.20802623 0.010075576 -0.30679068 0.30876815 -0.4106045 0.2561943 -0.415873 0.329509 0.43686318 -0.33063224 0.06981156 0.012384576 0.04451278 -0.39164847 0.04234376 -0.17441404 -0.076293916 0.0052797785 -0.53311557 -0.38177705 -0.30309737 -0.20696597 0.2146741 0.17990449 0.032035988 0.40468788 0.18713851 0.39542225 0.27710977 -0.51017374 -0.028397322 -0.23181295 0.3351775 0.16683134 0.2988415 -0.122845836 0.19890085 0.23081937 0.32289785 0.11403636 0.005154507 -0.036388744 -0.46094468 -0.35125515 -0.31893706 -0.6039005 -0.14008307 -0.10793762 -0.2985243 -0.062523246 -0.65588367 -0.2452655 0.4737382 -0.32184362 0.06368677 0.054565508 -0.06857716 -0.115768425 -0.23656768 -0.46462232 0.37476113 -0.16874208 -0.042181022 -0.055610105 -0.06892603 -0.1186227 0.046725705 -0.3551792 0.21385674 0.60787445 0.048655976 0.039441396 0.21904564 0.58096653 0.47543886 -0.41969752 -0.061754905 -0.04349177 0.14996004 0.5439595 -0.40887997 0.11487269 0.110245585 0.2811581 -0.2529288 0.14715636 -0.0633027 -0.44169623 0.22821228 -0.12725715 0.22761722 0.21552424 -0.09746028 0.22211422 -0.01695805 -0.0019584722
1292 0.045566667 0.20385069 -0.040470876 0.13901229 -0.17184682 -0.20316327 -0.18354692 0.048987478 -0.44708797 0.1764964 -0.36429778 -0.00784703 0.06946359 -0.32298008 0.036736906 -0.04160977 -0.04822533 -0.036411323 0.15074758 -0.20215203 0.19702885 0.33258694 -0.27192804 -0.8568481 -0.1654358 -0.0660541 0.26401782 0.2947078 0.04443007 0.09143827 0.10232509 0.07718106 0.109520815 -0.4011347 -0.38946834 -0.1061765 0.16589557 0.3845104 -0.21211167 0.24155855 0.2532315 0.2918086 0.10527548 -0.086717024 0.10170816 0.30324134 -0.0639906 -0.107716635 -0.2368961 -0.43564585 -0.03672895 0.050408974 -0.2550862 -0.02271834 -0.6028163 -0.10619428 0.096467696 -0.40833196 -0.11729333 -0.07680498 -0.2819492 -0.07609661 -0.2640765 0.115232915 0.10534724 -0.08427726 -0.1025043 0.11723303 -0.07310097 0.006213012 0.14803557 0.04673412 0.25885594 0.5119678 0.31682187 -0.15760042 0.0015215471 0.37112325 0.5477663 -0.639817 0.06268402 0.028868774 0.059477516 0.1617007 -0.3376522 -0.086223796 0.094842374 0.6519889 -0.11502214 0.39612868 0.033444263 -0.21746033 0.30086035 -0.42223516 0.45695853 -0.11845678 -0.13887927 0.33513418 0.20732324 -0.21806066
1713 0.18314011 0.09088079 0.2757018 0.031852394 0.08466625 0.124272674 -0.0028663366 -0.31671867 0.28398147 0.11780086 0.19806665 0.1560089 -0.50336576 0.50274265 -0.08031198 0.29337046 0.115314215 0.42026556 0.3531336 0.08384567 -0.2733154 -0.2841172 0.5063294 0.21975261 -0.17568903 0.040482562 -0.14171922 -0.5804335 0.011759979 -0.24924004 -0.33695608 0.1006508 0.06776502 0.080237664 0.45053148 -0.26940563 -0.29801705 -0.5840087 0.5156469 -0.47301796 -0.43860918 -0.4101786 -0.011525332 0.22131975 0.32310268 -0.08874674 0.32423943 0.20132269 0.03364895 0.8175396 0.06490478 -0.18754968 0.3636775 -0.21446507 0.3781071 0.06608863 -0.08035227 0.023150962 0.18761979 -0.121042304 0.46008295 0.32478663 -0.14903033 0.42002946 -0.33604193 -0.1625253 -0.21766248 -0.46492627 -0.010527541 0.34231752 0.15940332 0.13520029 -0.22271605 -0.28878385 -0.34748575 0.39807382 -0.44190386 -1.0267942 -0.04522548 0.53911906 0.284553 0.006525152 0.29251552 -0.5792259 0.2843307 -0.24313976 -0.050647367 -0.03316523 0.28171414 0.10112807 -0.14030725 0.1546776 -0.38547355 0.007897705 -0.20333931 -0.2319201 0.047614824 -0.033757027 0.25475642 0.07627831
1343 0.113825664 -0.22129087 0.44527566 -0.15280086 0.08365124 0.048191004 0.028434629 0.33290628 0.13321376 -0.16222243 0.43611488 0.049346156 -0.008522345 0.677982 0.06161006 -0.083232604 0.36906454 0.52130103 -0.014407582 -0.09367391 -0.06189028 -0.3945094 0.09682768 0.33721104 0.17882949 -0.35012805 6.738311e-05 -0.46799442 -0.051442314 -0.11387879 0.020104628 -0.13486311 -0.04685249 0.18537024 0.67195934 0.07828833 -0.12360101 -0.2319287 0.34293672 -0.14061984 -0.21629173 -0.16922635 -0.25443807 0.027310528 0.16422133 -0.023705093 0.25985888 -0.06952641 0.14109664 0.4787855 0.40980256 0.16895993 0.01124019 -0.04577342 0.20084952 0.2207101 0.09601716 0.06947423 0.23424584 -0.01576243 0.6237041 0.37733862 0.22746605 0.1363692 -0.26265538 0.09577698 0.3144676 -0.5574339 0.03559327 0.22789279 0.36684474 -0.028332956 -0.5622184 -0.29321656 -0.08133226 0.18196876 -0.21532203 -1.0426052 -0.34761482 0.25785568 0.122177966 0.24120559 -0.045369506 -0.6870598 0.12657924 -0.005583956 -0.12389846 -0.30667645 0.16318247 0.23654798 0.1592909 0.3150884 -0.4286716 -0.26724464 -0.288995 0.03163858 0.08487792 -0.08546861 -0.0791056 0.13945423
1583 0.09285052 0.14796928 -0.10695188 0.11709085 -0.06419532 0.12408937 -0.73143965 0.297978 -0.10329896 0.22106132 -0.6898561 0.1447817 0.3006716 -0.5964093 -0.07417217 -0.14055252 -0.14253308 -0.48026153 0.032967392 -0.16219643 0.32739815 0.22865455 -0.15608923 -0.53870595 -0.3369307 0.0992612 0.25918484 0.21236697 0.43683785 0.058608785 0.3111165 0.33478186 -0.16496024 -0.33593145 -0.22171053 -0.10127662 0.00036224048 0.5626031 -0.09561281 0.1642831 0.23282981 0.14942914 0.24217582 -0.13837974 0.08740115 -0.019695895 -0.37461528 0.11614179 -0.420671 -0.281633 -0.06861421 -0.16991657 -0.41778022 -0.24334939 -0.6858588 -0.012783449 -0.04828606 -0.18839501 -0.089136 0.009866374 -0.4129114 0.043416943 -0.19801132 -0.44790554 -0.021564469 0.0739345 -0.022871047 -0.086389214 0.24774456 0.07434425 0.26825166 -0.012424779 0.49609703 0.16764095 0.2066198 0.024600567 0.013681569 0.29009354 0.16476955 -0.289795 -0.2752586 0.32078472 0.23556334 0.4102106 0.024145596 0.27517802 0.075112015 0.44026297 -0.4208157 0.3278375 -0.08297633 0.06671183 0.14780381 -0.029247984 0.35677344 -0.0587087 -0.017428365 0.04871007 0.03978567 -0.033617664
1579 0.16016638 -0.0025069995 -0.33159193 0.037202977 -0.1614655 -0.03982027 -0.39381468 0.26423034 -0.16477107 0.19536784 -0.2173518 -0.06433798 0.3527204 -0.465957 0.0040571424 -0.06587656 0.27570853 -0.06324922 -0.27380228 -0.025204571 -0.01717923 0.17584673 -0.51804125 -0.75976485 -0.071230166 0.034464117 0.35078153 0.06412178 0.13760273 -0.12232998 0.21508345 0.13523588 0.30500415 -0.33027163 -0.310558 -0.43378302 0.07450661 0.33421955 -0.14877813 0.03025857 0.30532005 0.3309033 0.24791181 0.19041398 -0.0063026533 0.05807474 -0.4538706 0.053520966 -0.119566254 -0.27084067 -0.054719806 0.079614356 0.037123494 -0.25302696 -0.7288919 -0.4276202 0.0678288 -0.6939625 0.002613045 0.051501215 -0.27698228 -0.25391808 -0.40508848 -0.21309705 0.09339583 0.12954627 -0.28038216 0.15366316 -0.16037829 -0.019768644 0.15445435 -0.12866619 0.3893395 0.22840025 0.5468915 0.064855136 -0.21027254 0.4186958 0.32844463 -0.2305593 -0.011410571 0.13792078 0.06845847 0.4763113 -0.34207836 0.15499301 0.0012647178 0.3557346 -0.5148519 0.2229746 0.13496515 0.093289785 0.28675747 -0.34089717 0.06705682 0.31577677 -0.105938695 0.21376078 0.06984597 -0.18514292
465 -0.110231146 0.48655376 -0.31828094 0.11759889 -0.25806117 0.012677682 -0.31784537 -0.047601007 -0.45490435 0.039261572 -0.39828393 -0.12357437 0.12707904 -0.2217579 -0.09892854 -0.059360612 -0.60281557 -0.623559 -0.22049838 -0.4080868 0.21742909 0.15823787 -0.2092842 -0.26275587 -0.40548903 -0.09563876 0.3569277 0.24403861 -0.15367794 0.16578686 0.22372095 0.25366193 0.028594043 -0.3005737 -0.42132184 -0.049747586 0.2092017 -0.058092717 -0.3518743 0.26678297 0.3018967 0.29328248 0.13117853 0.17562398 -0.21031615 0.07323971 -0.008514433 0.15952466 -0.41424653 -0.3910317 0.091358066 0.12777953 -0.42105788 -0.061996255 -0.29969642 0.074656144 -0.22903728 -0.13916689 -0.3293451 0.00974694 -0.12688766 -0.26575747 -0.45133093 -0.20307145 -0.1790794 0.12614256 0.0115197785 0.3521059 -0.09725485 -0.42714015 0.33304778 -0.2820793 0.13985296 0.349613 0.5236519 0.04777995 0.27016023 0.5648805 0.07152737 -0.4741589 -0.012100428 0.28593913 0.018110523 0.4644894 -0.03170647 0.316375 -0.15949458 0.071831346 -0.124506384 -0.19094579 -0.02289546 -0.008506262 -0.0872584 -0.37226108 0.40261334 0.14103818 0.019529454 0.029971845 0.019775972 -0.06979228
867 -0.15827215 0.3620883 -0.3318652 0.18427078 -0.43229845 0.21292183 -0.05260681 -0.12948398 -0.41972896 0.115079455 -0.28976807 -0.21978973 0.2240095 -0.5724854 0.19842425 0.078189395 -0.22702596 -0.18323384 -0.032931034 -0.18195248 0.20241652 0.18583259 -0.13950029 -0.42898276 -0.19507654 -0.15103392 0.43076006 0.3634686 0.2588934 0.2336958 0.27074742 0.20453846 0.2240187 -0.26678348 -0.31258166 -0.10700279 0.17762423 0.18954663 0.038523853 0.023156736 0.47379223 0.37003034 0.24318612 -0.020558102 -0.21089095 0.37119094 -0.06935815 0.07200771 -0.28614026 -0.48896718 -0.028411496 0.11576997 -0.26170528 -0.35993177 -0.4885107 -0.24817368 0.030594729 -0.27000582 0.04241219 0.08342274 0.012260397 0.02058755 -0.21233967 -0.15141208 0.25741532 0.14652884 -0.14670472 0.06924041 -0.25222993 -0.4070521 0.08388009 -0.22934355 0.024267528 0.40825748 -0.008537087 0.19056888 0.112932645 0.70386225 0.23170929 -0.10211774 -0.30435717 0.06297616 0.08509754 0.34516117 -0.12549989 0.0067796265 0.067943744 -0.0130419955 -0.27701214 0.11869181 -0.081578635 -0.038117766 0.20574313 -0.08933176 0.27668902 0.2312458 -0.099623 0.0983983 -0.065744795 -0.04475744
702 0.3911866 0.13108091 0.31816688 -0.12210946 0.008805627 0.25767076 0.2446051 -0.05606436 0.3546245 -0.14880116 0.1416906 -0.1228554 -0.06508192 0.2627322 -0.23498079 -0.18842098 0.27978414 0.6844544 0.12933676 0.1709701 -0.0964591 -0.21039821 0.31509763 0.20388235 -0.04254802 0.12642758 -0.21607313 -0.59397084 -0.15188023 0.021436479 -0.16624741 0.21068892 -0.07015116 0.34437093 0.50776714 0.41266555 -0.40970346 -0.25195682 0.052787483 -0.28550243 -0.18855493 -0.62593484 -0.46470475 -0.026960256 0.23619677 0.104290396 0.43094292 -0.21013044 0.23853163 0.3151187 0.09263924 -0.27630797 0.27535212 0.033650335 0.41502142 0.11348326 -0.29093397 0.05097993 -0.07074818 -0.2474058 0.57759106 0.17734799 0.2552459 0.4577954 -0.116029374 -0.038965955 0.22702688 -0.411886 0.22611669 0.036622148 0.11205522 0.10305115 -0.3522333 -0.2216101 -0.64501154 0.08482745 -0.0395908 -0.6545899 -0.3222596 0.26380086 0.28517166 -0.2794818 -0.06741244 -0.03621038 -0.070004754 -0.08071706 -0.014332744 -0.26008618 0.26743564 -0.11288109 0.039518163 0.042652562 -0.17672953 0.1460411 -0.26595366 0.14435524 -0.15579444 -0.31468958 -0.06725684 0.07433737
1927 0.07327542 0.05718284 -0.32394043 0.037613023 -0.19758676 0.075936645 -0.2796345 -0.11440643 -0.4645398 0.12908575 -0.079742186 0.09467474 0.25561976 -0.60506314 0.18450026 -0.07050077 0.17613415 -0.27270457 -0.2726657 -0.16048355 -0.026394779 0.057675593 -0.50855416 -0.47574276 -0.60534924 0.19186556 0.09138659 0.26370764 0.13682921 0.19549878 0.14727905 0.28942782 0.014005242 -0.31630036 -0.4860177 -0.3495662 0.21194257 0.21225429 0.13595006 -0.06853929 0.51198024 0.54604614 0.31282774 0.36344817 0.07547848 0.3081577 -0.30212802 0.09348857 -0.30232087 -0.4448546 0.062282577 0.020861924 -0.22361076 -0.09999862 -0.59157157 -0.13754302 0.19243082 -0.5309546 0.013732902 0.060915925 -0.2987047 -0.17139253 -0.4678557 -0.20129716 -0.38790488 -0.30791518 0.046934266 0.03197635 0.032195598 -0.2391767 0.2264314 -0.06205849 0.2027617 0.31649417 0.15404436 0.21543442 0.0025362172 0.42304772 0.20754522 -0.12317764 -0.12443984 0.07419859 0.11693388 0.35639352 -0.36975223 -0.09498748 0.22842349 0.48693377 -0.2484735 0.11292532 -0.15136662 0.10808413 0.31962967 0.3131202 0.086258285 0.106856555 0.11865331 -0.1829738 -0.15832555 -0.060426306
1218 0.39460713 -0.30170578 0.013280902 -0.37097797 -0.1073546 0.1937768 0.18099597 -0.19088535 0.39636323 -0.10746236 0.11157683 -0.02550769 -0.5611177 0.40194443 0.23506849 0.24043854 0.42333946 0.49433523 0.23269367 0.005758082 0.044517037 -0.30038154 0.7111726 0.27151275 0.3281729 0.09482238 -0.3698315 -0.6493397 -0.2139184 0.16715032 -0.22203973 0.34067094 0.045499954 0.6852226 0.42406958 0.10724986 -0.47147232 -0.25525022 0.28306466 -0.0786084 -0.4992027 -0.69231653 -0.11613985 -0.053748056 0.4569586 0.3502052 0.0340829 -0.05413579 0.025880504 0.31754848 0.50728464 -0.1665073 0.18298402 -0.14500919 0.7300539 0.16561078 -0.085815705 0.11518569 -0.12796961 0.03230421 0.2953927 0.14279512 0.3815554 -0.23865597 -0.22531584 -0.043497976 0.25973028 -0.5625154 0.30420962 0.075252116 0.06454491 0.2531866 -0.34850731 -0.13664469 -0.11502105 -0.07169263 -0.32875904 -0.7725889 -0.15000176 0.2847255 0.13998018 -0.27511978 0.14967282 0.0072304877 -0.022301007 -0.17114232 0.01311386 -0.17309064 0.23278494 -0.1963799 -0.115739115 0.14052667 -0.41194195 -0.2217695 -0.6827405 -0.27160317 0.30601424 -0.19014794 0.33762336 0.08329011
1231 0.21817914 -0.43976372 0.34467602 -0.2911758 -0.21785982 -0.10019027 0.2531737 0.17166571 0.118100986 -0.3400885 0.04077564 0.3111788 0.06848744 0.7244476 -0.058640447 -0.18207991 0.09334662 0.7517605 0.27331328 -0.033348154 -0.22920626 -0.089176886 0.4939187 0.038287334 -0.14181094 -0.081438884 -0.48222792 -0.5085483 -0.19298917 -0.24483724 -0.07456439 0.12455475 -0.41894376 0.09574332 0.35441238 0.1909368 -0.18371242 -0.42842436 0.31660932 -0.16040204 0.018524699 -0.19629596 -0.26023692 -0.08814963 0.15370305 0.03715074 0.17052978 0.2796922 0.167144 0.50868154 0.05641008 -0.14142382 0.24100564 0.36397102 0.5192871 0.3022532 -0.45581967 -0.08141766 0.0066767572 0.09595928 0.35411045 0.104499586 0.47970235 0.31561714 0.016404008 -0.039858893 0.0054311184 -0.8676771 0.10357179 0.14504068 0.059534058 0.063858934 -0.6746356 -0.48593464 -0.093519874 0.20997506 -0.30887088 -0.6666364 -0.1063149 0.30840656 0.08375739 -0.33798409 -0.033098042 -0.41815972 0.24444987 -0.2811626 -0.3529384 -0.40830287 0.2798606 0.050644085 0.23609143 -0.1383262 -0.24563278 -0.14516522 -0.59166116 0.12862128 0.029373625 -0.0047917347 -0.10558773 0.13846955
660 -0.0034300082 0.2535339 -0.42377642 0.22774585 -0.4293512 0.16748856 -0.479577 0.16100557 -0.43264562 0.12028835 -0.380124 0.24906352 0.047218535 -0.34576893 -0.2198062 -0.48507795 0.06696846 -0.06934372 -0.23228462 -0.19492231 -0.21083966 0.4729216 -0.22003871 -0.105410144 -0.107195035 -0.23384598 0.55342275 0.5527361 0.024375007 0.25688526 0.3303055 0.35510117 0.47156516 -0.19461104 -0.2530821 -0.13899426 0.084568426 0.22634012 -0.07334014 0.36538288 0.30989423 0.38409838 0.157364 -0.09282031 -0.1879772 0.36385077 -0.0010292206 0.07654985 -0.19644926 -0.5064339 0.17686932 -0.021068687 -0.39686853 -0.107803434 -0.37775478 0.113399304 -0.056761716 0.039191928 -0.14095125 0.13551603 -0.15288016 -0.21158655 -0.4082589 0.04458887 -0.08877334 0.037301086 0.090148896 0.14699616 -0.09589498 -0.27610686 -0.34517783 -0.2696477 0.14030688 0.2907855 0.4219254 0.17395945 0.013486427 0.9321494 -0.021475498 -0.732504 0.14855395 -0.031451076 0.10734299 0.39106268 -0.019577086 0.3444846 -0.013328443 0.34615403 -0.23177747 0.23031917 -0.038850643 -0.0599391 0.1635906 -0.0408204 0.6355576 -0.14919645 0.13406563 0.10016471 0.11849338 -0.28089273
608 0.1128067 -0.16537678 0.2490458 -0.47327554 0.109564506 0.3477578 0.15666589 -0.17343011 0.3570197 -0.12606579 0.16649881 -0.25557187 -0.09972383 0.54540116 -0.17011248 -0.007573221 0.17804036 0.8185338 0.06715665 0.31597942 -0.12120594 -0.3090069 0.35063812 0.4252602 0.15186404 -0.20736638 -0.122995 -0.5476055 0.01915097 0.12769055 -0.31142923 0.12442485 -0.057650622 0.26342466 0.41292253 0.33377734 -0.102264084 -0.20269695 0.19141378 -0.15712538 -0.40402022 -0.46733317 -0.41466886 -0.18200746 0.057912525 -0.11350031 0.22210965 -0.14669234 0.3785962 0.51358986 0.14452276 -0.16494654 0.053875234 -0.15805256 0.4118839 0.07892038 -0.027908102 0.2815719 -0.009285515 -0.42395082 0.4184824 0.35634476 0.22305273 0.27612287 0.06865299 0.143149 0.008498462 -0.2946785 0.17185023 0.16818003 0.034047782 -0.06245356 -0.24829838 -0.01440053 -0.26055583 0.07070674 -0.17774084 -0.45812997 -0.09242464 0.29411736 -0.08131258 0.019520668 -0.12704004 -0.2429925 0.37454292 -0.11954778 -0.05341061 -0.50847757 0.30309397 -0.14000899 -0.28206027 0.053242628 -0.25746402 0.008320602 -0.3143843 0.2184629 -0.10286736 -0.13971357 0.040242456 0.14938821
182 0.15914243 0.2684918 -0.21625046 0.19828534 -0.15766191 0.0434759 -0.08281967 0.028227024 -0.55220073 0.17114739 -0.14843847 -0.1770658 0.40018764 -0.43187112 -0.14409825 -0.46050578 -0.13525496 -0.3737076 -0.11498944 -0.2865361 0.30315033 0.103040814 -0.44347465 0.14025173 -0.36862338 0.02978793 0.33836788 0.12725697 -0.099180855 0.26744363 0.3359189 0.28136218 0.13336985 -0.19237065 -0.29123586 0.12099036 0.4626032 0.16510533 0.022868609 0.09171817 0.29842576 0.36234042 0.2697446 -0.09061872 -0.43099177 0.2121479 -0.1612219 0.21604691 -0.3554649 -0.4135116 -0.36690262 -0.22977956 -0.44681 -0.2784152 -0.67182356 0.007048964 -0.10494013 -0.14160416 -0.1086909 -0.10822964 -0.20687997 -0.13101844 -0.20132905 0.32417923 0.19634552 0.21477 0.2471892 0.19341512 -0.2343781 -0.3901287 -0.1294993 -0.045528922 0.26946628 0.3371075 0.14783792 0.03160661 0.32269895 0.6633878 0.42546237 -0.6315705 0.07122247 -0.062630355 -0.20653841 0.84827715 -0.5073138 0.3266568 0.12743129 0.25454545 0.09022388 0.010237414 -0.32377678 -0.28579065 0.48797998 -0.19820279 0.5628805 0.14564082 0.3097013 -0.124970354 -0.06797178 0.059034135
1902 0.16841596 -0.07637295 0.006254779 0.103655815 -0.35600835 0.088438705 -0.3454959 0.13459526 -0.39734417 0.07300493 -0.4021053 0.085523896 0.34006014 -0.77955645 0.463366 -0.12503962 -0.25246194 0.09571117 0.067207634 -0.16048978 0.03353978 0.18522917 -0.6508548 -0.3920119 -0.29244632 0.13870357 0.41038725 0.30113822 0.15804164 0.14028987 0.10084989 0.21877532 -0.24319239 -0.15014955 -0.37179187 -0.37831637 0.13252598 0.5301097 0.18586253 0.1507718 0.43999535 0.68070936 0.16011773 0.033452224 0.18196447 -0.15826756 -0.2951774 -0.1542347 -0.4325362 -0.42683372 -0.033091698 0.30792606 -0.2522424 -0.09751686 -0.24182324 0.12256097 -0.057739675 -0.4085221 0.15469092 0.09409959 -0.70179677 -0.027010307 -0.2843861 -0.025656411 -0.16516319 -0.20085482 -0.11797229 0.46120033 0.19218685 -0.40662804 0.06350587 -0.17116308 -0.087086864 0.14014548 0.24750547 0.2122614 -0.33979172 0.7145621 0.2969115 -0.20616469 -0.07154763 0.22044145 0.113758236 0.29575166 -0.7587916 0.0160442 0.38079455 0.3579388 -0.6862634 -0.019363152 -0.19655412 -0.3663231 0.19329683 0.029376017 -0.09366588 0.19747992 0.35516348 0.06540756 0.1360818 0.041363433
715 0.04653976 -0.12050255 0.18396883 -0.22128981 0.15025158 0.052038595 0.053201392 -0.24197778 0.24272288 -0.19487803 0.34915933 0.09902023 -0.26446956 0.57146263 -0.16023535 -0.16993618 0.34335312 0.6456378 0.30987203 -0.06813297 -0.21513414 -0.4251182 0.35253677 0.31611058 0.06888665 -0.1441738 -0.56178343 -0.33225635 -0.18167497 -0.20762968 -0.11104277 -0.025650728 0.021367844 0.30054072 0.73730755 0.1856395 -0.35488167 -0.13796523 0.09949387 -0.1234815 -0.39818105 -0.5041612 -0.66995376 0.03267969 -0.3511599 -0.23251258 0.05277504 -0.13966437 0.18965034 0.55308175 0.13012743 0.05810503 0.06501133 -0.19071802 0.46880522 0.24184705 0.046905834 0.22842972 0.0037796204 -0.029767767 0.59725696 -0.0010418615 0.12577473 0.21979396 -0.22740032 0.062194724 0.35802543 -0.4471252 0.4080469 0.23838237 0.10381785 0.16027279 -0.5754145 -0.18047744 -0.09366509 0.13554955 0.17583337 -0.5160237 -0.2880818 -0.106380604 0.35914877 0.051524583 -0.14353362 -0.15871264 0.22284059 0.07168564 -0.12512642 -0.27324057 0.073765844 0.30141887 0.17882118 0.28571117 -0.05749575 0.24624555 -0.012427359 -0.030243369 -0.086952604 -0.09406331 0.049210265 -0.069613226
21 -0.0791797 0.19559464 -0.4927841 0.21778245 -0.24408694 0.16759501 -0.22427617 -0.19138679 -0.30061644 -0.042929664 -0.3521127 -0.07495254 0.2223145 -0.5187888 0.01202572 -0.3289664 -0.14145157 -0.039715387 -0.30237618 -0.5208831 0.4369905 0.050617397 -0.03010391 -0.21304183 -0.22630765 0.0857269 0.18920349 0.38241392 -0.038482074 0.11454786 0.280743 0.26263475 0.16787045 -0.06407961 -0.25700217 -0.31394902 0.1817823 0.14274274 0.19452272 0.28817642 0.4274232 0.3787478 -0.11541694 0.0689117 -0.0744014 0.34510857 -0.05409671 0.2850794 -0.26253277 -0.29783162 -0.2235206 0.0014462449 -0.077646084 -0.045000717 -0.7253223 -0.16766983 -0.11067494 -0.3164568 -0.1331989 -0.09966163 -0.13003175 -0.16903566 -0.2860783 0.18103072 -0.018103845 0.37167165 -0.21907865 -0.014096987 -0.20011531 -0.36057162 -0.20000425 -0.05691696 0.43137386 0.43267614 0.47212732 -0.036098644 0.25060344 0.5968709 0.2545676 -0.06967898 -0.076651715 -0.13258852 -0.14724268 0.25099227 -0.09293381 0.06882759 0.043559253 0.053028505 -0.4522643 -0.20823385 -0.19429283 0.08393311 0.6289038 -0.15768449 0.47567785 0.31434393 0.060107786 0.2230413 0.17697203 -0.23983152
353 0.09664664 0.14535204 0.18498734 -0.18502639 0.37539798 0.12898415 0.29897243 -0.28213105 -0.27845636 -0.20029154 0.5632761 -0.13572785 -0.48069707 0.47804898 -0.063769236 0.0315263 0.39055416 0.39092678 0.2346752 0.31069914 0.103958964 -0.4359266 0.4334576 0.24659193 0.33371064 -0.049254443 -0.41414458 -0.4946817 -0.40387666 -0.1262646 0.1744875 -0.17600302 0.25961205 0.37453824 0.54192734 0.38521895 0.0013965361 -0.517921 0.1793207 0.17678826 -0.31610414 -0.73050165 -0.37610298 -0.3941684 -0.051922668 0.2043583 0.075071916 -0.19686441 0.16626479 0.5022716 -0.027910491 0.10660157 0.61096513 -0.005309846 0.7890323 0.015173579 -0.51105183 0.51233554 -0.06442545 -0.08285354 0.5076549 0.058986742 0.4030634 0.29064548 -0.17038277 0.19213827 0.11544001 -0.30319044 -0.1299441 0.14370358 -0.06938874 0.14324604 -0.1698418 -0.20505208 -0.11071404 0.19140139 -0.09666492 -0.7209442 -0.31032336 0.4532638 0.38880542 -0.27359083 -0.12421211 -0.23546107 0.08067412 0.058034904 -0.14943625 -0.28398874 -0.10362784 -0.28464302 -0.20496413 0.28002182 -0.22738165 -0.4722607 -0.32456136 0.20857933 0.088906355 0.08393722 0.047704123 0.06349634
1 -0.18578793 -0.16091892 0.1682125 -0.28287926 0.32387185 0.18130396 0.12078951 -0.27589804 0.5409334 0.017107436 0.48633403 -0.3650836 -0.0925614 0.58637697 -0.19639179 0.22276656 -0.07162937 -0.053099617 0.18415718 0.43054378 -0.19406116 -0.38642532 0.6918005 0.4632821 -0.07891737 0.04061057 -0.26647344 -0.442912 -0.23266746 0.11672663 -0.06598838 0.17321351 0.25645664 0.8801311 0.2753238 0.48867935 -0.6423283 -0.14636752 -0.33650914 0.21399398 -0.019743843 -0.8332231 -0.45615658 -0.044344325 -0.70601207 -0.3591661 0.09680414 -0.16697429 0.04147858 0.5142137 -0.38761404 -0.17268206 0.5121776 -0.00210894 0.61596704 0.43023366 0.047035765 0.24052542 -0.4247619 0.30769494 0.8238573 0.1855338 0.52225596 -0.015172415 -0.19634436 0.3915516 0.083982736 -0.3252105 0.14721249 0.10210246 -0.06763422 -0.14002824 -0.40057212 -0.03730085 -0.33477023 -0.20675103 0.16364273 -1.0755067 -0.2795613 0.10479401 0.18023527 -0.38715768 -0.3411704 -0.33912274 0.19557856 0.3072361 -0.34776485 -0.76240015 0.19955367 -0.071033664 -0.13573472 -0.20886575 0.018678922 -0.06708055 0.18753012 -0.26355082 -0.23477758 -0.09785493 0.07804886 0.05097254
1023 -0.20294204 0.0719453 0.40440625 -0.14540736 0.1699805 0.26387107 0.106215164 0.07253875 0.6509062 0.11580447 0.023260353 -0.21187456 -0.21454953 0.31849045 0.2730455 0.13549829 0.22288771 1.0386223 0.21705213 -0.3797001 0.011433058 -0.08742457 0.18707298 0.5783186 0.31528634 -0.2160566 -0.37709466 -0.8211086 -0.29516804 -0.23866813 -0.32418668 0.10621937 -0.47866553 0.314642 0.7758122 0.03359309 -0.15404199 -0.2500254 -0.2185003 0.31335413 -0.30257443 -0.42802382 -0.1780454 0.025184387 0.015242917 0.31807244 0.09786843 0.39836153 0.39284545 0.66651285 -0.041134566 0.06926151 0.101853296 0.36811885 0.6351304 0.09817798 0.073125824 0.21536237 0.36957932 0.06655351 0.08573663 -0.11063622 0.3886496 0.60261726 -0.07154674 0.29022178 0.17856859 -0.61337775 0.30907568 -0.09609704 0.14960708 0.45491123 -0.64346015 -0.34005722 -0.23208112 0.28726074 -0.14515589 -0.6498815 0.1566606 0.5583461 0.06806549 -0.31498018 0.23635045 -0.52252287 -0.16905393 0.17642525 -0.033177476 -0.1877809 0.24727024 -0.054281257 0.04107506 -0.017145524 -0.2739963 -0.16849777 -0.25247926 -0.006676317 -0.040915307 0.05282881 -0.009768243 0.5120485
1610 -0.0054066 0.26781183 -0.27099556 0.028268293 -0.56811535 -0.14976494 -0.20071375 0.25559485 -0.5354665 0.43821853 -0.35728002 0.023722742 0.0015889981 -0.19784775 0.36436933 -0.28620857 -0.081984386 -0.124574736 0.20383179 -0.049593836 -0.25093573 -0.050958674 -0.24744792 -0.4901943 -0.17977917 0.18552914 0.35137612 0.6331622 0.32568878 -0.09899332 0.018958237 0.14481169 0.25708368 -0.32223743 -0.10862609 -0.42684796 0.21938774 -0.087600715 -0.09815672 -0.18898804 0.30422857 0.65726775 0.1691563 0.07989365 0.051578287 -0.06865228 -0.30255982 -0.12574874 -0.6079167 -0.50282866 -0.076964185 0.25254866 -0.38869435 -0.038267776 -0.58303356 -0.3085648 0.008451699 -0.4954292 -0.17799449 0.23335437 -0.2687423 -0.13244458 -0.1534013 -0.26534462 -0.24580391 -0.04982566 -0.10980434 0.23019542 -0.26886678 -0.2240414 0.049081843 -0.26472965 0.0074861855 0.44122455 0.20753291 0.19768184 0.15388907 0.38656053 0.22756387 -0.16617337 -0.07471719 0.039583202 0.20430216 0.68635285 -0.31397516 0.10762719 0.31900787 0.24097502 -0.1776438 0.117066495 0.19351842 -0.15323073 0.39369684 0.10823114 0.43505466 0.25668964 0.01965065 0.098229855 -0.1415098 -0.017922953
825 0.14618859 0.2785841 -0.20067033 0.21619992 0.022550745 0.19984248 -0.09773195 0.16933867 -0.40303656 0.016044216 -0.36457154 -0.27679056 -0.056773413 -0.5996822 0.12693311 -0.21557927 -0.12732717 0.09557484 -0.3975037 -0.26036873 0.03492796 0.37068534 -0.21487145 -0.3666734 -0.121639624 -0.25831524 0.3772729 0.26450825 0.2635918 0.31808513 -0.10446763 0.06849125 0.08886781 -0.29060397 -0.34358573 -0.10882514 0.36668983 0.38234904 -0.026184138 0.20999189 0.4037537 0.26021904 0.23868553 -0.07221071 0.03772997 0.1336078 -0.15452754 -0.227791 -0.2265611 -0.3367621 0.027483555 0.12943116 -0.24804376 -0.03121746 -0.62350655 -0.16980328 -0.11179165 -0.26926988 -0.1760043 0.11963037 -0.06228257 -0.28095272 -0.39043036 -0.04375281 0.22797537 0.11138415 0.01779141 0.14740637 0.03013466 -0.16584237 0.11169733 -0.14863391 0.41512287 0.5121321 0.21759233 -0.067380704 0.18443288 0.44179964 0.14450306 -0.34088853 -0.095380776 0.002157454 -0.1627196 0.37718844 -0.15216686 -0.06164165 0.06730963 0.037597753 -0.20753329 -0.13266812 -0.020081095 0.19263452 0.23659617 0.08796558 0.49025625 0.19488122 -0.0070196385 -0.06560774 -0.0902678 0.25268018
1745 -0.10490021 0.05134442 -0.18720756 0.4261247 -0.124136925 0.08314334 -0.33803004 0.38361478 -0.30567235 -0.016928162 -0.4122561 -0.06961565 0.19396016 -0.66429996 0.5975306 -0.052243553 -0.22836784 -0.114191 0.10660668 -0.028318023 -0.20156032 0.2539426 -0.2967249 -0.7188704 -0.3148583 0.009387681 0.3021621 0.29640025 0.48410597 -0.045890756 -0.044859357 0.074744925 0.26937142 -0.42322552 -0.7127105 -0.26353097 0.4505965 0.14210244 0.17374928 0.04105416 0.2984451 0.13755023 0.20977406 0.09801019 -0.07766473 0.47765964 -0.38919652 -0.17684212 -0.3902035 -0.27037397 0.1562898 0.16589594 -0.36901745 -0.39721072 -0.30309215 0.08151969 0.0025995327 -0.24771158 0.07349136 0.1635742 -0.43605214 -0.11737435 -0.34536684 -0.4151033 0.12847792 0.04453083 -0.1353708 0.056001008 -0.09787365 -0.36042038 -0.043255556 0.0061199153 0.021053258 0.5815723 0.19286388 -0.024078676 0.01614386 0.11089215 0.51378745 0.029824771 -0.19337338 -0.14954904 0.26478854 0.6398938 -0.16716978 -0.19329743 0.4343985 0.321777 -0.13346338 0.016397187 -0.1574929 0.11582398 0.023731627 0.13196991 0.4752804 0.26356587 -0.08193379 0.063986816 -0.04807703 -0.39660978
940 0.13819039 -0.05689903 0.18676488 -0.52435607 -0.11857403 0.0026964764 0.11333115 -0.122623816 0.5342973 -0.11909492 0.38871235 -0.16598387 0.088326104 0.6985292 0.015509541 0.07210502 0.16753343 0.26546264 0.23495954 0.1402368 -0.12769683 -0.2402341 0.59791726 0.321575 0.13258204 -0.17976183 -0.06623671 -0.2789569 0.2603631 -0.34526747 -0.17301486 0.33528736 -0.06471756 0.45887864 0.8670337 0.43793187 -0.87389505 -0.20240718 -0.10709941 -0.30038244 -0.17896387 -0.77871513 -0.16801462 -0.101716064 -0.022740679 -0.10360762 -0.20652346 0.05449451 0.3770025 0.2834982 -0.1569824 0.03136242 0.47837657 0.09655491 0.5081112 0.31086975 -0.5042175 0.1352804 0.012253658 0.10070224 0.16607869 -0.031839762 0.42660394 0.16467723 -0.3466787 0.27942762 0.06507636 -0.45497832 0.12828793 0.14128034 0.017616387 0.11568396 -0.46451244 -0.50586975 -0.42897522 0.08470067 -0.5593822 -0.35941184 -0.27252766 0.3962884 0.27310136 0.122863084 -0.5265811 -0.2914235 0.19151957 0.09444374 0.04701413 -0.44379535 -0.18789081 0.22429201 -0.13179107 0.28996488 -0.34211537 -0.08483263 -0.11884386 -0.41756365 0.16158445 0.090418264 -0.22920822 0.05876371
1544 -0.20800164 0.42701697 -0.23125772 0.07373434 -0.11836941 -0.14177059 -0.45486918 -0.030013211 -0.3514989 0.2050449 -0.3127142 -0.039520185 0.11106483 -0.4267738 0.08418843 0.005681161 0.013882244 -0.06737612 0.080323115 0.028585082 -0.076311596 0.27577218 -0.1156496 -0.54919547 -0.40284774 -0.03146791 0.3614642 0.5183197 0.20498215 0.21539508 0.3675278 0.20539118 -0.19738983 -0.32022095 -0.24373357 -0.27208441 0.19260408 0.040551584 -0.18613492 0.37399647 0.64909697 0.14135695 0.22571282 -0.3109259 -0.2670013 0.3169035 0.053278632 -0.16847554 -0.29202718 -0.39964405 0.07784513 0.1465698 -0.38914087 -0.16090629 -0.63171625 -0.14782453 0.124329336 -0.31920353 -0.005975143 -0.0013089204 -0.5703335 -0.3684519 -0.41404384 -0.44736272 0.20623446 -0.26313964 -0.06597767 0.19335513 0.09262628 0.060843278 0.091212414 0.070762575 0.31103018 0.041451316 0.0003099491 0.04731757 -0.05351039 0.16789594 0.26077795 -0.22360757 -0.34985366 -0.118387885 -0.07956753 0.5169142 -0.025986452 0.06806851 0.17456946 0.59283096 -0.05110104 0.13830175 0.19100322 -0.17328191 0.10742799 -0.20528108 0.5960259 0.0010913401 -0.2368339 0.18149835 -0.21601813 -0.058166143
1446 0.3341103 0.019204764 0.57899237 -0.26493382 0.13523695 0.032452334 -0.08468441 -0.13497408 0.4584136 -0.29203528 0.1681078 0.29461122 -0.2942051 0.15589131 -0.104416534 0.51383036 0.27287132 0.32297423 0.046120808 0.27709135 -0.4368056 -0.4408654 0.37902102 0.036933612 0.01947452 -0.29654807 -0.5728115 -0.6546648 -0.12071901 -0.099869706 -0.33694595 0.038815446 -0.032349527 0.18062253 0.1995575 0.08425107 -0.32171908 -0.10276617 0.23865017 -0.26925725 -0.42984816 -0.44367573 -0.08255746 0.31322068 0.022899603 0.19128057 0.31547484 0.052153967 0.30072302 0.75767463 0.37057355 0.009495311 -0.008090209 0.36793333 0.45221248 0.05906634 0.15829986 0.08648089 0.15901865 -0.1727841 0.43666598 -0.13713896 -0.10156575 0.23506288 -0.3875154 0.41051447 0.2061079 -0.6644345 -0.29069942 0.35532075 0.12913291 0.21650353 -0.8121668 -0.038706776 -0.27127257 0.11222536 -0.05631498 -0.66266936 -0.4369731 0.6748399 0.06510724 -0.07637843 0.020058021 -0.39969575 -0.035853542 0.20685026 -0.27559 -0.080138914 0.3453871 -0.050731428 0.5870477 0.37177673 -0.42143565 0.12977867 -0.36362004 0.10245587 0.10347631 -0.016292874 0.10198091 0.11597512
1390 -0.28358245 0.23930359 -0.102641776 0.0721621 -0.15736878 -0.18738765 -0.30951393 -0.09223901 -0.22855099 0.15578309 -0.46439698 -0.35788876 0.29735744 -0.43959484 0.2306593 -0.110483654 -0.26383635 -0.14445424 -0.19343941 -0.090024345 0.3828325 -0.108329274 -0.40929252 0.009692433 -0.21357962 -0.05815608 0.38245562 0.42331266 -0.010675827 -0.009172617 0.020453446 0.30292392 0.14840354 -0.28895923 -0.20132089 -0.24381521 0.08621862 0.053333037 -0.27501208 -0.09882214 0.52372974 0.4388166 0.120903514 0.08221918 0.1631014 0.47556242 -0.381075 -0.07154934 -0.37267363 -0.39761642 -0.022732385 0.14381611 -0.24242327 -0.22188781 -0.46333113 0.008634961 0.38610446 -0.28424668 -0.07133926 0.10661569 -0.43424976 -0.3140621 -0.35001016 -0.2504451 -0.08441925 -0.07520359 0.05364994 0.36007804 -0.05908626 0.006446216 0.068822786 -0.27209884 0.020721769 0.22064474 0.15727855 -0.04557223 -0.22344153 0.7474003 0.39926213 -0.31864598 0.24361002 0.17983308 0.07165198 0.5345479 -0.31853643 -0.14188887 -0.15078735 0.29220912 -0.46238518 -0.23642516 0.0056727207 -0.17776002 -0.11414996 0.06913164 0.5483404 0.053526938 -0.158401 0.30212963 -0.3891736 0.028255146
494 -0.10326384 0.25545436 -0.3570185 -0.17805839 -0.01867363 -0.06838249 -0.42672905 0.3511165 -0.09630577 -0.024561659 -0.32464767 -0.12527294 0.27454755 -0.18650001 -0.019369032 -0.54065794 -0.09268395 -0.32834157 -0.31445426 -0.32762104 0.26745653 0.20948133 -0.36709332 -0.42112902 -0.16265276 0.04357812 0.40452147 -0.05479964 0.0018340718 0.21771987 0.40555164 -0.2605745 0.09996499 -0.37349856 -0.51302475 0.31259033 0.09167968 0.47206256 -0.019833079 0.03604416 0.3457038 0.24280918 0.20273352 -0.004570004 -0.0640047 0.24917789 -0.03166865 0.04129927 -0.49039036 -0.43241632 0.040698964 -0.1431227 -0.47784752 0.0059586335 -0.30648246 -0.23803385 -0.4310851 -0.042132296 -0.04509585 -0.07936596 -0.12617965 -0.095936224 -0.18353923 0.05704538 0.040299963 0.18804611 -0.35209426 0.28651157 -0.17613493 -0.5509366 -0.22696899 -0.2575404 0.24134488 0.3394403 0.33668092 0.035274997 0.20655829 0.6986765 0.16933282 -0.09185977 -0.23422363 0.14296249 -0.2681709 0.5799462 -0.3776018 0.02575963 0.16704907 0.44383317 -0.47392848 -0.0035816538 0.047027107 0.0011931438 0.12768944 -0.13484085 0.42726165 0.13404858 -0.039134044 0.2947162 -0.21550512 0.10990804
1195 -0.2835259 0.23609573 -0.3046536 0.14970341 -0.24332874 0.3915165 -0.15264514 0.15457128 -0.23575883 -0.13913693 -0.47210103 -0.13241187 0.002406222 -0.35360146 -0.044881027 0.11066245 -0.12893412 -0.3099404 -0.17119071 -0.4112545 0.13507618 0.321596 -0.20849372 -0.5094321 -0.20013425 -0.12574024 0.33562014 0.11059129 0.18807693 0.27437538 0.37810683 0.19534373 0.050003596 -0.3807903 -0.40061703 -0.2617766 0.07100972 0.0466751 -0.30684447 0.36976087 0.40139538 0.2814512 0.1255978 0.40282363 0.07976749 0.24201497 -0.35134986 0.13162516 -0.13126631 -0.42232972 0.015227156 0.046389513 -0.52135116 0.06580379 -0.60975695 -0.482483 -0.033216555 -0.17445356 -0.43661752 0.12637635 -0.07242146 -0.3108802 -0.37774232 -0.23104414 0.11796595 -0.14349508 -0.15029983 0.15410879 -0.08420693 0.14659636 0.15106766 -0.0823992 0.15412626 0.3078033 0.40895918 -0.006790135 0.0346984 0.4648061 0.27232915 -0.4481933 -0.030195005 0.020217897 0.26012403 0.30497977 -0.09258147 -0.04764903 -0.13701922 0.16223735 -0.32478762 -0.092614435 -0.08589214 0.023150349 0.10028099 -0.07523964 0.07679505 0.17867127 0.2389496 0.018598171 -0.07069817 -0.26704118
1154 0.036029123 0.33853978 -0.13865513 -0.12079836 -0.1631964 0.024595123 0.0057727084 0.16595957 -0.3897145 -0.20805904 -0.62122947 -0.17922813 0.32614133 -0.3685272 0.15917028 -0.23792554 0.03503776 -0.28742662 -0.31774604 -0.40695712 0.033200953 0.26397562 -0.09897131 -0.46014473 -0.31640399 -0.19449547 0.44631988 0.36793768 0.085435666 0.22129793 0.061665148 0.34454072 0.0020847681 0.10036481 -0.21246816 -0.19235677 0.39030328 0.14687993 -0.07307587 0.097296946 0.40647322 0.34694862 0.3264251 -0.017673532 0.26304317 0.12806168 -0.09180262 0.008288074 -0.14189759 -0.4527862 -0.014707093 -0.24103898 -0.56105757 -0.20986883 -0.59662217 -0.01451887 0.1034234 -0.33361584 -0.09659662 0.0006629709 -0.32888097 -0.17803699 -0.44042262 -0.20465381 -0.01458417 -0.026874637 0.09577887 0.0763718 -0.14738794 -0.2568943 -0.10666375 -0.032023624 0.19500944 0.32256818 0.14853796 -0.016634244 0.2077346 0.65585726 0.1637116 -0.13826217 0.064773425 0.2585899 -0.04537029 0.36464596 -0.3434542 -0.10335847 0.016744917 0.36246482 -0.06589407 0.022806652 -0.07836314 -0.0756019 0.2089419 0.021414535 0.088355355 0.16379242 0.03690193 0.27176416 -0.2592207 0.067051694
638 0.217952 0.1599545 -0.6287236 0.08663716 0.103591375 0.31990442 -0.34771574 -0.28838465 -0.24269374 -0.1675677 -0.5839965 -0.35299382 0.34627852 -0.58573264 -0.1008163 0.09379739 -0.3689857 -0.10217482 -0.42122158 0.09031296 -0.037298243 0.18094718 -0.18023507 -0.45486295 -0.1459046 -0.24340162 0.253107 0.13019867 -0.21028785 0.19919014 0.027486833 0.45919755 0.021257322 0.068716645 -0.33758414 -0.10341412 0.25122142 0.40004644 -0.10917109 0.5212935 0.28021035 0.3631673 0.08820204 -0.024055945 -0.39588103 0.15681313 -0.18020278 0.1485373 -0.22861616 -0.31391856 -0.3840786 0.09110898 -0.23274949 -0.17137218 -0.3737198 -0.35079005 -0.101047374 -0.3103464 -0.044746026 0.119727574 0.027984327 -0.3386598 -0.3825286 -0.09233584 -0.12566371 0.1440353 -0.30779797 0.31181505 -0.36731687 0.06273185 -0.14426301 -0.19076498 0.34381002 0.5774345 0.2667229 -0.052929208 0.44910145 0.68014276 0.38763165 -0.15445778 0.07372805 0.22040083 -0.21831895 0.57326746 0.005696815 0.19910589 -0.31018353 0.23700704 -0.35573408 0.121288344 0.009348571 -0.26605442 0.3528217 -0.2420391 0.4045349 0.16088413 0.08794085 0.094626114 0.20753735 0.034086585
604 0.27474213 -0.04396145 0.05595718 -0.6074047 0.4460934 0.083645426 0.111575805 0.028570624 0.1739382 -0.114835255 0.58763885 0.15630516 -0.2544117 0.51074755 -0.16152887 -0.08051957 0.29861355 0.65158325 0.24622141 0.3627901 -0.14199969 -0.15729699 0.5329763 0.457804 0.008729198 0.04581391 0.046152066 -0.5523723 -0.083876744 -0.0062965113 -0.18451834 -0.08611496 0.20542644 0.14743322 0.22832151 0.19102031 -0.5029244 -0.36290753 0.36644506 -0.122191556 -0.22155465 -0.823098 0.12576346 -0.0109324735 -0.04784615 -0.080525614 0.12790197 -0.093819484 0.18641388 0.6831466 0.035606146 -0.050252296 -0.0032983315 0.19292259 0.30421406 0.5343973 0.25378415 0.41834694 -0.06941578 -0.12723023 0.14789845 0.15897806 0.069523275 0.47010836 0.10443406 0.36622402 -0.1288794 -0.11705743 0.19125958 -0.018532898 0.26018345 -0.05173896 -0.5758694 -0.17127924 -0.38133472 0.36775285 -0.07391943 -0.6916711 -0.16535504 0.21971068 0.18820974 0.21057238 -0.33768457 -0.4825574 0.1647502 0.21118106 -0.12749982 -0.5873055 0.49418524 0.023435555 -0.09971643 0.069587134 -0.071071714 -0.059111375 -0.19584051 -0.054956496 0.1787142 -0.18375833 0.3197873 0.11379677
1440 0.13911688 0.44118333 -0.21985677 -0.028562833 -0.3990928 0.10666021 -0.049795147 0.28028342 -0.4919061 0.22200368 -0.33261403 -0.08083116 0.46831843 -0.48548442 0.28776282 -0.1710269 0.058993246 -0.14711739 -0.019090839 -0.40140232 0.3927129 0.36292854 -0.30419853 -0.3599937 -0.83293825 -0.043215014 0.2934975 0.20652656 0.26434195 0.062294163 0.2644313 0.19593859 -0.22297819 -0.22882429 -0.27513197 -0.730714 -0.030644631 0.23481797 -0.27863738 0.24354401 0.46568847 0.2600268 -0.15309763 0.022826873 0.016234258 -0.12485346 -0.56776416 0.16233967 -0.2970408 -0.5240988 -0.11089957 -0.10430364 -0.38368675 -0.020616975 -0.43087435 -0.039947167 -0.028145058 -0.4692836 -0.05733805 0.02111292 0.00038999878 -0.15449445 -0.44502887 -0.12783028 0.023460126 -0.48835313 -0.15219706 0.0023072222 -0.28702164 -0.15734318 0.006184578 0.068905406 0.18426484 0.29817808 0.5018904 0.010628389 0.08267082 0.4315323 0.2262313 -0.10749647 0.30287898 0.0296293 -0.1932648 0.7744305 -0.33254108 -0.16521041 0.3960469 0.4084709 0.12934211 0.07871417 -0.21149416 -0.078099415 0.20112698 0.16666897 0.05604022 0.31275105 -0.1385441 0.40544987 -0.2582224 0.0067383586
1556 -0.006872691 -0.34366482 0.3856647 0.04896297 0.008741514 -0.03812299 0.007450072 -0.08469061 0.42943615 -0.19994874 0.08220627 0.1888049 -0.00037653255 0.36213037 0.28946623 0.14803448 0.3525901 0.63174313 0.24099115 0.3992692 -0.87371683 -0.07031412 0.15910651 0.08260468 -0.025070783 -0.19744328 -0.36538333 -0.50760275 -0.2387987 -0.40730485 -0.1843705 0.016783793 -0.35526997 0.23783341 0.6330187 0.16250767 -0.41699263 -0.22694594 0.33709076 -0.13986978 -0.40857667 -0.2887763 -0.31572348 0.013258749 0.5229736 0.04996879 0.1250783 0.009853522 0.1115933 0.8964298 0.2436362 -0.0419955 0.33677292 0.17981732 0.5810379 0.091060795 0.04636343 0.19883582 0.09504766 0.13519646 0.35665312 -0.045709074 -0.119572684 0.31934062 -0.060024187 0.05306313 0.26042736 -0.74524266 0.15517272 0.31733313 0.2358218 -0.12413368 -0.22316304 -0.23424454 0.041731942 0.3295221 -0.399546 -0.6696491 -0.34403637 0.30045596 0.4255468 -0.08943842 0.24891686 -0.37521192 0.036265995 -0.3800519 0.045219723 -0.35189947 0.040595356 0.120403275 -0.096398205 0.41052258 0.07994798 0.096554555 -0.64388454 -0.26520765 0.5395277 -0.15852542 -0.21679385 -0.07180186
1831 -0.0920487 0.34662428 -0.41305456 0.26122096 0.013901709 -0.13154283 -0.23238105 0.06697932 -0.4416892 -0.05896255 -0.35797775 0.22416957 0.42737505 -0.6338814 0.04252615 -0.3190441 0.062180594 -0.22897246 -0.17148173 0.052728575 -0.015381976 0.055712007 -0.0426649 -0.52789235 -0.48772693 0.041332018 0.31687114 0.45247585 0.24836977 -0.18517682 0.1752772 0.08376953 0.1422751 -0.40025756 -0.29456678 -0.42163977 0.32862645 0.24307935 -0.0045964383 0.068697214 0.33087987 0.30474055 0.3088811 0.16740784 -0.15428607 0.25564414 -0.41727024 -0.32761583 -0.08800164 -0.07581498 0.055834543 0.10210705 -0.3257249 -0.021745123 -0.3269193 -0.17690693 0.16304968 -0.15291362 -0.0065967552 0.015800586 -0.5492757 -0.1427987 -0.0130556 -0.34604195 -0.12877525 -0.37031224 -0.109334 0.20561229 -0.28921598 -0.1051641 0.11221908 0.071132496 0.2284888 0.50926536 0.0100035835 0.26749235 0.15919995 0.5631914 0.38144106 -0.116260976 -0.11940815 0.2124712 0.06875774 0.43096155 -0.14935097 -0.1613234 0.27766022 0.45098332 -0.18158197 0.19048367 -0.032224346 -0.002352873 -0.10733331 0.05129142 0.24359235 0.23509428 0.005651405 0.23062447 -0.1277623 0.016446037
1272 0.11279729 -0.06272981 0.27921808 -0.4348474 0.17370802 0.18119264 0.2823603 0.11376006 0.51042086 -0.2691025 0.2145555 0.32065228 0.11880074 0.50519574 0.116534725 0.054594617 -0.06551366 0.32342407 0.22973873 0.26711765 -0.30446836 -0.40522185 0.17599605 0.52338696 0.19035129 0.2537468 0.04827545 -0.5276386 0.048828002 -0.18759519 -0.41490892 0.39149335 -0.47491106 0.24079783 0.58291763 0.07888886 -0.37154582 -0.31776237 0.25618055 -0.24818362 -0.42050546 -0.15316348 -0.10720845 -0.0021855065 0.043659918 0.1400039 0.0042213905 0.044205453 0.5249647 0.5223624 -0.06482718 -0.2973168 0.114789784 0.110082544 0.47544643 0.04130258 0.013630192 0.42657056 0.18433848 -0.056669183 0.5676504 0.35515353 0.25305346 0.15989986 -0.33809036 0.00891907 0.6255498 -0.5701768 -0.037780937 0.19620582 0.23556662 0.13397469 -0.34954077 -0.22990549 -0.15787248 0.24581993 -0.17264523 -0.7125419 -0.16581507 0.2790137 0.079531536 -0.14171842 0.08659708 0.0059865513 0.18753977 -0.2035191 -0.11761062 -0.2727245 -0.0653731 0.18281795 0.07717206 0.005184278 -0.15125269 -0.046472143 -0.21995066 -0.20831454 0.26125586 -0.18988802 -0.26696077 0.13481952
1794 -0.27587083 0.15115018 -0.34865978 0.1262293 -0.19235058 -0.2765059 -0.35335892 -0.19766364 -0.32150787 0.37585458 -0.52815634 0.5482872 0.34945527 -0.47608396 0.28931922 -0.06616264 0.047038525 -0.87329465 -0.21329136 -0.015752431 -0.104046986 0.5252327 -0.21873641 -0.46861783 -0.37811917 -0.32966527 0.39734492 0.043830357 -0.026210476 -0.22419818 -0.044096533 -0.14316013 -0.24186687 -0.3026347 -0.27482557 -0.24285801 -0.16216823 0.19952758 -0.12228352 -0.12548682 0.48425117 0.17050423 -0.101806805 0.32307258 0.095714 0.03706041 -0.12576391 0.13414903 -0.18385157 -0.21597503 -0.022793286 0.27289802 -0.3931911 -0.17483018 -0.5942711 0.012411001 0.23925224 -0.5731968 -0.15284689 0.055112064 -0.57135606 0.10962244 -0.23951629 -0.15670477 0.03891302 -0.6733225 0.0950481 0.26477078 -0.24573459 -0.2651314 0.25394925 -0.029573282 0.0011368998 0.3957266 0.3634837 0.23225008 0.37551448 0.6696098 0.46472827 -0.34784696 -0.21106519 0.61521256 -0.44699356 0.33350483 -0.42911062 -0.29165712 0.15361755 0.6002398 -0.39112106 0.30322975 0.011450709 -0.30541784 -0.007193893 -0.25746807 0.35595703 0.052520074 -0.2952483 -0.09793787 0.0055930447 0.1637935
406 -0.17957698 0.3337838 -0.5752947 0.023311974 -0.10393863 -0.06538625 -0.3683309 0.32018965 -0.50143445 -0.099149406 -0.057707462 0.1263312 0.28292313 -0.1328369 0.33200443 -0.27893928 -0.15105572 -0.2615757 -0.32937926 0.32680523 -0.26485482 0.40265545 0.030947348 -0.3340386 -0.4228252 -0.5547506 0.21718475 -0.060442954 0.10796155 0.00242187 -0.12247191 -0.19585267 0.10064469 0.031486824 -0.43831477 0.041578952 0.33490306 0.4552323 -0.3872626 0.6403436 0.38952434 0.4284358 0.49379885 0.11986519 -0.17230205 0.1941651 0.021519426 -0.20215037 0.107554026 -0.47968295 0.1739752 0.30166754 -0.32016903 -0.053656764 -0.5506692 -0.10739178 0.15823975 -0.41784874 -0.4519118 -0.08064317 -0.3064221 -0.1082569 0.13638955 0.16946712 -0.1001439 0.013303408 -0.030518198 0.12827839 -0.37049842 -0.57337636 0.19835815 -0.21071362 0.37251008 0.70834017 0.28197494 -0.12570891 0.708403 0.8266737 0.62578195 -0.9478918 -0.1600346 -0.47801062 -0.3755012 0.41001365 0.13398841 -0.04533862 -0.19861148 0.1787259 -0.14396766 0.37865475 -0.21156183 -0.17901763 0.24563378 -0.36638913 0.38198885 -0.3041956 -0.1436166 0.13215424 0.3081208 -0.14827372
815 -0.31865886 0.20196155 -0.28308657 0.15616626 -0.11812961 -0.05394461 -0.28341234 0.20904514 -0.3988653 0.27232212 -0.35510343 -0.19428428 0.26283297 -0.41853765 0.17486733 0.012029824 0.15714355 -0.3891546 0.062147643 -0.17439997 0.25891572 0.29254538 -0.016923927 -0.25961956 0.36193648 -0.24163957 0.27956897 -0.010421169 0.13873635 0.18712176 0.3150251 0.11267445 -0.052241888 -0.49881226 -0.34701118 -0.115391195 0.20571522 0.22316964 -0.042503454 -0.25742266 0.20618138 0.24112363 0.20594226 0.25772566 -0.08559581 0.30293694 -0.07486389 -0.059552252 -0.04946325 -0.6922747 -0.110132314 -0.12482559 -0.52675617 -0.12371808 -0.17377262 -0.17501786 -0.17617159 0.023586106 -0.17851426 0.16212258 -0.66031533 -0.11538548 -0.43900916 0.11007828 0.00029134224 -0.12362438 0.14024675 0.3824783 -0.072388105 -0.42676625 0.0070532933 -0.1537427 0.07220958 0.4756434 0.40540913 -0.054827403 0.047571108 0.6890736 0.31230456 -0.35751307 -0.12024018 -0.007936 -0.12986824 0.55834746 -0.52885294 -0.23865634 -0.14132386 0.16960378 -0.12447028 -0.03307996 0.13044299 -0.32645112 0.35742056 -0.31837305 0.51523745 0.09288397 -0.18088858 0.19174197 0.1988761 -0.0035460996
1369 0.00546031 -0.21286577 0.2749949 -0.7135595 -0.042412918 -0.28201792 0.16547136 -0.1507659 0.40806478 -0.2335568 0.45741814 -0.22000219 -0.40309367 0.12146021 -0.22396116 0.26152784 0.448252 0.20939714 0.2915595 -0.022044921 -0.35745662 -0.038122036 0.3971599 0.14270796 0.23445196 -0.096173204 -0.3633056 -0.39236596 -0.25931177 -0.27237436 -0.26755875 0.51009756 -0.15257643 0.18356803 0.83161646 0.3463695 -0.4427404 -0.32487565 0.5561451 -0.0758754 -0.1224425 -0.058691084 -0.2654252 -0.07523711 0.27160034 0.046563905 0.28856495 0.29392767 0.19454917 0.49886087 -0.10816902 -0.11646686 0.08123474 0.08796333 0.33856222 0.20500049 -0.071731314 0.023782717 0.20256223 0.09044755 0.34368342 -0.14945616 0.4395849 0.10959822 -0.30247957 0.09963811 0.33094358 -0.64964837 -0.34002545 0.18737438 -0.13967797 0.2561878 -0.3725112 -0.59725785 -0.6187998 0.018176952 -0.082368255 -0.6194086 -0.061386704 0.6491255 0.2990016 0.017230598 0.032643016 -0.38528222 0.2557717 -0.19396834 0.063887544 -0.166499 0.03530444 0.30275312 0.066165924 -0.08336407 -0.066592775 0.38580182 -0.30861256 0.026305584 -0.009081632 -0.009581327 -0.06352584 -0.05124509
834 0.005457377 0.17817773 -0.18903922 0.32280728 -0.30106798 0.19555113 -0.42630243 0.3151363 -0.48232555 -0.12922797 -0.5841412 -0.14999509 0.0890016 -0.29203117 0.0055125235 -0.19435623 -0.2666074 -0.05057581 -0.086060666 0.18778066 0.44624576 0.22342062 -0.0498487 -0.137602 -0.075495504 0.16026546 0.4337637 0.25247028 0.30590373 0.33343786 0.30070806 0.25245273 -0.08458684 -0.43963134 -0.26610497 0.1634208 -0.09134428 0.7030377 0.022907345 0.31735533 0.27228308 0.42876852 -0.027037438 -0.08831038 -0.15019457 0.33060393 -0.41723543 0.21156329 -0.34293422 -0.48737323 0.0068609444 -0.03759681 -0.40387204 0.07286347 -0.5980062 -0.023657888 -0.05401238 0.10448631 -0.0913902 -0.20306313 -0.29781452 -0.103213675 -0.4977514 -0.19081727 -0.094087124 -0.13870275 -0.22859927 0.08886339 -0.36212838 0.007581845 0.0074170856 -0.05249565 0.5583182 0.25885433 0.22113967 -0.12306473 0.10551824 0.3823718 0.5443557 -0.60142606 -0.42252377 0.3514577 -0.11312392 0.3020514 -0.0934688 -0.013435343 -0.1883112 0.35225365 -0.04947064 0.04449378 0.1423049 0.11480804 -0.24934655 0.026993614 0.2875421 0.14908235 -0.03299111 -0.07455762 0.0046841437 -0.2671105
1990 -0.0011872543 0.21294785 -0.2462991 0.003384981 -0.17019388 -0.08494743 -0.63373005 0.41423947 -0.29431966 0.11137222 -0.9613805 0.24458103 0.03276028 -0.6775561 0.3336116 0.28554335 -0.3716156 -0.15296684 -0.15597224 -0.4258212 -0.3348066 0.4559903 -0.2394937 -0.42458734 -0.3083005 -0.34592742 -0.1093674 0.59998655 0.21519558 0.15126777 -0.07231917 0.04200441 -0.34368882 -0.36970958 0.21641788 -0.3230438 0.056797568 0.42669317 0.076925285 -0.07329729 0.23068488 0.50418645 0.5316591 -0.4509911 0.11091874 0.18915835 0.06408291 -0.43310082 -0.40937877 -0.56557816 -0.03754639 -0.30226648 0.039926022 -0.03262689 -0.43095765 -0.49948704 -0.28069538 -0.4163122 -0.10107135 0.19476905 -0.70385635 -0.4098399 -0.31238672 -0.22976398 -0.14535707 -0.09015678 0.03510194 0.6149951 0.15211287 0.5130332 -0.038637564 -0.5269239 0.7265206 0.8300778 0.04523821 0.031716187 -0.046105437 0.5349179 0.5120963 -0.31598833 -0.11156119 -0.05702799 0.3038353 0.38040692 -0.27005008 -0.26709878 0.18426602 0.26579675 -0.5166485 0.15640013 0.13215008 -0.08939193 -0.34922543 -0.023952238 0.22428228 0.49330068 -0.016889872 0.024094503 -0.18492177 0.008836364
789 0.12612881 0.5413466 -0.23818766 0.094887465 -0.08469713 0.18265678 -0.19885181 0.00841386 -0.46583357 0.1516149 -0.26146004 -0.21413486 0.16940998 -0.18826142 -0.038419332 -0.19509253 -0.15520258 0.11726831 -0.59584635 -0.20365995 0.16001716 0.48769253 -0.5504742 -0.114174746 -0.0151864225 -0.18040685 0.30043432 0.37485084 -0.016172612 0.17787956 0.15928757 0.0979099 0.08738325 -0.19933887 -0.10613299 -0.6619943 0.14933424 0.18337838 0.10835331 -0.01223143 0.3240415 0.7599052 -0.29240718 0.10493483 -0.077623285 0.02418375 -0.05641017 -0.23270655 -0.39889488 -0.7236367 0.20541622 -0.04342842 -0.39095196 -0.2679106 -0.4071544 0.105866365 -0.15039319 -0.24055855 -0.14986913 -0.066952124 -0.3794733 -0.16523641 -0.23414177 -0.09648225 0.30688122 0.07849357 -0.027601132 0.1035577 -0.10575987 -0.1572313 -0.14623432 -0.016305724 0.5761341 0.65390277 0.14469308 0.2869745 0.26734945 0.540815 0.38477612 -0.31667894 0.11585616 0.095892645 -0.281146 0.20735669 -0.22598144 -0.2844521 -0.22953716 -0.054392613 -0.3412952 -0.10102082 -0.09009615 -0.24833447 0.3341879 -0.1254372 0.5677797 0.40680608 0.089794435 -0.059186347 -0.09146538 -0.013077724
873 -0.27794746 0.21746136 -0.25063407 -0.014363425 -0.027032847 -0.24583285 -0.2052729 0.005802942 -0.113662034 -0.06044822 -0.17785044 -0.15561365 0.24673426 -0.4084538 0.005601253 -0.3699365 -0.2871661 -0.16707818 0.030529412 -0.15054756 0.11215664 0.25865448 -0.047730044 -0.5803442 -0.12913994 0.09555279 0.62597376 0.33386478 0.20192634 0.08936307 0.112438135 0.18570283 -0.11734924 -0.32981262 -0.30762416 -0.17595242 0.06174435 0.13204274 -0.09900088 0.32223776 0.47382888 0.5273857 0.21324687 0.002582362 -0.08877836 0.24412207 -0.20257676 -0.060322557 -0.10711412 -0.31372616 -0.026388332 0.036860783 -0.45225444 -0.19465545 -0.5935614 -0.18442768 -0.3303824 -0.17356639 -0.17147055 0.089911744 -0.54725593 -0.49148262 -0.15616556 -0.1873163 0.0023448684 0.28461096 -0.21151553 0.45567158 -0.23630126 0.13141605 0.04238554 0.16841277 0.20817451 0.45248207 0.09170922 0.20038825 0.12568477 0.46815613 0.3519687 -0.30711654 -0.0053567574 0.1941728 -0.149414 0.25555432 -0.31667638 0.15471098 0.04484295 0.17072527 -0.12656245 0.13466085 0.034154527 -0.12133285 0.21516332 0.05497287 0.19708689 0.24169144 0.00027454598 -0.082163915 0.012551195 -0.09531085
654 0.09646756 0.18732409 0.2846861 -0.5795561 0.11127779 0.0513575 0.16951543 -0.21489216 0.44062778 0.001393077 0.15212643 0.015445306 -0.10863972 0.5390134 -0.32067144 0.04285632 0.10545589 0.50035757 0.3743122 -0.03937584 -0.20829295 -0.105477594 0.258761 0.27045563 0.2653911 0.1710666 -0.24547896 -0.36402988 -0.4050911 -0.03674556 -0.14768751 0.19745928 0.12580322 0.095779456 0.62336105 -0.011819329 -0.448113 -0.24304661 0.33428264 -0.24231331 -0.6823079 -0.45257664 -0.4144246 0.089945205 0.017204525 0.044358324 -0.16761069 0.1275887 0.2810979 0.19895302 0.21497697 -0.2399253 0.3438539 0.33105618 0.37844828 0.15126267 0.2286219 0.47178915 0.015490884 -0.2277178 0.7246742 -0.008761553 -0.020055614 0.4216721 -0.023567893 0.05602757 0.3726645 -0.69732666 -0.06455142 0.14571217 -0.22707774 0.19217761 -0.3179014 -0.07822499 -0.15665808 0.40649793 0.13756381 -0.6575282 -0.31327698 0.4511062 0.35053867 -0.20539865 -0.040388737 -0.50360185 0.09261449 -0.15486026 -0.11469151 -0.76266706 0.21937437 -0.028147183 -0.3080967 0.028325321 0.036716726 -0.16298023 -0.16885473 0.11942628 0.27170414 -0.2847441 0.119618356 0.05660094
